encog,BasicNetwork,java,3.4.0,1,1573283650603
[BASIC]
[BASIC:PARAMS]
[BASIC:NETWORK]
beginTraining=0
connectionLimit=0
contextTargetOffset=0,0,0,0,0,0,0
contextTargetSize=0,0,0,0,0,0,0
endTraining=6
hasContext=f
inputCount=2
layerCounts=3,8,8,8,8,8,3
layerFeedCounts=2,7,7,7,7,7,2
layerContextCount=0,0,0,0,0,0,0
layerIndex=0,3,11,19,27,35,43
output=0.148646804,0.1851892525,1,0.7605658357,0.3100010312,0.0001374282,0.9999981381,0.9999996127,0.9999995437,0.9999939676,1,0.0000005445,0.0183884713,0.9996529276,0.000166926,0.9928820697,0.9999900461,0.1638699114,1,0.0000000037,0.1046806675,0.0000003312,0.0000016532,0.9999987886,0.9983890999,0.4500721398,1,0.9829546005,0.9316708398,0.9992782504,0.0648440421,0.0287688023,0.9272761257,0.4390728401,1,0.0000035698,0,0,0,0.1391935499,1,0,1,9,20,1
outputCount=2
weightIndex=0,16,72,128,184,240,261
weights=-9.2697635132,9.3171060555,-5.3324624194,5.1477757387,8.9171478882,-2.1943567408,-8.1111496817,-1.3420223482,-5.7942772217,-11.3278624992,11.6581274116,12.515654332,-0.0968346409,-15.2065935636,10.6713169078,-1.4480637223,-4.9774337459,-5.92764502,1.308330458,-2.6145272874,-4.6823092765,4.8366958575,-7.0432483487,0.9238569814,3.5853865841,5.1397760053,-10.0527459193,-0.16891315,7.5808815827,3.1804667958,-7.8422552634,-0.2675908285,10.4289335845,-0.1664210907,-4.6584636129,-2.0731547025,-9.1872169779,3.1665271143,-5.8868459248,2.6879804309,-16.5241887595,3.0211686273,11.9205475972,-0.7577837117,8.3394003376,-7.0127384203,0.9586888478,-0.2024095739,-8.4621041266,2.5592869717,0.9736454438,0.2506280018,4.1382121289,9.2821698151,-1.1602597408,0.5430342808,-15.2310971013,0.1883352568,6.7642501101,1.7688103973,-0.9215398389,2.1289505763,9.2131186058,5.1107992228,-1.3895399154,-3.2858070141,2.371680496,-8.1436457732,-1.2936486877,8.9308894762,0.3399147087,2.0072150767,2.7713906665,0.2893745741,3.9885048369,10.0553109558,-16.4254057138,0.3275114165,1.9806710825,0.7532024873,2.6543106768,3.5425420934,3.2098510322,14.4502363681,-6.3797188881,0.8012283155,4.1328559994,-0.6286421656,-1.4626272039,-10.2610779345,-0.6983747511,-0.1125893405,9.5491961657,-0.9147744417,-1.9097280386,1.2633985795,8.5475019002,-4.8635353238,9.2059282764,-4.9850856067,-3.2187606102,0.6829340662,-4.1218666053,-3.7966097459,1.3264928853,-7.9245944456,0.3536056859,-2.5989343952,-0.6959922195,7.0812713391,-0.98002335,-0.1652406185,8.712736049,-1.1295620052,-3.634477859,-4.9735093864,6.6536662981,4.274793099,1.4255095522,0.072637983,-3.8013034062,-3.8041133741,-0.8101647117,2.395198521,2.9288625377,-8.9126956888,4.5267243046,2.700628874,-7.2300644512,0.5798883589,-11.4208634616,0.338607602,2.7772924058,-4.5388548096,5.7721423132,0.1346935631,-1.6367884738,-9.3242329514,2.36193197,5.6226254182,-1.6257222028,-0.2287399882,6.3200909579,2.9088126268,-5.1418996219,-1.5326952521,-10.1175403247,0.9497360046,-0.4199169538,-2.9445333159,4.349168239,2.4431779032,-5.6112914307,-7.365728779,1.228526917,4.3357384421,-4.6574852712,-6.1909599106,6.1435554919,0.7337451579,3.4127633943,4.7420326731,7.2677863485,-2.0239524462,-4.4042620738,0.4523679119,-3.5474403671,-0.0153887171,3.1832074789,9.3576075841,-5.2580941221,-4.6365754621,1.5813975653,-0.3585308568,-0.6871876392,0.7258324733,-0.3350629188,-1.1845488451,-0.186944481,1.9128881803,0.2862503132,-0.9553835598,5.3394747009,-0.1713968531,0.1836664734,0.7346806419,0.0009755316,1.290451666,-9.3220892481,2.9105239953,2.154739935,2.4417326365,-0.6052695106,0.6290750672,-0.5238076324,5.2813251167,-14.9669418921,1.9743400681,0.590792756,2.7216068239,0.8033667126,1.337951301,-6.9460538399,-0.8127194209,-12.7503016102,4.9969323346,4.330983367,4.0109348112,0.1004116373,4.7424702803,0.6140456316,-0.825515627,7.3453918175,-1.8684444954,0.2072754561,-1.8227153059,0.4678208427,1.5040514621,4.3278024144,0.7478916882,0.2631547958,-1.9442633915,2.5745470434,-1.6116407244,-0.1801540984,1.9950512558,-0.4281709872,-0.3067195046,-5.9677220824,2.2769327788,2.5429261733,1.0993179526,0.5581404095,-2.3451340202,2.2077234039,-2.7014161691,7.645437747,-0.5570059982,-1.9659164394,-0.7521173504,-0.8088349655,-0.2215711095,-0.832050701,4.2661772942,-4.3336562738,-0.1291843699,3.624707655,-4.9574934117,0.1270385373,0.7058867826,-3.6104015065,-0.0722043326,2.1021502011,0.1056609376,-22.8545748349,0.7408633178,2.916927462,0.3689776077,1.6946293424,-2.935333294,-0.4147705121
biasActivation=1,1,1,1,1,1,1
[BASIC:ACTIVATION]
"org.encog.engine.network.activation.ActivationSigmoid"
"org.encog.engine.network.activation.ActivationSigmoid"
"org.encog.engine.network.activation.ActivationSigmoid"
"org.encog.engine.network.activation.ActivationSigmoid"
"org.encog.engine.network.activation.ActivationSigmoid"
"org.encog.engine.network.activation.ActivationSigmoid"
"org.encog.engine.network.activation.ActivationLinear"
