encog,BasicNetwork,java,3.4.0,1,1573975986422
[BASIC]
[BASIC:PARAMS]
[BASIC:NETWORK]
beginTraining=0
connectionLimit=0
contextTargetOffset=0,0,0,0,0,0,0
contextTargetSize=0,0,0,0,0,0,0
endTraining=6
hasContext=f
inputCount=2
layerCounts=2,8,8,8,8,8,3
layerFeedCounts=1,7,7,7,7,7,2
layerContextCount=0,0,0,0,0,0,0
layerIndex=0,2,10,18,26,34,42
output=0.1245359992,1,0.9999998843,0.9908568762,0.0002012035,0.3172754561,0.738836914,0.992946846,0.7659687071,1,0.1203677267,0.7354557369,0.9867497004,0.9996848757,0.8106381633,0.2093586786,0.0442217125,1,0.001884588,0.0747361237,0.0083929056,0.5271259291,0.7314027438,0.4680600224,0.9058915653,1,0.4187571816,0.8389797284,0.2340742145,0.238990466,0.3626425205,0.9995023719,0.9996410504,1,0.1816390742,0.9796758993,0.9999975897,0.9977556677,0.3634063623,0.9999989943,0.837047763,1,11,15,1
outputCount=1
weightIndex=0,8,64,120,176,232,253
weights=-9.6685413908,4.162934966,-6.1394097033,-9.171754636,3.5936359221,7.2664502171,-9.7876195163,4.1314168012,-2.5469020046,3.1637762952,5.8182786959,11.2808833498,-1.8634575576,1.34825148,-0.6890492833,-1.8073919739,1.2928462367,1.337399969,1.5631956917,-0.0658448925,0.183151682,1.7758702194,1.9503597492,1.4631819924,0.6732821399,-3.7320168098,-10.2912119758,0.4383715383,2.4316620339,-1.5621232113,-0.656073448,2.2541748732,-5.3825891812,3.9101576519,1.3121220566,4.3331025475,-11.8985863373,0.8531318084,-7.201774611,1.1646603188,-1.0404582573,0.3284297367,-1.6339472358,1.4470900438,0.3562172464,1.3590502296,-1.6420760391,0.5886102851,2.579252431,0.3662302926,3.3784324291,-1.689797092,1.8621743869,4.6144889644,2.0873745683,0.1550545083,-1.3881448771,-1.1817103097,5.3314068302,-0.8123570769,2.092209876,-5.7357239125,-1.8077753907,-2.6420517276,3.5511177915,1.407009223,-2.0013353816,-0.0542982053,-3.414192019,-0.8500111137,0.77539158,0.1372046388,0.0051469653,-1.3673936543,-2.1367856321,-1.7624857601,1.8083416657,-4.1608559132,1.8573055095,1.0140384194,3.4526433764,0.9070766309,-4.8735048992,-5.806272016,4.0724303175,-8.5672680603,5.6553677823,3.2458964458,2.2857869314,-0.5801045532,0.0848530937,-4.8206685772,4.6974410392,-5.9000470321,7.3393171863,3.318891953,-2.2918127057,0.6695911897,8.431955213,3.5359426256,-6.7628758208,8.3589130146,0.0404178358,0.4710816973,-1.6619210145,-0.7572732075,-2.0172502641,-2.2923206663,-0.785768572,-3.9927614272,2.406081085,0.2201212162,5.4170518932,1.0871449202,-3.4232251464,-0.7542742856,-4.1995130204,-1.2059370273,0.8839981305,0.0967401703,2.6894569511,1.6338290575,2.024182634,-1.7942674686,-1.5480227014,-3.045539081,-6.0169623698,0.8060702746,-0.4120947567,-1.4181249673,0.979229978,0.2576937094,0.5837456296,-1.1706066202,-1.0408367051,0.5542277062,-5.1703336437,-5.1227643486,-0.7555810226,7.867399794,0.5467159311,-0.2472226488,-1.6472905053,1.6832344945,-5.1168598061,-2.6593735146,-1.2956694319,4.1431394561,0.3302630026,3.2848654487,0.0445340238,0.3480883383,4.7123188513,-1.2136222407,3.8108974028,-5.4274314066,0.58212561,-2.968842595,2.691537017,0.5174006566,-6.236224477,-6.300111832,-1.8674662884,7.2761020256,0.1217376738,4.0044834653,-0.2005378252,2.6212303357,2.3427457902,8.3790981464,0.499832812,-2.7565478799,0.6379772371,-2.2564919885,-0.501380791,-2.6794602441,-0.792671179,8.6320644625,1.1386038822,-6.5750362279,-1.8485550948,0.6951492861,-4.8777694974,0.8407098414,-0.1905919106,9.120666793,-2.9730374836,6.035576834,0.1955550264,-2.0458119567,-8.9666220379,-0.8187880263,0.023333039,1.4527481416,2.2405034926,-3.6693601541,-0.8345256116,-0.0181127587,-2.0144854079,0.8153243677,0.1903083827,-6.5230808709,-2.0842240397,8.9183689513,3.2627597741,-1.297446251,0.1819755872,-1.6570036705,-0.3007099126,0.3669459342,-0.2738820796,0.1049858064,-1.4048596739,-0.1042081644,0.615814247,-0.6003722498,-0.0310976742,3.1123965774,-1.2025125725,4.8949561188,-2.4598092516,-0.5454416903,2.9863175113,-0.1801309691,-0.5975023991,6.640431376,0.5554521786,3.8999774004,-3.9107002352,-0.983311337,1.5599309222,-1.8128997088,-0.1926258523,-0.0271157479,1.0203387348,1.3553582716,-0.2480324164,-7.3130403505,-0.570567974,1.2705911187,0.1531309737,2.1836220602,-0.2604027425,-14.0167011797,-10.3017739608,7.6510380516,-2.0066670624,0.7675368182,0.2976659853,0.9018932457,1.4071401374,-0.9403586012,0.263261507
biasActivation=1,1,1,1,1,1,1
[BASIC:ACTIVATION]
"org.encog.engine.network.activation.ActivationSigmoid"
"org.encog.engine.network.activation.ActivationSigmoid"
"org.encog.engine.network.activation.ActivationSigmoid"
"org.encog.engine.network.activation.ActivationSigmoid"
"org.encog.engine.network.activation.ActivationSigmoid"
"org.encog.engine.network.activation.ActivationSigmoid"
"org.encog.engine.network.activation.ActivationLinear"
