encog,BasicNetwork,java,3.4.0,1,1573283943985
[BASIC]
[BASIC:PARAMS]
[BASIC:NETWORK]
beginTraining=0
connectionLimit=0
contextTargetOffset=0,0,0,0,0,0,0
contextTargetSize=0,0,0,0,0,0,0
endTraining=6
hasContext=f
inputCount=2
layerCounts=3,8,8,8,8,8,3
layerFeedCounts=2,7,7,7,7,7,2
layerContextCount=0,0,0,0,0,0,0
layerIndex=0,3,11,19,27,35,43
output=0.9166689389,0.9996897676,1,0.2977754173,0.0075097661,0.0000001988,0.7455720455,0.9983838456,0.999993425,0.8934618545,1,0.9592187224,0.9999999452,0.0072973125,0.1084874264,0.999867955,0.9970785203,0.0218943018,1,0.9995001531,0.3721318426,0.4966506832,0.6551070608,0.9999332306,0.0006027021,0.9249382232,1,0.9978587833,0.7607042098,0.9999355044,0.9980120113,0.0005798294,0.9489368308,0.1720835409,1,0.4544556627,0.9999974907,0.9999999988,1,0,0.0147956955,0,1,9,20,1
outputCount=2
weightIndex=0,16,72,128,184,240,261
weights=5.4428030913,-5.0697598559,-2.4971129613,8.1577140743,-0.7164666809,-10.0199500072,2.7776091721,2.9866067392,11.0961846666,-6.5958861463,11.1732202325,-16.5601514176,4.03883265,3.4548007708,12.1446789529,-1.1678658697,8.7850578133,-11.7974678947,3.1289071887,-4.0004123312,-4.915910986,5.6708910335,-3.3313597331,2.2577994591,-3.9624686044,-2.3740630229,-2.7168186686,4.2655198962,1.7193485535,-1.6443973752,0.6646273586,0.7539145376,-2.8275688669,-12.7094723101,14.6820870662,1.5330126557,0.3464351534,-2.6408922892,4.1053862386,1.9140914687,4.0702411847,-1.3011280273,8.8918801722,0.070200118,-2.0008406565,2.8971463596,-7.7911724111,-2.3180158605,4.8173111993,8.1121984164,-3.96034268,-1.0546546757,1.3945008023,-7.0426339712,-4.9986351697,-0.4264640712,3.1468963101,9.2550298863,-7.6788146219,-2.9241557642,2.5770054059,-2.7283830278,-4.2676916069,0.2690964944,8.1581989469,-2.0768575462,-0.5677256812,-8.6546985785,-2.0029940241,1.4154038118,-3.9115971158,-2.0018678568,-0.2520293201,-5.4262942174,1.0634204623,6.9327460672,-2.9002925099,-3.2530864149,0.7568415451,2.5612846671,14.1083374514,-7.1954092414,-0.636035739,0.5231782678,-3.2483614495,-11.9164951909,6.1384304826,2.8472522642,1.8116861497,6.6323032249,1.2056288542,-2.7252037799,-5.7783715365,1.6676258709,-3.0225425141,0.5673726966,-0.1757405631,5.5825007542,3.5186568027,-3.8816244043,-1.5699119432,3.3202564837,-2.9530151071,1.0864399581,3.4931068015,-1.1448308511,-1.3967937722,-0.1351355244,0.1136746362,-1.0039266832,6.1138272585,0.8811749401,-1.9065838213,1.7201324915,-3.047705379,0.190677981,10.1629441427,-1.1363846276,1.1950456227,-2.7799395554,-3.5293462602,3.500109714,0.2670941657,-2.5122206134,5.3269982769,0.1316699719,-4.1479294522,-1.5513339732,-2.5289414762,3.0740205309,2.5079034469,-3.9050970091,-9.7805799627,10.5266741187,0.2818128132,-0.85656626,3.692860292,2.3260680857,0.6398739013,4.17315366,6.4435560873,-10.9221818415,1.869240916,-0.7431161061,-1.410802337,1.5841355139,1.4152957719,-0.0134922574,2.7731127865,-2.1404081444,0.6694278927,0.7018930918,-0.7803221992,-0.6559831755,-5.7901342692,-0.0929522036,-0.3816142627,9.9079695556,-2.5799600822,-1.1560938965,5.7042314129,-1.2586244657,3.7273238413,6.6491895201,-10.3649468281,-3.3140995196,-0.2097025091,-2.2964652544,2.0454390225,-0.7879255348,-3.6431166697,4.3150372526,3.3166256013,-11.8176637388,-1.1732642891,1.8954498241,1.6401434975,0.6318997867,-1.7386850175,0.2188216053,-5.1636056633,3.2494811494,4.7920559262,-1.9909109347,-2.6490147474,1.0148554709,1.9866084581,2.4742553437,-0.7661302312,-5.5105008689,0.0660379663,1.9539122898,-1.297813935,-0.5775538596,1.1738844259,1.0537379983,-2.0647612006,-4.0277743512,-0.9769427336,0.1558667962,-0.3121619896,10.3752175831,-0.7029804615,0.4928970683,-1.1425229632,0.5358506754,0.6324408211,-0.3823240525,-5.0505543022,2.5496790287,2.4479896799,1.8435005223,-0.1750214374,-5.8428217334,1.302174331,1.7591806865,-8.3970278009,-5.9113131563,1.1998355925,0.7204757613,-1.2123336877,9.7101484088,1.7500085682,0.2111986839,13.9438117959,-4.9411523506,-0.2338668063,0.4390026407,0.5201548547,-6.1511631196,-0.7081292428,1.4124493786,-2.7288536706,-4.5170529847,1.5075854666,1.2076041604,-0.9797121021,-3.8930298856,-0.0821024384,1.5286629206,-0.7217089652,0.160374209,3.1052127825,-1.5321559862,1.0911745538,4.8614135819,-0.5201257253,1.2163816279,0.8901108556,0.9798218601,0.8916264248,0.7381804222,0.9350083084,-5.6839676187,0.5917739573,-6.191566262,2.1391613271,8.7423570775,-3.7016892467,-3.7730648566,0.2237516194
biasActivation=1,1,1,1,1,1,1
[BASIC:ACTIVATION]
"org.encog.engine.network.activation.ActivationSigmoid"
"org.encog.engine.network.activation.ActivationSigmoid"
"org.encog.engine.network.activation.ActivationSigmoid"
"org.encog.engine.network.activation.ActivationSigmoid"
"org.encog.engine.network.activation.ActivationSigmoid"
"org.encog.engine.network.activation.ActivationSigmoid"
"org.encog.engine.network.activation.ActivationLinear"
