encog,BasicNetwork,java,3.4.0,1,1573283961564
[BASIC]
[BASIC:PARAMS]
[BASIC:NETWORK]
beginTraining=0
connectionLimit=0
contextTargetOffset=0,0,0,0,0,0,0
contextTargetSize=0,0,0,0,0,0,0
endTraining=6
hasContext=f
inputCount=2
layerCounts=3,8,8,8,8,8,3
layerFeedCounts=2,7,7,7,7,7,2
layerContextCount=0,0,0,0,0,0,0
layerIndex=0,3,11,19,27,35,43
output=0.9528301445,0.764942925,1,0.9848054791,0.9923914443,0.0092629036,0.0000178831,0.1716194492,0.0371547447,0.3181793586,1,0.0032559995,0.1230622097,0.0000216209,0.809660481,0.9974187642,0.0511858173,0.4484813112,1,0.0078106786,0.9999997712,0.0928006803,0.0055974667,0.9739041927,0.0599395213,0.9999108876,1,0.9190389545,0.1343953794,0.9981892316,0.6512950163,0.5924702669,0.0004240593,0.9421058889,1,0.0817702885,1,0.0000000021,0,0,0.6391471273,0.9999925687,1,9,20,1
outputCount=2
weightIndex=0,16,72,128,184,240,261
weights=8.1129495698,-0.7341977422,5.1984110253,4.5220405968,-14.327724385,2.8579564515,-5.7377269319,-0.1252614569,-2.661331478,-3.723835468,-9.1935061635,-7.8162414612,3.9604370979,6.4003169153,3.9158818126,5.4182245489,-0.6107034278,2.7595447196,-0.3314635491,-1.8862075584,4.8858114347,-2.4134570991,4.145166465,-1.2475980141,-3.8741046522,0.1540165282,-0.2654360019,0.7629217817,3.5639384764,-2.1129833915,1.1112511034,0.3018431776,4.3903774486,-4.9164035898,8.9362314798,-1.8973183949,0.099114211,-2.4872758114,-9.0489226659,1.5410148673,5.2797224704,-2.571343136,12.9942218975,-0.5606132831,-2.6978037768,-3.3944844017,-5.0157836048,-5.0646892782,3.3887286733,-5.3874486299,6.5168346544,3.3669382611,-7.3028385846,2.5287750625,4.7815891357,1.3616442053,3.5599867313,4.4478753967,-1.5941422911,-2.1578142925,-2.8718287252,1.5617032963,1.5903919179,0.0045912514,-1.1918230151,-2.4004353116,0.5914686265,3.0447729778,-3.7809887242,-1.2998451465,-4.0109439259,2.7084830453,1.2323090625,-6.5573485902,0.8136530435,2.0736280977,2.4327896777,1.3199152165,-1.8966440733,0.1846685282,4.1236992349,-0.4286769357,-10.0923028381,1.9650821102,2.8231173792,-1.9203782902,-1.892892639,-1.3833203597,1.7662094414,-7.4064834192,7.8774188693,3.3466282746,3.6428481533,-6.6841179312,-6.9011382148,-0.3455252551,0.5641225116,2.5423127552,-3.8592627499,3.0174649286,-0.4631826041,0.2022544812,-0.1163544426,-0.2023442051,0.2144881085,0.4296774702,-6.4366126487,1.8951748623,4.0561475603,6.1838177402,2.6197335186,-0.8281906378,1.5219096369,0.2723329286,4.1138097803,-0.1518008162,0.7984124199,0.6867762226,-2.9747268355,-1.4291656399,8.7982691267,3.4694192612,-6.1170917028,-4.3523215538,-4.3232544004,-0.8635550402,0.3808794139,0.7284358019,-4.6536263544,-1.0210408383,-2.3727172734,-0.2329359009,5.638068919,-5.4299841485,-1.4306723934,0.0995551332,2.6290291259,-8.9254412758,8.6962898981,-5.2590405456,-0.0991973472,-4.6753673178,7.1480466581,2.1448034542,4.3951664967,4.6889595937,-2.0154020437,2.6300625653,-7.3706993228,9.662231883,-1.4300193159,-0.9405535078,-0.4931238957,2.9955854741,-2.6130784962,6.273303565,-3.3574060578,3.9850348183,-3.6588166895,-1.172179162,1.2713927057,3.6490180279,1.593799095,8.2288951278,0.3680093032,1.4274682305,-4.1505483074,-1.2980676914,3.3736721923,-3.2032446854,-1.1846386087,0.2076408574,-1.9439202904,5.5436256569,-2.2127689473,-1.1413581662,5.0060862335,-4.1188166981,6.1788828298,-1.5291829198,-0.7358783815,-0.0148692423,0.6324326527,-0.0532869496,7.9803328924,-0.983666742,-0.8538888667,-0.6387514371,0.8349242865,4.673919981,-0.1181875292,-0.1086628666,9.8786355642,-0.8809874103,-0.8597142305,1.2593261201,-0.392694428,-5.3047058713,0.6866808982,0.9143780576,-0.6752053593,1.460417363,0.4336135981,0.1405836151,-2.7288119706,11.0640847533,-1.5460781771,-0.6185253373,5.7185540878,2.3139447284,-1.0456897604,2.6290199708,-5.319218951,-8.8490950656,1.5061853755,1.9928834313,-9.1922159348,2.7690756927,1.2402474307,-0.5179181632,-2.8258554907,-3.9263849504,0.4373247148,0.428977445,13.0088914553,-7.2945670944,-1.1439807243,0.4985473356,0.9976662973,0.4372787782,-0.2028429561,-1.6110307803,-6.6790875725,1.8905993947,-0.6706829468,-0.8382249852,2.0807984292,4.222413997,-0.5294807884,-0.7242133918,1.045904378,0.2520175529,-16.8720240923,-4.1605647425,6.468465823,0.3742607824,-2.394400509,0.0346829717,0.8721110184,1.1532019516,-3.3191336157,-0.3311321992,2.3669551626,-2.8896097233,0.7800947107,-0.9429117121,0.4495355407,0.0671589486,0.780944412,0.2817083546,-0.8528612794
biasActivation=1,1,1,1,1,1,1
[BASIC:ACTIVATION]
"org.encog.engine.network.activation.ActivationSigmoid"
"org.encog.engine.network.activation.ActivationSigmoid"
"org.encog.engine.network.activation.ActivationSigmoid"
"org.encog.engine.network.activation.ActivationSigmoid"
"org.encog.engine.network.activation.ActivationSigmoid"
"org.encog.engine.network.activation.ActivationSigmoid"
"org.encog.engine.network.activation.ActivationLinear"
