encog,BasicNetwork,java,3.4.0,1,1573285215936
[BASIC]
[BASIC:PARAMS]
[BASIC:NETWORK]
beginTraining=0
connectionLimit=0
contextTargetOffset=0,0,0,0,0,0,0
contextTargetSize=0,0,0,0,0,0,0
endTraining=6
hasContext=f
inputCount=2
layerCounts=3,8,8,8,8,8,3
layerFeedCounts=2,7,7,7,7,7,2
layerContextCount=0,0,0,0,0,0,0
layerIndex=0,3,11,19,27,35,43
output=0.4257399253,0.4299021013,1,0.0429208787,0.0025498882,0.028997148,0.0036481729,0.0004263804,0.9999997134,0.9846866549,1,0.9999804426,0.0872406211,0.9985738347,0.2751105429,0.0005296887,0.6493694154,0.9737324962,1,0.5925691987,0.6029683606,0.0413872801,0.5202261284,0.9988567405,0.2210886923,0.8244392523,1,0.006694318,0.9498796336,0.6725919018,0.8886158873,0.0195828054,0.3349825325,0.5895101518,1,1,0.1539029803,0,0,0.7338061282,1,0.0000006817,1,9,20,1
outputCount=2
weightIndex=0,16,72,128,184,240,261
weights=8.0069681767,-3.3383137602,-2.999435461,8.7017999393,-7.4924010473,11.006777659,-8.3100555115,-3.3999572377,-0.656646048,11.3652616137,-11.1441850801,3.0487762961,0.067272478,6.1749133192,-1.4650571904,-4.703337756,-4.3787952269,6.5678254048,-2.926248892,-0.5343937827,-3.6760808563,4.8371149882,1.8134499589,-1.1346488207,1.7347847061,-4.0868721563,7.0177803435,-0.5581098804,-2.0441878704,-13.6205217836,-2.8755546902,-2.5557379506,2.3813157221,6.0243402578,5.2501349219,2.5249365433,4.3689756215,-4.5818588675,-4.964504464,-4.5481481442,1.6027541104,-1.3301879633,-0.9059135041,2.2347319943,-0.4872379942,-5.8578141103,-4.0459906866,0.9371289127,-0.4540237698,4.2280739478,-9.9691581073,2.1898590354,0.4336910351,0.4186149387,1.0080823524,0.4242220528,14.9228130045,-2.1614584313,2.403982531,0.2208103666,-0.5960176625,-0.8599881917,-1.9683376756,0.3452630013,-2.571336806,0.1829462729,-0.9008751811,3.2863026522,0.5265339119,4.4758942224,5.5543648674,-1.6008344378,-3.8123074542,-3.6506410924,-0.7221844205,1.0890854806,10.8050625415,-0.2198685307,1.40321009,2.8647727196,4.5914783143,4.5747871818,-0.7272700397,-0.9774703888,2.1671584167,-0.353824972,-7.0344612334,-3.5753855551,0.6594390845,-1.2180534637,-9.5808600868,-4.9175441836,3.121574467,-5.3817848664,7.7480997305,1.5337925184,-1.1824759138,1.0067426549,2.4682791781,3.2028191401,-0.3142589096,-2.1973787459,-2.5361922786,0.2471247838,0.2991629389,0.2590265162,2.5295148937,1.1190124794,-4.6996779943,0.8426951235,-3.3013875866,-1.3331919078,9.6010199338,4.0807205788,10.6572301201,-5.5371528783,-4.4564122781,0.8014772662,0.0323541503,-0.8466018424,5.6666720822,5.2697256625,-1.9434765574,1.9149017727,-5.2061375578,-0.3108365747,1.5663772225,0.1392093146,-1.0922227658,-3.9932457726,-4.4797229266,2.4093437669,-7.9317077144,2.8989683614,3.5804437737,2.1205686556,-4.1956497681,-2.2165056544,-2.7219022662,3.6325935592,-4.6136268572,2.0731425868,1.691569586,-0.4472178233,-5.011251891,-7.3768496022,-3.889687064,1.0727591241,1.5088504412,8.6480404791,2.1131805889,1.3888223294,1.9308945113,-1.1110496853,-1.3244914733,0.4348859241,4.3493883428,8.7675494188,-1.225651008,-0.6718335912,1.4992738649,6.4986633339,4.1669761176,0.0035314623,0.9840989257,-6.7227817355,0.3008858891,-0.160701353,-2.3004970812,-1.5052831455,-0.6868029583,-2.3149845213,2.5483316404,1.250767356,1.4963733041,1.3539589995,4.9471917476,1.3358680847,3.0553666354,-0.5169713533,-5.686161262,-4.460457533,-0.6360420868,0.6295400949,2.2899994519,-4.8985695774,-0.4297187016,0.1228087814,-6.8625267835,-2.3308720303,0.1222465673,0.8307618127,5.6850130764,-6.6002425629,-1.6828280654,0.8060397267,1.3229764063,-2.5079781718,0.5742592813,-0.1901386548,2.6864763578,-5.7866966267,-1.2387117325,0.3615462146,1.1362448287,-2.0954826347,-0.3949746402,0.1857443444,0.7621656914,1.1449959997,0.5240943394,0.7162946259,0.3253342693,3.2050358664,-0.2014316887,-2.3054716313,-2.8911592021,6.7401358259,-0.72846504,0.3697161782,10.8809044289,-5.3164190368,0.9242594194,-4.7275500184,-2.6062706367,8.1273455719,2.2656606304,-0.4848261136,-7.931992251,5.6605299235,0.9016955162,0.8297269968,-1.759272718,2.0185521883,-0.5996610159,-0.3713441219,2.7398838721,0.33936654,-0.7811252798,-0.5393573203,-1.7655306731,2.5721228046,-2.2620297172,0.3659107114,0.2261750043,-9.5210081166,1.9917352893,-5.9760119065,-0.3909421107,-0.701372977,-1.4813454475,0.6158855406,0.7765494566,0.3625760972,-13.2264470739,-5.4167745534,6.9109747282,0.9868362094,-1.5489868858,-0.0045094752,-0.1675927041
biasActivation=1,1,1,1,1,1,1
[BASIC:ACTIVATION]
"org.encog.engine.network.activation.ActivationSigmoid"
"org.encog.engine.network.activation.ActivationSigmoid"
"org.encog.engine.network.activation.ActivationSigmoid"
"org.encog.engine.network.activation.ActivationSigmoid"
"org.encog.engine.network.activation.ActivationSigmoid"
"org.encog.engine.network.activation.ActivationSigmoid"
"org.encog.engine.network.activation.ActivationLinear"
