encog,BasicNetwork,java,3.4.0,1,1573977820342
[BASIC]
[BASIC:PARAMS]
[BASIC:NETWORK]
beginTraining=0
connectionLimit=0
contextTargetOffset=0,0,0,0,0,0,0
contextTargetSize=0,0,0,0,0,0,0
endTraining=6
hasContext=f
inputCount=2
layerCounts=2,8,8,8,8,8,3
layerFeedCounts=1,7,7,7,7,7,2
layerContextCount=0,0,0,0,0,0,0
layerIndex=0,2,10,18,26,34,42
output=0.9166755426,1,0.9999746371,0.0022327142,0.2691464758,0.002564604,0.8303310094,0.7833476732,0.0886533959,1,0.491710738,0.5381039746,0.3719342051,0.0015018742,0.8973158595,0.5621598961,0.4908047066,1,0.3628126229,0.8705007611,0.4865660724,0.8828254979,0.9109948464,0.5551839248,0.8492807519,1,0.3462542749,0.479672146,0.0930096357,0.9999963558,0.0059859028,0.6797042373,0.0919990882,1,0.9998037808,0.6532365579,0.5702058352,0.9830518452,0.9999550735,0.000000546,0.999506077,1,11,15,1
outputCount=1
weightIndex=0,8,64,120,176,232,253
weights=11.2884432812,-4.9062241814,10.9655206039,-9.7919705455,-6.9562825174,-5.9482784393,-3.4127503069,-1.0672709401,-0.8849478699,-3.7785956448,2.8620901236,2.0014501374,13.6614471297,-3.8440579107,-1.7444804175,2.7416392228,-1.9384087323,1.5112029846,-1.3011680777,0.3377610873,-6.0867873988,2.6308066847,0.9534637303,-1.9640360518,-0.7965676109,-4.0279450268,2.3551934584,1.7791553178,7.7301799245,-4.8386677566,-4.6845179206,-1.2355969452,-0.0527775735,-0.7435929233,-0.2926492371,9.9257309436,0.1292905274,-1.1137016538,-2.1477378684,-3.8791788174,4.3649156375,-0.0103990006,-5.227792325,-0.1291770958,3.2680014546,-1.7655302875,-1.0460598834,-0.0346244491,3.786125807,0.1684979624,-4.5938605402,0.0961239462,2.463705711,-1.4145503832,-0.9878040025,0.1107042436,1.78502083,-0.203248838,-1.6523169792,2.1247801647,-0.4082688256,-1.2833080516,-0.897701054,-0.9588054889,-0.8873103354,3.6304540846,-1.2684736979,-4.2666669507,0.980783769,-0.7558591429,-0.0014538362,1.0397595018,1.7557786374,2.4178268884,-1.8657712185,-0.1767343862,-2.8414884567,-2.6210070912,1.4727255,1.2677847115,1.5969965792,-5.2626128391,1.7437113762,2.2688595704,0.9504091614,2.3402556341,-0.1779850273,-1.3875987688,1.4263378591,-0.3445771059,-0.4749951042,2.0068259946,-0.7873049143,5.4702996328,-10.1380875396,-1.967346959,-0.3266698513,0.3972014154,1.4883012119,6.3100961583,6.4408735306,6.5589225562,-15.1499369657,-0.9968257004,2.1389357265,2.4471957295,-3.3767486894,0.2850411614,-4.1175400968,-3.2505783552,1.8790448484,2.6948736892,1.854218378,1.7160356604,-2.2469720744,0.4680309492,-3.4377292161,-2.8216303677,2.8343706617,0.7678821929,-1.981193616,-0.1510009208,-2.0932270933,-0.225025243,0.5333271993,-1.2685723937,0.4361979228,1.4338969249,-4.9393739959,4.7912172817,2.4252847416,1.3665729425,0.2305265537,-1.4836513379,-0.6573395217,0.7928555311,0.8851699336,-2.3589503962,1.472500022,3.0109230608,-1.8340921732,0.8227376069,2.6190257546,-3.1657760216,-0.7861157444,-6.2981390515,2.3035386463,2.8848943711,-3.1698596992,0.8244290402,0.5530018572,1.6212968188,4.355182584,-5.1648544661,4.8682201658,3.3317325882,-2.6085240242,1.3190660033,1.8823983905,-1.5433719428,1.6539517139,-7.7690324644,5.2485940039,3.6579384349,-2.4651170723,-1.149313329,-0.3817941624,0.0605180798,-0.5578880195,11.3457778391,-9.0235037988,-6.2194870106,4.1883359529,2.2463037766,-2.4097685081,2.2084289882,7.2778178206,-6.2237669627,-3.1071704209,3.3412411519,-1.8222993538,-0.7853722771,-0.5112593812,-3.0260045407,-6.5192745143,-3.9683773463,5.064358752,14.083013709,-1.6584242516,-0.8295832757,-2.0394235121,-4.0063649284,9.6613950587,1.0416937504,3.4844960472,-9.1104843396,-1.5637303269,-0.6335711317,-1.1684531366,-2.9166655829,7.4124029125,-0.1958346924,-0.9815523408,6.2899086893,-2.0821318577,-0.1050048003,3.3682293515,-1.6688038901,-2.7767425584,0.3468094071,-1.2507228208,2.6398381057,0.3853544703,-0.1680785316,-5.6424720904,0.8097247145,2.1035088334,-0.9220335426,-0.9312812978,2.6260267112,-1.0773731541,0.0751360183,0.1144436512,-1.835937924,3.7282857387,-1.0017085424,-1.7935854725,-0.9317518721,-3.801837758,-0.6758118378,0.5879450875,-0.2099823181,2.906339457,-0.78383138,-11.6761814959,-1.1660419791,0.2833663501,9.2092630214,-0.446634663,0.1143686532,3.480142497,0.3305496553,-0.6669257703,10.4283432411,-0.1848217899,0.817124406,-0.2133885228,-0.925432882,-0.2525675869,-0.4523774217,1.443116923,-0.6190757592,1.0244871944
biasActivation=1,1,1,1,1,1,1
[BASIC:ACTIVATION]
"org.encog.engine.network.activation.ActivationSigmoid"
"org.encog.engine.network.activation.ActivationSigmoid"
"org.encog.engine.network.activation.ActivationSigmoid"
"org.encog.engine.network.activation.ActivationSigmoid"
"org.encog.engine.network.activation.ActivationSigmoid"
"org.encog.engine.network.activation.ActivationSigmoid"
"org.encog.engine.network.activation.ActivationLinear"
