encog,BasicNetwork,java,3.4.0,1,1573285721201
[BASIC]
[BASIC:PARAMS]
[BASIC:NETWORK]
beginTraining=0
connectionLimit=0
contextTargetOffset=0,0,0,0,0,0,0
contextTargetSize=0,0,0,0,0,0,0
endTraining=6
hasContext=f
inputCount=2
layerCounts=3,8,8,8,8,8,3
layerFeedCounts=2,7,7,7,7,7,2
layerContextCount=0,0,0,0,0,0,0
layerIndex=0,3,11,19,27,35,43
output=0.7680565534,0.6306881055,1,0.6303135602,0.9864956955,0.4304064843,0.999983544,0.00280871,0.999853875,0.0000224046,1,0.8754619209,0.8957075052,0.0172679266,0.9999608233,0.8876284509,0.0000219124,0.6365814821,1,0.0000087223,0.997941839,0.0000507117,0.4684994411,0.5968679681,0.0671991885,0.8040119582,1,0.9995619758,0.0392052884,0.9916571576,0.0018244828,0.6630471757,0.4146102485,0.968031416,1,1,1,0.0000002465,0.6777015138,0.999999996,0.8248000698,1,1,9,20,1
outputCount=2
weightIndex=0,16,72,128,184,240,261
weights=-10.7183555256,9.8034688111,-0.1050704647,5.809636526,-3.0311569592,-2.8934428939,3.3915751969,-4.580645332,7.775395453,-8.7792363935,-20.3837258815,-1.4692241169,-3.0672325856,10.8887508202,0.8250202771,3.658836161,-0.2680109898,-4.1625662987,-0.5511899953,-7.0201256439,12.1445156264,-3.1160750938,3.3145609794,-1.3637314106,-3.2386041218,3.0086352268,-0.8797176202,0.2623140234,6.6011799953,-6.0067077741,-1.8153024347,-0.5192205758,8.9104513278,4.4177146795,-6.4367103506,-9.4738846894,-2.3881478216,-4.3591219604,-5.5690548351,3.2117688944,0.41801997,7.4907957765,-1.5642735706,5.7618748766,-2.8747592802,2.3888692085,-1.2181831309,1.5317808463,0.5462727341,-2.9323154485,0.7294743091,-2.7424788009,-2.7845329583,-1.4975954858,3.822611105,-0.9559264386,6.6921602811,3.4965112872,-10.8207559313,1.7358321835,-0.4500264527,-5.7716021999,-1.0762833831,-0.6238684376,-1.0575754846,0.0509979749,-0.7489335899,-2.9393690526,-3.224014398,-0.3205975243,-2.9984051882,-2.1033827212,-1.2066350257,6.4442610593,3.9407745487,-7.4150456802,-1.4561694024,2.2441719329,-1.3961978797,0.8337919681,-8.9912358281,2.9265368875,2.6796586608,-4.5298794344,-0.1797928429,1.5584478022,0.3120138471,1.1038127242,4.425473157,-10.0509954111,2.9972311687,1.4436214492,5.3904697476,0.770809003,0.8401688286,1.3675944596,-6.7132982606,-2.0375454681,-12.1277171925,5.6091353456,3.9072908783,4.0597511518,3.7409578784,3.9408148265,3.1004925949,5.1152810312,6.8630135766,1.9638652529,1.0630005988,-13.6225648329,-0.9675440087,-2.8995841034,0.3237111623,-8.6767451698,-2.6683904498,1.2852235984,-2.3608834979,7.5978859637,-1.2989324441,-0.7286230858,4.3268642276,-1.6402635483,-2.0327361701,-0.4882396118,4.9721250456,-1.435155955,1.2848204493,-1.4780215991,-0.6963117059,5.1728404691,-11.0137297782,-1.1462936612,-0.292515694,-0.5204982173,2.2253498362,-1.9769361636,4.1811580224,4.8463795306,3.9261417257,-0.9422384679,-9.2302300263,-9.6862104754,2.4063527773,5.7295393989,2.1452307047,6.9208814268,-3.2652671568,-1.432856916,-11.0753944986,-10.443845215,-0.5476172222,3.1394553767,0.2552178642,4.1745770579,-5.4800638866,-0.7535360897,5.786885717,4.0453318794,-0.589659457,-0.0526269272,2.0827102574,-2.0063303943,-4.5860589909,0.3377625127,-1.9450175284,3.8052008184,3.8943028962,-1.1213698621,-3.9376947421,-4.9505262304,-1.3941269913,2.3075884957,9.4644225279,10.9133073527,-6.0676163325,-2.0486723851,0.2074655572,-2.4032249745,0.0122295931,-0.3203723708,-1.6965792529,0.3259611881,2.6299306006,-0.2692283182,1.40629645,0.5551354974,0.6015978715,-0.2952973453,1.2765693662,1.7423886801,2.8866610618,0.3711368418,-1.4041421813,-0.8965925396,-0.9351393625,-4.6700245775,2.6798769214,1.2696751943,-3.494518524,2.0340819816,-0.7717036317,4.5467587485,0.973908753,8.9869272818,-1.3582626037,-0.0610768455,-4.5935926744,0.9146953468,0.4370492082,-2.8045037292,-0.7092992358,2.343053747,-1.5777391732,-0.6357167112,-1.3584796829,-2.064510925,-2.5528058729,-6.632706966,0.6546699348,5.5774342878,-1.6126938471,11.1260662596,0.785246045,-2.2667522055,2.9322049145,-7.5647420345,0.1825000725,9.0473787015,-5.4859655723,8.2865712485,2.5252245805,-5.7178476907,4.8153227852,-1.4804322312,0.1145501228,-2.2620130004,-0.898173267,-2.2776886612,5.5183891995,-1.1329882448,-3.1402421004,6.3971059025,0.6402691368,-7.2897029605,9.0158209898,1.6768710173,-1.1917500761,-0.2187037822,-0.1158771605,-1.2264761404,0.3183303282,5.4149075534,0.067358778,0.8970623615,0.7821314017,2.8641490918,-0.3455918918,-17.3162907526,-1.8405969573,2.5590772383,-1.479872231
biasActivation=1,1,1,1,1,1,1
[BASIC:ACTIVATION]
"org.encog.engine.network.activation.ActivationSigmoid"
"org.encog.engine.network.activation.ActivationSigmoid"
"org.encog.engine.network.activation.ActivationSigmoid"
"org.encog.engine.network.activation.ActivationSigmoid"
"org.encog.engine.network.activation.ActivationSigmoid"
"org.encog.engine.network.activation.ActivationSigmoid"
"org.encog.engine.network.activation.ActivationLinear"
