encog,BasicNetwork,java,3.4.0,1,1573285891373
[BASIC]
[BASIC:PARAMS]
[BASIC:NETWORK]
beginTraining=0
connectionLimit=0
contextTargetOffset=0,0,0,0,0,0,0
contextTargetSize=0,0,0,0,0,0,0
endTraining=6
hasContext=f
inputCount=2
layerCounts=3,8,8,8,8,8,3
layerFeedCounts=2,7,7,7,7,7,2
layerContextCount=0,0,0,0,0,0,0
layerIndex=0,3,11,19,27,35,43
output=0.0551544403,0.0004523789,1,0.9957629929,0.0000004851,0.0026717561,0.8676552492,0.775262621,0.9999944087,0.061973902,1,0.9999999939,0.0000000044,0.9999999666,0.557890441,0.9775380732,0.9999999764,0.2837246573,1,0.2311054468,0.0000027591,0.9999999516,0.9999982359,0.938655021,0.3759321276,0.0003257995,1,0.802464188,0.1431876564,0.0826313188,0.9978100666,0.075628723,0.9998087935,0.0040321036,1,0,0.0000000208,0,0.0000000019,1,0.1232421701,0.9714481414,1,9,20,1
outputCount=2
weightIndex=0,16,72,128,184,240,261
weights=6.221763949,1.108453289,6.5860224453,7.1103454577,9.4260312206,-16.3561126067,7.2453769253,-6.6238646581,4.5732923491,-4.5366239549,-3.3411993304,-19.8301902619,0.1816437483,0.0179113289,6.7605990734,4.382531019,-1.2454818222,-1.0934342378,2.7961215915,1.4657690698,1.1648773752,4.3772963397,-1.3092342004,-2.053272305,-4.8177822111,2.8780094533,-3.7007802299,0.1152999673,-1.4933276892,-3.2941624283,-0.1886921662,-1.2771559571,-2.5683031679,8.9730593705,1.1537158825,-0.4598545589,-2.3594836647,-1.4971379338,-1.6710028427,0.0265194717,4.3658458402,-14.0468610443,5.5007413791,5.6814056888,2.4986949685,-7.143192587,4.5930992146,-7.7583572289,-1.5137963902,-3.0168265052,-2.1121845945,-3.39242432,8.4959733187,3.6446694939,-4.094752214,-4.0311732877,0.36280457,-6.5388773233,-3.1590423395,-2.6065065831,11.4878750483,8.8473514598,-6.9287638989,-1.7666513057,-8.6456226033,0.8330700361,-0.6326394084,-7.7187049281,7.5159524653,1.4999748944,3.5116790433,1.0239347376,-0.243285792,-9.6175240991,1.0805667363,11.3253485207,4.7267343346,-0.8204020951,-1.3688960182,2.4405571201,1.6643760628,-2.3785190806,-8.5793958075,-10.7468926592,-0.0790934141,3.8086763917,3.9811350999,-1.6664768425,-5.2428535281,-11.5946714414,1.0987738342,2.2208700556,13.1168747209,0.1845921502,-1.4443253698,2.7269625106,5.512589685,10.8767740403,-2.651768769,6.4174802149,-0.6379262407,-7.8588566154,-3.9849815041,-1.2526272247,-13.7244416526,-3.1169067193,2.8027061056,1.144415978,5.321900913,-7.4807728518,1.6310931138,0.8141998305,-1.9847834928,-4.5779270961,11.618230869,0.2434132368,3.1723756098,4.5037273243,-11.829791013,1.4937487166,5.921785675,5.8521031364,-4.7248758245,-3.0124969928,5.3396024422,3.3963415813,7.6078281108,-0.8485833814,-1.7087938822,-0.54753091,10.8462359632,-1.9334839377,0.6988689151,-0.7922087333,1.4547303927,2.0139138368,-7.9244863707,-1.6112408465,12.6325780619,-2.1093159693,0.577396611,-7.1337885995,1.7944651063,1.9315806716,-2.4814781902,-1.0119586972,-3.0753538111,6.0908446872,-0.7514701472,10.9040031984,-5.769094208,2.3338792279,1.4642860066,-0.6044348165,-2.6484514104,0.5473997803,0.0765224867,11.0339198582,-6.0772968341,0.8189366377,7.2253051225,1.2667178775,-14.068560512,-0.1435847254,-0.5255436787,-1.0196095399,1.4254384262,-0.8923050184,-0.3034883402,0.6303035859,11.6495669077,0.1201467188,0.3600786859,-1.0857638926,3.5777076078,-0.3921680593,4.8570270697,-0.1181873038,4.5464683947,0.1089939408,-0.4069323881,-10.1545500295,8.3702891052,-2.2443714154,0.7805424754,0.2029377711,-0.9527898372,0.8748135724,4.2964388108,-6.0151647224,-7.9153465128,5.5359991294,1.3115937968,0.9050275507,0.7002699973,0.7994437616,-1.2048572478,-0.3782093857,-1.7729885227,1.1847721049,-5.1805479314,0.4207966868,-0.001157969,0.0359175433,-4.2574135132,17.5630188115,3.4654650623,-3.6807313128,2.1012900803,0.58539936,0.130514491,0.4057140917,3.0797657146,-5.4520942406,1.1560315904,2.5908292653,-0.3562824054,-0.1307100608,-0.6725184832,-0.837494078,-1.3049177769,-0.1581310126,0.0658498156,-1.2428411521,0.2193852698,-0.7136302552,-0.7130907363,0.2113078479,6.5423524807,-17.1059324568,-0.4625860538,4.5771634642,3.9775913398,-0.6289105083,0.2817280828,-0.1473858088,-3.9287053631,9.3437297641,-1.8654459855,-0.9200789182,8.0678649765,-9.3355145084,-0.4539235911,-0.9842451603,-0.4542314471,0.2523999032,-0.9441447082,-2.791928095,-0.873338061,-0.6948879261,-0.6475338292,-0.8531135658,0.0461560531,2.9395230596,-0.0508194075,2.2705855001,0.1082488586,-24.562326211,-0.6853527067,0.4861885799,-0.0285313859
biasActivation=1,1,1,1,1,1,1
[BASIC:ACTIVATION]
"org.encog.engine.network.activation.ActivationSigmoid"
"org.encog.engine.network.activation.ActivationSigmoid"
"org.encog.engine.network.activation.ActivationSigmoid"
"org.encog.engine.network.activation.ActivationSigmoid"
"org.encog.engine.network.activation.ActivationSigmoid"
"org.encog.engine.network.activation.ActivationSigmoid"
"org.encog.engine.network.activation.ActivationLinear"
