encog,BasicNetwork,java,3.4.0,1,1573285910799
[BASIC]
[BASIC:PARAMS]
[BASIC:NETWORK]
beginTraining=0
connectionLimit=0
contextTargetOffset=0,0,0,0,0,0,0
contextTargetSize=0,0,0,0,0,0,0
endTraining=6
hasContext=f
inputCount=2
layerCounts=3,8,8,8,8,8,3
layerFeedCounts=2,7,7,7,7,7,2
layerContextCount=0,0,0,0,0,0,0
layerIndex=0,3,11,19,27,35,43
output=0.4827859165,0.3729282228,1,0.9994581212,0.9998904319,0.823647788,0.0000187475,0.8949873042,0.3666591382,0.4874706333,1,0.2731856728,0.0004210347,0.0068475018,0.2182886057,0.9732982404,0.4294588488,0.8514379837,1,0.9304134184,0.5928072791,0.2377237192,0.8961980338,0.1017587773,0.8570879084,0.9795515056,1,0.0930501379,0.9997028702,0.1116607909,0.9904149131,0.0048211762,0.8151841066,0.9991088692,1,0.1345828507,0.0000001701,0,0.9866087215,1,1,0,1,9,20,1
outputCount=2
weightIndex=0,16,72,128,184,240,261
weights=6.8276156935,-2.288654624,-7.8176717031,-12.9666759188,3.9759851152,-4.0112723208,-7.2808376027,3.2963634164,-4.5778418277,11.9698477719,-4.380935966,-0.4084357434,-0.9393809155,-14.1706309663,5.4582261517,-0.9286938613,-1.5245969369,-4.0102855514,0.6773459486,2.7085347967,5.0487484113,-0.541420683,1.5625620301,1.3303876161,-3.5564752626,-2.65063776,-3.5659171595,-0.0623696903,-1.6958157767,-2.2054821481,11.3057008012,3.1011762091,-6.8493229994,-3.1353506038,-2.2670278809,1.2710796459,3.417057027,-4.5039461066,0.55263305,1.2896892224,2.8864398136,6.3294330812,-0.5861297831,-3.1452689167,-5.9925148679,2.9197809668,-5.7032507419,-1.5504977831,-0.6831023968,-0.666888619,0.6820797976,1.0507084346,0.3904196045,-0.6350401533,1.9637012177,0.3163537204,-7.8572394847,2.2362921985,-1.3862063008,2.9433853503,3.2848960624,-6.7003086991,-1.21996719,1.6850018461,-1.7459441783,-3.7087404201,3.2610445731,-0.9297595541,2.6502610177,-2.1647233975,-4.9933448396,3.210715086,-6.1739074047,7.9907908181,-2.3436766027,1.0236527515,0.2149173241,-4.2161298358,2.7318803568,0.5842265627,-7.9491401209,2.8768756877,4.7435261645,-3.2426408176,0.6184386986,-3.854548319,1.661260188,1.3100444928,-0.4826257492,1.5312502045,-2.3304990872,0.3003548781,0.3680690971,-5.914674063,0.3167743559,-0.4292131189,1.2236116099,-1.3082445718,-0.438012912,-0.9337181588,0.7040028811,0.2157832421,-3.3041362125,2.2823150577,4.3836878793,0.8284068446,-2.8637339899,-0.8478634989,0.8598289744,6.0249390389,-5.7073835894,0.806143191,-6.0829837548,6.6138798003,-1.6179844226,2.2338706464,0.2113294889,-2.1784574099,2.4667582803,-0.7331748721,1.7337406784,-1.1261164277,-2.5931999565,-1.7941147583,1.6908335007,9.4983917645,-4.6872197628,-0.696894847,-2.2867451853,-4.3136875382,-0.4944063992,1.9517085609,-2.1668870501,9.2994093596,-2.9046116101,0.5721890351,-1.6865443931,-3.7635820047,-4.504496265,4.2025269935,1.5731187549,-6.9945160918,2.7539252164,3.5784728527,-1.0248988418,3.8645924967,2.8170435511,-1.4799539818,0.4270318491,-2.8436380905,-0.608403779,-0.8581705645,1.0623133253,-0.0565075041,-4.5610109288,0.4515309219,0.102737968,0.5553735903,1.3009884033,0.4223458428,-1.4119842469,-0.6595766901,0.5663167111,0.090764123,-0.286997304,-0.9594571107,-1.3181504372,0.5602966004,-11.8503863252,-5.2977766178,0.900407265,1.8592640049,-1.4100499408,6.4010806004,-1.106644802,2.1426079461,3.3268027717,4.4702660021,-4.8223796495,-1.6325574606,0.8184885881,-4.2236864259,4.5508172332,0.138442443,-20.08635792,0.7779352636,1.2824245242,-0.3729814592,-1.5221353163,0.4190158116,-0.1551931141,1.897436737,-4.0152400744,-0.8171864791,-4.0439679948,11.0810509089,0.2338791885,-2.2276982004,-0.0724265826,-0.277415721,7.7936385535,0.3221849758,-3.8313808442,-2.289919359,2.1191924221,-3.6321813323,-0.4671291127,0.6494651335,0.5153990959,-0.407881664,-0.3238417969,0.5598424422,0.9386564184,1.4762385137,-1.395210429,1.601311336,-0.8079780897,0.6836082684,0.1653473141,0.0016827733,0.1864216757,-4.6914341309,-0.8001641091,-0.7178124209,-3.7873934871,-0.6141394793,-2.072665011,-6.7349902912,6.3780179327,0.3670004609,0.5555132624,1.8935539101,-10.7860492555,-0.5105487552,0.3504409831,2.8348173258,2.4276024473,0.5485828341,0.0750300762,2.7007043296,0.2837802399,-0.383837365,3.2616934959,-0.8891927845,-0.4010565636,0.4368469129,2.991558912,-3.6759873591,0.8038273093,2.5310331941,-0.8268823618,-1.9419816151,-3.9682069812,3.6729530902,-0.0009312947,-1.5914788963,3.0595134737,-1.3838026081,0.2461789632,-2.1896513818,-0.472819393
biasActivation=1,1,1,1,1,1,1
[BASIC:ACTIVATION]
"org.encog.engine.network.activation.ActivationSigmoid"
"org.encog.engine.network.activation.ActivationSigmoid"
"org.encog.engine.network.activation.ActivationSigmoid"
"org.encog.engine.network.activation.ActivationSigmoid"
"org.encog.engine.network.activation.ActivationSigmoid"
"org.encog.engine.network.activation.ActivationSigmoid"
"org.encog.engine.network.activation.ActivationLinear"
