encog,BasicNetwork,java,3.4.0,1,1573978391302
[BASIC]
[BASIC:PARAMS]
[BASIC:NETWORK]
beginTraining=0
connectionLimit=0
contextTargetOffset=0,0,0,0,0,0,0
contextTargetSize=0,0,0,0,0,0,0
endTraining=6
hasContext=f
inputCount=2
layerCounts=2,8,8,8,8,8,3
layerFeedCounts=1,7,7,7,7,7,2
layerContextCount=0,0,0,0,0,0,0
layerIndex=0,2,10,18,26,34,42
output=0.0370806622,1,0.5703996041,0.6561986321,0.0000050825,0.9999951047,0.9997740711,0.0003075047,0.0009389109,1,0.9665826432,0.0084225781,0.0176569319,0.9597312027,0.9999999115,0.0166641569,0.9940287995,1,0.803925244,0.8366833262,0.7366442122,0.0781822059,0.272056278,0.8035916452,0.1511936012,1,0.2028947313,0.0376339666,0.6255642709,0.1079921414,0.978704919,0.9441358091,0.9843411153,1,0.989892566,0.6869536197,0.9048976787,0.0000070005,1,0.0000000009,0,1,11,15,1
outputCount=1
weightIndex=0,8,64,120,176,232,253
weights=7.7955507285,4.2057268238,5.4748056171,-6.0969880778,-4.3481759474,8.6734497895,3.0462751053,-0.024648619,-0.1959464229,-0.2363804412,-4.6185472136,0.4623328489,2.1681210723,3.1177146842,-1.3903905908,-0.7252815106,-0.7606902868,-1.0372536578,-3.4426060679,1.0767790829,1.6018040519,0.6053479117,-0.7999502463,-0.398944721,-0.7779502979,0.7573517275,1.9476297284,-2.5395640579,-6.3353482135,1.5659183233,-2.3315077307,-0.4143761225,1.3535080436,-1.8496954492,-1.9428030115,2.6774822528,6.2430977879,-1.0067643878,2.3756422823,-0.1886127306,0.4026454098,-0.4430758533,-0.8864430679,1.7663756164,4.9210841709,-0.3307150544,0.5718949644,0.8459594114,-1.6607142644,4.0972132491,6.5497137837,-6.1088176161,4.9555798475,3.2229317809,-3.9492938105,-1.8524040772,-1.4628061884,-0.1235164461,0.0839667407,-1.1683260212,-3.4081084781,-0.8325956804,-0.1060564396,-0.9076850187,1.4596097131,0.9985181247,0.5414022558,-0.7606737185,0.2187421195,0.3933156009,-0.3300797509,0.6908117721,-2.3483889851,-1.1475836565,1.8664672579,1.8188271522,-0.6960236715,-2.2858721251,0.6962383944,-1.5164114249,-3.8657678271,0.7546532397,1.3822295362,5.8815789727,1.7271535021,-4.1871860904,-0.5890882304,-0.0365046251,1.7637862919,1.4218886607,-2.479557549,0.4056912256,-0.6990739227,3.6100711375,-1.1933581125,-0.1721200822,8.0254186488,2.7497099218,4.4307228864,-8.1973141986,-4.0138935173,5.4626955711,2.5399329578,1.1834223611,-2.4099999717,-0.0975238685,2.9579555682,4.1429885284,-0.2267643209,-4.053395901,2.6342886418,-1.6408228611,1.3721665613,2.1743292673,0.7829058729,-2.0508219278,-0.3554737656,2.2004918043,-1.1577891589,0.2795508632,-5.1830074693,2.4347357139,5.3596203231,1.1301422137,-1.5238135621,-1.7984189844,2.1327561858,-0.0138910331,-0.6469443965,0.7318537916,0.3796700146,-0.0429122013,0.0010325648,-1.7814328976,2.2915751622,0.9298121507,1.1196709572,-0.3959931307,3.4204479715,0.5149963876,1.2542777055,-3.3460363414,-0.949439393,1.4871181504,7.5427130797,-1.3242929598,-7.3606789166,0.7607191167,2.4608621365,2.2800413066,-4.1120567302,0.0611221849,1.1754016527,-1.7723222655,-4.0123545653,-0.2852513526,1.0130302074,1.129891899,-0.8130861969,0.1269176105,-6.559739956,2.9651327875,3.6628119533,1.5809611891,-1.4267842709,-1.4609099582,3.1765272547,-0.1849015954,-0.5180858464,-0.439281289,1.1785205075,0.9257236432,0.7144071078,-2.5074202839,-2.4475143214,1.6365081073,4.3205205594,8.647783111,-4.0825232182,-1.8405759078,-6.7020186342,-2.162149623,1.1017275505,-1.1894792612,-3.7884521055,-0.1464331086,1.6256449982,0.6952361969,-1.0444879182,-0.2833723703,0.0104166599,0.1827061362,-4.8286696454,-4.5643803336,8.3967727964,0.8039237537,0.3301791552,-1.096818137,-0.963927318,0.5002106891,-0.8748071213,-0.6687667919,0.3311341079,0.2298013867,-1.0857033876,0.2086134749,-0.0523075902,0.0000196445,-1.1270597495,3.4455715219,-0.2340223251,-0.6227400472,0.1185576549,0.166168453,-0.5786606527,2.6696872828,1.3280052592,4.7232327977,-0.2707414146,0.3827150608,0.5762852946,0.0091076929,0.7914121927,-2.0631726592,8.2806704135,-4.0066112004,2.9731619314,1.1411160361,-3.4302920202,-3.155148959,-0.9447344706,-0.5638072788,2.2823864265,-1.4276953874,0.893505348,-0.5113955177,-0.2648842048,10.3845291864,1.0325432942,-0.5247911062,-1.2332411469,0.2756322874,-1.0415443894,0.7216852071,7.7137889096,-2.9839147386,-0.9076360724,3.2292371102,-3.7073966996,-0.7110435961,0.3557756976,-1.9998026626,0.8562894066
biasActivation=1,1,1,1,1,1,1
[BASIC:ACTIVATION]
"org.encog.engine.network.activation.ActivationSigmoid"
"org.encog.engine.network.activation.ActivationSigmoid"
"org.encog.engine.network.activation.ActivationSigmoid"
"org.encog.engine.network.activation.ActivationSigmoid"
"org.encog.engine.network.activation.ActivationSigmoid"
"org.encog.engine.network.activation.ActivationSigmoid"
"org.encog.engine.network.activation.ActivationLinear"
