encog,BasicNetwork,java,3.4.0,1,1573972483165
[BASIC]
[BASIC:PARAMS]
[BASIC:NETWORK]
beginTraining=0
connectionLimit=0
contextTargetOffset=0,0,0,0,0,0,0
contextTargetSize=0,0,0,0,0,0,0
endTraining=6
hasContext=f
inputCount=2
layerCounts=2,8,8,8,8,8,3
layerFeedCounts=1,7,7,7,7,7,2
layerContextCount=0,0,0,0,0,0,0
layerIndex=0,2,10,18,26,34,42
output=0.0003353331,1,0.189319502,0.0519889658,0.0238674249,0.519001938,0.9891619562,0.2025732905,0.2077695955,1,0.8324805812,0.1909735895,0.358290935,0.6753984426,0.2731676527,0.7173109745,0.8244592158,1,0.838226252,0.6474983384,0.8172171298,0.5859313775,0.4603732539,0.1130978085,0.9975908224,1,0.8192018775,0.9696879977,0.108126479,0.9693977552,0.3391451818,0.0306598996,0.2767411043,1,0.2095706395,0.2155966494,0.4567604956,0.9999999999,0.0002480901,0.9999999942,0.0012946871,1,11,15,1
outputCount=1
weightIndex=0,8,64,120,176,232,253
weights=-0.5047730398,0.2548046651,8.2765517477,-0.3081946674,-9.4125404527,4.4977759551,4.4879246664,-0.4883775845,-0.8871699013,0.5258876695,-0.9748409572,-0.8046186653,-0.3549772849,-0.5748494326,0.5270175114,0.1512076632,-0.1038652144,-0.295654783,-0.2010563998,-0.2061582486,-0.8500227838,-0.7714582313,-0.9845352991,-0.951847583,-1.1093569384,4.316023223,3.0193258402,-0.3561240092,1.8161268041,-0.255602757,-5.0863437658,-0.5723611123,0.8718282837,-0.3712210845,0.7573705129,-0.1370487678,-0.6463601141,-0.0116455896,0.406450969,-0.9078228447,-0.081444375,-4.0323575529,-1.9382909776,0.8734336322,-3.3637007672,1.6984714605,5.5684586916,0.5657815272,-0.1372712329,2.0158807025,1.3900219109,-0.9832502991,2.2568851934,-1.5527234653,-1.5368461048,0.2894054377,0.2600722738,2.8001725984,0.9656962178,-0.5122173571,1.5301905291,-0.8857125585,-2.246325053,-0.0203998629,0.3445996832,0.7729131805,0.6265765265,0.1656339378,0.2286799951,-0.0368094273,-0.7342142263,0.8362292111,-4.1759249933,0.0474154294,0.0978946112,2.0291709369,-4.2439314807,0.0041079179,2.2595562583,0.456231412,-2.9063511171,0.8650440328,-0.7680722959,0.6336773658,-1.6987796469,0.50925139,2.2074826891,0.0719789341,1.2845196075,-0.3677159763,-1.1033811221,0.4678204306,0.3601611982,-0.6905646165,-0.0258733314,0.4597768208,-3.5035696673,-0.1044743631,0.9693886377,0.1730940581,-1.8136001826,-0.8453552242,2.0269137208,0.0407089991,2.3327511361,-0.0720073698,0.7109733741,-0.9940029755,-0.2419190766,-0.0568138555,0.0312407417,-0.8895555399,4.8643844964,-0.4778779474,-0.441224031,-2.6155807131,4.7667723707,1.3438538812,-2.3187000262,-0.3614142602,-4.6159685969,-0.1544866171,-4.3959317977,4.8496667484,-0.3100971447,-6.1976668721,1.4609555682,1.2412451791,0.3623308298,0.245763321,-0.0885734642,0.0569829114,0.5895308229,-0.6534059403,-0.0682189233,-0.1337611143,0.586156006,-0.1086522174,0.0026567533,0.1753971429,0.6010577687,-0.6082419824,0.0876243401,0.7430212011,-0.2061759541,-1.9607166599,-1.549465224,3.1626743276,-0.2430152226,-1.6034379986,0.4125096199,-0.4635767474,-1.0402391397,3.5460539168,5.4088994269,-4.2562206388,1.8913850555,-2.1464499753,3.9188939123,-0.8642779081,-1.5508440751,-0.8919453265,-0.9112766504,0.3724915922,0.7483896638,-1.0255259272,0.0463272675,-0.4218689085,0.8186074302,1.923166547,-1.268829169,2.383577408,0.2277736832,-2.8263937771,-1.4104712128,1.7168848919,4.3547890879,2.9460701682,-2.095142016,-1.4593934606,-1.3298519397,2.2141900084,3.6402550312,0.1609491941,4.8123846053,1.8495787322,-3.0778466003,-0.226209593,-3.9540756055,3.2594679279,-1.1464525007,0.4331788083,4.3458509569,3.8581637261,-4.7156910857,-0.6603490161,-2.5369192071,-1.0875966762,0.7901386476,0.048900863,-4.7096714319,-2.1281969567,3.1109216997,-0.0623895197,-2.2232014663,3.4209752838,-0.6066209346,0.1232476861,0.6057138636,1.9063248509,-0.6890576613,0.5372448053,0.7584571659,-0.5341091406,-0.3521433376,-0.893176587,6.679902518,-1.3491193159,-3.5218082673,0.0445185294,-2.7828158637,-2.6429185399,-1.3542148023,-0.3532392123,-1.7503824677,-0.5431960467,-3.8630712625,-0.3093257906,-4.6317887224,1.1621766147,1.7211701975,0.4338234558,-0.9771045799,-0.044517993,10.088404846,5.4721208745,-4.0206027401,-1.1758025856,0.2612052248,-0.594739075,5.8744375275,-0.9150585986,2.2362706445,-0.1623428657,-2.2635784836,0.9592174278,2.2096312853,3.316833335,-1.1637359809,-0.0658544641,1.712468281,-1.837993091,2.084554542
biasActivation=1,1,1,1,1,1,1
[BASIC:ACTIVATION]
"org.encog.engine.network.activation.ActivationSigmoid"
"org.encog.engine.network.activation.ActivationSigmoid"
"org.encog.engine.network.activation.ActivationSigmoid"
"org.encog.engine.network.activation.ActivationSigmoid"
"org.encog.engine.network.activation.ActivationSigmoid"
"org.encog.engine.network.activation.ActivationSigmoid"
"org.encog.engine.network.activation.ActivationLinear"
