encog,BasicNetwork,java,3.4.0,1,1573978860256
[BASIC]
[BASIC:PARAMS]
[BASIC:NETWORK]
beginTraining=0
connectionLimit=0
contextTargetOffset=0,0,0,0,0,0,0
contextTargetSize=0,0,0,0,0,0,0
endTraining=6
hasContext=f
inputCount=2
layerCounts=2,8,8,8,8,8,3
layerFeedCounts=1,7,7,7,7,7,2
layerContextCount=0,0,0,0,0,0,0
layerIndex=0,2,10,18,26,34,42
output=0.0000000016,1,0.1234074553,0.2400557518,0.0286759939,0.107145559,0.4834424166,0.9119333533,0.981565103,1,0.6548371919,0.8616739947,0.2002167171,0.48006571,0.3133298837,0.6585696838,0.2860192136,1,0.3638781368,0.1400107068,0.8495200533,0.2132664393,0.0420115401,0.0724437507,0.9108127928,1,0.3322501626,0.3650660428,0.1655358956,0.9939865279,0.6443719219,0.628619246,0.0055264478,1,0,0.3424119543,1,0.1268929942,0.0260047907,0.1253085399,0.0139509985,1,11,15,1
outputCount=1
weightIndex=0,8,64,120,176,232,253
weights=6.4306613807,0.1652006094,10.6405828246,6.4437480868,-1.3056790031,-7.925045585,-13.0481973137,-1.4196287835,-2.6448281021,0.4414603991,0.6902636474,2.3678232395,3.8622904442,-3.8118819839,0.1643818121,-0.630724421,-0.3575246151,-0.4673189398,0.3547295164,0.3101258422,-0.1924201386,-0.127796037,-0.9463057757,-0.3203652378,-4.7262360712,0.2398870765,2.5127624995,3.2572070908,5.586746785,-6.5220104521,0.3056784427,-0.2438858293,-3.3848022154,-0.1026594666,1.7385526074,1.9206720847,3.9497731684,-3.1442826139,-0.6872565826,-0.0557021996,0.121934568,0.300780801,0.5718193232,-1.2436296187,-1.4428688175,-0.1990653977,0.4449033858,0.5332007426,2.4153871742,1.1034264735,-0.6392660569,-3.0772128429,-4.7350626726,4.7805420391,-0.7848290344,-0.0299573393,5.6287447241,0.4678918832,-2.3315499692,-4.519750834,-7.6148144191,6.6043795608,0.3206460469,0.4672077406,-0.5277390202,0.1353496535,5.3069572404,0.2710281204,-2.6919289826,4.9727743815,-3.7700128903,-0.5660934559,-0.7344399401,-0.4885087712,0.434721291,-0.5173076913,0.8050100593,0.4605412867,0.9341955162,0.987866479,0.7957701872,-1.0229313309,-2.6913588041,-0.667483709,2.1346209653,-1.6955566314,1.3322080018,-0.2828056379,0.3432606349,-0.216500686,-3.8835050749,0.4304951192,2.2704868093,-4.6174147214,3.5566844154,0.0325757311,-1.1471209497,-0.0205238201,-7.3261848231,1.419193145,3.6530145473,-6.6200661526,5.8109221881,0.5902144094,0.9558198105,0.5135905934,6.9187425022,-0.7200935691,-3.2585185363,5.2807669147,-6.2260866187,-0.0616859284,-0.3155909679,-0.3658683666,-0.5244620813,-0.9787977076,0.5758037894,-0.1689913758,-0.6741283377,0.507607515,-0.530984659,0.7670369677,-0.1584881942,-0.5895507628,-1.2380420423,0.2888736129,-0.9424764004,0.5714470223,-0.3921780712,-0.6950750273,0.5108670923,0.5531670107,-0.8569439005,-0.8952935813,-0.2684645336,-0.9490859038,0.202813336,2.0216969427,7.7514293012,6.0095014358,-7.2405140987,-1.1331063282,-3.6908845531,-0.9328252969,-0.8240187003,0.1579803678,-1.0339301987,-0.4950650313,-0.0733094385,-0.5000062873,0.9333123418,-0.0696055379,-0.106927141,-2.2497600138,6.1801366611,-9.9692120601,6.9559397399,1.719647687,3.7342842568,1.0323209649,2.9439389826,0.9589698712,5.9836365073,1.6824569787,-7.6245171065,-1.8146118668,-2.6041383504,-0.4726844512,-2.0792571119,0.0700354403,-5.8391672496,-1.6481696269,6.601946709,1.8887542797,2.9272529413,0.1361222141,-0.6978775526,0.4626580757,0.0735973878,1.5227331581,-1.7456153092,1.4419454341,3.5948866175,-1.308712609,-0.7270666284,-1.6682448449,0.7488008424,-1.772946078,-3.1068028744,-0.7727832853,-0.176594985,-0.3259503609,-0.5128079561,-8.6755656855,0.3952396883,4.3647182312,-2.7096014261,3.4539673187,1.1123377678,0.0260566772,0.8987828061,-3.4325632056,4.1862758605,-12.0892880944,-7.0195327949,0.8166543388,-1.4697687637,3.7315545891,2.7076338136,2.816134642,0.2304148543,-0.5143476871,3.9336486199,-7.7222488718,-12.1306959087,0.4995700576,1.3597072961,-1.0643668328,-0.19345145,1.2506265077,0.8610026843,-1.3685076361,-1.7108225415,1.0984687307,-0.1487838921,-2.9434694871,-2.0471124251,5.1481887065,3.7115836414,2.4003871636,1.1788075208,-3.2046992767,-7.4691997661,2.7099410323,-0.5866045461,-0.228521337,0.109360592,0.2207617196,0.0621195544,2.2229444818,0.8111445992,0.1630246764,-0.4498936167,3.0264188556,-1.8324399296,1.0297219153,1.0878848919,-0.0055937809,0.7698925118,-13.4299482795,-1.7840632692,0.1901776936,12.5138755918
biasActivation=1,1,1,1,1,1,1
[BASIC:ACTIVATION]
"org.encog.engine.network.activation.ActivationSigmoid"
"org.encog.engine.network.activation.ActivationSigmoid"
"org.encog.engine.network.activation.ActivationSigmoid"
"org.encog.engine.network.activation.ActivationSigmoid"
"org.encog.engine.network.activation.ActivationSigmoid"
"org.encog.engine.network.activation.ActivationSigmoid"
"org.encog.engine.network.activation.ActivationLinear"
