encog,BasicNetwork,java,3.4.0,1,1573286618418
[BASIC]
[BASIC:PARAMS]
[BASIC:NETWORK]
beginTraining=0
connectionLimit=0
contextTargetOffset=0,0,0,0,0,0,0
contextTargetSize=0,0,0,0,0,0,0
endTraining=6
hasContext=f
inputCount=2
layerCounts=3,8,8,8,8,8,3
layerFeedCounts=2,7,7,7,7,7,2
layerContextCount=0,0,0,0,0,0,0
layerIndex=0,3,11,19,27,35,43
output=0.0126243912,0.0088088852,1,0.4046130395,0.0019182348,0.000087678,0.7409170032,0.0000446415,0.2408679962,0.1284861357,1,0.2293251115,0.9648077287,0.410076975,0.0391380605,0.3416868216,0.5474391181,0.9759497287,1,0.7051130191,0.9796269748,0.8596242465,0.7729386766,0.0862556468,0.380033521,0.0003469379,1,0.0970555966,0.8098124133,0.1085598487,0.8677278906,0.1699913086,0.8051207003,0.740243469,1,0.8768514514,0.0000603767,1,0.0000000091,0.486752972,0,0.0110179852,1,9,20,1
outputCount=2
weightIndex=0,16,72,128,184,240,261
weights=-4.5499275501,8.88213124,4.3836351134,4.0281440171,4.0328750183,-9.871863906,1.7996822558,-3.3740006848,2.7826996438,1.1163681081,10.2612566889,-9.3554418954,-1.6876389252,2.7555891299,8.3433902586,-0.6561660739,-3.4586674437,1.2442792278,-3.4816212603,1.4207297531,1.4501419923,0.2838296234,0.9301797906,-0.9801657676,0.3710797999,-0.8772591052,-0.0039067505,5.6701549901,-3.8918350417,-2.0961757826,-3.5275290043,0.2065501985,-2.1259961713,-2.6432478287,1.1357528757,-4.6771772465,-1.5958676124,0.3865238666,-7.3919827069,0.9612204448,2.6240986476,1.0467381113,0.456583651,4.2353342984,-8.369227525,3.9835112521,2.3248328824,-2.5039249514,3.1292069879,-4.6883303492,1.6224119187,-5.3869961412,0.6629166233,1.152017419,-7.9711639338,0.2567387901,-3.8646371696,3.7758808129,-6.0933140688,5.343229218,-2.3612443004,-1.9629845642,2.8675750494,-2.5322515916,0.9525242646,-3.060616471,2.8561850539,-3.9593385841,5.1512852169,-2.3422427125,-2.8112906725,2.0695504113,2.0393761841,0.4773622801,-3.3226736451,-2.8027231129,4.0638120452,0.8119821202,-0.429955907,1.2458723532,-3.8260468447,3.5858649133,0.4236413326,1.3836599968,-2.1388504255,1.1577431749,2.3846037847,0.8061105036,5.7369576296,-2.1466957179,1.0442495618,-3.0142824531,2.7931700281,0.375836998,-0.4190969945,-1.2573083561,-6.4670057325,3.423879431,-2.5222997853,-1.0516885551,-2.8397417669,1.1936047592,3.9194389283,0.7762049131,2.2552239025,-4.7424054005,5.5397751239,-0.9081093072,-2.1385094298,1.0553043685,4.7424642998,-1.8786357326,2.2630759265,1.1414407641,-1.4490869564,-0.6181725723,2.4211407826,-0.1880516882,-4.2221879636,-0.9360080145,-4.8767982083,4.6379292629,-0.65520962,1.1778743511,-2.9466638353,1.5808955396,6.9321267006,1.9022956065,3.0179705653,-0.4962004741,4.7389000474,4.4955141012,-4.0430436585,-5.7028229284,4.2329351694,-1.2893124795,-4.0980387129,4.4639305704,0.1561191484,0.5034138668,-0.2911736556,4.0913872602,-1.3305762759,-2.0576363786,-3.6271424656,-1.2510143157,5.2260807401,2.6609250006,-0.2528052289,-2.9023617875,3.6591335899,-0.0279308799,-3.1020955579,-0.4122516488,-1.945017298,0.0174279063,-0.1094178624,0.9715980239,2.1728426155,-0.3161562244,4.6738040344,-1.544272807,2.2709544424,2.1134330622,-2.2793258281,-4.6895957825,0.2233611603,0.3541124395,-0.5554382177,-0.1635378782,0.1833892906,0.7002037123,0.1633964963,0.992827215,-1.2574431611,-0.8268652002,1.95216632,-1.0258829771,-1.3482647522,-3.2656860443,5.5783757258,0.9309953163,-5.0407488905,-2.3110769163,-4.207170292,2.0198254112,2.7599689531,2.656804173,-0.5148872223,2.9644543857,1.1563045455,-1.063521819,2.4094628955,-3.2424936124,0.0133046149,1.6762313093,-2.9838594753,0.2856704446,-1.7959496699,0.795132067,-3.6216484332,-3.7946697891,0.7192714399,6.996188008,-0.8231874433,-1.606744631,-4.0348993919,0.7962140067,-1.4974411151,-3.6328326728,0.4335023229,0.8155703034,1.9262756726,2.4080607358,-5.4375339825,1.8830576234,2.4109345269,1.0008975871,0.4058544885,5.8603197062,-1.3565109548,0.9139363497,3.7118170611,-3.4862462808,7.0755450189,-1.4441798388,-0.2073402654,2.9307720962,-3.8090076109,-0.1935788045,1.4156537279,-2.7397145492,-1.2827118963,-2.7107548547,-1.6817027898,-2.8429255,0.5026089038,3.1432407538,-3.7000201593,3.6499690308,0.0333791755,-0.3239080512,8.1406947008,0.4237304127,-0.8316500471,3.1045807743,-3.2622545235,5.7739572616,0.3786608135,5.3752463925,-3.3745714135,0.5937867482,0.8084621136,-0.2218662455,-2.8918346276,3.1897478227,-4.5343607202,1.5667191181,-3.283067729,0.9048377332,6.9537077036
biasActivation=1,1,1,1,1,1,1
[BASIC:ACTIVATION]
"org.encog.engine.network.activation.ActivationSigmoid"
"org.encog.engine.network.activation.ActivationSigmoid"
"org.encog.engine.network.activation.ActivationSigmoid"
"org.encog.engine.network.activation.ActivationSigmoid"
"org.encog.engine.network.activation.ActivationSigmoid"
"org.encog.engine.network.activation.ActivationSigmoid"
"org.encog.engine.network.activation.ActivationLinear"
