encog,BasicNetwork,java,3.4.0,1,1573286783390
[BASIC]
[BASIC:PARAMS]
[BASIC:NETWORK]
beginTraining=0
connectionLimit=0
contextTargetOffset=0,0,0,0,0,0,0
contextTargetSize=0,0,0,0,0,0,0
endTraining=6
hasContext=f
inputCount=2
layerCounts=3,8,8,8,8,8,3
layerFeedCounts=2,7,7,7,7,7,2
layerContextCount=0,0,0,0,0,0,0
layerIndex=0,3,11,19,27,35,43
output=0.2886593724,0.2323251219,1,0.0056477194,0.6361642498,0.0000311142,0.9999034298,0.1879185386,0.4625303407,0.0885141025,1,0.4948856299,0.0002405268,0.0964082649,0.9986781453,0.999829714,0.1118925632,0.41085213,1,0.1476026593,0.4369119424,0.9983739151,0.9939633471,0.3525068193,0.00009254,0.0344431701,1,0.2850360464,0.8162913957,0.7580030597,0.1791687303,0.4147607315,0.975131968,0.9979304103,1,1,1,0,1,0.9999994821,0.6726573846,0.1976773984,1,9,20,1
outputCount=2
weightIndex=0,16,72,128,184,240,261
weights=-8.2563442005,6.2520630443,7.6635323404,-3.2018839526,-6.6043771174,6.0961657505,3.408511485,-3.5115552873,-3.1281121787,-3.6120381173,3.0762837759,5.5715248119,-7.2615068087,-6.9958573582,20.0614524703,-1.6261482213,-1.0724660448,4.7783422175,0.2460672894,-4.5518150375,1.7525089993,0.2170738715,-5.2986946702,0.2813147203,-0.5436424982,0.2732469515,4.2474996318,-1.8846983559,3.7403099531,-2.8223204071,1.4691104924,-1.7270211608,-0.4871170249,-3.913904079,-7.7820175646,0.0322380216,-10.2921734933,4.4509743481,2.6240129036,-0.7034424432,6.9508817319,-2.927266796,-10.2895260529,-0.4872159567,1.8342647634,3.4950919599,8.4645890111,1.5818018563,-1.9450826271,2.6712176722,0.6551833545,2.9139997987,-4.8867273674,-4.7944128358,3.1399460249,0.6573466985,9.2845667664,4.3429640215,0.4209723265,-6.55226189,4.2254467168,-2.636410056,1.5811575798,-2.8223423493,8.4644032444,0.6670263832,5.7724487697,-7.5423448171,3.0987969963,3.2552417732,-4.5958206179,-1.1194270089,0.8711786342,-3.856716766,3.8552270666,0.8276621856,-3.5495326411,-6.5662215075,5.8955938168,-2.0868457209,1.6523667039,0.7616539019,-4.1423250725,-4.1078015985,2.5492587786,2.8219544719,-4.3071476242,-1.4410548094,8.8134665855,1.6985569811,0.0929056179,-3.554918304,5.2030003645,-0.4251805686,-6.4752999538,-2.4511165952,-0.0770690368,-0.4429298942,2.2710346106,3.1796876267,-1.3873111011,-11.1166549384,5.2867395569,1.7124323102,6.0767613384,3.6404472999,0.8051195392,2.820960092,0.4178406656,0.3775198742,-14.8324849466,2.9461699506,-4.2257708602,1.7666553291,-2.8715244393,-0.2318577081,-3.6157671745,-1.0274036954,0.0197686291,2.1516185639,-1.9085521583,2.7187197075,-0.4983934404,-0.2414974384,3.739863738,-2.6928174509,9.3157637123,-2.1678976689,5.6547792529,-0.2145991128,-2.3856082407,-2.5695945058,1.5600880919,-7.9571306573,4.7342203088,1.4662867507,2.4413027725,-2.0174311657,-2.3891263437,2.4100790574,-1.451956495,1.1308155182,1.1795113599,0.3988522527,-3.1425730695,2.1663385542,5.0644792163,-3.4596179544,-0.1455588473,0.9768608112,0.0781728822,1.3580931512,-2.5704796855,-1.2194934608,2.176144624,-1.0048055827,-1.771871624,3.5476691868,2.3052478203,0.3374776972,1.5293865364,4.7478244177,1.952903789,-2.8565546234,3.7882467065,-7.0420025534,-0.7605848725,0.1665980181,4.4051382153,2.5017868905,-2.4961986449,-1.2415486157,4.9912362005,-7.4742556801,-6.8975107735,1.6304383027,-3.6062028276,-1.0509640182,1.9367013642,8.5349270382,-2.038335981,7.9309597321,-14.2347389747,2.8721470982,-0.978330304,-1.7416579334,-0.3508284095,1.3215951125,-0.179774289,-2.474525296,7.3444521808,0.8712263589,2.5393420203,0.1509642909,-0.8401685979,0.1465121459,0.9358637428,-4.949308732,0.5013210125,0.9488280818,-2.1042584393,3.4894326726,-0.7026927089,0.9083855028,0.7477398253,-0.3863850265,-6.0290069777,-0.4478336789,-1.4306333677,-0.008607813,0.5071669063,-2.8032716403,-1.3634753899,8.9172212345,4.1667167166,-2.73790251,0.512538627,-2.2905691593,0.3090857779,0.3565885772,1.2011234635,-3.734721457,3.8053175401,1.6359628433,0.9329671429,2.4183304247,-0.6306225433,-1.6645641135,-0.2941481737,8.5476569315,-10.8349284499,-1.3314198317,-1.4626478866,-2.0807878076,0.1029498909,-0.528221669,-0.5495789131,11.7417758711,13.1525404278,0.3014169267,-2.2160217951,5.047868336,0.1759025703,-0.8130493783,4.7434906712,-0.9138849781,-0.8513081205,-0.9546250109,-0.0597317216,2.9540844678,0.0788761351,-0.3046697924,0.8035058532,0.3175838748,0.8902735734,0.7292278848,-0.2984914678,0.1270071296,0.5875021871,-0.1072840266,-4.5427135243
biasActivation=1,1,1,1,1,1,1
[BASIC:ACTIVATION]
"org.encog.engine.network.activation.ActivationSigmoid"
"org.encog.engine.network.activation.ActivationSigmoid"
"org.encog.engine.network.activation.ActivationSigmoid"
"org.encog.engine.network.activation.ActivationSigmoid"
"org.encog.engine.network.activation.ActivationSigmoid"
"org.encog.engine.network.activation.ActivationSigmoid"
"org.encog.engine.network.activation.ActivationLinear"
