encog,BasicNetwork,java,3.4.0,1,1573286931903
[BASIC]
[BASIC:PARAMS]
[BASIC:NETWORK]
beginTraining=0
connectionLimit=0
contextTargetOffset=0,0,0,0,0,0,0
contextTargetSize=0,0,0,0,0,0,0
endTraining=6
hasContext=f
inputCount=2
layerCounts=3,8,8,8,8,8,3
layerFeedCounts=2,7,7,7,7,7,2
layerContextCount=0,0,0,0,0,0,0
layerIndex=0,3,11,19,27,35,43
output=0.6716417092,0.7464788147,1,0.0289418555,0.0000117781,0.5434870498,0.0000951356,0.0084718558,0.9996140082,0.6661347404,1,0.0076714396,0.0000503356,0.9969442255,0.9954910344,0.9010055259,0.3123106713,0.999992267,1,0.0000967474,0.7556055304,0.9984029434,0.9993043475,0.0504213005,0.8066911748,0.9243631016,1,0.4533374932,0.90180748,0.9970349102,0.9939439372,0.9313925812,0.9991885174,0.999572365,1,0.9999998763,0,0.5179209821,0.0000383895,0.1862545284,1,0.9999998133,1,9,20,1
outputCount=2
weightIndex=0,16,72,128,184,240,261
weights=3.0249085263,-10.6782639444,12.2253256418,3.2839049687,0.7079906242,-5.2425720293,7.3835922023,-5.7003364422,6.8240126319,5.5375398293,5.0434319714,-7.310362665,6.2063897638,5.4931424569,-13.5182577357,1.6033898691,-1.0470329345,-1.6636173027,-10.8551541393,0.2406439477,6.4092423939,-1.1944805258,1.2266503806,0.4490881263,0.9276867572,5.62931285,-3.45288131,-2.9550356801,8.4549706746,0.0561675899,-11.528439392,-1.0797834447,-4.4432182162,-4.4653776521,3.2166826453,1.0230104746,-8.5053364129,-2.2110709203,3.3435433875,0.9938271337,0.6768809613,2.1154343914,-5.7640416365,0.6173571566,3.3945008596,1.0125734955,-7.1592945527,-0.3490196524,1.5197913335,-3.1605737777,0.826921624,-1.2189368638,-2.2896609324,2.8989526525,-3.0753473088,-0.1520048292,0.480118213,-5.1348287343,1.4429097972,-0.1515461308,2.0992196282,2.7655610949,2.1396112153,1.6735284795,6.2224203852,-1.6778894164,-7.5219926444,3.0683335299,5.2940230976,4.6639934226,-3.6809517779,2.5419769438,-0.5504120594,-1.9152766879,-0.5738185575,-0.7880220565,7.2795595573,-0.4548418024,-1.6412602642,-0.5379346183,9.9583002165,-1.4689954337,-3.7186563796,-2.9784766261,2.1302010423,-0.2800585867,-1.1511211592,-0.9160407806,-1.7585411628,-2.6599118601,2.0612650054,0.5569104861,-12.7642280139,-1.8344290782,6.3115141252,1.4724558378,-0.5464096922,0.0589755995,1.6036385773,1.834185718,1.6843916077,0.4776554344,0.4077364409,1.071525518,4.0070716351,10.114865399,-4.2880280146,-3.9911044673,7.8797697932,6.7870684693,-2.0500045013,-1.1427086704,-3.3138190518,-1.5198015198,-0.4424735904,-0.8941959952,1.7860315902,1.2843406667,1.0876722289,-0.4368312196,-5.5574893671,0.976426499,3.0747871422,1.4763870263,-10.5024265045,3.8010267512,2.5901847704,1.5565388838,1.7099099141,-11.456488512,-1.7163114502,1.1843070817,0.1195197195,-4.7972834941,5.12965331,0.4017687696,-3.536342826,-2.2765850909,-4.79298469,4.2580714907,0.983994468,5.3274471234,2.067756332,-2.9750583978,0.1213461567,1.8291488948,2.3218135169,-1.6302244166,-1.2069311267,2.9837204062,0.6177607571,1.5641971839,-0.9953085255,1.1037420996,0.6316051127,-0.4238759426,-0.4118002526,4.0096126698,0.9585992326,1.9363881994,4.8112656487,-6.7567741982,-4.944398044,11.4440157926,1.5827039154,3.5511810598,-12.0904397612,1.5944564963,-3.6692559644,-1.0246024549,-2.1771135717,2.5506228911,2.5138849596,0.158381718,3.4537446148,-2.3003952622,2.28221437,5.6508046907,0.4825364102,-2.6977313686,-1.6728389055,-0.8871014777,1.8132406692,-0.7951163725,-3.52921123,2.4897941503,1.3850307105,-0.6265391616,-4.1268511585,-0.7405042705,1.1911527188,2.942700114,1.8324325847,-1.1042630874,7.9043896261,-0.5756344224,-13.6007104982,-0.4755846769,0.2477440144,-0.9477538497,4.0316070143,-5.3744163092,1.1176589071,0.6291904779,5.8278071436,-0.7643934962,0.3495839704,0.5367429247,3.6549102602,-0.2735579185,11.7001740795,0.0721347211,-8.3131638683,-1.4161120099,-0.9550572543,-0.6945238113,4.3007278633,-0.8352438572,2.3340976202,-0.1097612417,-1.2038288271,-0.509749725,-0.9034900325,-1.2638628995,-0.2857247039,4.0132621147,-10.2932657055,0.6435955632,-5.8420014931,4.2222253662,4.6686675459,4.9298412497,2.1188508949,-1.2344358166,13.6543414002,-0.1294206855,11.9764972636,-1.033433003,-0.7685405998,-1.8626061001,-1.4476456457,1.3821252803,1.2916392297,5.5801707181,-6.9463462516,-1.3615897099,1.1529599058,-0.666983094,3.0347373765,-0.656458483,-0.2242854247,0.2261455271,1.2938153896,-0.1873901827,-9.3710683109,-0.7142062004,2.2026247356,-0.6140501925,0.9267333081,0.3345141326,0.4629456153
biasActivation=1,1,1,1,1,1,1
[BASIC:ACTIVATION]
"org.encog.engine.network.activation.ActivationSigmoid"
"org.encog.engine.network.activation.ActivationSigmoid"
"org.encog.engine.network.activation.ActivationSigmoid"
"org.encog.engine.network.activation.ActivationSigmoid"
"org.encog.engine.network.activation.ActivationSigmoid"
"org.encog.engine.network.activation.ActivationSigmoid"
"org.encog.engine.network.activation.ActivationLinear"
