encog,BasicNetwork,java,3.4.0,1,1573287061006
[BASIC]
[BASIC:PARAMS]
[BASIC:NETWORK]
beginTraining=0
connectionLimit=0
contextTargetOffset=0,0,0,0,0,0,0
contextTargetSize=0,0,0,0,0,0,0
endTraining=6
hasContext=f
inputCount=2
layerCounts=3,8,8,8,8,8,3
layerFeedCounts=2,7,7,7,7,7,2
layerContextCount=0,0,0,0,0,0,0
layerIndex=0,3,11,19,27,35,43
output=0.1139289664,0.2444374265,1,0.0000005322,0.5357554784,0.995225885,0.5505683466,0.9999999049,0.0000013004,0.8360437368,1,0.9980303646,0.9999999995,1,0.8825005091,0.0000001748,0.9999996735,0.9999999947,1,0.9935419373,0.000053661,0.6827492082,0.9987159705,0.999998406,0.9981352368,0.0002893664,1,0.1004629239,0.9604885039,0.113959384,0.1878427504,0.440903645,0.9499504206,0.6190438403,1,0,1,0.4661565727,0,0.9999982555,0.0000000058,1,1,9,20,1
outputCount=2
weightIndex=0,16,72,128,184,240,261
weights=11.5130283752,3.3262300318,-2.4435889841,-13.386419802,-1.6221634674,-10.8005222285,6.8162503056,1.8922819501,-9.5964113932,4.0848600356,-13.8110374139,16.7210039598,-9.8891616602,-5.4692036384,7.1567456971,5.1278775601,-0.397422607,0.9090296197,-13.7867756571,-4.01196882,3.9735903827,0.1331157551,2.5870019738,-0.3513985992,0.3446879213,0.1456289675,0.0528667621,-1.0745771061,-1.1638727741,1.1839365249,-0.6803809524,0.045521576,3.7153539356,2.3356127314,-6.521499993,-2.1911427117,-2.8021696728,2.1221085762,11.2539961849,-5.624806623,0.2581485339,7.1821061707,-2.6711807451,-1.052776035,-1.5970256199,-10.8131201343,4.7136583543,2.4629357531,4.3388728002,-2.9141399491,5.6971289099,11.0912232909,-5.9364266538,-1.4068086469,-0.4067209605,1.0808842149,-12.1698857574,-3.0217448591,12.1468951241,-3.3677205403,1.5554686213,-5.9497556019,-2.9452522519,1.3349343221,-18.4042246347,9.2927509261,2.1009593029,-6.7259529266,3.4529364175,2.3789032279,8.8715851673,3.2885147277,-1.7509214459,-0.7252895885,6.3159068442,-1.32462212,0.1854578331,1.5433499171,-10.2372709949,3.2553617607,10.2630878219,-7.6225951391,-2.9154707595,15.3657901349,-1.180839487,-0.034484444,3.5006873447,-0.822384702,1.6327480406,4.1974650469,6.9524558523,-1.8533434052,13.6273105606,2.621901204,-7.1662110174,4.3131421933,-2.5150164346,-2.3951146848,-3.2443686202,-2.5688532448,1.3416872338,6.0759387613,-1.6899061724,1.8900683907,1.5155515423,-0.231344798,-4.8866571078,2.4078762531,-11.091604858,-5.0893411399,9.2771796992,0.0351930697,2.0335767907,-2.9926880516,-0.7786532422,12.8398050084,1.0409730607,-1.0866421601,0.7447528343,0.6664312925,4.4557024922,-12.5504264992,-0.7263929072,8.0310632606,1.6213424037,2.8108556055,2.1491811278,2.6739751328,-6.0439673665,-0.2704481102,4.2230327285,-3.114274218,2.2267538171,-0.3996504494,3.818826075,3.040486929,8.5598087631,-4.1600139008,-1.598939414,5.7258487448,-5.4021365227,-0.4546478563,-2.8100258256,-3.0371693234,4.1776234186,3.6158540554,-4.0819110927,1.7253860295,-0.5302335057,0.4972984747,-1.8564171773,-2.074600092,-13.4082137085,0.6128226307,6.0994274669,-9.2794940491,6.7703138632,-1.3552577229,4.2569657881,4.1300082938,5.6079304961,8.8410623837,-7.3392802802,7.6432600985,2.4624528665,6.0712774335,-4.547381494,-0.3433305913,0.3540245941,5.3623498041,-3.16032357,2.5720045208,5.1666855174,-0.5944824971,-2.1317267377,0.5800798439,-10.0763013972,-2.9360884818,7.3944536693,-9.6497408015,2.6490049226,-7.2916748842,4.3753574429,-0.2949512544,10.8494889573,0.091661646,-14.4058094966,0.0909038633,2.7498254735,-0.7884049928,0.3435942987,1.338194637,-8.2798612628,1.5213742231,-7.911335553,0.4491758663,2.4274103697,0.3272863849,1.755161238,1.1748298122,5.2537014499,-1.212861955,8.2670002433,-0.1575175051,-2.172836586,1.2193922381,-0.2669074839,-2.2520349597,8.8001434591,1.7589996056,-10.1818409866,-2.4799057151,0.7138601664,0.2361888722,0.3660426472,0.4433421231,-2.5271158967,0.1353799042,5.5859782952,7.8296575854,-0.5693898809,0.8931850209,-1.107172868,-1.30025412,1.9198309166,1.7874436097,-8.393642317,-0.5077377284,2.3490483865,-0.9209949767,1.4583508931,1.261308441,2.0070703091,-0.9211169039,6.2463613887,-0.6171932071,-0.5997563395,1.0350263862,-0.01082898,-0.8945894531,4.8971042395,-3.4087893527,-0.2920157964,-0.2179404466,2.6299478232,0.5306627377,2.1387021745,-0.1439457018,-16.5049865526,1.6286881385,-2.5136199376,-0.8670842795,0.8644703274,0.2583087012,0.3126417108,-2.0404807858,-0.0392277621,0.1771124425,1.3072866743,1.8676421392,-0.7527007213
biasActivation=1,1,1,1,1,1,1
[BASIC:ACTIVATION]
"org.encog.engine.network.activation.ActivationSigmoid"
"org.encog.engine.network.activation.ActivationSigmoid"
"org.encog.engine.network.activation.ActivationSigmoid"
"org.encog.engine.network.activation.ActivationSigmoid"
"org.encog.engine.network.activation.ActivationSigmoid"
"org.encog.engine.network.activation.ActivationSigmoid"
"org.encog.engine.network.activation.ActivationLinear"
