encog,BasicNetwork,java,3.4.0,1,1573979498281
[BASIC]
[BASIC:PARAMS]
[BASIC:NETWORK]
beginTraining=0
connectionLimit=0
contextTargetOffset=0,0,0,0,0,0,0
contextTargetSize=0,0,0,0,0,0,0
endTraining=6
hasContext=f
inputCount=2
layerCounts=2,8,8,8,8,8,3
layerFeedCounts=1,7,7,7,7,7,2
layerContextCount=0,0,0,0,0,0,0
layerIndex=0,2,10,18,26,34,42
output=0.1612951405,1,0.259309867,0.3776012511,0.5700284828,0.9997620452,0.0327038881,0.8324832525,0.9999605906,1,0.2385998622,0.9842518333,0.8657270981,0.9922961611,0.0000000665,0.3282335744,0.5882204815,1,0.0006309384,0.9953694351,0.2737675485,0.0003915831,0.4999976151,0.6775851992,0.0000964668,1,0.3435664269,0.5396655566,0.0000382984,0.8748624536,0.9989472801,0.9706140402,0.0020144997,1,0,0.9999999959,0,1,1,1,0.0743767402,1,11,15,1
outputCount=1
weightIndex=0,8,64,120,176,232,253
weights=-0.9398823533,13.2503502839,-3.8702602901,-15.4016425795,-12.7631270501,12.1078051425,-0.9894145165,2.5231195959,0.4013257594,0.0004986544,-0.0851357155,-0.9456695675,-0.5545065168,0.9352897941,-0.4417773977,-0.1808480762,4.7122959486,-0.1022244265,-4.0642481599,4.1957442443,-14.8796184613,-4.0594855665,2.8219098113,-2.4958166413,1.9091143838,0.0291114309,1.1251648918,-1.168002013,-2.552616677,1.2275781451,-1.1229320259,0.2403175553,-2.8769543759,-2.9287880089,0.2774419212,17.2858386706,2.4891992561,1.0873218108,-4.4209083443,-3.2369894982,8.5648008775,-1.9573954912,3.5603637132,-2.8784654026,-5.8302590014,0.199339158,-3.0268344377,-2.0149974823,4.8095138841,0.4896226047,-4.8533900407,3.5275733582,-12.0168203855,-5.4170215118,5.4003657205,-0.7233743397,-2.1989111488,2.680075859,1.5033651408,4.8231544571,2.9530483641,-0.096755731,1.5577432123,1.0562167547,11.2045893876,-6.8277971368,0.8796706787,2.2577640263,7.8423889701,6.0868854693,3.0242611628,-2.6588203327,0.7472936854,2.27697863,-0.8026204133,-1.2456201813,1.2152074475,0.2866073047,2.1119056996,1.286465167,-3.0586171781,-3.8650704166,-3.1063106246,-1.9742184359,6.0664475147,3.3057831918,2.1657120602,1.2906103197,-2.6971675553,2.8546610908,1.2168411306,-19.2188461101,-2.4664429225,1.6020744695,-0.9623723983,1.8407228342,-6.1015775259,-5.5737975714,-0.6865768285,23.0064923213,-3.159507348,-6.1133848735,-10.4501513646,-5.0714688281,-0.2768815632,0.1432650094,3.5805037982,-4.015040466,-1.4363802771,-1.6412333487,-0.3190259816,-0.006972755,1.1097450014,0.2275394462,-3.2577800776,5.2837071442,0.5813980974,1.444390949,0.5745106673,-0.2502177585,4.2599943414,-0.6712069968,6.7188943005,-0.1001807936,-9.4612650601,0.0779737243,0.782387383,0.9923987357,-2.3397268065,0.2039860592,-11.733096012,1.653232798,1.1567658631,2.9503027581,1.0697514755,0.5969920653,-5.1445288948,0.1817061933,0.0771173025,2.2006309349,-0.5011125916,-0.509814982,-0.2776911402,-0.235438209,10.635639909,0.029841758,12.8629329337,0.3833783085,-10.2425610741,-2.5518335,-2.1764591132,0.8620379574,10.7612273989,-2.10448482,5.5753376198,-0.3165044663,-0.7857458786,-0.7612773854,2.9619501632,-0.7669452874,-6.1573322227,3.3523354767,2.8609653809,1.2662262904,-4.653630346,4.2423437291,-2.3429087216,0.4768983918,0.6726585774,-4.0689894408,8.8787063768,0.6972174662,-5.6015264634,-1.4236871913,4.3641487284,-0.9230453173,1.402026732,0.913489804,-0.9555541626,-0.282613631,-1.7111239128,-0.2735648227,24.5052664135,-1.1162502962,-1.3507602366,-3.3116896329,-0.6825174025,0.3728974999,3.6062766955,0.0059911584,-0.3354192085,-0.4895320156,3.7300520109,2.4801450564,-0.926378536,-1.7334850098,-5.0721606236,-4.483852073,11.2676820229,-2.1987651825,-0.3118058254,1.8717956282,0.0239253325,0.6589741272,-0.9975999515,0.7135389182,-1.5428642434,-0.1873023268,-0.5503132146,-2.0406153193,0.71386676,1.1357197922,4.5533368213,1.9289778236,-16.9092680367,2.5355619578,-3.1782976396,1.4070330389,-0.4770771922,-0.2834635932,0.4193955462,1.7488816271,0.7992055605,0.1461229818,2.4716604772,3.0403540719,-0.1951082682,-0.388707779,-5.7768500439,-2.2355396599,-0.562024453,-0.8028229224,5.7085456927,-7.2385733163,0.6016033255,4.922118653,-2.373108931,0.7578706404,-1.2467712813,-0.874673565,0.0670878604,1.5620141465,0.7983023455,0.6215092703,-6.8927826115,10.5312273614,-0.2184664411,-2.4696352133,6.1943375397,-0.0573516286,-2.3721083577,-0.1546356214,25.8914022122
biasActivation=1,1,1,1,1,1,1
[BASIC:ACTIVATION]
"org.encog.engine.network.activation.ActivationSigmoid"
"org.encog.engine.network.activation.ActivationSigmoid"
"org.encog.engine.network.activation.ActivationSigmoid"
"org.encog.engine.network.activation.ActivationSigmoid"
"org.encog.engine.network.activation.ActivationSigmoid"
"org.encog.engine.network.activation.ActivationSigmoid"
"org.encog.engine.network.activation.ActivationLinear"
