encog,BasicNetwork,java,3.4.0,1,1573287138450
[BASIC]
[BASIC:PARAMS]
[BASIC:NETWORK]
beginTraining=0
connectionLimit=0
contextTargetOffset=0,0,0,0,0,0,0
contextTargetSize=0,0,0,0,0,0,0
endTraining=6
hasContext=f
inputCount=2
layerCounts=3,8,8,8,8,8,3
layerFeedCounts=2,7,7,7,7,7,2
layerContextCount=0,0,0,0,0,0,0
layerIndex=0,3,11,19,27,35,43
output=0.9999979177,0.9130430169,1,0.2681823712,0.5276498334,0.7897243174,0.2287423456,0.9875583416,0.4793692739,0.9999999407,1,0.9379675345,0.9306144948,0.2683950286,0.1866902859,0.3339554687,0.9102133052,0.5005235958,1,0.0513427651,0.5332473884,0.4567789785,0.2038572509,0.4089553332,0.1368632982,0.0359777057,1,0.6924469904,0.6816547511,0.9999961585,0.191012516,0.8973110642,0.000574576,0.8796074022,1,0,0.9917946516,0.2802359919,0.0000000012,0.575767827,1,1,1,9,20,1
outputCount=2
weightIndex=0,16,72,128,184,240,261
weights=-2.9254968243,6.005397968,10.2005484206,-6.7675409168,-1.1598500896,-10.5791458448,10.1660618366,0.2409550245,-1.1373867075,-1.0179547165,-3.1718733088,-9.0109146318,12.1853726772,6.6763508485,-9.9907715267,2.5161704228,0.2370007353,-2.7022989229,0.9225868112,-1.9993857851,1.2016774074,0.555853168,0.3962315634,0.3087087004,-0.3611557112,3.2993110877,-3.6519884945,0.659792746,-1.041788676,-2.5231714582,0.3043613132,0.7282717908,-1.5870326351,6.2062148473,-7.1523447664,0.5941379985,-1.740125464,-2.5085354417,-0.1571399193,1.788069042,-4.1893782634,2.8121489746,4.0947580837,-5.0626876662,7.7851969146,0.315313113,-10.1464983111,2.134840384,5.8307306534,-1.8513285678,-4.60409074,2.7937956627,4.6729963585,1.6220541207,0.8635044484,-2.1270294016,1.1052847526,-6.0538181368,7.6609905828,7.4093633783,1.9531459765,3.506011006,-0.7082060998,-2.4139558278,7.9343741356,-0.1509428853,-11.4414348868,0.8200923074,8.9854669127,6.4928077982,-1.562265775,4.1273948099,3.4766832657,-3.3493099592,-3.548432871,0.7815807297,9.5833417282,-3.5085118967,3.7407664831,2.2115279559,3.5577947799,6.0923837346,-2.0504614327,2.5367635836,-2.4350200778,0.4066576561,-2.831617818,0.6262554709,-5.0076951217,3.3533962951,3.1212088395,-2.0782307949,-6.8863975574,1.1063345226,4.8091823374,-1.0441128312,-6.123425187,-2.9469483994,-1.8933695556,-3.4151562942,7.0253773787,-2.0488228797,0.9939340481,-0.6531754234,5.0593774972,-9.5677513235,-1.3387577046,-1.25854306,9.8680717017,-0.4434671173,-2.3507896753,1.1296164466,0.7901522191,-3.658980169,-0.2716305404,0.5516428863,5.6410446165,-2.4846325328,0.5919960693,2.2502549747,-5.713228755,2.304579132,2.4981532971,3.4588943912,3.52412326,-3.2576570684,4.7982842743,-3.9476946416,-6.5695089921,-0.7950645239,4.2599570568,-0.4583361938,-4.377360369,-4.9167085766,1.0442159034,1.0142588585,11.9463381761,-2.4477154423,-3.6359841089,0.0569362383,-0.681073491,0.8795214852,-2.2063248598,-0.2940992615,2.474004666,-3.9777880101,-1.4058374399,4.145768006,1.5333188463,1.2210751719,-0.3133899611,0.338077399,-1.1454024816,-2.9755073385,-3.5320675376,-0.4020766726,7.1597218244,0.3662287532,-1.0424260071,-0.4398860463,-10.8197624755,3.0755021976,2.0326139345,-4.3306861804,0.8725191985,0.6417939227,3.0915730061,0.3193443725,3.6495770532,-3.7949480672,2.1823645765,1.0235902244,-1.543938544,-2.2811781894,-2.6584170135,-0.4346923498,2.8502302785,-2.046477195,-1.3093057692,3.8473362791,-7.193822749,4.1188155198,1.6949691763,1.6693766613,-1.6668926019,-4.8107969891,-10.0579930738,-0.070266261,-5.8620940526,4.8026491089,3.6386506625,3.3354239983,-3.6531769343,5.0109563471,3.860913931,0.7388862883,-4.2261131724,-0.8290947569,0.200755258,-2.2288204361,-1.6958093888,4.9659203972,-2.2080488589,0.817383392,2.1473415614,6.544482653,0.9383250016,-0.555936903,3.5553441761,-1.6592567503,-4.8033262103,0.2227794998,3.8297483354,0.6150788592,-2.1247151729,0.8528528009,0.4770701076,2.6051313975,-5.7517099216,-0.3589783887,11.8263576886,-3.0225796211,-0.9940208788,-1.5968568124,-3.0102664432,0.1850208049,1.9116707598,-0.9355290291,-8.758233999,-0.1524700738,-1.5767801927,-1.4085653709,-1.8810660918,1.2197612709,-0.4324924883,0.0824333831,1.0949879046,0.0426631634,1.165957991,-0.9389150809,2.9186877438,-5.1605069626,0.7388511765,-0.6996104445,0.5753931304,-0.4166387169,1.0189886357,-0.1839729305,-6.434730427,-0.9411794385,-0.5914659613,-0.2223947704,-1.0287681463,0.6897283003,-4.2302290707,-1.4847683856,2.7771272432,-0.4850363493,-0.0319387659,1.9070807687,-0.030288411
biasActivation=1,1,1,1,1,1,1
[BASIC:ACTIVATION]
"org.encog.engine.network.activation.ActivationSigmoid"
"org.encog.engine.network.activation.ActivationSigmoid"
"org.encog.engine.network.activation.ActivationSigmoid"
"org.encog.engine.network.activation.ActivationSigmoid"
"org.encog.engine.network.activation.ActivationSigmoid"
"org.encog.engine.network.activation.ActivationSigmoid"
"org.encog.engine.network.activation.ActivationLinear"
