encog,BasicNetwork,java,3.4.0,1,1573287336252
[BASIC]
[BASIC:PARAMS]
[BASIC:NETWORK]
beginTraining=0
connectionLimit=0
contextTargetOffset=0,0,0,0,0,0,0
contextTargetSize=0,0,0,0,0,0,0
endTraining=6
hasContext=f
inputCount=2
layerCounts=3,8,8,8,8,8,3
layerFeedCounts=2,7,7,7,7,7,2
layerContextCount=0,0,0,0,0,0,0
layerIndex=0,3,11,19,27,35,43
output=0.9156687881,0.9673882782,1,0.6214339734,0.0420121004,0.0000000002,0.0005233207,0.000000042,0.9999999653,0.9999956346,1,0.9979981491,0.0003057762,0.9813998842,0.0002653252,0.9999999749,0.0000470709,0.9999999895,1,0.9999998046,0.9716840832,0.9999901418,0.0002948722,0.9999995156,0.0233501407,0.0003531397,1,0.9916166607,0.0352467441,0.8469570741,0.9933373819,0.0416171435,0.9922048561,0.4313303332,1,0.8225239691,1,0.9999999981,0,1,0.2330293894,0,1,9,20,1
outputCount=2
weightIndex=0,16,72,128,184,240,261
weights=-1.8372585998,7.3045636189,-0.6134769845,-6.7836500987,10.4028246185,2.6695780609,0.6972367711,-0.143504586,-5.9962798687,-1.7284145971,-19.2005247231,23.0156782825,0.3597806594,-11.5664305855,14.3763908459,4.3668920131,-3.8919768952,3.4661129517,-0.9454117944,0.7697652784,0.994455755,6.8755130923,0.7964453067,3.5151631727,-6.6133358479,1.4066227604,-8.5713714786,3.4908994354,8.6347736255,-3.6950110387,3.8451251424,-0.5959184719,-11.0629166689,2.1054455427,-1.6815460571,3.2981675952,-2.6877195241,22.3970916271,-6.6560898793,-0.4289085486,-6.2270260975,-1.0586931223,-4.6768655878,7.4513254436,-2.4761482202,4.1796877013,2.1218999688,3.6020413495,-1.6536594047,3.8846671419,0.1045995468,2.3289298464,-4.1331593293,-0.785831134,-9.9175663782,-1.3889409697,1.5114718663,1.1943389362,6.9358389322,-1.0147866154,7.1315282396,-3.7932229692,4.6561910058,-2.9265154284,3.5735320942,-5.1203301796,3.4246345284,-0.6056030986,10.6047154787,-2.2274445156,-0.3297595446,-4.858633797,1.4741499074,5.8403384446,1.4599433048,7.3896270575,1.2315768334,-11.1690799996,-1.4275657454,-3.3698147461,-2.5705244133,1.8485776382,-5.9188333151,-3.4072834569,-2.8970576158,6.4819914613,0.665393385,1.3471845131,4.6501314522,-0.1076195902,-4.1550325104,-8.175047102,2.1022790057,-0.2761186262,3.3943971577,1.4806267657,-2.5072746489,2.9461409659,-7.0883160195,-1.445877774,-4.1280552196,1.6580572853,4.3078160022,2.5867553405,7.2737692463,6.8334804781,-4.6762877302,-5.4310681864,10.1129992739,-1.5249148212,-5.1413527813,-1.8129942018,-2.4137389387,-9.7651728304,1.1903172854,1.0158706648,-3.2139338289,10.6214064975,7.4527783882,3.7112776187,5.5487251788,3.5962609469,8.3907570235,3.9481543111,2.2273207179,-2.926950348,-1.7323932214,-1.2187185477,0.8826897328,-8.1272589904,2.8322123368,6.7175208175,0.5933155303,4.370588696,-0.089847279,1.4654701825,-0.1064674154,-13.7494805425,-2.0991621771,3.1501576093,-0.1671714838,-1.2177640213,9.0389972858,0.090971748,-2.610387319,-2.3144612742,8.7417502624,10.9435721203,-0.804362125,0.4467516776,-7.7685622389,-1.1362509894,-8.7042028095,1.7583984872,4.083535109,1.7139872143,0.4388905658,-3.6651622065,-4.2043253048,0.7112140414,1.1828023096,-9.0138821596,2.4008591252,6.8780270034,-0.5241744121,2.3969769246,2.2148666017,1.5077721099,3.5214067866,15.8688718917,-4.4905579766,-6.5101619438,0.0653533505,0.0169186214,4.8098390941,0.391224109,-3.9142167876,6.6778483257,-0.1252010039,-3.183450929,0.4828976209,-0.8657821448,-3.0480386406,1.1196650977,6.5365007045,-1.46667158,-0.9657416371,-0.6792838894,0.3566769336,7.3652851378,0.6303209632,-0.2439298429,-7.7173417988,-8.2381763602,2.815727054,0.4052729677,2.112294885,13.3208852419,-0.1365042391,3.2441960625,-3.0198230704,6.1022791408,-0.14182722,-0.9206682281,0.0605033174,-7.8715620818,0.4087048116,0.0081584953,0.8730015972,7.9445546029,-0.6365248412,0.6745630804,-0.2608523262,-10.8755111834,-0.8826821725,-0.2263705933,-0.3179409178,-0.4608521124,-1.1115119159,-0.596122891,-0.5034618864,-0.4383958577,-0.5917464297,-0.697236097,2.2233486246,3.4146268483,-0.5818454194,0.9107499373,-0.681239708,2.6356949682,0.6144104261,0.251934981,3.3131955493,-4.3840857962,-0.1325408119,-0.5299716634,-0.1442113012,8.4803739958,0.9347391192,-0.3169467033,-1.1116025528,0.3562370529,4.413223979,-1.3490029359,1.9317611855,0.3048320906,0.7890054432,0.6331791193,0.2920540311,-0.8774090485,-0.9248615478,-0.7960516065,0.7187813128,0.9850358041,-0.3016234384,0.2781061176,0.2524837626,-8.7439142121,-0.8465520129,-0.9130265137,0.0631421476
biasActivation=1,1,1,1,1,1,1
[BASIC:ACTIVATION]
"org.encog.engine.network.activation.ActivationSigmoid"
"org.encog.engine.network.activation.ActivationSigmoid"
"org.encog.engine.network.activation.ActivationSigmoid"
"org.encog.engine.network.activation.ActivationSigmoid"
"org.encog.engine.network.activation.ActivationSigmoid"
"org.encog.engine.network.activation.ActivationSigmoid"
"org.encog.engine.network.activation.ActivationLinear"
