encog,BasicNetwork,java,3.4.0,1,1573287537244
[BASIC]
[BASIC:PARAMS]
[BASIC:NETWORK]
beginTraining=0
connectionLimit=0
contextTargetOffset=0,0,0,0,0,0,0
contextTargetSize=0,0,0,0,0,0,0
endTraining=6
hasContext=f
inputCount=2
layerCounts=3,8,8,8,8,8,3
layerFeedCounts=2,7,7,7,7,7,2
layerContextCount=0,0,0,0,0,0,0
layerIndex=0,3,11,19,27,35,43
output=0.3888846197,0.3571467928,1,0.5720838832,0.9999943549,0.9985841087,0.037945127,0.6487505401,0.0111147721,0.0380309034,1,0.8830171374,0.9803265332,0.0000104154,0.7402776804,0.9489992887,0.0000090532,0.6921246104,1,0.9520150293,0.9977704282,0.9988762097,0.999534502,0.993419675,0.9972396641,0.1648671795,1,0.5951049168,0.9322311921,0.961416423,0.2988134236,0.3925298706,0.5152984728,0.0000241736,1,0.9999999245,0,0.1592552509,0,0.4505366727,0.8961563408,0.0000000076,1,9,20,1
outputCount=2
weightIndex=0,16,72,128,184,240,261
weights=4.7621645242,7.8927242862,-13.0375530492,6.2259979401,8.3443053741,2.5471140864,-6.4968978034,-3.4807937025,6.6759363589,-6.0685165266,3.5113239034,-7.2646198016,-1.3183216876,4.8951615297,5.2044785273,-0.9662558979,6.8963372625,-5.0985379479,2.7619954521,-2.3807597492,0.791935347,-4.1309019548,-2.8874890904,2.2083946016,3.2901493538,6.2776202678,-7.0824882162,1.5652110407,0.2914996885,-1.8207871454,-2.5493625447,3.3545870237,5.5504003918,-2.234778049,2.5482296307,-3.6529882998,2.1785439388,7.7571007105,6.2719779879,0.1439946567,-3.0538428758,2.2309365185,0.7329799468,-4.9715507473,0.6664037012,4.3161133971,6.3407065386,-4.0640754052,-2.4162658034,5.926172578,-0.9311171754,3.6206912688,-4.8836861648,-4.1338993117,-0.4774924157,-0.7775993836,0.3162370623,0.7162079283,-1.2375436272,2.0660521537,-5.2326123736,0.2087588538,-3.7572223102,0.5671065425,2.4751293478,3.2116914367,-2.3809033254,-1.4582726146,-4.6237428838,-2.203456379,-8.9215461244,3.0776505447,-2.8335719914,4.1251426767,1.6903832883,4.1331767917,0.9256650719,-4.4633763949,1.5474479445,-1.9404028489,7.1921775726,-3.9926911936,2.9777257726,-1.5338767837,-3.4965499072,3.1175441233,3.7132833132,-0.6434694863,-4.079260101,1.1092283355,-4.9433285031,-4.4545399739,1.0024683788,0.1428936854,1.4995530994,-0.6908098699,5.2112119852,-5.0208044665,-1.9478350209,-1.3948010266,1.3928970408,1.3576812648,2.8242908576,1.2323704027,-3.2458664414,4.4899949699,-1.1527225554,-2.1761467662,0.754770069,3.4989268691,-4.3196880415,1.3333615038,-4.9286832676,1.3270277053,-4.443560929,-7.6219793698,0.2218218841,0.0848083508,4.9952471917,2.6842422547,-6.1925791804,5.2247310728,-4.3229427171,-4.7632434274,2.4802592273,5.9745301904,-2.7532649856,2.603474201,-4.5844984159,4.5329407421,1.6546801753,-2.2400342847,6.8236689661,-10.157791045,-7.6735579187,3.1247032002,2.6498836587,-1.3277927225,6.1355266306,-2.2076778706,-5.4143524994,6.5267511624,2.201690454,-0.7125306586,-2.3315925936,5.6962534081,3.1004076241,-4.3240780751,0.5535335789,-1.8562521032,0.1456442495,1.9177924509,-2.8180886922,7.2699470241,4.0650904199,-4.7957649494,-1.5932061587,-1.0627198882,1.4710575705,1.2694817597,2.3493794737,0.2899633976,2.0893186775,1.449130588,-1.9325394056,3.8106579684,0.4543756743,-0.2981538684,1.890875089,-0.7479896121,3.7743109407,1.7792982929,-0.2480401998,-0.0811680106,-9.5043015762,1.4407248851,3.8922392294,-0.269496299,-2.5859010899,4.0868672801,-1.1640989684,-3.4769838143,2.9605706603,-0.1740349767,1.759021158,-1.5484379604,5.2537810623,-2.728802089,-4.3379684927,-1.1541605064,0.2600034852,0.7781186392,-0.0789285822,0.4713326886,-6.6433904431,2.3391887446,-1.3120863935,4.7393197806,-1.1353177143,0.1023737775,-1.546339537,0.4653418773,-0.0873315107,-0.5696266001,3.6766547003,5.9840153789,-0.3119109062,-2.2432527591,2.2886308132,-0.4630154891,4.5885661774,-3.478584544,-1.1430821881,-5.6633450064,0.0653426674,1.7179044526,0.1833300145,-2.8485674009,-0.8919002806,3.5156698856,4.596767707,-3.0092718699,0.1620181487,0.1477850743,-2.1839774751,-0.3082777449,4.9642753439,9.7534710681,-5.7777994532,7.3950671591,1.5916109029,-2.5694224038,0.935594374,-4.4360177528,0.5030222033,-3.0895408125,-6.589896698,-10.429141836,-0.4667648672,0.6692043153,0.8235222724,0.4173058895,0.6416829848,0.9982147608,-2.3639765028,-0.2017574449,-4.2487360797,0.4202506876,28.1698311277,3.2124576129,-4.6620928666,-0.8963686967,-2.2659519534,0.4644445601,10.9061738235,-0.6178463413,0.3183909741,1.3480259833,-1.3912757369,-0.2709244352,-0.7523252273
biasActivation=1,1,1,1,1,1,1
[BASIC:ACTIVATION]
"org.encog.engine.network.activation.ActivationSigmoid"
"org.encog.engine.network.activation.ActivationSigmoid"
"org.encog.engine.network.activation.ActivationSigmoid"
"org.encog.engine.network.activation.ActivationSigmoid"
"org.encog.engine.network.activation.ActivationSigmoid"
"org.encog.engine.network.activation.ActivationSigmoid"
"org.encog.engine.network.activation.ActivationLinear"
