encog,BasicNetwork,java,3.4.0,1,1573287595625
[BASIC]
[BASIC:PARAMS]
[BASIC:NETWORK]
beginTraining=0
connectionLimit=0
contextTargetOffset=0,0,0,0,0,0,0
contextTargetSize=0,0,0,0,0,0,0
endTraining=6
hasContext=f
inputCount=2
layerCounts=3,8,8,8,8,8,3
layerFeedCounts=2,7,7,7,7,7,2
layerContextCount=0,0,0,0,0,0,0
layerIndex=0,3,11,19,27,35,43
output=0.9996326087,0.9996205937,1,0.9999911033,0.2349658809,0.0000275637,0.9999691256,0.877336238,0.3167092113,0.1496571001,1,0.6727694343,0.9245340453,0.9986848677,0.2266896489,0.0019940073,0.0002887802,0.9999100504,1,0.0343178265,0.8988324153,0.5946028759,0.9496588694,0.4387638531,0.039896315,0.3447280192,1,0.3617411821,0.8748928944,0.9999218699,0.7438441531,0.9697897364,0.2607061439,0.8797426688,1,1,0.721376296,0,0.9881085377,0.9799199655,0.9999999999,0.0000000007,1,9,20,1
outputCount=2
weightIndex=0,16,72,128,184,240,261
weights=6.283285523,14.6711671008,-9.2428874394,-3.1297604198,4.498513485,-1.9496866808,-7.7551891968,-0.8604251981,4.5353078804,-1.0539651805,5.8264013904,-3.3767154184,9.6854788609,-8.4904509578,4.0600623153,0.5493175529,2.3003295625,2.9297992629,5.1915162699,-3.5201847874,2.9656114035,-2.7049332904,1.801838579,1.1800276136,2.7170313132,-3.062140481,1.2453158799,-6.0643458777,5.9597524856,6.7414833093,-0.8038772424,0.7436580399,0.7874880459,2.4065721406,-5.5061623501,2.9571309906,12.4587135538,-7.8296442795,-6.5368476416,-1.9114916542,1.4042677404,1.4661834975,2.3249238315,-0.847304882,-0.5387345001,0.891225767,3.8513728579,2.1052669409,1.1166954244,3.1332361519,0.4247444153,-3.7702860185,-1.1722114173,-7.6005216165,1.0270482447,-2.2725432891,6.3331577118,-2.633581487,-1.3952934452,5.9160245067,4.9377337033,3.5094876593,-2.033304357,-0.5202366215,-2.1156788932,3.0225516323,-7.2196363327,3.1699788754,-5.7138903448,3.0896064962,3.0600038679,0.3339320596,1.1805432045,2.0731728175,1.0838799269,0.5426485789,-10.5350604826,-2.7287734819,-1.1920342596,2.7991792404,-0.8821119104,1.7443206351,-1.3688865267,1.7534806874,-2.3947149994,-6.3920496796,2.316236766,0.6240257604,-2.4754398895,3.3242398484,0.9879176324,3.8812333132,0.3848061566,-8.5915482866,-1.134718622,0.0213542748,1.3728064588,-0.2494510521,2.0769037927,-2.1915090194,-4.6215998806,5.0021635776,2.8481944377,0.6426280566,5.6363839442,-5.4592842955,0.6211717065,-4.347488198,-0.6295274103,1.0878483048,7.9869946945,-0.2633076095,0.0347532787,-1.8558653693,-0.8229907639,-4.0584095016,-0.3804848523,9.1441117245,-2.2389137904,-1.5652363057,0.0411005376,2.5197767167,0.0780227479,5.2171061585,2.6364413817,-3.9236308061,3.0946774087,-0.0180183249,0.4113432379,-2.3769356716,0.4906264309,0.2646021661,-5.3644432853,2.5972183735,0.5478171859,1.9495167433,-1.8509396843,3.0249929349,1.4926547396,-0.240105618,2.175478742,-2.0211073365,0.3915867273,-3.0339398734,1.1971198362,2.2912631848,-0.8451510704,0.7191958806,-1.0196783426,0.609017749,-0.7732240632,-0.2341783059,-2.7073730153,4.530669919,3.6481554372,0.4023755234,0.1711446301,-2.0223709677,-2.0682098446,-1.813614625,1.2152564264,-4.5308076035,3.4738934087,0.3367608828,1.5181565173,-7.2843474303,-3.814968725,3.3370353557,5.4889387616,-7.1621506153,-4.5168335603,1.4773328488,-2.5702970094,5.8769229161,5.0597495504,1.0265775994,0.0489071159,0.2803847642,2.7945047466,-0.1015359242,-6.3275891395,4.02086098,-0.0048589312,1.4683899562,2.4786643704,5.6753100379,-0.5676919795,-9.3692085508,0.5552340948,0.8169320345,-0.2907109942,0.7562645648,-3.7806565999,0.9082222953,1.4514862399,1.8495279045,8.9671789245,-3.0592492871,0.3050201873,-2.484984867,5.9845599459,-1.282245045,1.7595218765,4.3215633527,1.2741731577,-0.7873257071,-0.6048564256,-0.3339577363,0.9960245561,-0.4248250379,-0.7545637574,1.4785655343,0.4922732217,-0.9764998946,-0.4777951594,-0.5903920306,3.5922120649,6.996809308,0.1675261553,1.1362089177,1.7287094091,-4.0584856369,-0.6526911667,-3.9288558478,-0.8644402652,-7.7549802651,-0.1644243243,0.232620117,3.7760713965,0.9934437601,-0.8414496685,0.4928521741,-1.6485543701,-2.0289906355,0.2487900049,-2.2940208446,5.8392996393,1.1018213835,0.4416583456,0.5450895864,-1.2826193368,2.1637200575,0.5080973842,-0.9782480572,-0.1772165515,13.2998623151,-2.594088668,-0.6421109953,-1.1629784065,-0.6064635704,0.4227983497,1.4221770012,2.1472896512,-0.5532472339,-4.3729172937,0.9861959455,0.7190504956,-0.1560218132,-0.6480405824,-0.8049992366,0.7949212887
biasActivation=1,1,1,1,1,1,1
[BASIC:ACTIVATION]
"org.encog.engine.network.activation.ActivationSigmoid"
"org.encog.engine.network.activation.ActivationSigmoid"
"org.encog.engine.network.activation.ActivationSigmoid"
"org.encog.engine.network.activation.ActivationSigmoid"
"org.encog.engine.network.activation.ActivationSigmoid"
"org.encog.engine.network.activation.ActivationSigmoid"
"org.encog.engine.network.activation.ActivationLinear"
