encog,BasicNetwork,java,3.4.0,1,1573287700921
[BASIC]
[BASIC:PARAMS]
[BASIC:NETWORK]
beginTraining=0
connectionLimit=0
contextTargetOffset=0,0,0,0,0,0,0
contextTargetSize=0,0,0,0,0,0,0
endTraining=6
hasContext=f
inputCount=2
layerCounts=3,8,8,8,8,8,3
layerFeedCounts=2,7,7,7,7,7,2
layerContextCount=0,0,0,0,0,0,0
layerIndex=0,3,11,19,27,35,43
output=0.9787239691,0.9772728216,1,0.0387976159,0.8404171455,0.9996891098,0.9861411726,0.4831149084,0.4476492488,0.0000445713,1,0.7295739381,0.5106039159,0.8958102987,0.2680471004,0.3508834776,0.9999970344,0.3465156229,1,0.0435844228,0.9992218756,0.9998192977,0.8195403646,0.9755267885,0.0050292871,0.8658828136,1,0.4475216097,0.0788730574,0.9853403865,0.0066754806,0.96316517,0.9998197657,0.9800709385,1,1,0.0004764104,0.1241419828,0.9999979087,0.1141375176,0.999999947,0.0047873715,1,9,20,1
outputCount=2
weightIndex=0,16,72,128,184,240,261
weights=-4.4750190415,-10.2623941902,12.8411866985,1.7699868278,-15.4203857146,-11.8885825226,-9.2662672844,10.8164755144,-5.7342535661,-0.4637982695,-8.0662300605,14.6555916034,-7.1402292736,7.522084699,0.8855829871,-1.933040017,3.5142900246,1.9291600073,2.5527781244,0.2649753559,-4.2667095937,-5.8453497909,1.6268485169,-2.3379061323,4.4003139964,1.7766975078,-2.4773463259,-3.7723402838,2.4336906984,-4.2236688575,2.2055899416,3.379632334,-0.0981285574,-2.4245829879,-1.6515185448,1.6080584133,1.6717408541,9.51118087,0.8574199722,0.0389171878,-6.3690761041,4.5543658862,-0.254305484,1.2070155933,4.476932627,7.1266789196,-5.3604938305,-0.3496601587,9.3229473075,-10.8232215745,-8.1123155885,3.0099100905,2.5249810886,3.3313997056,-6.6834278752,3.2158802569,7.0268442544,3.1702861447,3.7244134311,-3.1825667932,-5.3275548759,-6.8954064658,6.1650470882,-2.8103744596,-2.7390788861,-2.7167545715,-9.9258677843,9.4444696841,3.4506336996,-0.6118011005,-4.1768382767,0.5756716165,1.4428037134,5.2567021051,-2.2823623786,4.6900500858,-8.0969682276,-1.6971560998,4.739383945,-2.0811751238,-0.9109560941,6.9792863792,-5.6832817008,8.7137951146,-0.9731624015,6.9189630883,-7.5260731772,-0.9195362542,-3.0448632368,3.5210389636,-8.7162469301,7.3503340533,-2.8900061848,-6.0325829228,8.1712084061,-2.7689896166,-1.9025728124,-10.4749450234,4.0451818614,-0.1297055941,5.1452525152,1.3617263221,-1.1337265106,1.5625055054,-4.8530148402,-1.4644938316,1.5587782445,0.3390608855,1.1457923462,2.6135283779,-2.080753043,-0.1058655869,0.294324618,-0.05483315,11.9591428261,-6.4729795071,2.8263002682,-5.2829149809,-1.2097279408,4.435211912,8.859844647,0.495773021,-3.9077316484,3.1436960305,-3.3414968027,-3.9742234074,4.0267781542,-0.3923003056,2.3571421037,-0.1268764637,2.1667152522,5.0665249458,0.6605598645,0.0799317812,-7.1364414711,-0.0240578763,-4.4613446973,-2.0123973979,10.3629523069,1.8164187406,0.1372007565,-1.2067892643,-0.413803492,0.569938504,0.0583440822,2.8017264421,-2.3164188307,-0.8307524874,-1.5130094486,12.6429100761,0.1554840087,-0.6763441629,-3.4815641984,-4.4367378042,6.4106705074,1.6560651924,0.6094228012,-7.3901048523,3.2945654602,0.6663934524,-0.4000768237,3.0640244725,-3.369340871,-3.450301476,-0.1212772738,2.6597589942,3.8951161,0.6057929533,0.4487447261,-2.6753093294,3.8374190503,-2.1742218194,1.5923408149,-11.0450364638,-1.2532768687,1.6937606073,-8.0442371147,-7.4001316815,4.2290096808,3.2793162833,3.3251658923,0.547129867,-4.4462925512,2.4677384311,-0.9533653187,7.9558528973,7.9711880613,0.3711308699,0.1024813418,-0.872490101,0.7393128299,0.2354501118,-1.4252387466,0.9549777735,7.2745709101,1.4170977301,-8.3025434736,-1.7046763915,2.5627720466,-0.713109744,2.81177435,0.6258080431,-9.3746706089,-1.1453887198,-0.2583716018,2.1828237585,1.0882511013,1.5464512386,-0.8882824249,1.51200736,-1.565266567,-5.1927807898,-0.8590956459,0.9826557305,-0.0624028926,0.3877292039,1.0816445643,0.6330614307,-0.1244118031,-0.1935796863,0.4267744658,1.141162749,-1.0797002324,1.2061541559,1.8872224744,-9.7695937523,0.9455978777,5.428162555,-10.7845352441,0.940057074,8.3232348431,1.4439815301,0.9750849244,-5.4488217043,2.0339048872,0.7382433982,-2.9924028607,1.3377996389,3.7899392824,0.9178240428,0.8170067075,1.0848742166,0.5338332141,2.5478508278,-1.5500292917,0.4211740981,0.0854534484,0.232963793,-7.3821349592,-0.7287921498,1.0439128459,-1.241421544,-4.3587929218,1.6916202053,3.3475744784,0.8862484093,0.458557343,-0.3946460784,0.2651023865,-0.3672869087,-0.3771581931
biasActivation=1,1,1,1,1,1,1
[BASIC:ACTIVATION]
"org.encog.engine.network.activation.ActivationSigmoid"
"org.encog.engine.network.activation.ActivationSigmoid"
"org.encog.engine.network.activation.ActivationSigmoid"
"org.encog.engine.network.activation.ActivationSigmoid"
"org.encog.engine.network.activation.ActivationSigmoid"
"org.encog.engine.network.activation.ActivationSigmoid"
"org.encog.engine.network.activation.ActivationLinear"
