encog,BasicNetwork,java,3.4.0,1,1573980006253
[BASIC]
[BASIC:PARAMS]
[BASIC:NETWORK]
beginTraining=0
connectionLimit=0
contextTargetOffset=0,0,0,0,0,0,0
contextTargetSize=0,0,0,0,0,0,0
endTraining=6
hasContext=f
inputCount=2
layerCounts=2,8,8,8,8,8,3
layerFeedCounts=1,7,7,7,7,7,2
layerContextCount=0,0,0,0,0,0,0
layerIndex=0,2,10,18,26,34,42
output=0.0599977734,1,0.9999998709,0.1118601433,0.8870429692,0.1513084446,0.613240652,0.617387754,0.6589182549,1,0.9967383144,0.9938630401,0.0018967574,0.000250252,0.9492457747,0.4633179331,0.9578039977,1,0.2028751994,0.2149074112,0.9973850863,0.9614240759,0.4087876163,0.2031297744,0.9747233155,1,0.6609210198,0.3450014353,0.6431016192,0.7617201652,0.664670675,0.7275788139,0.9374668329,1,0.0000000001,0.9999999999,0.2314404362,0,0.5443267479,0.9955172326,0.0000000009,1,11,15,1
outputCount=1
weightIndex=0,8,64,120,176,232,253
weights=-7.9630359205,6.6913304629,4.1940148706,-1.6960960094,8.7938093513,-5.1761683711,-5.2259605881,2.2457915779,11.1733514951,-0.3901344612,-0.9748644972,-3.3688766913,-0.2098176742,-0.2860119789,5.9599748946,-0.2603842998,-1.9736143855,2.5153807925,5.8772212694,0.4055160257,-1.1098112833,-0.3509789751,-0.2413757608,-1.1686067331,-1.0105672904,0.4102754143,0.0894289473,-0.780461275,1.5834745936,-0.9980005821,1.6188239037,0.0691941835,0.5042776967,-0.0210119071,-1.6134477626,-0.3833083445,-0.562756394,1.4625099356,-1.2265171283,-1.1716190271,-3.9369893013,1.4226862248,0.4929013067,-0.5189983322,3.3884859214,-5.6591438086,0.7160714225,1.6899633674,3.8287060613,-1.6190909722,-2.2419428501,-3.9843521852,-2.4279729306,2.3927418196,0.5431320122,-1.047409784,4.0236327372,-1.6675493033,-1.9425366549,-4.6749248144,-2.4649040027,2.0933324958,0.7078026666,-0.9978765486,-0.935063285,3.1786952777,7.2975269603,-7.4244029189,1.3196120025,-2.9512010333,4.8595522275,0.411692169,1.9328930392,1.4266736933,1.6076581777,0.1073559452,-0.6122241889,2.8912440344,0.2824475828,2.0695259054,4.5961947217,3.1742771073,-0.3471717042,-0.4143366012,-5.8715721809,5.8430483176,-3.7362300262,-2.280604024,1.884022538,-2.5701659544,-4.5210986531,-1.6856593251,0.4201576101,2.0552254714,-3.9258092796,1.2445894332,-1.2808170995,-1.4533788176,1.4553142604,1.2435035858,1.1343669499,-1.6504800054,-1.5464454435,2.2327206551,3.6161590261,2.3430838957,0.2902216173,-0.649849961,-4.326223038,3.6335516437,-0.2862423617,0.2605822229,-0.5154234325,1.805596304,5.6426558382,-0.5787463756,-0.5461317958,-0.9283334162,-0.0911060446,-1.7320045398,-1.4594983779,5.7004530881,0.5720452675,-0.5298104721,-2.9687797835,1.819321935,-1.3644796374,-0.4060723327,2.0250305536,3.5591931821,-2.7286417067,1.503243093,1.2245990423,0.0138407832,-2.3573723946,-1.8662299611,3.7920344651,2.4674589231,0.4055859192,-11.1246649211,1.2987058891,2.46190507,6.9999208717,1.5828069905,-2.8158967873,-2.2991952526,0.2640645562,-1.1531989433,-0.6046274121,-1.7177360988,8.110544412,0.6269929481,1.4473351612,-6.8459546299,-1.6991526224,0.0610453649,2.8499854314,-0.3371848796,0.7109641354,-0.2329397728,-1.6612407021,6.3378235719,2.2709145087,-1.6801526255,-3.9592423412,1.7567167549,-1.3132006703,-0.0515543114,1.2758650681,-2.6813831836,-1.9884120118,-5.6413801577,3.4666170859,0.3971130397,6.2820405716,0.827715826,-0.9000943438,0.0874898007,-2.9061725867,-2.6084488786,-3.9469898563,1.7393442091,-0.6506842106,1.6694223566,-0.6093860839,-2.9507768607,4.2090461493,1.9790074552,10.8959080814,-2.5633883639,0.3283651367,-2.0434880045,0.1717126933,-1.3943468223,0.3456781973,0.8196097279,2.8393662523,1.9607033827,0.420433221,-1.5942624373,-0.7667396109,-1.4270220451,-0.077217591,-4.6408159666,3.9436294702,-0.0701161082,-0.912536233,0.5302056002,0.9444828456,5.8540973098,-1.426037832,-1.5376236785,-3.4477373084,-4.5039806575,0.6874850015,1.5206100878,-0.299267027,-1.3673829336,2.7994469262,1.3765475033,-0.2180126008,1.5239271429,0.2870309963,0.3034250549,-0.1332100882,4.2969062127,-2.8106584661,1.6496916325,-7.8161682616,-1.1299409181,0.1716028308,4.4405032042,-0.8787568851,-0.9032888733,0.3737317123,6.0822896743,-2.7081791523,-2.9813440891,-2.3106924687,1.6223883948,-0.1184042874,-7.1428128662,2.257731368,1.6110052353,-0.7267718594,-0.2877956823,12.489199394,-0.3348836154,0.5648973394,0.6132815313,-0.979992564,-0.6136517332,-0.8360710906
biasActivation=1,1,1,1,1,1,1
[BASIC:ACTIVATION]
"org.encog.engine.network.activation.ActivationSigmoid"
"org.encog.engine.network.activation.ActivationSigmoid"
"org.encog.engine.network.activation.ActivationSigmoid"
"org.encog.engine.network.activation.ActivationSigmoid"
"org.encog.engine.network.activation.ActivationSigmoid"
"org.encog.engine.network.activation.ActivationSigmoid"
"org.encog.engine.network.activation.ActivationLinear"
