encog,BasicNetwork,java,3.4.0,1,1573287803490
[BASIC]
[BASIC:PARAMS]
[BASIC:NETWORK]
beginTraining=0
connectionLimit=0
contextTargetOffset=0,0,0,0,0,0,0
contextTargetSize=0,0,0,0,0,0,0
endTraining=6
hasContext=f
inputCount=2
layerCounts=3,8,8,8,8,8,3
layerFeedCounts=2,7,7,7,7,7,2
layerContextCount=0,0,0,0,0,0,0
layerIndex=0,3,11,19,27,35,43
output=0.9999995536,0.9995443941,1,0.9163094514,0.0831005621,0.2347572806,0.6587626688,0.9956249921,0.0336797625,0.3580107415,1,0.2243984271,0.7595377332,0.4110512644,0.5639562907,0.0110621333,0.8283970009,0.9466743353,1,0.226557092,0.4611587289,0.9776925421,0.3193672391,0.0005442426,0.0000457658,0.506491768,1,0.903366454,0.0000078867,0.8556649029,0.7626805329,0.7512885793,0.6871677314,0.2046414703,1,1,0.0000000008,0.9996307743,0.9999982322,0.0002591771,0.9999999781,0.0920708082,1,9,20,1
outputCount=2
weightIndex=0,16,72,128,184,240,261
weights=6.6755413684,-7.993610671,-8.5027373749,1.40757278,10.5015089699,-1.1341330006,-0.0679067636,-0.1547519023,9.3162574986,-6.3921875912,5.7924936382,4.0603687818,-6.3977387984,-6.5679258267,-1.1484644971,2.6555142819,-5.0318276271,-2.3576288302,-4.3301648405,-0.2185965976,-6.0236678272,1.1368236153,6.1270826265,0.5408104779,-1.6138992147,-3.2212729825,3.5773047183,-8.256714102,0.3355149909,1.4220890412,-1.7354492743,4.0549981985,0.18540936,-1.6024096079,9.0699088235,0.6682027807,0.6969496649,1.3086554501,-5.4759255462,-0.0190684147,-0.5245991722,1.5700677065,1.9132515351,1.3364343503,-0.2454583006,-1.2952056119,-1.4963931635,0.5351003915,2.1615050644,6.1703363898,-5.4881846033,-3.9330878201,-6.5354924268,-0.3235793899,5.5456766546,-0.179765544,3.1429121794,0.0955287721,-1.146164676,-7.1813149262,4.3011798026,1.7743049309,-2.8981713815,1.6128751171,1.3694218897,-0.6088152422,-1.7000950788,-0.4460558456,0.7842688684,-0.0464681559,0.2497710413,0.3148622405,2.6038837051,-2.0810294819,-3.8510777996,1.876060664,1.6424024748,0.9232000116,2.1252139161,1.2182190625,5.2706659745,-2.4702870631,-1.636709342,-0.6701263746,2.1789297819,-0.6385521667,2.5047545571,1.6396552264,-4.9673736952,6.3621211506,-5.7963740012,-3.0233562325,-2.1719307724,4.2210852333,2.9054854905,2.9938417881,5.1155146438,-2.4439585397,0.2609885984,-5.6961042328,0.699032051,-7.9066953446,4.790596167,-0.637102681,-1.1908895553,-0.5510768499,-5.8160867092,-0.2078339062,4.3994589575,3.371678531,3.5633541006,-0.0238035236,-1.0590959542,-0.5317627571,0.8078904851,0.783106954,-1.1977676446,-1.2715402407,1.0496514681,0.4885846155,6.2894863357,-2.2573372924,5.6858344597,2.1364400699,-3.6208236394,-1.7779402406,-4.0580176127,-1.6913019476,5.0107854572,-1.5002221485,-2.3510258376,-10.4403158151,2.4217011232,1.6236379933,5.6446843994,0.1296528362,3.4430875204,-3.1968222844,1.1527744846,0.521666779,-3.6960955359,-1.3420241303,-3.1837799693,-0.2997136024,-4.7350134573,-0.6928854165,3.9316132419,1.4333833258,8.1480944602,3.3796282684,-7.2170914721,-3.3666506439,3.050912193,3.550985623,-0.6606122157,5.4135253237,-3.6758123973,-2.5134015291,-2.1209414544,-2.1535717836,2.5157546868,1.7231836601,-1.7816125935,-5.1452314866,-4.2595017926,-3.4606101234,4.1959244952,0.3798726314,-7.2557216394,11.8355589875,-3.718008021,-1.5437154997,1.1262005641,-0.3792400968,1.6300720211,0.0022037324,2.8021540228,-1.0899616855,3.2841642442,-5.8196501423,0.2612594052,1.0544955924,-1.7156579477,-1.4468068096,0.7720703569,-0.6138408245,5.3732069035,-1.5975585517,-6.4385360759,-1.5737261289,6.3043736448,-1.3155892263,-1.625704986,0.0019945506,-5.8225032695,-1.6278666499,10.4582869006,-2.0754176142,8.7543069183,-1.4097101852,-1.8545609038,-0.0445664644,3.0164938594,0.3435279307,0.0737174212,0.3750759985,-5.5659426927,0.4127604058,-1.1933245414,0.5185419411,11.0449229514,-3.0740317202,5.7662632607,-2.4106962308,-2.9387059783,-2.9262912777,-1.0621370809,-0.4347808365,0.0164218904,1.2222484852,-5.5468773277,1.1629127534,-8.3647675546,0.537647301,0.1733010422,0.5019938649,0.1313345763,0.0287431911,-4.7254493051,-0.4375035494,-4.0636887746,1.2664563598,3.6445972704,-0.7445790809,-5.4212211823,0.6263289637,0.2178864656,0.1015250391,5.3402904906,-0.8025054385,-0.8740834125,1.7242432999,-0.2044631528,-0.5395085141,-0.7577089402,-0.9184330596,6.5295330347,-1.9730969706,-11.4001246691,0.1470010908,0.6470198997,-1.0176333848,1.5469351366,-0.7427353222,-7.3254494045,0.5736251173,0.5951772394,0.5709018982,1.3887016127,0.1667465576,-18.1218541236
biasActivation=1,1,1,1,1,1,1
[BASIC:ACTIVATION]
"org.encog.engine.network.activation.ActivationSigmoid"
"org.encog.engine.network.activation.ActivationSigmoid"
"org.encog.engine.network.activation.ActivationSigmoid"
"org.encog.engine.network.activation.ActivationSigmoid"
"org.encog.engine.network.activation.ActivationSigmoid"
"org.encog.engine.network.activation.ActivationSigmoid"
"org.encog.engine.network.activation.ActivationLinear"
