encog,BasicNetwork,java,3.4.0,1,1573287973317
[BASIC]
[BASIC:PARAMS]
[BASIC:NETWORK]
beginTraining=0
connectionLimit=0
contextTargetOffset=0,0,0,0,0,0,0
contextTargetSize=0,0,0,0,0,0,0
endTraining=6
hasContext=f
inputCount=2
layerCounts=3,8,8,8,8,8,3
layerFeedCounts=2,7,7,7,7,7,2
layerContextCount=0,0,0,0,0,0,0
layerIndex=0,3,11,19,27,35,43
output=0.8837222238,0.7954549523,1,0.8574008809,0.8234322845,0.3897872823,0.0001366358,0.2210093691,0.9538620773,0.0000000778,1,0.9999069935,0.9999678229,0.1866564615,0.5347339861,0.9971213769,0.0086704819,0.9915798368,1,0.1025226568,0.7392482464,0.9703574997,0.9895278627,0.0931490679,0.0213207628,0.7344205323,1,0.4499870316,0.5625429642,0.0836708425,0.1595889786,0.7336270461,0.8067248241,0.5546317495,1,0.0000000003,0.9999995845,0,0.0463630673,0.6262072545,0.457251361,1,1,9,20,1
outputCount=2
weightIndex=0,16,72,128,184,240,261
weights=-10.8248435462,13.1904217751,-7.802687719,-0.2413035516,0.3012689382,-1.0014346305,-2.957310783,4.3780409929,5.9485883315,-6.3848408642,-3.4201407469,-10.8379965609,12.3397541852,-5.7866600327,-11.5039612203,5.6423686004,1.0215048682,-1.0472404335,2.6223702268,-9.7803830315,0.2108253765,-0.6621284097,5.8731644351,0.5318970331,9.144998436,-3.6851070206,-2.8231918735,-3.4952041069,8.2959075098,1.9453463669,-8.1556822983,-1.7252948472,-0.0004435825,3.902963986,3.4415969556,1.4875495574,0.3895348907,-1.1984073589,-5.7455714214,-0.4692709513,-14.3408050864,0.416510312,-1.5905622152,0.6352118598,0.1059297271,-1.5234461857,2.9719146065,1.942832497,-2.3716582125,1.0346829765,0.0106802077,5.3261805342,6.0500716118,-5.2617773011,-3.9171992499,-4.8759070497,-6.0784562536,1.9675064271,-0.7167405409,-2.9131538875,5.0650365583,-1.2933903066,3.5200957029,0.3011804679,5.597898433,-4.944502828,0.9918989967,-9.5169324564,-12.7358761015,2.5301388054,-1.6751376716,2.2206368279,-11.2763322945,-1.5001992688,3.65201464,-0.9695731872,10.4843691875,-0.026979918,5.6373096158,3.8473173462,0.0473627366,4.4658617636,3.5389967205,4.1292781251,-1.6909699575,4.2182372878,-2.2502182549,1.2380415102,-4.9017850543,-2.593358693,0.6246588163,1.1934157059,1.8643329919,-0.9740152499,-0.0576117535,-0.9498471982,2.9426481406,-3.6256613341,2.4514816479,7.4944302079,2.4690174852,-5.7833592941,-3.0745108773,-5.1257224748,7.0015097508,-2.1087315871,-0.4632447359,11.766900592,-8.8087270228,-0.4286132548,-1.0479627404,-2.9062314142,-0.941596283,-2.6089476068,-2.943059711,-2.2875941669,2.6244855923,-1.4801582566,3.1639704464,-0.1310646375,3.9885330966,4.6819005498,-0.8295796583,-4.6551680189,-6.5401307573,-4.1238764633,4.9390327315,3.3798800037,-2.8778393814,-4.7655778211,0.6424237315,-0.9382726984,0.5283395353,4.6262627277,6.2554536318,-5.6868838881,0.3802773548,-3.4588023347,-1.1133634418,1.0637943931,1.0977439359,-0.3753708694,6.767358141,-1.5158491236,2.0281640784,-1.3566550026,1.5120483288,1.0831859466,-1.1770149047,3.212556428,3.1844585881,-0.454755185,-3.5411837416,-2.6868698599,2.6846643192,-3.9424108764,-0.8570193637,10.6233470591,4.9083089972,-2.6056757274,-0.9819797412,4.1795849919,-1.6269645919,-1.9156357211,1.6346365863,-6.9117316909,-8.7492326724,5.4860030175,1.9657541599,-4.1217601394,3.9365969186,2.7014464558,-0.0766943143,-1.2322290984,3.5878905803,-4.0925419441,-2.0234087194,2.2273331883,-4.4686988582,-2.1510966095,1.5520864869,-0.8553281084,-2.3527099724,2.2481453073,-0.7830593079,-0.0480661304,-0.7022866964,5.1985659526,-3.4745409856,-2.4701582147,1.4981978216,1.4133897097,-0.5953083947,-0.5108954337,0.3746798597,1.6505682136,1.9389699361,3.0335404715,-0.866953751,-1.0484749675,0.6787811088,0.6225662232,0.9678845856,-0.3355240697,-1.8562891793,-7.1388460918,0.8687217873,0.557451933,0.6950709947,0.8737975484,-2.0830853055,-1.2384763325,-3.5512386903,-2.574455729,0.4673618003,0.4559559354,0.5232842773,-0.0976084646,0.7746507377,-1.4583185863,0.650117576,1.2840900159,-0.0551178188,0.2391814944,0.3291389456,1.8508866256,3.7747662259,-3.6299534107,5.8742967971,-10.3116009376,0.7051931664,0.0775507132,-0.5631645656,0.5400725718,1.5856012637,-4.6786428601,0.6171103199,-10.6594729805,2.06638066,2.3174857058,-0.4925809418,-0.8468461126,-0.5385352906,0.7654341452,0.3946434591,-0.0880573388,1.4044083596,-2.9678059478,-1.1611194804,9.321490365,-4.2342253148,-2.2326868354,-0.3031267662,0.1521425029,0.2012707437,-1.2144388053,0.1598152211,7.5622317882,0.9466014579,0.9227985735,0.1285511259
biasActivation=1,1,1,1,1,1,1
[BASIC:ACTIVATION]
"org.encog.engine.network.activation.ActivationSigmoid"
"org.encog.engine.network.activation.ActivationSigmoid"
"org.encog.engine.network.activation.ActivationSigmoid"
"org.encog.engine.network.activation.ActivationSigmoid"
"org.encog.engine.network.activation.ActivationSigmoid"
"org.encog.engine.network.activation.ActivationSigmoid"
"org.encog.engine.network.activation.ActivationLinear"
