encog,BasicNetwork,java,3.4.0,1,1573972626862
[BASIC]
[BASIC:PARAMS]
[BASIC:NETWORK]
beginTraining=0
connectionLimit=0
contextTargetOffset=0,0,0,0,0,0,0
contextTargetSize=0,0,0,0,0,0,0
endTraining=6
hasContext=f
inputCount=2
layerCounts=2,8,8,8,8,8,3
layerFeedCounts=1,7,7,7,7,7,2
layerContextCount=0,0,0,0,0,0,0
layerIndex=0,2,10,18,26,34,42
output=0.000000497,1,0.0136552131,0.9942448281,0.9051039336,0.0001143715,0.1776866143,0.5074399981,0.9929147749,1,0.4620679305,0.9692916691,0.4579984671,0.0017638077,0.7695785503,0.0326009387,0.6875085511,1,0.1231042052,0.2090701031,0.0000346635,0.5740537172,0.0149196108,0.0315489712,0.9946560317,1,0.0033367415,0.1027053621,0.9756693262,0.9317904748,0.002054827,0.0480972421,0.4216482123,1,0.9988588284,0.9999996857,0.7163101948,1,0.2217985756,0.999999869,0.9999875549,1,11,15,1
outputCount=1
weightIndex=0,8,64,120,176,232,253
weights=2.4580367763,-5.3446526495,-1.4197230977,10.9807373832,5.0154229458,-1.0254544992,-6.1377849302,-2.227047713,-0.3658170919,-1.1974408344,2.2074670655,-0.3745679368,-1.7550890369,-0.6237442635,-2.1278652644,-1.1265996163,-0.8647168126,2.1203443341,-2.6797555514,0.4691849478,0.4978574723,2.2636231376,4.9214681033,0.8822186904,0.5335051927,0.4245870013,2.1043575279,1.3639193572,-0.3918587693,-0.3136573463,0.2431140897,0.7756536413,2.1677554016,-7.574393393,7.0413108123,8.0585802732,-3.8106635478,0.8055644569,-5.8408721683,0.9470704752,1.35845733,-3.6262573422,2.7219711101,2.3991472138,-0.4184140718,2.3198118522,-0.5424490386,0.7235238725,-0.288041445,0.4980688335,0.4913818059,-0.6974948705,0.3503134302,0.2673911983,-1.0404656528,-0.106720807,-0.1433635201,1.3336624186,-4.3332084182,0.1684056904,0.5897785047,2.2133481811,5.6643466312,1.2801499218,1.0934245152,-0.432870308,0.6716824898,0.9930765906,1.5762389964,-1.5062765498,0.2213016018,-0.9623422484,-4.224129247,-2.017305746,-7.9703367473,-1.3335243566,-3.1515285152,1.1537229427,3.4456605067,1.7429626722,6.4284781317,2.8152922169,-0.7251541115,2.296417329,3.95285537,-4.7970734212,-1.9129328234,-0.8715330466,3.9854794294,0.966319659,4.1657300355,0.0941459408,3.2584198528,-3.0851990613,-3.6902575075,-3.3661046483,-1.8979555221,-1.2145117741,-0.0654080877,-1.3029883437,-2.0278346689,1.026882605,1.4712938184,0.9759111263,0.1249356604,-0.6222719383,2.6204849126,-1.4435815178,0.6441452123,0.9049132635,-1.3674697432,-1.1249466036,-4.4113808699,-1.7119818488,1.908701991,-1.0692371489,-3.8524516207,6.0162556048,-0.2137276373,2.3834702047,6.7285717595,-5.6145308313,0.3608544801,-3.2236665773,4.0087819262,-3.2240263944,2.4827568148,0.3425205612,2.721813606,-2.5192918474,-0.4737907934,-1.4017026033,1.4832005801,-1.6425765839,0.3148989153,0.6306584692,2.2138007992,2.1583771424,-3.207120192,-9.5982736365,4.2564778936,-2.0150920084,3.3673405657,0.242158316,1.8002879219,-2.0481213313,0.0282864158,-0.7191190003,0.9305243509,-1.5962158592,0.1280663436,1.1660882976,3.5070331466,-4.4633137802,-0.9228914782,-3.3115118772,3.910215959,-1.7057059162,2.2595209212,-0.6359884381,-4.0069346945,6.0484617759,1.2772744888,-5.6053890536,-1.7800810732,0.3994923292,-2.1244594577,0.8250721096,-1.2721853649,0.5953393007,2.8120023131,3.0888605352,-0.7609710009,1.45711226,-1.2875376668,0.0221421986,-0.5073202711,-2.3799429421,-10.92789711,0.0411730916,12.3897181702,0.6507254212,2.5561172414,-0.9809762957,-0.2261728409,-4.132688165,-2.9014147383,1.1220716631,2.5266136417,1.3782009505,0.6395992474,0.5691315825,1.9122543299,3.219791632,-0.7543113135,0.9018467573,-0.8314046182,-0.5459609958,-1.0116448923,-0.0580051544,0.1741687315,0.7747155689,-4.5745348079,1.4621347741,-12.3794174766,2.1661424741,3.3165643846,0.7435614636,-1.3919355665,-5.7906028632,1.8593169739,0.1920235384,-5.0785311077,-0.6289365575,1.861423167,-0.6344823256,0.7186469725,2.5119866176,-4.0568429472,-0.4918301867,-2.2427163218,-0.7423449583,-1.2554186274,-0.3220834474,0.0066066198,-1.7463780627,1.4256610867,-1.5189193757,-0.209275227,-1.6111643906,4.9326272608,-1.3535134749,3.0428465822,-1.8213182825,0.6230198117,4.8140699522,-2.540276043,0.1223665267,-5.0555188513,3.6695434106,1.4937881053,-0.0421461978,2.5810187896,-0.0546631303,-1.7127776168,-0.1970863816,20.5416337705,1.224159197,0.0974183361,0.9212509508,-1.1332079277,1.5075974887,1.1454941341
biasActivation=1,1,1,1,1,1,1
[BASIC:ACTIVATION]
"org.encog.engine.network.activation.ActivationSigmoid"
"org.encog.engine.network.activation.ActivationSigmoid"
"org.encog.engine.network.activation.ActivationSigmoid"
"org.encog.engine.network.activation.ActivationSigmoid"
"org.encog.engine.network.activation.ActivationSigmoid"
"org.encog.engine.network.activation.ActivationSigmoid"
"org.encog.engine.network.activation.ActivationLinear"
