encog,BasicNetwork,java,3.4.0,1,1573288149210
[BASIC]
[BASIC:PARAMS]
[BASIC:NETWORK]
beginTraining=0
connectionLimit=0
contextTargetOffset=0,0,0,0,0,0,0
contextTargetSize=0,0,0,0,0,0,0
endTraining=6
hasContext=f
inputCount=2
layerCounts=3,8,8,8,8,8,3
layerFeedCounts=2,7,7,7,7,7,2
layerContextCount=0,0,0,0,0,0,0
layerIndex=0,3,11,19,27,35,43
output=0.9998328605,0.9999785254,1,0.9891963146,0.9999360569,0.9503594209,0.63123309,0.0017927259,0.0632670272,0.2302592843,1,0.4770931152,0.9944127875,0.0137542175,0.0182466823,0.00000006,0.0003436521,0.0977421492,1,0.9999999195,0.9854637849,0.000002995,0.0000306874,0.0000000065,0.365608537,0.533711934,1,0.9909158175,0.6610088026,0.4821583891,0.0301152643,0.9625790186,0.0154552139,0.9897040343,1,0.2191323093,0,0.9999994836,0,0.9999996241,0.9999997557,0.0000001579,1,9,20,1
outputCount=2
weightIndex=0,16,72,128,184,240,261
weights=4.3818072259,7.886139909,3.8316168099,-8.2445333257,-14.1235227992,-1.6189145931,-12.3601502687,1.0130036423,-1.1313109877,27.1558726385,-8.8029055742,1.6580665379,-4.5563052241,-14.2914109174,5.8006511596,-8.3904411878,0.8830830166,4.543028272,0.940294333,-5.1899276749,1.1182994059,3.9011740523,-0.5360134649,-0.2891363979,12.4057454171,1.3350028879,-6.8360150899,-3.1204328109,-15.1863369006,5.6455143701,1.9973838014,2.3650064154,2.0949995205,2.4856826652,-0.2900203007,-0.5089952973,2.5981333559,0.7046073552,-1.5035304654,-0.3592803688,-1.2848723406,0.0964072608,-7.1476591113,1.2372183423,0.4117019935,-2.754701723,-0.5230861798,1.1824550922,-0.9598514746,-4.8775370747,6.6995256347,2.7949322237,-6.152216322,2.6543400525,-3.7381551083,-0.7926813306,-8.6158534397,1.0919099102,8.3914218791,0.3636580954,0.17910498,2.5076416219,6.5836500927,-0.4366936559,-2.7329959596,0.8526678422,11.7281330374,-1.7350599791,10.3714048573,-9.7215316901,-0.7314037659,-0.8056810041,0.6580191343,-2.5936671879,2.1190042983,-7.0935593848,-9.3066613094,-1.3873374416,8.3611601565,-2.1487628715,1.756382071,-0.9264040096,-5.3828801789,2.1894562251,0.7481212246,3.0583533801,2.1824610876,2.0552108546,1.2846619604,-9.3218372708,-1.0303681309,-6.210012334,3.0195503678,6.0553652063,-2.4023369715,2.6975674222,-0.2002364187,0.1464167207,8.6735514388,-1.5538943294,0.2455261672,-2.8837034321,-2.811553666,-1.3745207305,-11.7032790201,-1.6185098215,0.1047696211,3.8773366444,4.5183345912,-2.3542462685,-0.8552268457,-2.0130064145,-4.8801255738,1.03491292,-7.2360445112,8.1326532197,11.4138128083,-0.6144634282,-1.4715096934,-3.1054937322,1.0970435753,-2.6970203427,-3.3364040516,1.9299071668,4.8748989469,1.2510668188,-6.0315754098,2.099878728,1.5774939616,1.3902565211,-2.9232864142,-4.1670540915,5.3606178556,-1.5334662567,6.9676589321,3.3556516564,1.8198829301,0.0401040508,-3.1946847329,-6.0003581611,2.3394183414,-7.810958563,3.0323967112,-1.0246744791,-12.8281073866,-0.0851659624,-4.1297373116,-4.8351013436,0.3543669478,-3.6050804051,2.1221172344,-0.1995470236,1.3699782148,-0.5604816148,6.3069358082,3.9706443547,-4.1164846185,6.3459743391,-7.9368643622,-2.819686428,-7.1258688766,-0.4668921874,2.1508476405,4.8089376761,-3.8093014238,7.2815624907,-8.923464277,-0.2720266923,3.4291541084,-0.8523301349,2.2198810287,1.0336815718,-1.3621809657,1.3489137984,-2.5436799726,-0.6793228056,7.1272810366,2.263927962,-5.5683791358,1.5650619708,-2.32389996,6.1453839414,-1.8037524015,-1.8591105852,7.960144861,-8.1103419966,0.2944707927,-3.4731322166,1.1812257788,1.8124146689,0.5283518164,-0.3403403456,-0.8821494257,-2.0636221445,-0.3990199737,-0.5491248497,0.1273848608,0.2149534371,-0.449313684,0.9177820982,10.062490064,-7.9362972235,0.1261803597,-2.4075123351,-1.1846968161,-0.0514317305,-0.7613031967,-1.1664655278,8.1033544931,-4.8010491317,-1.3742327118,-1.1366232928,-2.1384973024,-0.845059206,-0.8854761396,-0.8900642149,-6.4161555949,2.6445492241,0.7617061016,0.4276014864,1.4960858345,0.9938185061,-0.7978165188,1.401762488,15.3260443955,3.4485946178,-2.1505808291,-5.5624645028,-1.6566567741,-1.0992827154,0.431321116,-2.6061462285,-11.3995495083,-2.7713524629,1.7509101964,0.9499970282,1.5303572134,2.2368443223,0.0872591497,1.5455536915,1.7988393211,0.1423457323,-20.3071985616,5.8337590055,-4.3197223158,-0.2761157417,1.0316936564,0.2246977311,0.6970964601,3.0828141913,-5.2896377247,0.1702430896,0.7529967266,0.3723090605,0.5707267658,0.8659891541,0.3247215455,0.936675237,-1.0312717856,-0.3183273284,-0.0131895
biasActivation=1,1,1,1,1,1,1
[BASIC:ACTIVATION]
"org.encog.engine.network.activation.ActivationSigmoid"
"org.encog.engine.network.activation.ActivationSigmoid"
"org.encog.engine.network.activation.ActivationSigmoid"
"org.encog.engine.network.activation.ActivationSigmoid"
"org.encog.engine.network.activation.ActivationSigmoid"
"org.encog.engine.network.activation.ActivationSigmoid"
"org.encog.engine.network.activation.ActivationLinear"
