encog,BasicNetwork,java,3.4.0,1,1573288297855
[BASIC]
[BASIC:PARAMS]
[BASIC:NETWORK]
beginTraining=0
connectionLimit=0
contextTargetOffset=0,0,0,0,0,0,0
contextTargetSize=0,0,0,0,0,0,0
endTraining=6
hasContext=f
inputCount=2
layerCounts=3,8,8,8,8,8,3
layerFeedCounts=2,7,7,7,7,7,2
layerContextCount=0,0,0,0,0,0,0
layerIndex=0,3,11,19,27,35,43
output=0.3255814223,0.2525248981,1,0.9998966574,0.9925977611,0.9998850259,0.3166039024,0.9999998652,0.2750343613,0.0050903156,1,0.8719592082,0.9999778301,0.0000822341,0.9383140682,0.0001750537,0.1367554441,0.000001898,1,0.6644074395,0.0147767485,0.0012879401,0.8102232505,0.4305684203,0.003703816,0.9903304278,1,0.9987074665,0.0101649542,0.9939234541,0.0759206169,0.9983257264,0.999677372,0.3574613112,1,0.9999999994,0.0000000126,1,0.6680855787,1,0.6386851472,1,1,9,20,1
outputCount=2
weightIndex=0,16,72,128,184,240,261
weights=9.5893917762,10.0036474281,-13.9585548923,4.5755164103,-9.4904814242,4.0037968388,0.977962974,0.6464067661,-0.2863557013,-8.8731339223,6.0420282734,7.2806236072,-0.1872893305,-15.451890814,-11.0985310438,4.1557656374,1.3279935265,8.5261715471,-5.8632284431,-4.3142167205,1.1831605929,1.2791052326,4.3310811135,3.3668511465,7.720889008,-1.5776699256,5.4288112217,2.7862491705,6.1539516649,5.9823210167,-6.6287340145,-3.6901252038,3.1634023885,-1.2813937164,6.8013023872,5.522840336,3.8866248918,7.4563971618,-4.6877610587,1.3906034005,-0.5918843526,11.6324672746,-2.8336834857,-8.7589265391,0.3328293479,-5.8406126403,6.4117504745,-2.8680113659,2.7252166609,12.8651757344,3.2671291849,-0.2275599915,-3.7548874253,-6.3694261982,1.0673979612,1.6633755432,-2.7761609452,5.6321401535,4.2560401964,-6.0491258531,-1.4515979593,1.3398966068,-6.219939509,1.3121132461,-4.5659428809,-3.8747419354,-1.5177587972,1.8912775753,4.5459129529,1.3138130677,-9.3508633162,0.6257231676,-0.4996741194,1.7962886825,-3.8296450381,-3.1587617628,0.8769759661,-0.4263755198,5.4054848888,-0.9411628857,11.2689260907,-2.8931270125,1.0512449685,4.6647476076,-11.7011894932,0.8438640383,1.6301532308,2.9121511188,-5.6593235463,4.5196759587,-2.0986990061,-7.1640335282,6.5487712181,2.5963948344,-0.3172395436,-2.4205171177,-11.7212073318,0.0228831589,-2.7696819055,2.9531793043,7.3719467908,-3.0524193691,3.3127917622,1.67660032,-1.9052587599,3.8138765404,-0.2865683042,-6.6719130346,1.5084567387,3.8738578407,-0.615275685,-2.089138566,-5.5478236081,2.5809166633,4.2441140756,-3.203317578,8.5849025649,0.027458253,1.756211353,-1.0404090172,0.7173870228,6.6515713368,3.9617189304,-6.3973318077,-3.4388510287,5.5152924006,-4.877994357,-2.2804020248,-3.2026417944,-0.8840770227,-2.8210394589,-4.7227933604,-5.1715408831,8.9551125994,10.8495359294,-0.6146891488,-1.0368070749,7.2413274189,3.617481536,-0.5370436541,-1.454493741,-4.8153444088,-4.8599574361,1.2104148989,-1.2736503578,2.6100123472,-0.972862438,-4.798398405,-0.697012273,-4.2917161524,3.9486010814,-0.5019960619,-0.4405748632,-5.7721715704,-2.7344285644,1.7793137165,1.5655001387,3.7144953465,7.7161561434,-3.5015364994,1.517709904,4.4391445951,4.4528660945,0.0127761996,3.4306865675,-8.1025382539,-9.4292852261,1.7784038178,-1.0705839708,6.5224386683,0.4483540824,-0.1628655084,-3.6000284818,-2.4992500987,-0.3903440778,1.2069318928,1.0249604337,-2.2310574629,0.0889710695,-4.674086287,2.1788953237,3.1083072119,-5.5718692431,0.6037026731,1.1951662347,-1.069447378,0.4064161375,1.463609451,0.3237117479,3.3682211668,1.5693893252,0.0261250519,-0.0823158885,5.1936969882,-1.8314842636,3.6291024213,-0.4200339528,-8.8406320385,-0.0320639776,1.0091350377,-0.9274055542,1.771492867,3.9727421544,1.126270214,4.4101684229,-0.3337874657,-1.7689677403,-1.1285733311,-1.2538320522,4.8310546172,-1.656989107,1.5341019659,-1.7848937121,7.048066905,-2.5364189694,-0.7933829697,-0.4287407014,-2.7606854888,5.8511009199,0.0884851841,-1.6163666005,-0.1854153005,1.9365414443,0.7074714773,-0.5164015984,-4.0391430264,0.7606184302,1.7359165279,-0.4010443136,13.8338988317,-1.0128551066,-0.786875808,0.7074946529,-8.0846421069,-7.091752569,15.902715914,1.5974294456,-11.2602800071,-0.2717442595,1.0395713665,3.0736176763,-0.2947847092,-0.5129449902,1.2487678008,-1.576412379,2.100137836,-6.2568017133,7.7588948382,0.6186836482,1.6609097695,-0.2388405092,-9.4718386337,-1.2680060478,2.8202629367,-1.055007155,7.6278444626,-1.6731487602,-34.6179631016,2.440583896,0.7372245507,0.6298996439
biasActivation=1,1,1,1,1,1,1
[BASIC:ACTIVATION]
"org.encog.engine.network.activation.ActivationSigmoid"
"org.encog.engine.network.activation.ActivationSigmoid"
"org.encog.engine.network.activation.ActivationSigmoid"
"org.encog.engine.network.activation.ActivationSigmoid"
"org.encog.engine.network.activation.ActivationSigmoid"
"org.encog.engine.network.activation.ActivationSigmoid"
"org.encog.engine.network.activation.ActivationLinear"
