encog,BasicNetwork,java,3.4.0,1,1573288539710
[BASIC]
[BASIC:PARAMS]
[BASIC:NETWORK]
beginTraining=0
connectionLimit=0
contextTargetOffset=0,0,0,0,0,0,0
contextTargetSize=0,0,0,0,0,0,0
endTraining=6
hasContext=f
inputCount=2
layerCounts=3,8,8,8,8,8,3
layerFeedCounts=2,7,7,7,7,7,2
layerContextCount=0,0,0,0,0,0,0
layerIndex=0,3,11,19,27,35,43
output=0.9999989072,0.9999628486,1,0.1474765872,0.0142823458,0.9960977324,0.9640813786,0.0098170127,0.0000743881,0.0000006722,1,0.3367257788,0.9990448123,0.5759262263,0.0004645074,0.9838212346,0.0188167254,0.9660321158,1,0.9257476475,0.0032520755,0.7753043613,0.0014985058,0.4044084301,0.0090009408,0.5684014581,1,0.6577261073,0.888350256,0.6464020569,0.0334971742,0.8940354503,0.9999206688,0.7564116056,1,1,0,0.9999987614,0.0952813329,0.7157439795,0.0000000013,0.0000001185,1,9,20,1
outputCount=2
weightIndex=0,16,72,128,184,240,261
weights=-6.6043890018,3.5493870457,13.1957318234,3.5273593503,-8.758491869,-2.7279464503,7.6354944646,-1.8086461033,-2.1149225946,6.4874694582,2.3052688929,9.1261827835,-9.8677212465,11.6602867836,-9.9763032229,-0.5789287613,3.0181784045,-1.3803790205,0.0716656351,2.2014564362,-1.457288421,3.9298303253,-1.9583332552,1.8175116474,1.5481436969,1.1312565449,1.4601523344,6.8762039422,-8.5958258971,0.2836435382,2.0439911517,-0.2530979793,-4.4893200225,6.5579077953,-5.503441102,-4.938700092,1.8980626793,-1.8311004312,1.6524969092,0.2449195706,4.7564819374,9.5232295857,-0.7206215189,1.5757288083,-3.5082157882,-2.5804424643,-3.3728558506,-0.6532507183,9.6089250162,2.2414516473,-0.1574866599,2.2522488953,-0.5798057015,0.6377625787,-10.094921133,0.3114407954,4.4332471384,-3.2043236347,-1.2483371298,-3.4528711379,-2.4546945894,4.3728858358,-1.9482403122,-2.862351946,6.2344367778,-2.015231395,0.4955719923,-2.9455047941,-3.8675168671,7.1609312545,-9.161326027,-2.0624201018,-4.6850214552,-0.8436775923,-0.0200088217,-5.9434224614,2.6481215212,8.0857452634,3.5671896763,0.5150930538,0.552054362,0.9260875182,6.4813413997,-11.9549859516,-0.5334430522,0.4787177634,1.5502126917,0.7617514555,-0.259833965,-2.275187532,2.135856667,-2.8176603001,0.8424202465,-2.0215746175,-0.9208667037,-0.8967686056,-3.8478812098,-2.51395141,-0.8712268487,-0.199864783,-0.9726088236,7.2979281845,-2.6057899247,-1.6191826598,2.8945461564,7.1348696208,-1.2570541646,1.3279721827,3.5325290165,-5.3467879052,0.4222770588,0.75705049,-9.8270005333,-3.2382691397,-1.504094969,4.7349340265,7.0013475677,-1.0368621424,6.1997087052,-0.0331180697,6.1018807327,-0.6540608361,-0.4793108188,-1.5934189614,-0.136948673,-10.0850992947,-2.8984353824,-0.1312601007,5.2345798462,-5.0151970687,-0.413753009,4.234250128,-0.2913065114,-1.7668105853,10.1767592339,-2.0096306475,0.9145253952,-3.8257196233,0.2582001885,3.8643415555,-0.1773499284,-6.0360964316,3.3294304763,0.4512764778,-3.1316917104,-1.0136019238,0.9858863097,0.6991572479,4.3592816927,-1.3829766513,0.4277930487,0.6999660435,6.1373843722,1.6870246453,-2.0931256837,-1.9007078499,-8.1225552454,2.7433531349,-4.2975257175,-2.8510896116,2.0580116225,3.5664884797,1.1211392119,0.4566717276,0.4471134193,-1.6495058408,-6.7260384257,0.6882606148,-9.9650842047,2.4740684671,2.3384806755,1.8119478766,5.7944979733,-4.9879912074,-5.8078818558,2.2830364962,-1.1692733606,4.3994735856,-0.052339412,-1.3056621205,0.6561542909,-0.5694824077,-5.1133439548,1.0642932751,-0.0301875551,-3.956000948,-0.4484447786,-9.2609700707,5.0636800719,-4.5654256033,-0.0486001265,-1.6100918415,-1.7967896753,-0.2205492167,-0.7450243306,3.2200237263,6.0773259723,-2.0449360215,-0.5265010658,-0.0408050688,0.1609144503,0.2164340092,0.1602505962,2.1533982214,-0.6281402913,1.1545862617,0.5081337629,0.5265052451,0.5153411043,-0.4733566237,-0.7005174613,0.8657319513,-5.9611713533,-0.5217799341,0.4197532311,1.0071367142,0.5403616144,0.0445292713,2.7267723623,7.5060856837,-5.5439781803,1.5483094395,-0.2095939788,2.1183894063,0.848905726,-2.3816257685,2.1620813377,-6.4341216107,7.1203270884,-2.0923700325,0.8876731557,1.9475359611,0.4474434351,-3.6095721642,3.3695300065,-10.8637393683,-6.2478576766,-0.6284818102,-0.3862598418,2.8231146492,-2.677740502,2.6289253132,-0.0318956637,3.54761376,-5.2919042916,0.2066119373,0.8366984466,0.2923649893,0.2239500467,0.3771618962,0.2588251038,-10.8217492586,0.5837112426,-0.4601903159,4.8738523555,0.2862024008,-1.1338323959,-0.335998858,-0.8221147153,-0.4602161939,0.6546027266
biasActivation=1,1,1,1,1,1,1
[BASIC:ACTIVATION]
"org.encog.engine.network.activation.ActivationSigmoid"
"org.encog.engine.network.activation.ActivationSigmoid"
"org.encog.engine.network.activation.ActivationSigmoid"
"org.encog.engine.network.activation.ActivationSigmoid"
"org.encog.engine.network.activation.ActivationSigmoid"
"org.encog.engine.network.activation.ActivationSigmoid"
"org.encog.engine.network.activation.ActivationLinear"
