encog,BasicNetwork,java,3.4.0,1,1573288568315
[BASIC]
[BASIC:PARAMS]
[BASIC:NETWORK]
beginTraining=0
connectionLimit=0
contextTargetOffset=0,0,0,0,0,0,0
contextTargetSize=0,0,0,0,0,0,0
endTraining=6
hasContext=f
inputCount=2
layerCounts=3,8,8,8,8,8,3
layerFeedCounts=2,7,7,7,7,7,2
layerContextCount=0,0,0,0,0,0,0
layerIndex=0,3,11,19,27,35,43
output=0.9999997561,0.9993758269,1,0.0122342534,0.0348970205,0.9999362255,0.967228209,0.9495521731,0.0000186426,0.0744487098,1,0.9921820489,0.7960152497,0.5721900713,0.9937116822,0.0141523822,0.001147422,0.9560862392,1,0.0245815165,0.9903639164,0.2534951599,0.526154206,0.9337490206,0.3468638109,0.9844052957,1,0.2801149832,0.7932742355,0.0000281309,0.1539847191,0.8477434855,0.3402035571,0.8614700993,1,1,0.2873796083,1,0,0.9988105348,0.0000000005,0.5662915359,1,9,20,1
outputCount=2
weightIndex=0,16,72,128,184,240,261
weights=-2.8411716579,-9.8361077651,6.1213396976,7.4452298471,2.1508536874,-2.0782031542,-6.3520583079,0.7130276697,-5.4152096871,2.7491570838,-4.517097683,2.5604988467,10.1392642121,-8.0546930295,-7.1157442639,0.2911427817,-2.3446951864,2.8624052683,-2.6066742306,-0.3798752903,2.2414411962,1.404254394,-2.6686057761,0.0437242186,-6.1300884518,7.2644952067,5.2310846264,-4.0767510264,4.5541719121,-2.6403301598,-2.1913158193,0.071285923,1.6851945364,1.0511456957,-1.6998601748,4.1941389781,-6.7968766484,0.3717480761,4.2051390671,0.031514079,0.115023735,-0.9748039535,-1.7112497987,2.8270632107,-5.0721209832,-5.2193431503,1.9337563868,0.4455085959,1.323385884,4.3280026063,1.7278545414,-4.2365813827,-6.4261395322,-2.5142844391,1.549364872,0.0106379068,-3.4594481884,-4.3549653201,-2.5704826486,-0.4658848475,5.3707668905,3.5436812517,-2.1369152506,-0.0942610863,-10.24811937,1.8580277444,1.7745741463,-0.4707326702,-1.0548490539,5.9310372995,3.4695153124,2.3120487587,-4.0920530031,4.9636415758,1.781600673,-0.9660259185,4.7339278272,-3.9251173643,0.1817290409,-3.152801434,-6.7203788314,1.0872360936,0.6686787385,7.45893235,-1.2037951001,-3.2886182682,-0.1767590213,-1.2052969608,5.1649576649,-0.8949973897,-2.8138082399,0.9915300927,-0.3810693427,-3.0348613499,1.7481389305,0.9294213708,-6.9843382372,1.0159358511,1.1771702866,0.5707024232,2.5535708775,0.2909977584,0.751076019,0.4049143685,-1.6182339377,3.1600653836,-0.6259402906,0.6211159219,3.6656066054,-0.2473571046,-11.3024083106,0.2876084087,4.5292618608,-5.6158240625,-0.9571865886,-4.4850538671,-1.2588405266,-1.4312754057,2.3079460345,0.6837004362,-0.5763698748,-0.5623929639,-1.7249250795,-0.1269898104,-2.6033306111,1.1507019022,6.4223843327,-0.134670072,7.5399843313,-0.8513715504,-5.666117409,0.4780393042,-1.2959773192,0.5849791338,-5.5991163144,0.532101019,8.688189358,2.3996431982,3.0806982924,0.3673129837,8.0968695186,-3.5971701693,-4.0225276496,-1.9363676867,-2.083857672,-0.2382226666,2.8060497958,-0.5509723912,0.2311701163,2.1803332763,0.250925845,-1.3764945274,-6.4465430989,1.608246621,3.5229519266,1.3730931657,-3.2122095067,-0.4967820694,0.8114807846,2.6162409095,0.6839241061,6.1633164123,0.4278657741,0.2791772571,1.9471819568,-2.1315894302,-0.7863889884,-2.7261070447,0.6267771001,0.0315965922,-2.25988114,-0.5470813268,0.2459548778,5.2434521146,-2.6188785449,-0.4854442682,-3.7982096384,4.0467596556,-5.3323164833,-0.2989985064,-5.6501217431,7.9703705649,5.2726813073,-0.4189090383,2.7524083203,-5.2495901613,2.5789472184,-0.0992109298,-3.1368997949,-0.8793075847,-8.5237327142,3.1934645509,-0.5773193194,-10.654231981,-0.8806217846,3.5522178642,3.3262636861,0.8256589592,5.890757532,-0.7936673488,0.3160713264,-3.2649028822,-0.9648934029,5.1208364278,-9.0615328154,-0.0307779777,-0.393523214,0.3820775089,-0.7848491537,-0.8605480349,-0.7492550006,1.1204861188,-0.680066796,0.6877250848,0.477835898,0.4863875155,1.8343311904,-8.3282221883,2.2712426465,2.0081729659,-1.6443119255,-0.4254385455,-2.6328749617,3.1381296759,0.9565339054,4.0634567434,0.6139676073,-5.3201545854,-5.5537942731,-0.7750354454,0.734134588,1.7308106736,-1.9846278123,7.3660484285,-0.9533982188,-1.1576623249,3.2915768304,0.0519585825,1.2015808673,-1.3193786144,0.7113229304,0.9843678863,-0.6403610561,-0.7581733601,0.2337066184,1.2412830227,0.9118590156,0.9596462793,0.9552080309,2.3791747528,-4.3927782822,0.490650663,-1.1150217455,0.8442515769,-0.1167745149,-0.520067623,-0.8240771012,-0.2382990598,-0.6629183531,-0.1479448149,9.1918979367
biasActivation=1,1,1,1,1,1,1
[BASIC:ACTIVATION]
"org.encog.engine.network.activation.ActivationSigmoid"
"org.encog.engine.network.activation.ActivationSigmoid"
"org.encog.engine.network.activation.ActivationSigmoid"
"org.encog.engine.network.activation.ActivationSigmoid"
"org.encog.engine.network.activation.ActivationSigmoid"
"org.encog.engine.network.activation.ActivationSigmoid"
"org.encog.engine.network.activation.ActivationLinear"
