encog,BasicNetwork,java,3.4.0,1,1573981088219
[BASIC]
[BASIC:PARAMS]
[BASIC:NETWORK]
beginTraining=0
connectionLimit=0
contextTargetOffset=0,0,0,0,0,0,0
contextTargetSize=0,0,0,0,0,0,0
endTraining=6
hasContext=f
inputCount=2
layerCounts=2,8,8,8,8,8,3
layerFeedCounts=1,7,7,7,7,7,2
layerContextCount=0,0,0,0,0,0,0
layerIndex=0,2,10,18,26,34,42
output=0.0003000278,1,0.492544162,0.4224986687,0.9999823938,0.955675565,0.9963589554,0.7908044502,0.2099063176,1,0.8557447558,0.0702799821,0.945754997,0.9491281714,0.9890546875,0.0063135388,0.0936971396,1,0.6915287523,0.1971610349,0.0163102812,0.7895524262,0.0013727081,0.9989194133,0.0765072755,1,0.3620841883,0.8569574188,0.5408814757,0.425977897,0.9579029335,0.822279934,0.0983503982,1,0.0000004674,0.787440781,0,0,0,0.8129120154,0,1,11,15,1
outputCount=1
weightIndex=0,8,64,120,176,232,253
weights=9.5232356511,-9.3866059638,5.9182025838,-11.1411904195,-8.6387231678,8.5147465121,0.2612900574,-2.2879325876,5.8243201896,9.6734422469,-3.9591130055,-2.4144615513,-1.4311550693,2.9337489427,8.9488346154,0.900666103,5.0290671329,-9.2927032744,6.5518858564,-10.264127704,0.7258688152,-0.5736901957,-1.1760057986,-1.0216508463,-2.5034919069,-1.1528945657,-0.0266768832,4.0229288812,7.5837105935,-5.2695360656,-0.269372567,1.9353743054,2.3952847781,0.6062163526,-1.2664307927,-1.3763504714,2.1757222519,-2.8853023609,-2.4884828409,1.5820632781,-7.4350883428,-0.4747780505,0.5781961764,8.2170327921,4.8575638158,-3.8748297507,-4.654710968,-0.6819062799,-4.1788450535,-6.3512216193,0.8459883364,2.8070501772,0.3108883336,0.3752638734,3.6943074679,1.2318207931,-1.8714190686,-0.5527427277,-0.8664695785,0.817576563,0.497469163,0.2033594543,-0.2078715663,-0.1155345652,-0.0615722579,9.9476284829,-3.3901667349,2.6836445227,-2.1866180019,-2.8830583991,1.0526123856,0.6005107662,1.4389130431,1.6669939713,-5.9156317188,-6.5289838602,6.3412856717,1.2856376437,7.9870102973,-0.5586693426,0.8515732345,-0.2455591754,1.1984111743,4.3107526061,-1.8041945151,-1.832042708,-6.7410211188,1.2431652107,0.8072547602,-8.3368474724,6.8835763689,-0.966755851,3.2847716607,3.9407182917,-0.7745010193,0.7810134305,0.0786004788,-4.9391513354,6.3513629049,1.6137745331,2.002118916,3.5331104885,0.8221627947,0.4505975078,-0.2100531851,3.2542235669,-4.5400065326,-0.2379098438,-1.7402592617,-4.1909031603,0.366340071,-1.1324468559,0.6095853261,5.4780580875,-3.5632791847,-4.3022404185,-3.0380790965,-1.502418029,4.878593342,0.8157682393,1.11112522,1.34004818,-0.2863664744,-1.2008365987,0.0140729766,-0.6604242165,-0.3895096385,0.4908926224,-1.1478292167,0.8880600273,-5.3300034788,3.0170664684,-7.9366535473,9.262118578,-2.4057047911,0.0712358641,-0.9318149929,-1.8370030504,1.4951043965,1.4998143799,4.9047679446,-15.2635771546,5.3777975481,3.6882850394,-4.4260701981,-0.6751706259,-0.8062339709,1.9255852792,-2.4370803949,5.4470577947,-0.8408747315,1.0574329334,1.218272015,-1.2198715246,-1.1560513752,-1.2784017872,1.6241225037,-6.3125497786,1.5827632143,-1.3362115916,1.3068494682,4.3203993659,3.6544593145,-0.1879480812,3.2248935161,-3.9963765833,-1.7037782483,1.1215871291,2.2430267109,-4.4007920127,-2.6711996499,2.4586589334,1.9447560524,-6.9299916158,7.1745221923,3.9957062301,-0.5002500966,3.1787995889,-0.0907711895,0.7115536216,1.0740801657,-0.7419439886,0.4750539224,-2.466310583,0.129597702,0.3985269866,-1.6308297388,1.2507502268,-0.018815689,6.2706089212,0.6008860938,-3.6210239241,0.2388809671,3.8124869616,0.3882056918,-0.3836425399,-2.0883583316,1.5011010132,0.7139332603,-4.0584791008,-0.2314527667,-3.112035956,-0.9931638259,-0.7839090798,0.5735416694,0.1295231993,0.9856344742,2.0469727241,0.0873239456,6.9013373392,1.2467053401,0.507053643,0.8426946007,-4.5306740822,-0.6773511063,1.3734132861,-0.8967016163,-10.7817289376,-2.5105088062,3.1377118427,2.2126451497,16.0861136845,0.5577391302,-3.0547503814,0.8720749472,1.7893739299,0.4116436079,1.2351947078,-0.385193065,-7.0733644049,-0.931754326,2.1253071189,-0.7040544094,-0.4245450867,-0.4632092399,2.8034356395,-1.7475730471,-3.3146287863,-4.0783473965,0.7924403383,2.2557684917,3.0895822008,-4.7090404529,0.9369595776,1.3751416672,-3.8538649825,1.089633593,1.051958829,-0.1187035535,-8.3219499467,-0.3639617042,-1.9844813236,0.7166308556
biasActivation=1,1,1,1,1,1,1
[BASIC:ACTIVATION]
"org.encog.engine.network.activation.ActivationSigmoid"
"org.encog.engine.network.activation.ActivationSigmoid"
"org.encog.engine.network.activation.ActivationSigmoid"
"org.encog.engine.network.activation.ActivationSigmoid"
"org.encog.engine.network.activation.ActivationSigmoid"
"org.encog.engine.network.activation.ActivationSigmoid"
"org.encog.engine.network.activation.ActivationLinear"
