encog,BasicNetwork,java,3.4.0,1,1573288737825
[BASIC]
[BASIC:PARAMS]
[BASIC:NETWORK]
beginTraining=0
connectionLimit=0
contextTargetOffset=0,0,0,0,0,0,0
contextTargetSize=0,0,0,0,0,0,0
endTraining=6
hasContext=f
inputCount=2
layerCounts=3,8,8,8,8,8,3
layerFeedCounts=2,7,7,7,7,7,2
layerContextCount=0,0,0,0,0,0,0
layerIndex=0,3,11,19,27,35,43
output=0.7193053714,0.771910057,1,0.0038880263,0.2060105207,0.5572582036,0.1052171614,0.0904486684,0.4172478913,0.0230867513,1,0.2367492741,0.4711364908,0.0003756393,0.0000463241,0.0091011286,0.0953266617,0.9874783974,1,0.2027076251,0.9979093896,0.8415657774,0.9944973465,0.8108381237,0.6759806208,0.7154552467,1,0.8759121846,0.0069000597,0.3092333609,0.2677394866,0.0033884919,0.0937890713,0.0020271647,1,0.4333691973,1,0,0.9996780981,1,0.2230816718,0.0680851037,1,9,20,1
outputCount=2
weightIndex=0,16,72,128,184,240,261
weights=6.3837113668,6.1204526521,-8.3788282077,10.093738263,-10.2820052814,-3.2858502702,-4.4273005062,5.6656769965,9.1014585142,4.7168502182,6.6894785383,-6.2585005047,-7.7398895615,5.2871229444,5.510942675,-4.4904525748,6.5622091985,-8.8155334575,-3.7706361241,0.6778490601,-9.0132941711,-3.0400936485,-1.5955567103,-0.9974408833,5.4765177043,-5.5051403715,-3.5135987905,-0.5961699127,-5.5620771631,-1.1943534751,0.4517271388,-0.3322804662,-1.1574434569,2.3850723603,-6.3780745135,-9.1009876666,7.4201026427,-4.6143104608,0.7980974106,-1.0325797749,-6.0259813982,4.0651238887,-3.3064215172,0.1900544297,0.173755059,5.8700455799,-2.0290761477,-1.1853872496,-0.9313359462,1.5496502534,12.3977415197,-1.6837932253,1.0726303581,0.0213888208,-0.7625461225,-2.0811549472,-3.108766949,-5.1589248708,0.6621433991,-1.1022445067,13.1067344847,3.5999728197,1.1844927183,1.200156586,0.4372790257,-6.7112673463,-0.5516862541,-1.0913622406,7.0010902662,3.799249771,-0.0651459972,-1.0480410495,-0.0162793251,8.4208506866,2.6058122583,-3.712173909,-3.9423572773,-5.624098881,0.3820442346,-1.3466863802,5.9528263568,-7.7157654626,-2.1080134767,3.8527265015,0.4344936483,1.6843874352,-1.2818362795,3.7460539002,1.0313074993,-8.1082455474,-2.9332577269,-8.3039246961,7.7199135991,4.0200938972,0.4046573116,1.4558754563,2.9165608277,-7.2767244741,-2.8073743753,2.886805889,0.4842114448,-2.9829465077,-1.517589424,-1.1082646528,-0.5879691246,-11.0510991922,-6.0737443616,3.8008840994,-2.4082446443,8.9181123201,-0.3152505876,3.9382268183,-3.2991432173,-3.7517295889,-5.9687240269,5.0792339678,-2.4807137597,3.2893100733,2.4218141623,0.1894202301,-0.4362221081,1.5623530059,1.0792030295,0.4767862034,0.5450508248,0.4084167082,0.2470467392,0.6198744722,-2.6128507327,0.8839866439,-2.7706899815,0.4516267568,2.5600254145,-3.3821732914,2.120894502,1.9531797705,6.1927928483,5.1843590977,0.3126653043,-0.0020332439,-7.2970782997,-6.94325218,9.9845310735,1.2676361134,4.0516489235,-0.1935325578,-5.4428808189,2.7734477212,-4.9402869124,-5.0454168981,3.8843146087,-0.4549988023,1.5281373035,-4.1763242823,-0.2806208563,6.0313884085,7.5119136258,-6.8352301732,1.1984531337,2.9724326636,2.6159844518,-1.9807918794,-6.9939268262,-2.0498234565,3.0988842292,-0.5826639994,-2.9208193594,1.9394023543,0.8298747663,-4.2614917712,0.7067065317,-0.18619215,2.7084596913,3.7390156228,-6.7463227732,-0.4769985244,0.7492197609,0.3706007388,1.3461617019,-0.4277303263,-1.796656931,1.3583679377,-1.0417977656,-0.1577374059,3.1754772331,0.045301762,-0.8096177442,4.331220623,-1.1733607434,-4.5813080237,-6.5709147734,-1.1542578295,-8.2005479203,0.9939303051,0.5443807044,-0.1006546361,-0.8670495044,-5.5733024608,1.7702988739,-0.318924283,-8.6958324219,1.369777242,-0.621947941,0.8396890998,-0.9468988361,6.6501337255,-2.5464038455,0.3923520825,4.6633880257,-1.4425989192,-0.2964629346,0.3317807915,-1.0417196896,2.5652561425,-0.380153656,-1.4208248358,-0.81011647,-1.5430549239,-0.5213093993,-6.0288551747,-0.4749243644,7.7642399101,8.2009737437,0.4215734296,1.3996127495,-1.1782043075,-0.2824067742,1.0135565396,-0.2246635917,-12.68969247,-1.0531272615,0.4174049084,-1.4688977671,3.2867843459,-0.746287673,-12.1185792234,1.6499560964,1.013768151,-3.7730286851,1.6461588607,1.4890396204,-0.3139658368,-7.3901577831,4.5810249735,-0.8244991762,-0.8571501024,-0.7477387239,-1.0920510693,0.0503206201,-1.2112240017,0.373680058,11.4683564652,2.3262361814,1.0295375032,0.5182777375,1.5100482326,-1.1038724565,7.2392177486,-3.4261958392,0.5694391991,16.8304955221
biasActivation=1,1,1,1,1,1,1
[BASIC:ACTIVATION]
"org.encog.engine.network.activation.ActivationSigmoid"
"org.encog.engine.network.activation.ActivationSigmoid"
"org.encog.engine.network.activation.ActivationSigmoid"
"org.encog.engine.network.activation.ActivationSigmoid"
"org.encog.engine.network.activation.ActivationSigmoid"
"org.encog.engine.network.activation.ActivationSigmoid"
"org.encog.engine.network.activation.ActivationLinear"
