encog,BasicNetwork,java,3.4.0,1,1573981107048
[BASIC]
[BASIC:PARAMS]
[BASIC:NETWORK]
beginTraining=0
connectionLimit=0
contextTargetOffset=0,0,0,0,0,0,0
contextTargetSize=0,0,0,0,0,0,0
endTraining=6
hasContext=f
inputCount=2
layerCounts=2,8,8,8,8,8,3
layerFeedCounts=1,7,7,7,7,7,2
layerContextCount=0,0,0,0,0,0,0
layerIndex=0,2,10,18,26,34,42
output=0.000003048,1,0.6794746453,0.7075764978,0.901377274,0.3126650501,0.205176729,0.0251713053,0.7366359211,1,0.9999331872,0.9982312453,0.6937794181,0.1091542344,0.2286202478,0.8072042548,0.2287420989,1,0.6635715769,0.8701930272,0.9946460773,0.6816636951,0.820025357,0.3873306346,0.6927359268,1,0.596868569,0.4526478723,0.0011333161,0.6846284637,0.0045238574,0.0058762555,0.7672064274,1,0.9777502897,1,0.3788177541,0.999998618,1,0.9962418443,0.0002312493,1,11,15,1
outputCount=1
weightIndex=0,8,64,120,176,232,253
weights=-2.4204965339,-5.2182996854,-7.4881859154,5.0005274186,4.7868814383,12.8269365712,-3.5205628172,-0.889460699,1.9955481256,-0.8500336192,-0.1312326306,0.2142435842,-0.7199742001,0.2081801171,-1.2885453101,-0.0365638772,3.0719976121,-3.0618474804,0.4783002267,-0.6181067075,-0.6404694312,0.4951390441,-2.0888261511,0.8284646327,4.9661670458,-3.312895987,1.0644934196,-1.7120107229,1.2974361399,1.7562343528,-3.0586384415,-1.0124478218,-3.0286883572,3.3309781124,0.2347023919,1.0366525279,-0.126012135,-1.3181916804,1.911927882,-0.7047559049,-3.297252091,2.3226262157,-0.5361431458,2.394387517,-0.6687989542,-0.3060474673,1.3327976022,-0.1700499334,-9.105764806,5.8091152125,-0.6671884269,4.1900046014,0.0400862476,-1.7287210135,5.8726336978,-0.3017682534,2.2258847923,-1.1518686437,0.6423200214,-1.331723531,0.3062346301,0.8483893338,-1.7410796822,-0.7041902848,2.7228042975,6.4138436572,1.5489678601,-6.7793152389,1.755181426,-1.5054583053,7.6594158034,-0.8561057743,2.2931505249,-1.5521850932,-0.6869372653,12.067236558,0.52256023,0.8427579147,-3.3078628439,0.1587395747,0.0503253441,-0.6487935056,1.4250126093,0.4874444342,0.236851719,0.594640489,0.1332127056,-0.9174550096,3.081351935,2.0539309049,-2.9830289694,-1.6810625481,-1.5403012105,-0.1805541721,-0.6140467118,-0.0600535461,0.6083942327,-0.7916547673,0.0078914882,0.1212005304,-0.8823489837,0.6675372622,0.5867370731,-0.9628693188,-1.7415726203,-1.2985930683,2.0296966385,0.8128219603,-0.107439282,0.2201890414,1.0207444224,0.4404397699,3.1309013246,3.9044585884,-4.9567844229,-4.6453967594,-1.3329485903,-0.442555357,1.8731005309,1.3731099374,0.927631021,6.2848328764,-1.9605501388,-0.6257275149,-0.6864122218,-2.2734492852,-1.1515243445,-1.3887044521,-2.3185543439,4.7128289413,-3.3496159038,-0.4088404234,4.9071925302,-0.8956307184,1.0210644184,0.636683051,1.0653886268,-2.5117074566,-2.4311254859,2.3737527734,-5.3404072403,1.6553898591,3.9761480777,1.0671014287,7.8115424232,-13.5486587724,0.7851902581,-1.6836985261,-3.9903336299,1.1577216266,0.2312623129,3.2173762187,-0.4945800099,-0.9118403233,-1.6186462662,1.104129078,-0.0730254376,1.0376174001,2.2628742633,-0.2714812446,0.2427004224,-1.3360412694,0.4419303762,-0.5690291162,-0.5140417767,0.9896013883,-0.26579586,0.5908525222,-1.011586462,6.2501983453,-5.2050023667,-0.0388834292,2.5924831554,0.8618987083,-0.0738115091,-1.3400579833,0.1936437544,1.3111325209,-1.7719708462,4.1031396021,-1.3295635769,-2.5646420214,-2.0229296876,-0.6548783014,1.4341816343,-7.1408829883,-11.862198702,-5.4491343203,2.0214179665,9.5535308282,4.6540232643,3.9512505229,-2.1806881756,-2.6813977335,7.4722581334,-5.4014265141,1.8923601371,-0.8132754743,-1.7850708317,-0.4788404713,2.3385230075,-1.8827792841,0.1175165423,0.0561923985,-0.8650987848,1.5599173843,1.1513642136,-0.4185194982,-1.9797162194,-5.4590229405,0.9836705232,-4.4246201076,2.4084994986,2.0295001931,0.8276992532,1.6222531458,-0.1243898778,-4.2428966203,-1.0023022253,1.1853662759,0.4700843327,-0.7012947384,0.0701180795,-1.3435392328,1.4805663415,-3.3658436187,2.0189747026,2.7231828809,-0.4904943167,-0.6899353797,-0.1775185639,0.8006985274,0.1598993347,0.2688563878,-2.0088131788,6.4895949935,-1.5321590319,-18.467395006,-1.7647601966,0.1674616774,16.4058677202,6.0145102077,-3.8253976295,4.7133469633,3.3849571494,10.8372654037,1.3689763646,-1.5019087151,0.9308883431,8.137732429,0.2820667807,-1.2326367808,7.0150342884
biasActivation=1,1,1,1,1,1,1
[BASIC:ACTIVATION]
"org.encog.engine.network.activation.ActivationSigmoid"
"org.encog.engine.network.activation.ActivationSigmoid"
"org.encog.engine.network.activation.ActivationSigmoid"
"org.encog.engine.network.activation.ActivationSigmoid"
"org.encog.engine.network.activation.ActivationSigmoid"
"org.encog.engine.network.activation.ActivationSigmoid"
"org.encog.engine.network.activation.ActivationLinear"
