encog,BasicNetwork,java,3.4.0,1,1573288830943
[BASIC]
[BASIC:PARAMS]
[BASIC:NETWORK]
beginTraining=0
connectionLimit=0
contextTargetOffset=0,0,0,0,0,0,0
contextTargetSize=0,0,0,0,0,0,0
endTraining=6
hasContext=f
inputCount=2
layerCounts=3,8,8,8,8,8,3
layerFeedCounts=2,7,7,7,7,7,2
layerContextCount=0,0,0,0,0,0,0
layerIndex=0,3,11,19,27,35,43
output=0.9995677509,0.9997794998,1,0.2193957951,0.0000053424,0.0000096088,0.0090445197,0.0000000012,0.9773589919,1,1,0.9999999963,0.9999999732,0.0000000265,0.0013441485,0.9033230594,0.8877736502,0.3569047254,1,0.2685368453,0,0.9999948183,1,0.9998697984,0.0000037931,0.9961196681,1,0.9749576619,0.5356141612,0.9840740349,0.8067367669,0.9906610932,0.000351709,0.9999555641,1,0.997682151,0.0000019219,0,1,0.9999998509,0.6420894545,0.0000003853,1,9,20,1
outputCount=2
weightIndex=0,16,72,128,184,240,261
weights=-10.4779633839,6.827596582,3.4465271621,-4.2531234828,-7.5744164601,5.8360555979,7.2627068391,-2.8833331233,21.7189850826,-3.5907925946,10.1724436916,-34.4240428968,-7.2647853318,-10.2302035319,-1.7586589786,15.7228480048,-0.3551551803,0.1659058065,2.6632557398,-3.1450277277,-0.8502160726,-4.8500599126,0.4673489006,3.8312619764,-11.1617793208,-7.4580071408,-0.7752109477,6.7723103579,5.4677369513,-0.8789998643,-2.9667337132,3.3709189336,2.0946114144,1.4988172916,-1.9910690754,1.7135254385,11.0006785799,-28.4570096374,-4.6920159654,1.8522661652,4.9495591232,-0.0599267061,0.5251727312,6.0079806449,-7.6657207219,-7.1213991275,4.875689412,1.912437576,-16.0443600316,-7.2877236709,0.0887872104,2.2472556488,2.9761486173,-0.5005220413,-1.8534310968,1.2147691596,0.0195785598,3.4280193192,25.7006541787,-2.9323589953,1.8243971227,-4.048346767,16.9633516922,-3.7868704736,7.1907846521,17.2735164197,0.8539719266,-13.4061141583,-3.8037236412,3.0987484129,6.6412732657,-1.347731133,0.2658019299,-9.2091886215,2.8380771346,12.3908923673,1.5424054078,0.6655774933,0.5232058119,2.0510569426,0.5092336065,-12.9073866168,1.1969646062,13.691962197,0.0275903912,0.3026035799,1.1729602954,1.2125690267,-2.0136992816,-1.9024451048,0.5028987867,-0.3000040341,-6.5309649689,21.0400012611,-8.4818148341,-2.1301226623,2.0940766311,1.6485754716,-3.8775562926,-4.439534848,-0.3667115509,-2.0069163546,0.8628468274,0.6512575474,18.0233566996,2.88412215,-4.2934381502,-2.3400771017,4.2844348097,-9.0106178361,-1.8228794833,1.5602263114,-3.1186475328,-3.1711623126,7.8476627394,4.1953086707,-0.4342609668,2.729307486,-10.0183154717,1.2763751794,4.9404774443,-3.9072767293,2.3793946949,-0.8344369315,6.2226133427,3.9427248306,-1.3065480526,-8.3808095673,10.6534064261,17.3103036182,-5.957843436,-16.0608344789,-7.3909890161,2.6876957394,6.7691356258,-1.2883128435,-0.9097339303,-0.6787265839,-8.6131900767,-5.3105160818,-9.6922422535,13.8768059275,-0.8073324002,-2.3446049503,-5.8867963304,-7.9697565379,7.3246357402,10.5243872034,9.4073017794,-5.1293640702,-3.0068718961,0.1691549468,1.8883770835,1.255412941,8.2673849444,4.4728241548,9.2171633357,-12.0977405274,3.5983479497,4.0966164922,11.8626799311,4.6770729088,-2.9392026247,-2.3547407385,-1.3721418272,0.0663249422,1.4539163272,-0.4269193048,-10.4990454764,-8.7240494259,2.7153996731,7.5443468275,4.0952863647,-2.2509084243,-11.0109639338,0.622308417,6.4393821138,6.5595148357,-1.710060216,-5.4055338402,-4.4483657582,0.4349063737,6.1549015428,0.0521633721,-1.2197980186,-0.2985274126,0.2851138639,4.4328725979,5.3675917764,-15.5563523166,0.5819690553,5.06690339,2.133851336,0.1793534642,-0.259450837,3.115660817,3.6902070725,-16.7307562607,0.5388257964,1.9505671763,-3.4052526901,-1.1178143765,-2.3538344623,-1.0767360637,1.3853462823,9.5518294497,0.6598161029,1.0793730775,-1.0323203753,-0.1901846473,-1.4147862188,-1.6347753197,-2.5879325323,13.8187156888,-0.7392743175,-2.1912716241,-2.3170883459,-1.2791198911,-2.094316376,-1.0131834333,0.7981260358,11.5510830723,0.0726435846,-0.2258677116,5.8657404702,1.4863772428,2.2416758824,0.7469847971,-0.9770010938,-17.2643750239,-0.4789508744,-2.489212565,7.3143860001,0.7319949561,-0.586392662,3.3072034666,2.7599336319,-11.1990563358,-0.6021332689,3.8476450372,2.7498331946,-0.9258875092,-0.165953434,0.4790632736,-0.932360145,1.173437396,0.7588475585,-3.6779034184,0.5266420496,-1.8008201725,4.444483342,0.00003488,0.765193364,0.4853837702,-0.8757209172,-1.1007473625,0.3045701719,4.3997673746,-1.1970709623,-0.2371003688,0.7463451811
biasActivation=1,1,1,1,1,1,1
[BASIC:ACTIVATION]
"org.encog.engine.network.activation.ActivationSigmoid"
"org.encog.engine.network.activation.ActivationSigmoid"
"org.encog.engine.network.activation.ActivationSigmoid"
"org.encog.engine.network.activation.ActivationSigmoid"
"org.encog.engine.network.activation.ActivationSigmoid"
"org.encog.engine.network.activation.ActivationSigmoid"
"org.encog.engine.network.activation.ActivationLinear"
