encog,BasicNetwork,java,3.4.0,1,1573288848537
[BASIC]
[BASIC:PARAMS]
[BASIC:NETWORK]
beginTraining=0
connectionLimit=0
contextTargetOffset=0,0,0,0,0,0,0
contextTargetSize=0,0,0,0,0,0,0
endTraining=6
hasContext=f
inputCount=2
layerCounts=3,8,8,8,8,8,3
layerFeedCounts=2,7,7,7,7,7,2
layerContextCount=0,0,0,0,0,0,0
layerIndex=0,3,11,19,27,35,43
output=0.6259574918,0.5099295362,1,0.1638636609,0.0870463403,0.1165997778,0.9977253832,0.9736016415,0.8431465785,0.9995630336,1,0.9741203979,0.1119927543,0.0030164842,0.309952655,0.5066780377,0.0033709596,0.9448248128,1,0.767698411,0.1766660997,0.5898164423,0.5689027071,0.908297007,0.5581039787,0.5314455204,1,0.0122637453,0.5925721362,0.0587021241,0.4218438194,0.6772239019,0.4604116825,0.3465215031,1,1,1,0.0849262314,0.0019268928,0.6082609595,0.0000000026,1,1,9,20,1
outputCount=2
weightIndex=0,16,72,128,184,240,261
weights=9.4134777235,1.6055255289,1.3188124658,-3.4308329003,-0.186308502,-0.91690888,5.966863398,-2.9078904291,-2.8072939773,4.484683222,-3.1089753295,5.0552564211,8.1560677612,-11.4354005572,-2.1894333273,-0.6824557318,-6.7878885541,1.7465545378,1.8427390308,0.9123858483,-4.1136265157,-5.1083512397,6.3706149266,0.5808964997,-4.4766011246,-3.0215213009,-1.3602549144,-1.0146222807,1.6111223328,-2.0272154853,1.1994087662,0.7247627154,-0.0549224034,-1.0217036653,2.5121565955,0.7790032934,-0.9163919747,-1.7209668255,-1.2028436822,-0.499545007,4.1920103266,-0.0331946202,-5.7061799121,0.0911367751,0.7992331461,2.1549740205,1.515366778,0.1488514273,-0.3196594449,2.0216561355,-1.6503851376,1.0102714345,6.7004156914,-5.5365281615,1.1823693106,-1.1089035323,6.7010560988,7.7657173489,1.9781055837,0.6834512729,-2.8907258373,3.7690787742,-1.0735690088,-3.4670183771,0.8953449796,-3.3547828165,-3.5404783916,0.7068283862,-3.6607946787,-1.6371473517,5.896443601,3.3196079119,-2.5533825894,2.7349460329,-5.8524824814,0.699996628,2.1893479756,9.620634595,2.193980743,-0.3650781546,-2.3809326751,-3.8032168543,-7.451093927,3.4945112992,0.0890881995,3.9036439063,1.5659622301,-0.2558485873,0.8654803174,-3.0674799449,-5.257213006,1.4996748198,-5.4434278082,-1.1422088766,1.3684304935,1.1789454689,-0.3514085183,-0.9705891953,-0.2764559869,1.0759323401,-0.4699122455,-0.3426592912,0.5071474814,-0.459599074,5.5445462962,1.8537179469,-3.9574645552,-1.7041859811,-2.6355472983,-2.093607128,2.3009021497,1.0858849713,-4.4639410926,4.2089625795,-3.0042897564,-1.3022091117,-0.2149385594,4.6671090113,0.3517914936,-3.0894539695,-1.8154801471,-3.9195500015,4.1160115904,1.6412643262,4.1028309392,-2.6458364311,-0.0980885533,-0.6325405152,-2.0136411181,-2.4403446092,1.1667008998,0.55544109,-0.928597488,5.6158787393,1.3450777304,-0.0595078517,4.868903323,0.2385931042,-1.997851947,2.0130373856,-4.3148745941,-1.9854385243,2.8342983336,0.3820058188,-7.2232379181,-2.0766515819,4.6649139636,3.5744668159,-1.2506350342,-1.6965121837,7.638109402,-1.1180658497,1.1151031241,2.1863052214,0.9706373678,-1.9563160493,0.2567683476,0.4886517926,-2.6274786465,0.2480452845,0.9666560853,6.1940944055,-0.833054436,1.4926146491,-2.650974241,-2.221724924,3.5988189143,-0.3988912798,6.2114555102,3.896038915,-6.7394954141,1.5485033975,-0.5080234283,-6.0369051997,-1.7878560017,1.3340448135,2.1620884275,-0.0153303464,-0.6976885441,0.9100595977,-1.2828946772,1.3176263051,-0.971475533,0.3643636849,-6.1923114094,7.1258597648,5.598737937,3.3526664956,0.9467234191,0.3541443219,-2.2697620338,-4.1103495011,-0.9794858089,1.9651493871,-5.3933836395,0.8277181973,-7.1332815874,-0.4614750833,2.7580459628,1.4262407043,6.149964964,-4.634472644,6.2266543344,-2.8772922935,-3.1864285395,0.0118623529,-2.8693926165,-0.0059654053,-0.6428721613,-0.987444549,0.7000641332,-3.8287967998,-2.4359756174,-1.3205594887,1.2733694831,1.4713710778,1.0035399186,0.4956186355,1.1323861572,0.2847136438,3.9941723265,-0.677207978,-2.7147427711,-0.5695897178,2.9915674809,0.8482231415,-7.9054288943,-0.9926936652,0.9671551848,0.1137659609,-1.4780793004,-2.4353883878,2.6093812353,-3.9314301585,1.6257100541,-6.5774920468,-3.9613285567,-0.3953796661,0.2459732587,2.7258411147,-1.4132223877,2.1554246866,-3.8773340987,-6.3861322522,7.919967787,0.2287271694,0.989581569,-0.5120419181,-1.0426174288,-4.3096350819,0.8658877085,15.2190438018,2.3948926174,-0.3570679896,-13.9726656697,0.3300252314,-1.1223685734,-0.3000492663,-0.8262179511,1.6877139226,-0.5918055909
biasActivation=1,1,1,1,1,1,1
[BASIC:ACTIVATION]
"org.encog.engine.network.activation.ActivationSigmoid"
"org.encog.engine.network.activation.ActivationSigmoid"
"org.encog.engine.network.activation.ActivationSigmoid"
"org.encog.engine.network.activation.ActivationSigmoid"
"org.encog.engine.network.activation.ActivationSigmoid"
"org.encog.engine.network.activation.ActivationSigmoid"
"org.encog.engine.network.activation.ActivationLinear"
