encog,BasicNetwork,java,3.4.0,1,1573289046478
[BASIC]
[BASIC:PARAMS]
[BASIC:NETWORK]
beginTraining=0
connectionLimit=0
contextTargetOffset=0,0,0,0,0,0,0
contextTargetSize=0,0,0,0,0,0,0
endTraining=6
hasContext=f
inputCount=2
layerCounts=3,8,8,8,8,8,3
layerFeedCounts=2,7,7,7,7,7,2
layerContextCount=0,0,0,0,0,0,0
layerIndex=0,3,11,19,27,35,43
output=0.9995735415,0.9993169301,1,0.9885847803,0.076657514,0,0.9999995982,0.005545303,0.9986365694,0.0036766925,1,0.2177103562,0.9990224607,0.0000000096,1,0.0414268299,0.9999999999,0.999999837,1,0.9412402296,0.9999999999,0.999999989,0.7923902498,0.9999748929,0.3252324714,0.0014160883,1,0.9961048556,0.1653063972,0.1842516557,0.9995789248,0.0005877404,0.3453954878,0.2621749678,1,0.0000000042,1,1,1,1,0.9209339863,1,1,9,20,1
outputCount=2
weightIndex=0,16,72,128,184,240,261
weights=-2.3994564087,19.3325647609,-3.2303201824,2.7234267949,0.9293893189,8.2478667856,-22.3158884876,-2.233503451,6.212153541,-11.4038583853,-7.8232777559,-10.0478628025,-18.731203377,6.6728784566,2.2002512588,5.5010399515,-1.1317249072,-0.3772500735,-0.1169461426,1.0404940386,-0.3677024009,1.8390020821,1.6049152666,0.6154180273,1.9009225227,-2.4677402676,0.4844795338,6.2216761384,-0.626327681,-9.2891327397,4.639769802,-1.9835408376,-1.0209105345,-16.8050485322,10.8109118811,12.4769884045,-1.9685625548,-6.2349464875,-11.574946181,-4.769730285,2.3068560845,1.3235335277,-14.1460743603,4.3880753641,1.1188314956,6.3704411655,-0.4095593955,2.5075090883,5.7057241056,11.4059542975,-3.9179553837,-15.342069412,7.6173304752,3.371300807,-3.8023445691,-2.3686922947,9.0624188119,1.1692779111,3.2518512753,2.8135151737,-9.1343698848,-1.667458954,0.8035763389,1.8840451225,6.7860130301,-2.0165335516,20.5631928069,0.6552522298,-4.5085407961,-3.946528998,-2.6988742901,1.1120437397,1.5838115585,-1.4959878431,-1.3111595361,-1.5758677299,-2.5837663189,10.9287804083,5.1832556406,0.3080101495,3.8828379424,0.4036403712,-11.5375185519,9.8064433882,3.8108073783,-0.5063520805,-15.2787390427,3.0137651308,1.7228715546,-5.264323609,-2.0049964245,-10.6005280734,-7.9698440622,9.3262963236,6.4195270194,0.5169065665,-0.3188969795,23.617046993,8.3748644373,2.5279955845,1.6535147851,-2.6377817213,-1.552705309,-0.6911229339,-3.1615059777,0.9835757643,2.4683477679,-2.5309008221,3.0106507486,-8.5647550325,-6.3607015329,-1.8282743181,1.2877277161,2.8831177798,4.2831860949,-4.6188601242,19.9040458023,-3.6892669443,-3.6364045412,0.1532573551,-4.4457695542,14.808399489,5.2107165819,0.3236200693,4.5730291978,-5.2607936301,-4.1128098554,-3.3177082373,0.4055435865,4.0314531103,0.6010353736,0.4855949032,2.0243689536,3.0709124783,-1.5486929343,0.4513792398,7.7981873905,-0.8166341289,-6.8490437451,11.4541878875,-7.6613130714,2.5872386544,-0.3566578773,4.1756424818,3.8740440016,-4.2533280647,-4.3459511113,14.2472015672,-10.6089221789,-1.7092549434,-0.1355370631,2.3584401515,1.4781164522,2.862995893,1.0473685588,-3.5516060994,10.2139335454,7.4599488802,-9.9749681431,2.7834457251,2.1091901549,-1.0381217654,-10.9182569463,8.7211893754,-5.1467111404,-1.6093136423,-3.2020320653,3.3555243405,0.2401878329,3.6556392075,9.5949812894,-5.3851783158,2.7748627446,2.8682618345,5.4473673978,-0.3788402243,-2.5454765718,5.2343717091,13.5704908097,-7.6302671005,5.6121783149,2.0265657635,9.1520026479,-2.8641757941,-0.3898551826,1.4681647918,-1.1997212474,-2.4206912272,1.8860424026,5.3622628045,2.2880583572,-1.41602135,-0.3845372726,3.5351903432,-0.2556950617,0.4987061932,-0.965986344,-7.3948388204,1.7425783578,0.6361008958,-0.055087829,7.2301411604,2.7717397802,4.0809355424,-2.2974256916,-12.7765292808,-4.8566463743,3.3497922362,-0.1030189908,-4.1186715406,-2.2909587856,-4.667870768,3.3563865874,14.7134042321,5.4069001688,-3.4635817465,-0.7194014771,4.7371222524,2.3980787685,3.7337819495,-2.0707400631,-16.0087915773,-4.4656713279,2.9718314406,0.0619191146,4.375518326,-0.6388311182,-0.836851591,2.3309879754,-5.5488067648,-0.0684429509,-0.6916370618,0.8805645753,1.8331478625,2.8726015788,4.8771975689,-4.9503985558,-13.4766240802,2.4178240228,4.3260140393,-0.9074868414,-0.5866592078,0.6210665279,-7.7793670501,6.4824263774,-0.182710167,0.6070849713,2.1077821482,-0.2518174921,2.1123656631,0.4852378041,0.3092490019,-2.1951437509,2.9589972477,-0.0306480422,-2.5596697645,-0.1555623049,28.6033792162,-0.6869474554,1.6630741759,0.750627268
biasActivation=1,1,1,1,1,1,1
[BASIC:ACTIVATION]
"org.encog.engine.network.activation.ActivationSigmoid"
"org.encog.engine.network.activation.ActivationSigmoid"
"org.encog.engine.network.activation.ActivationSigmoid"
"org.encog.engine.network.activation.ActivationSigmoid"
"org.encog.engine.network.activation.ActivationSigmoid"
"org.encog.engine.network.activation.ActivationSigmoid"
"org.encog.engine.network.activation.ActivationLinear"
