encog,BasicNetwork,java,3.4.0,1,1573289232011
[BASIC]
[BASIC:PARAMS]
[BASIC:NETWORK]
beginTraining=0
connectionLimit=0
contextTargetOffset=0,0,0,0,0,0,0
contextTargetSize=0,0,0,0,0,0,0
endTraining=6
hasContext=f
inputCount=2
layerCounts=3,8,8,8,8,8,3
layerFeedCounts=2,7,7,7,7,7,2
layerContextCount=0,0,0,0,0,0,0
layerIndex=0,3,11,19,27,35,43
output=0.6122476886,0.5593175165,1,0.8525238805,0.9971894146,0.9992107285,0.999971854,0.6577857533,0.7589310102,0.9995083365,1,0.0013676279,0.0677002864,0.0715932745,0.9967207909,0.9346015452,0.7116679766,0.3946334817,1,0.6249889843,0.9877841269,0.0000000001,0.2095643916,0.6255161811,0.0071749351,0.4395900085,1,0.8269933646,0.0493758861,0.9715640611,0.0006952202,0.9881197868,0.284600615,0.4565936688,1,0.8165751802,0.9994069826,1,0.9999999807,0.0002638469,1,0.0000000016,1,9,20,1
outputCount=2
weightIndex=0,16,72,128,184,240,261
weights=-9.5471573371,-10.8127468429,7.9140951751,10.2348800809,-0.5305051404,-1.0772388528,-1.6048536032,4.0064389059,-3.0334934309,0.755073916,-7.8185740021,-3.1035593112,9.5036742012,7.0536327929,-1.5410011518,2.9230828971,-11.6870124616,3.2418517018,6.8972470297,-2.4887766093,-0.8789189486,3.0898514076,2.2261038967,1.2818586233,-2.0486323075,-5.8372552891,-0.6658536563,4.6417031333,-0.8258836058,0.6644184424,2.8392748679,0.86927602,-5.3061834335,1.4182468389,2.6935435658,-2.7108851365,6.7721249544,2.302374905,1.4939469091,1.0066813786,4.3583791039,-6.7392946432,-2.6235840279,12.4823484147,2.4009149612,-1.1433953671,-4.098946263,-1.1378166955,-6.6669635986,5.2655655826,3.2678569844,5.5680766094,-4.6580050104,0.3803056482,3.3769804597,-2.7276366214,0.3362637433,-2.1194646926,-1.7968356953,4.6928190787,-2.9317056516,-1.8174501269,-1.5967322334,1.4045888982,-3.5418516821,0.659425149,3.2783642018,-0.9561526221,2.0749333824,4.2344491658,2.3646378698,2.4098102479,-15.3661524247,0.7073280628,-0.1975474228,3.3785093385,-0.6207554427,-7.1621411335,8.2352199047,-1.5767755091,-3.4618256876,1.9731595747,2.7404199173,0.2372288115,3.3265563616,3.8718804169,-0.4035032257,-4.3889507679,-4.347768187,1.6208940465,0.1439275158,1.7132567123,-1.538753009,5.9628128833,0.3407540602,-1.0353525384,5.3750542245,4.5124660599,6.7759307576,1.2056379631,-6.9087199626,-10.0795998675,-1.922920348,2.8866507747,1.5138525891,6.1542268668,2.1653332339,-3.4458711194,-3.9211145096,3.1865620509,-5.3932986308,1.1572621213,0.2371966468,-0.1432642783,0.5307711738,-0.0285606142,1.6866133432,3.3154762059,1.6459585466,-0.8995862163,-2.0412466672,0.0539191176,1.0085094744,-0.8608101202,4.4447455036,2.1261491475,1.9551226365,-2.6799528603,-7.6739570837,4.2283760029,3.7424068736,5.8607871347,6.6321751345,-8.6965635049,-0.2760039172,-0.9440666749,-0.420706787,-6.4934001754,-1.2588891533,1.1167306231,1.0643960075,5.0328677819,3.9202429789,2.009516044,-3.4189116658,-5.0866759453,-9.0518752632,4.2059401895,-9.0695747192,0.3289651385,0.8742012745,-2.6048647607,2.4801783225,-0.1496332458,-1.7900001646,-3.1579458982,-1.1614500737,1.7221569173,-1.9367835927,-0.0881125828,-2.2513617551,3.3028904286,2.9147746166,-4.1213339071,2.7260870128,-3.9990299543,-2.5789527536,-0.9952589682,-7.6331888829,5.2294328311,2.3477279939,9.2871502247,-2.1588951337,-0.8568054726,4.9745815497,-1.0572649281,4.2528381339,-0.0938944203,0.2746428018,-9.5500349164,0.7980303197,-2.6679200126,-4.4684824897,-2.0044297043,7.7434756212,5.1082513387,-1.8024100642,-2.3065610028,5.6060195258,-2.1621601737,-0.1090188331,-3.5942332696,3.0584893678,-8.9416691357,0.3600400594,1.6785024112,6.7577438577,1.3166351713,0.3962247623,0.124262883,9.1208817126,-4.8646130869,1.5262392,0.1331638381,-3.8679908758,0.2045266039,0.7705086181,-0.9178130159,-19.639514371,2.145254605,1.4769708133,1.368178517,7.4806464025,1.5382428805,-0.8458749926,2.2372052149,8.9647373529,1.8396727849,0.1655054113,-1.8366148331,-4.6801205994,-1.8401417269,0.3061403479,-1.2255482289,-7.9719168919,4.3118171359,0.0123878761,0.4267410553,1.9256640806,0.4162458388,-0.0773546156,0.4227723567,-5.5677722361,-0.6502095598,1.820330487,0.4397095603,-2.1456465329,1.7035426578,0.7769515945,1.0592485357,-1.1902901313,-0.2343336227,16.8925977388,4.4444481622,-1.0868346755,-10.8336463082,-1.610058451,3.7541083243,-0.2038095175,0.949661828,0.4469737269,0.2770547576,1.5134594507,-1.1131614256,0.4022157547,0.9698587231,0.8040770424,0.3393819539,-0.7340286149,-0.7194896803,0.7137913485
biasActivation=1,1,1,1,1,1,1
[BASIC:ACTIVATION]
"org.encog.engine.network.activation.ActivationSigmoid"
"org.encog.engine.network.activation.ActivationSigmoid"
"org.encog.engine.network.activation.ActivationSigmoid"
"org.encog.engine.network.activation.ActivationSigmoid"
"org.encog.engine.network.activation.ActivationSigmoid"
"org.encog.engine.network.activation.ActivationSigmoid"
"org.encog.engine.network.activation.ActivationLinear"
