encog,BasicNetwork,java,3.4.0,1,1573981876938
[BASIC]
[BASIC:PARAMS]
[BASIC:NETWORK]
beginTraining=0
connectionLimit=0
contextTargetOffset=0,0,0,0,0,0,0
contextTargetSize=0,0,0,0,0,0,0
endTraining=6
hasContext=f
inputCount=2
layerCounts=2,8,8,8,8,8,3
layerFeedCounts=1,7,7,7,7,7,2
layerContextCount=0,0,0,0,0,0,0
layerIndex=0,2,10,18,26,34,42
output=0.943199821,1,0.1036658373,0.0525338746,0.0049526547,0.2759579705,0.0026534437,0.0983065498,0.0000003245,1,0.0016702013,0.1333693473,0.9999235412,0.539141896,0.0407964602,0.9999854511,0.0000044742,1,0.002776646,0.1547796788,0.9993888901,0.0015971126,0.9861849769,0.9998814349,0.9962152852,1,0.6244472545,0.0007736089,0.9994398154,0.8461341274,0.17888914,0.9774312239,0.9937398581,1,0.0000000006,0.0200510081,1,0.0019768417,0.0000068336,0.9155180662,0,1,11,15,1
outputCount=1
weightIndex=0,8,64,120,176,232,253
weights=0.4953452973,6.4491579436,6.3349331506,13.8941962111,-5.0913785243,0.1872060617,-11.8746475104,-1.4508899241,0.3734546481,-0.1924443959,-0.8955860935,-0.8029437354,0.2251111166,0.061064397,-0.5997724803,-0.8739245664,3.0027591596,-0.3742106258,-2.0910692078,-2.3504432754,4.7883497468,0.0995046203,2.0160125101,0.2158318807,0.4623951276,0.8431955569,-1.1869369711,-4.0141179295,1.3034269383,-2.3604990484,-0.8027229933,0.2422231541,-1.2156420598,-1.454341823,-2.8182007361,-9.3878922312,1.3215975315,7.7633895414,6.4614312171,-0.7064366095,11.0713750486,-0.1942883868,-1.2187058421,-0.8843524428,3.2065086531,-4.4788433048,1.4687165001,0.1215421834,-0.6962866033,-0.4474925036,-0.8607466424,-0.0112981473,-0.2113670883,-0.7124105885,-0.8553689409,-0.5675400134,2.1268794368,-2.974323452,-2.0296231718,2.9656471747,0.7632490451,-12.2950393642,7.7864654526,-1.8534659417,3.9472878251,6.2223069763,0.4051787074,4.4313416119,-9.3219611178,-1.5136755061,-0.3148037769,3.2410915013,0.3114490529,0.4897448913,0.6142155686,1.1607398597,-0.6556089924,-2.6200215628,0.1408501519,0.562093643,-5.2368875515,0.5886757421,1.9720397909,-2.9899643747,0.8747004071,6.5610455681,0.0461499207,-0.0328100384,-0.9490424274,7.5899389306,5.3076061196,-2.7243107307,-0.5168809075,-2.641480378,-3.6124946684,0.4344736687,2.2730254207,0.6857616309,1.7810780508,3.9516564508,-5.2036647331,-1.1476086786,-0.3424561618,1.5641464758,-8.4153496735,-1.8416939976,-0.2143724659,-10.10744529,7.2622076649,1.3999196974,4.0760841629,-0.9455050154,6.1815340148,0.4002237147,0.4297462659,8.2398456553,-2.0207874236,-11.9285630999,-1.2507858594,2.3271464274,1.4202339193,3.0855675557,-2.0193696104,-2.9041038206,3.2824444798,0.9615010187,-5.892474657,2.0311126613,-4.218636607,4.8872389303,-4.2052095644,3.0655969862,0.1474089772,2.3592550228,-0.6703229046,0.8756354239,-2.487694645,-3.8380250044,1.4841115528,3.7199396173,-1.6564619937,4.5956455736,1.0832172737,-0.9468629365,0.8796033548,5.8331809915,-2.23907204,-4.8819666794,3.0000346669,1.8327498375,-6.3215498844,3.3307938723,-2.6682794683,-7.2927539997,2.5033451161,0.3783428203,-6.5742442903,2.8072883537,4.7549317916,-3.1751783441,-3.5988990061,-11.4410694921,-2.2952162722,5.1231214252,0.0211678595,8.7493690375,0.8047355764,-0.1002046151,-1.1865490002,-2.4807757386,0.7933762787,5.8350851343,-2.6731766912,0.2209979122,3.5323634417,-2.6624055608,-0.374543957,0.4737307797,0.051689805,0.1221265386,-0.1813794055,-4.1484603086,-2.8430692907,4.2450295265,-0.6279833572,1.138355263,-1.1423995673,4.3563587522,0.5249314797,-15.3407127028,-6.2090494156,7.9919883819,0.8785711358,-3.5290231568,0.1853356807,-0.0366415059,0.5827847247,5.0858820694,-0.04875714,2.715960089,0.0311509979,0.5556041998,-3.328245768,5.1476168708,0.1551474142,8.0064973593,1.4794936081,-2.3185680956,0.0165705499,1.5646362786,1.8780702235,1.4699795523,-0.6289245213,-5.2640625932,-0.2212862263,1.3831081822,-0.6167103565,1.5387883221,-2.1954115683,-4.1868643785,0.9231703089,9.7958777525,-1.3805017746,-3.0271147185,-0.0416020296,-5.7259695664,-1.7943840189,0.1983017348,-0.0154647251,7.7658196901,3.1031962532,-0.1336720347,-0.6587098895,-0.9454163433,0.2401508709,-3.1361191155,2.0072491463,0.4993519861,-1.4343597637,3.501093225,-0.8661357586,3.3474827478,-2.8535614966,-0.2431637997,-0.9303402294,-0.1702699937,0.8941441805,1.9282069207,0.1925364748,-21.7153708616,5.9650921456,-6.8590851734,-0.3917812536
biasActivation=1,1,1,1,1,1,1
[BASIC:ACTIVATION]
"org.encog.engine.network.activation.ActivationSigmoid"
"org.encog.engine.network.activation.ActivationSigmoid"
"org.encog.engine.network.activation.ActivationSigmoid"
"org.encog.engine.network.activation.ActivationSigmoid"
"org.encog.engine.network.activation.ActivationSigmoid"
"org.encog.engine.network.activation.ActivationSigmoid"
"org.encog.engine.network.activation.ActivationLinear"
