encog,BasicNetwork,java,3.4.0,1,1573280720572
[BASIC]
[BASIC:PARAMS]
[BASIC:NETWORK]
beginTraining=0
connectionLimit=0
contextTargetOffset=0,0,0,0,0,0,0
contextTargetSize=0,0,0,0,0,0,0
endTraining=6
hasContext=f
inputCount=2
layerCounts=3,8,8,8,8,8,3
layerFeedCounts=2,7,7,7,7,7,2
layerContextCount=0,0,0,0,0,0,0
layerIndex=0,3,11,19,27,35,43
output=0.999561691,0.94736993,1,0.9698394741,0.9999999442,0.8824051988,0.1840015808,0.0029030251,0.9998415166,0.2912381469,1,0.9779062982,0.0013111069,0.0007438868,0.0282033445,0.9970474841,0.3141145301,0.9965125689,1,0.84192534,0.5005367605,0.0041783112,0.9975768382,0.9988263804,0.0008411809,0.6576841868,1,0.9070512103,0.1144773603,0.0926204522,0.9919639535,0.6557037552,0.9981656294,0.160824085,1,0,0.3300357868,0.0000001387,0,0.0000000012,0.8731784589,1,1,9,20,1
outputCount=2
weightIndex=0,16,72,128,184,240,261
weights=-1.4728794984,3.1970596995,6.6970244944,-1.1868508928,3.536801673,7.6769678074,-8.6699518357,-4.888559409,-4.6904983259,11.1146370822,-7.0392269068,-12.2966264409,5.1353015706,2.4324669341,2.5949938631,1.5960945681,1.0939543612,-0.6877990066,-1.0487617234,-1.7996181542,4.6606195457,-3.1813285021,0.0411560397,-1.2353210807,2.059273778,-9.3135905702,-4.9210677482,4.1816951468,5.1881163431,3.20517349,4.6101045122,3.8118933803,0.9021936189,6.5233082956,4.9761676371,-5.1233407398,-1.4261937409,-2.8766256053,1.5784870096,2.017977231,1.5483223192,2.7330071824,4.1386561449,-0.3232612235,-10.9304206584,5.081039333,1.3322095585,4.9734294404,-5.6648887999,-2.5242956199,-4.2330568545,0.6966836778,-1.8934876092,4.4808823174,0.1908218228,-0.0223240844,2.3353428779,3.3079739319,-2.3689478316,-5.3972045285,6.8713943547,-5.4376653408,1.146363963,0.330177282,-2.2887258651,-0.7718736673,0.3936469242,2.6021091181,3.2664090318,4.3339130634,-3.1424463266,-0.210510545,-0.218329298,5.4792272248,-2.9717057159,-3.0461342242,-0.66355453,-1.7935654454,7.8449840902,-0.2126842445,-0.1547888474,-5.0833354424,3.0657148638,6.3856860616,-6.2840534812,-1.7449562157,-7.458119033,0.8393565146,-3.1977479621,-3.7441492676,3.7869709267,0.8083420892,-1.0649109963,-0.3915792911,-2.0574616392,-1.0415840975,-2.5275969081,-1.7840952204,-0.460748879,-6.3114204611,2.1914374703,1.1414178316,5.5170796282,-0.038922584,-1.6019896692,0.3886167538,-4.3721534639,2.387062609,4.0469316035,-9.4915024583,1.2537692572,-0.245412888,0.908885536,-4.8994792721,3.7169417488,3.8619889101,-0.6860634558,6.9699827147,-3.1252209809,-0.2271548197,-0.1154046627,2.1860463272,-1.7656804861,0.3676908832,3.9724500129,-1.0651575998,0.8471358906,-0.225400188,0.456545429,-1.324820184,-1.2724973119,-1.2433889165,1.1063719832,2.5190924518,-1.369280115,-0.258278562,1.4899506273,1.7449168842,-2.2657989529,1.716121325,-4.6739179797,-0.4866306497,-3.6518869506,1.0962158105,-2.2913940794,1.0138008856,2.5738208741,-3.4752376071,1.5380331061,-2.0528575681,3.5696938304,0.1641204653,0.6532313502,-1.5204494852,-0.8658801153,-2.8446236876,3.9406049488,6.5916946519,1.9298803541,-0.9700826477,4.3758405253,-2.8752959519,0.1470630533,5.9913865285,-1.48785047,-1.0842866704,-2.7382328093,-0.3520666932,-6.690922572,9.2001883924,-0.9565069892,-3.4123095236,3.075322308,-2.0872350109,1.1438518998,1.2923608753,-0.9320250216,4.9475288626,1.7204093558,5.9219554119,-7.016325094,-1.8045747058,-2.5622405115,1.7122592447,-1.9683431028,-6.6995236119,-0.5479623206,2.0633506907,-0.5550241901,3.3751874958,1.9986073602,-0.4565155362,1.6697292419,9.6100728153,0.8765041554,-2.5283649594,0.332284249,-4.2765989691,-1.5832820389,0.1000471246,-2.0659672928,-0.6967414879,0.3503976316,1.8728316374,-0.6592965679,-1.7218899216,0.1185709328,-0.6671550118,-1.0680610097,-8.6548522612,-0.3169899965,-0.4106262001,0.3031221109,0.7613953345,5.7710944018,1.2362321455,4.1434209414,6.7302942287,-0.7890067715,4.0506720574,-0.8159108169,2.5216749273,-2.6977535978,-1.0811498388,-3.6530545394,4.4489191856,-0.8777217385,0.6248578751,0.7761692945,8.3563280249,-1.9716010269,-0.4940492341,-0.6870552904,0.7108378792,-0.0777916042,5.8715083373,-0.9316198275,-0.727251776,-0.4019062949,-0.8497842758,4.5757835492,-6.0097120654,-0.659664424,0.7064146822,0.2050001057,-11.1657574585,-0.9372171833,-0.4100022707,0.8444045554,6.7293176502,-6.1585484713,-1.9004447656,-1.9305213853,-0.1314776333,-0.5257775157,-1.1534892723,0.6133370879,0.0440207375,-0.4916331517,1.4685550433,-0.5632325678
biasActivation=1,1,1,1,1,1,1
[BASIC:ACTIVATION]
"org.encog.engine.network.activation.ActivationSigmoid"
"org.encog.engine.network.activation.ActivationSigmoid"
"org.encog.engine.network.activation.ActivationSigmoid"
"org.encog.engine.network.activation.ActivationSigmoid"
"org.encog.engine.network.activation.ActivationSigmoid"
"org.encog.engine.network.activation.ActivationSigmoid"
"org.encog.engine.network.activation.ActivationLinear"
