encog,BasicNetwork,java,3.4.0,1,1573289799851
[BASIC]
[BASIC:PARAMS]
[BASIC:NETWORK]
beginTraining=0
connectionLimit=0
contextTargetOffset=0,0,0,0,0,0,0
contextTargetSize=0,0,0,0,0,0,0
endTraining=6
hasContext=f
inputCount=2
layerCounts=3,8,8,8,8,8,3
layerFeedCounts=2,7,7,7,7,7,2
layerContextCount=0,0,0,0,0,0,0
layerIndex=0,3,11,19,27,35,43
output=0.3033705138,0.2432486939,1,0.0343796474,0.0013726884,0.8616038221,0.6316426352,0.0001835449,0.9998775146,0.952474328,1,0.5499494192,0.360490856,0.012034035,0.9843230686,0.9294719474,0.0796807545,0.7372243163,1,0.0029525771,0.8724173232,0.0443754275,0.5574043438,0.2409488714,0.8804635187,0.3002799472,1,0.2713760841,0.2849400515,0.9997801848,0.0008680318,0.9998764376,0.997636329,0.9108625651,1,0.0000000137,0.6644377306,0,1,1,1,0.9824390008,1,9,20,1
outputCount=2
weightIndex=0,16,72,128,184,240,261
weights=-6.0950271209,10.6026109583,6.8962351387,-1.1031597103,3.9750226173,6.1366558852,-9.091857617,-3.3582007099,8.2099137861,-3.8893066161,11.1553631601,7.9542054412,-6.2257968227,-8.5304532965,-13.9237698817,5.7450002365,3.5797456594,3.540651391,2.0414749325,-1.426819529,1.8025448694,4.530489772,-3.7366492827,-4.4821323253,-13.1516233103,-3.2152234434,-1.6546481216,-5.2516893978,4.4720968211,-0.7554428466,-0.7286877561,3.4321589365,-4.4905266497,2.818088379,5.7754338604,2.857876878,-2.2368699253,-4.3418855885,3.9149490678,-0.0613564295,-1.5918437533,0.8086792853,5.4270548595,-0.3445538096,3.6956620187,-0.0909488166,-1.9450510171,-0.5968032255,-10.9381473517,-2.7743360093,-0.7867700412,-1.7260346905,-1.6150969528,-0.041394527,0.1439140814,1.5195151193,4.3948418603,4.5634157748,2.6402727302,12.0737848811,-5.9813079662,-9.6667878135,3.5038492674,-3.2243003171,4.5517824343,1.5897521144,3.0235606665,3.9680732333,-1.3343090997,-0.6559133591,-8.4695631303,3.5156347,-6.6156609795,-3.1705061377,4.6764554467,-9.9911784918,-6.4360693038,4.073014954,8.6627868976,3.7109720034,-2.401844472,-0.1262754182,-3.0210827682,-6.0028316458,-3.0932532772,2.1097713774,2.2445567899,1.2378322001,-4.0753388125,-5.1811723498,0.8702623867,-6.1802851906,-3.8793241284,5.0864092345,-1.6667141099,0.487369267,-4.4854924203,-0.316769001,-2.4685830137,-7.0331975617,-5.7908591712,5.1601593644,4.3592011894,4.0022299013,2.3378739554,3.505568654,-1.1263188627,0.7709269049,-2.0339685276,2.5701878288,-4.1718679844,-1.3864985119,4.6627918418,-1.3943778063,0.9321730365,5.4335846122,3.6790459554,-5.9416015769,4.1559725023,-1.2171034184,0.7089652725,-2.8134337137,0.35135892,-2.8864065809,-2.2064093813,3.0397155435,6.6330201551,0.9408006189,10.2171610077,2.0664630786,-4.1207369984,-0.9450452152,4.1571754656,-2.3973865256,-5.0017784428,-2.2719888313,3.7994522603,-0.5357461949,-2.41442183,-3.7830302991,3.1151548052,-1.0557863375,3.3324697486,-1.6356477691,-3.4942000991,-1.0447347948,1.4350952645,-0.7039903649,0.0171781837,1.2883021856,-5.0700640645,0.0577795894,9.6792863408,1.8425142728,-5.336049298,-2.3687050991,9.4432834655,-0.5902472066,-4.2046138954,-2.607605353,6.1135755374,1.471195934,-3.7786486108,-1.9106509311,6.0688043049,-0.0797981398,-3.6770992734,-2.0854015306,-3.135153259,-3.9738961904,1.4643040131,3.7644822471,-2.1058818602,0.7979869817,2.4977862718,1.5470856984,2.934042401,-2.1555539961,0.609751917,1.3925808176,-6.7653587907,-1.2219703667,5.9017222797,0.9691298902,0.7942576635,2.8392550656,0.3332543828,4.8902806167,2.0599353638,2.0933275558,-12.8321792359,0.6891295216,0.0767457742,3.0775764806,3.2926488996,2.9492195125,-2.1575205036,-0.3342688414,-2.6693206488,-0.7999309611,-0.3743393019,3.3197639065,0.2396202694,-1.5170230707,2.4591739638,0.4777919389,3.2197940688,1.6335330423,-0.4103969118,0.384717188,0.4348489973,-7.2195141905,0.3947696967,-0.5265516297,0.8910633709,-0.8281537361,-0.9155923337,-6.3109644754,0.2145247168,1.0560177388,0.323117439,-0.2649944167,11.7822087183,0.50244136,0.1519233316,0.9312817426,0.0061317068,1.2604712986,0.1031139173,0.6874896819,2.7041448466,0.7186619231,0.6440357766,11.1476060143,0.2837464603,-8.137400121,-1.896507349,-1.5205079635,6.19378058,0.386726412,-0.8157886873,-0.4865522019,-1.0347454037,1.7563172425,-0.2498566666,-10.1265882256,0.8092180355,-2.5806593225,0.7402098888,-1.7067112039,1.9260169426,6.0768181889,3.7374197528,4.309971859,0.6279947822,2.1755878202,1.0486120564,0.386576253,-0.9964586267,0.4197562063,4.5973612813
biasActivation=1,1,1,1,1,1,1
[BASIC:ACTIVATION]
"org.encog.engine.network.activation.ActivationSigmoid"
"org.encog.engine.network.activation.ActivationSigmoid"
"org.encog.engine.network.activation.ActivationSigmoid"
"org.encog.engine.network.activation.ActivationSigmoid"
"org.encog.engine.network.activation.ActivationSigmoid"
"org.encog.engine.network.activation.ActivationSigmoid"
"org.encog.engine.network.activation.ActivationLinear"
