encog,BasicNetwork,java,3.4.0,1,1573290175824
[BASIC]
[BASIC:PARAMS]
[BASIC:NETWORK]
beginTraining=0
connectionLimit=0
contextTargetOffset=0,0,0,0,0,0,0
contextTargetSize=0,0,0,0,0,0,0
endTraining=6
hasContext=f
inputCount=2
layerCounts=3,8,8,8,8,8,3
layerFeedCounts=2,7,7,7,7,7,2
layerContextCount=0,0,0,0,0,0,0
layerIndex=0,3,11,19,27,35,43
output=0.6335842392,0.6090186733,1,0.6026812854,0.9934459293,0.9962498637,0.8187883564,0.4899288211,0.5333872299,0.9999286682,1,0.1704995138,0.0000227026,0.0052627932,0.7041788569,0.0458237181,0.9991112259,0.8703562287,1,0.990449921,0.6449491198,0.0583122694,0.2581368945,0.6927404294,0.498586864,0.9610732092,1,0.0616324555,0.0219449334,0.9229900739,0.2325581339,0.0001437949,0.8345784507,0.3328487751,1,0,0.9690779659,0.000020809,0.2270273109,0.9999997962,0.0000003586,1,1,9,20,1
outputCount=2
weightIndex=0,16,72,128,184,240,261
weights=7.9564748522,-10.4826952888,9.9078324075,4.5968126585,-0.0627287221,-2.3809714463,-4.2367034684,-1.930982948,-2.2105716143,-0.9738761573,-3.5675059641,-0.0033664834,-10.1941574354,8.2357545547,7.2448121117,-0.3428937574,-8.4808439475,-0.8841883191,0.6613185881,-0.5412057646,3.2038037655,1.912576502,-4.9396325088,4.4818279266,1.7192987508,1.6109705686,4.5115399479,9.4230946655,1.9319125168,-2.0386967672,2.8215267387,-2.4387461638,5.3771011005,-2.94465388,-1.6991599229,0.0906666006,-3.5386978836,4.4326109446,-2.802987029,2.7836586309,-2.310784833,-0.5877751214,0.2300489503,1.9672117448,0.4112952967,-2.772534836,5.187734291,-1.2482718533,5.810249121,-0.9587456522,-4.1653739659,-0.5728176933,-1.8722673047,-2.9209326675,1.3627303453,1.2124445845,-1.7844717601,5.6465117415,-7.9718694831,-1.7908027432,3.2748959284,1.8848312854,-4.7158109717,3.8120824972,-2.9403910459,-6.0275793119,-2.6797016565,-2.4851237894,-3.0097654931,7.4792702393,0.6470249786,3.9157972169,5.8897076945,3.0800766825,6.5015671912,-3.1517288321,-1.0711838937,2.9971541101,-8.3121875179,-1.7312567059,-4.7173303981,-3.1779795929,4.981152098,-4.466602944,-3.0834243612,-3.2678657652,0.4197446604,0.2533629741,-4.405504713,-3.3791539763,9.2169041039,0.4701426724,-3.304814196,-1.3456497406,2.8610646881,0.8527868042,-4.7258977031,-2.0095255047,8.4065203576,-3.0365524352,0.0783231407,-1.2598109477,6.3152000658,1.6422249942,-5.1844578731,-2.1288790075,6.7862497052,-3.3664854427,0.8673535053,-2.5441471652,3.3099506106,1.431733055,1.3875517558,2.8412570242,-5.8978010589,2.9614858316,1.6991849443,0.7723715657,1.0836441342,0.7938071339,-0.206405765,2.2189517695,5.2651673243,-5.6661915075,3.831000685,-0.7722387141,-0.1344890998,-0.3065421852,-1.0036747832,-4.7686822816,0.0723673224,4.6299162872,-5.7965845323,4.9534275385,-2.3573891507,0.3160619574,-0.3010210593,-2.896260239,-0.4016682674,3.9368984177,-4.050508338,-1.4414776491,0.8348057124,1.0599438718,-0.3199599001,4.1516886967,1.4193926426,-8.8949674511,5.5998802189,-5.5562610864,-1.7203897896,3.1142220633,3.7142209522,2.5180126964,-2.0922307254,4.8915750669,-3.1295093306,-1.1436900846,-0.270379231,0.4986282568,-1.8121142231,-1.5519466034,1.1035428255,1.1443180535,-3.2895599453,-1.332051499,3.7568252208,-0.464254835,1.3895807358,-0.6935408534,-1.5723230939,2.8859487818,-3.283608399,-0.4112214316,-0.557722471,1.2333175738,-0.2460229871,2.1602338211,3.2099249566,-10.2039981947,-0.5618442109,-0.9306228552,-0.2068123363,3.4300143871,-0.2027096702,1.7868451317,-0.6128170811,-0.7704410389,-0.3425607484,-0.2661449468,-4.3240666359,0.3870059699,0.0724729509,-2.069735957,-0.8722497635,7.305290907,-1.2338178555,-0.1619509935,-1.0613162527,-1.1546426603,-0.8822840113,-1.8605787721,-0.2323441407,1.7445012905,-0.1067760068,0.0887895563,3.6150946809,0.382366718,-0.5908730052,9.6622205536,0.4680245496,-12.0853349965,-0.4553898467,-0.3211238519,-7.2561539983,-0.1021323066,-0.908570983,-10.296896043,0.0088643506,0.2273119606,0.0069471483,-0.1573233308,-0.2339333639,1.3068961189,-0.7283475001,1.9361884881,-0.9899303148,-6.2626939284,1.6664887296,0.9211887511,-1.9374666324,1.4349131593,0.8319855537,3.7922190411,0.633535924,2.2708745709,-2.5270672708,0.2900084675,0.4339486752,-2.7927301549,-0.9409448615,-0.8889301437,0.85538344,4.7072719967,-0.7950588456,-23.019394996,-0.8548938629,-0.1490235992,-0.1055883925,0.0961813366,-0.1686712707,1.2826199911,0.8984515332,0.4008270701,-0.6965286107,-0.8487727121,-0.3352299474,-0.4973653744,-7.2976777092,9.060309316,1.6268852479
biasActivation=1,1,1,1,1,1,1
[BASIC:ACTIVATION]
"org.encog.engine.network.activation.ActivationSigmoid"
"org.encog.engine.network.activation.ActivationSigmoid"
"org.encog.engine.network.activation.ActivationSigmoid"
"org.encog.engine.network.activation.ActivationSigmoid"
"org.encog.engine.network.activation.ActivationSigmoid"
"org.encog.engine.network.activation.ActivationSigmoid"
"org.encog.engine.network.activation.ActivationLinear"
