encog,BasicNetwork,java,3.4.0,1,1573290400903
[BASIC]
[BASIC:PARAMS]
[BASIC:NETWORK]
beginTraining=0
connectionLimit=0
contextTargetOffset=0,0,0,0,0,0,0
contextTargetSize=0,0,0,0,0,0,0
endTraining=6
hasContext=f
inputCount=2
layerCounts=3,8,8,8,8,8,3
layerFeedCounts=2,7,7,7,7,7,2
layerContextCount=0,0,0,0,0,0,0
layerIndex=0,3,11,19,27,35,43
output=0.0001791032,0.0425517508,1,0.9973329657,0.9998800446,0.0092599917,0.0002161188,0.9299315351,0.0108029897,0.3194356784,1,0.0000049267,0.0254490198,0.8193273573,0.9990037383,0.4993582861,0.9031327498,0.419590147,1,0.9997156689,0.9891446557,0.0000002557,0.3467440576,0.9999219434,0.0004161936,0.2368097429,1,0.4009410157,0.5244944513,0.9559806413,0.9926756701,0.9629615104,0.1082112258,0.1563085913,1,1,0,0.6125173995,0,1,0,0.9999300733,1,9,20,1
outputCount=2
weightIndex=0,16,72,128,184,240,261
weights=7.2849529656,-2.4476284938,-12.1446089967,6.2304184032,-10.8940469671,10.33585505,-3.2863925064,-2.2655947115,5.0530772292,-11.5927317142,4.6645459182,6.0524600801,-5.1738258061,-6.7569212698,17.3335292045,2.7410392918,-3.280164892,-1.6270368925,4.2036865425,2.586399631,0.0977097733,1.9957764172,-3.2680775229,-0.5424681439,4.2859808011,6.3141901727,9.2758316786,6.0677186164,-4.3457489463,0.558761924,-11.793628593,1.8198833972,1.3670488634,3.8423097787,5.5617608553,-5.7801205507,-1.9232266922,-5.1716800254,7.6918436547,-1.14940856,12.4847721978,-0.3121072098,-3.5092185011,-3.1751490347,-2.6726979937,0.2447896807,0.7616814258,-1.5904381224,-2.8077428791,-3.7761755436,2.4124360554,-2.0359262216,6.1881531592,0.4286468594,-5.9606347533,1.762868018,8.2665337061,-9.0689192134,-7.6828058767,-3.2151814362,11.7316174835,-1.7428132612,0.8934330743,0.5612307095,-1.9433561439,-3.9998239263,5.3462703852,-0.6656702714,-1.3652193822,-6.4505528405,-0.9680456343,2.543717817,2.0603931923,-13.4062821135,5.2596792826,0.8471488298,-4.369416764,-0.8805326355,0.2975788662,2.9853358715,0.4244041179,-0.6936417301,-2.8460039125,-6.8911831228,1.2417032265,-1.0684632167,-4.8108448639,-1.0959001944,0.8008527517,8.3864338053,-5.7116882331,1.2450375941,-8.1304704334,1.6500012,-3.4197905587,0.9230565674,-2.3306320195,3.1751421658,-3.8525739105,-0.3894571586,7.7934549947,-2.0149732905,0.6448870252,-1.7098823595,-5.5206522844,-0.9839514266,1.3378994609,13.6271985734,5.0349861054,2.862749923,5.7070341402,-4.6226302778,4.6042636516,-1.2105415658,-2.7473350165,-4.1334383889,-0.5942656544,-2.1646828694,0.1284701091,0.8249173933,7.5037712637,-11.8847709419,4.1244901361,-3.7388288985,-1.7253533695,-7.1249250346,5.7021067583,5.6039491058,-1.2212489382,-0.5591086601,0.6404686254,3.3699230103,5.016756638,1.9452668089,-1.1680330656,0.1315990226,-1.2183353738,2.3502517995,7.2058805361,-4.1941121157,3.1087114235,-10.2250442475,0.4573246164,-0.9159082282,3.1539422148,-1.847248855,-9.463686144,-1.3926088594,-8.039878756,8.4812822919,1.030235705,1.6176909148,11.2877025254,1.3184372271,3.670244914,-4.7735156579,-1.5005073275,-11.0036863763,1.9187084673,-2.2849856614,3.8494456505,2.917662078,8.5925010843,-1.3872329464,0.2190404132,-6.2200911597,1.1823532851,-0.1755481374,2.0942517024,0.4565173981,0.5395889835,-5.2177745709,-4.7146040543,-1.7764368038,1.9636731004,0.2259389455,6.2733388876,0.6827050083,1.0396925082,-1.9616193461,-3.0982698518,0.6838240535,2.1255015191,-0.5129552452,-1.2214923025,-0.2108394522,12.8892823476,-0.4868626276,0.5930438397,0.0158241786,-7.2822356432,-0.3862805626,-0.900485419,-0.0806246988,4.3932734104,0.0544451319,-1.54181565,0.8416197269,0.3699267648,-0.5204999349,-0.1740426843,0.3804378373,11.4495781384,-3.2939025166,-6.7994279972,-0.1367298517,6.4954047322,-3.4564375188,-1.4056643722,0.9053176999,-2.7459775783,-1.69096486,2.1819744405,0.2274466571,4.8049271714,1.0102601252,-2.4673977124,-0.3823715958,6.3248455661,-3.7333274196,-3.4813446765,0.4685547517,5.8743207703,-0.5411897567,0.2663764521,-0.1631467632,-9.1584575988,-1.4885997487,6.2403843399,-0.9157376776,-4.787637386,1.7811122488,-0.6295033663,0.7214907588,2.7128448185,0.0655647107,0.0302957128,0.7472759375,-2.7563969821,0.007792641,-2.4001466044,4.5883363922,-0.9680651264,-0.9466688966,-0.8710611507,-0.8651917519,0.5792632672,-0.1644455018,-1.4665529653,1.8334501724,-4.1181184918,0.6145044846,0.5726507238,4.1056746794,0.9187809079,-0.7090048093,-1.3194524596,-0.0037127643,-2.8904687443,1.7473976785,0.634257748
biasActivation=1,1,1,1,1,1,1
[BASIC:ACTIVATION]
"org.encog.engine.network.activation.ActivationSigmoid"
"org.encog.engine.network.activation.ActivationSigmoid"
"org.encog.engine.network.activation.ActivationSigmoid"
"org.encog.engine.network.activation.ActivationSigmoid"
"org.encog.engine.network.activation.ActivationSigmoid"
"org.encog.engine.network.activation.ActivationSigmoid"
"org.encog.engine.network.activation.ActivationLinear"
