encog,BasicNetwork,java,3.4.0,1,1573983349921
[BASIC]
[BASIC:PARAMS]
[BASIC:NETWORK]
beginTraining=0
connectionLimit=0
contextTargetOffset=0,0,0,0,0,0,0
contextTargetSize=0,0,0,0,0,0,0
endTraining=6
hasContext=f
inputCount=2
layerCounts=2,8,8,8,8,8,3
layerFeedCounts=1,7,7,7,7,7,2
layerContextCount=0,0,0,0,0,0,0
layerIndex=0,2,10,18,26,34,42
output=0.0791585246,1,0.0000141913,0.5370344479,0.7497354269,0.7960285954,0.8271059254,0.2496858891,0.596614173,1,0.5427954503,0.4146603758,0.2499534177,0.0321004592,0.6155792412,0.9445858573,0.2382478842,1,0.3478239043,0.0007758617,0.5261164271,0.2374366126,0.2098104288,0.9999758316,0.9161634414,1,0.9988663235,0.8920671387,0.447791216,0.6446553395,0.7650681703,0.0406987309,0.4633375021,1,0.9999998212,1,0.3717015664,0.9999998825,0.9999998266,0,0.387229577,1,11,15,1
outputCount=1
weightIndex=0,8,64,120,176,232,253
weights=9.9705094174,-14.8182754912,3.9515200049,-1.9124256798,4.3644816697,-0.1355758766,0.3163909802,0.2988978653,-3.130865983,1.3555367463,6.9362756853,5.7019119553,-8.1626981581,-3.3747024757,-0.1092263932,-3.7038104725,7.7483267304,-9.4509873521,-7.9176814231,-3.9960048889,6.916759527,-1.2586834849,-0.3807669664,-1.0092338529,-0.6041118007,1.9146816188,-1.6333673758,-2.2632333504,0.1241295974,-0.0911516189,-0.9142073171,1.3395817403,0.4201334074,-1.0368116395,0.5838928747,0.3634595389,0.4671729168,0.1456703708,0.1321166197,0.9492636359,0.3246584735,1.9643792353,-2.2998323126,-2.2345266896,0.2024338791,-0.2101509151,-0.7637246099,1.4769078155,-0.9131647774,-0.5230541041,0.4998176808,-0.5089111414,0.4467514717,-0.8843471726,0.7443886457,-0.113349727,0.8191201603,-0.5088763569,-0.8007569073,0.3306955318,-0.1217932583,0.6018921886,-0.646534445,0.0077797658,-2.6737066913,2.6228744636,4.3061556891,0.0384200026,1.5471619561,2.7429282074,-4.7133171285,0.0755804262,2.5018594124,-3.3948435602,-6.2917099303,-1.7021049714,-1.3080555912,-2.5460586712,5.2704888832,0.4938205972,4.1427676567,-1.7219968788,-4.2363249085,-1.1629371662,0.063504218,-5.1629825599,3.6291689213,1.7910676973,2.5038494791,-0.7730581497,-1.5244618146,0.821565033,1.1855819698,-6.3835803852,1.5196176622,1.0728783973,-3.2799016138,1.8855840039,5.9579892401,0.4229530183,-0.7658940454,3.3987623235,-2.6846271267,-2.4032597052,0.8490490758,0.795184403,0.2614807362,0.9455303482,0.4731797918,0.6498513169,0.4203975439,1.043635863,0.015431528,-0.9779531589,0.7100209078,1.2468695701,0.7758672198,-1.1707722226,-0.1168257334,-0.7215340232,-0.0787940332,-1.7382555937,-0.6421243266,5.3429588518,0.1725010775,4.1829539964,-6.5795038272,0.590212665,0.9376571142,0.513576778,1.0437129816,-4.9208064853,-5.3883434192,-3.752476262,0.7821851163,-1.9378851387,-5.0758395327,4.3781779558,-1.5099060985,3.5106370586,-1.8412201744,3.1050341225,0.9385877914,0.5293942009,-0.7066712138,0.9484432313,-0.2618962198,-0.028611185,-0.3262852022,0.2528092421,-2.2736508169,0.1215383727,-0.4345353916,-0.5598023669,-0.4982327055,-0.7813816453,0.1308951801,1.6601585719,0.4034275118,-0.0204515119,-1.9738178431,5.73979999,0.8841562875,5.4207854995,-2.6516407619,-8.8837557151,7.2600803037,2.6176533768,-0.4602054154,-4.7836154167,-4.2945780412,7.6073943568,0.8512116997,2.6503249701,4.648571916,1.2242848053,1.0187360733,5.0676188554,2.4778601831,1.6705339589,0.7450319936,-0.1408648817,-7.5532452162,0.2830501371,1.4713355034,2.5833549058,-4.3125712296,1.0886502642,-3.7967763939,1.0775766599,0.6041162841,2.1345252592,1.1639545739,1.1322855179,-3.2053751505,-0.0381752889,-1.5305547134,0.3016215774,-2.3044850591,1.1466984692,-2.6661517,-0.6150270054,2.9214567313,-2.9156704593,3.4206636738,-0.0156900522,9.7457446265,-1.4879377243,-1.2419370356,1.3557094822,-0.8925827162,0.108983637,-1.6824629773,0.6282925748,8.0842465173,-0.158309017,-0.6039095031,-6.3956836603,0.9099272876,0.2513416219,-0.6600183811,-0.6519008227,12.0133526147,-0.7418853843,0.3461490411,-5.0448074468,8.7007645654,1.9564236997,2.3552256341,0.25546545,-10.1676355656,0.9432175068,0.9560197576,0.29526229,0.5921041378,12.0922290421,-4.432264355,-0.3287055325,-1.0175837853,0.940898977,-3.444986991,0.7476794262,0.5002507657,0.2285608545,-2.955205171,3.2310105747,-0.3904054307,1.2044463947,-3.4237599132,-0.5962020983,-1.4504285696,-0.1705779216,18.0544104773
biasActivation=1,1,1,1,1,1,1
[BASIC:ACTIVATION]
"org.encog.engine.network.activation.ActivationSigmoid"
"org.encog.engine.network.activation.ActivationSigmoid"
"org.encog.engine.network.activation.ActivationSigmoid"
"org.encog.engine.network.activation.ActivationSigmoid"
"org.encog.engine.network.activation.ActivationSigmoid"
"org.encog.engine.network.activation.ActivationSigmoid"
"org.encog.engine.network.activation.ActivationLinear"
