encog,BasicNetwork,java,3.4.0,1,1573983505057
[BASIC]
[BASIC:PARAMS]
[BASIC:NETWORK]
beginTraining=0
connectionLimit=0
contextTargetOffset=0,0,0,0,0,0,0
contextTargetSize=0,0,0,0,0,0,0
endTraining=6
hasContext=f
inputCount=2
layerCounts=2,8,8,8,8,8,3
layerFeedCounts=1,7,7,7,7,7,2
layerContextCount=0,0,0,0,0,0,0
layerIndex=0,2,10,18,26,34,42
output=0.0004011073,1,0.7142030357,0.0897962169,0.0002545535,0.3004928963,0.2517394775,0.2412084668,0.8286666629,1,0.2345001913,0.6030830138,0.6200415529,0.9975078511,0.0090327742,0.4702780858,0.9356014497,1,0.3032491927,0.8157340301,0.9152657851,0.1676715982,0.6512441296,0.5808425766,0.0023829169,1,0.1160348034,0.8302398967,0.3363053724,0.7692238718,0.0515126772,0.9175832631,0.0938625744,1,0.9999986124,0.5702432233,0.0000110729,0.9999948556,0.6004800295,0,0.0000445167,1,11,15,1
outputCount=1
weightIndex=0,8,64,120,176,232,253
weights=3.1449025421,12.2702160379,-8.4800908924,2.5815060177,-3.0469595495,-4.7365617779,-7.9136442488,-3.4750518278,-0.1059881103,-2.819890663,1.0768176769,2.0620584135,-1.6252100502,-0.8684354011,0.8570309913,-0.4619762721,4.1483814768,-8.9569405998,-2.9172219789,-5.34041393,-2.9250756114,4.1315889801,4.7370048695,2.9002376531,2.4748398189,0.3384991358,-1.2257044869,-7.0669855401,3.096720345,0.8105018368,-1.4342646722,-0.3181101558,1.3247669218,-3.6519862154,-0.6918403614,-1.6780252268,0.4513747795,2.5831873533,0.6774493343,1.2969378818,-0.4562709367,0.8448932088,0.789000445,0.0446657129,2.1071206,0.0851162644,-1.5369220454,-0.6467840224,1.137194416,2.3215179632,-1.2330195646,-2.5105292872,0.5317466899,0.4931167086,0.1386316573,0.0895810604,-3.6670435382,5.5984119777,1.8097925732,2.5953551928,1.0310380831,-2.3625755138,-2.9530176318,-0.7866096225,-2.7544145472,-0.6050555045,-1.5816920511,0.9150315446,0.4502888601,1.5346534485,3.9642909578,0.2459229908,4.4518942495,1.9074580508,2.4154780118,-2.576689368,-5.7162298614,-5.706741575,-6.9709335012,2.7875399411,2.0819848077,0.1122736157,0.9112024597,0.4309716038,-0.6259328818,-1.3553448084,-3.2625744713,0.0631763757,2.2678653396,3.4647142188,4.8799638169,-1.2830367795,-2.1986918359,-3.7257617239,-7.3877930874,1.8403366623,5.1595726852,-1.4764851723,-0.910138628,0.7633209198,-2.8023870636,-1.0325990611,3.0479741477,-1.9354549062,-2.1724216289,0.0780894022,-1.196269124,0.4490297634,1.7192269225,0.9153821938,2.323992859,-0.1611956783,-4.2148132573,1.1761827778,0.097420718,0.3093738971,2.5747420513,1.3063349592,0.4275220012,0.4171664372,3.5830705427,2.4212963342,-6.8391595711,-1.2101549293,9.6829413369,1.5077451422,-3.2169891128,-1.607285536,0.9406268224,-1.4022796228,1.7086520555,0.898841962,-0.2939399249,0.7888777575,-1.9618811519,0.7521794577,1.5338942718,-0.0742854703,2.3439534516,2.3311364854,-0.4560541497,-0.2085870294,-2.3226011702,0.1148285559,-1.9503915082,-0.2030098286,-2.4088806782,-1.9956815075,1.1080490989,0.2430800204,0.7240216339,0.7898024728,-3.7629042875,-1.3303011667,-2.8168038311,-2.5782471418,1.5696576849,4.0747768344,1.7692083145,1.1102981451,-3.4887729051,-0.1162497931,-3.4261012924,-3.2418688522,1.748894486,3.8485849002,3.5803703945,0.5159565713,-0.0264605655,-4.6359639831,-14.3791132451,-3.7483509871,3.5601117874,4.2493393688,-1.1439297585,1.558941145,-3.712141223,-0.27058564,0.6268400759,5.6969652289,-5.1687823773,-0.5582487402,-1.7610477125,-0.7572056891,1.9618123473,1.5688314555,-0.4735201548,0.2313742024,2.0439503989,0.8558273897,-5.8374967398,-2.727556022,-1.8427669992,10.2328443197,0.3763575293,-8.8114344597,6.8768469113,1.1699954141,0.2249349982,0.0097174751,-4.6909379393,-1.2893292744,-0.5829798354,7.325213372,1.1474614571,-0.1398612987,-0.9879287509,-1.3840562823,5.0465655866,-3.8420929048,-0.4522768212,-5.1923208249,-6.2362854118,-1.0429669606,-0.6539924285,3.1684214541,0.2234511196,-4.7830054312,0.4972644012,-1.1679588762,7.0912267575,-0.4334864384,-3.8115987542,1.8239574052,-4.5431629841,5.6939890204,-0.0098042415,0.3982240666,0.8213463109,0.5535619402,0.6172817725,-1.8626126591,-1.2793190854,1.9868046409,-2.2416483948,0.8293653594,0.2746545513,-12.9599936576,-0.802367299,-0.1249775652,-0.710298279,2.685768022,-0.5050481969,-9.7901317447,0.4433903213,-0.6351548432,5.0574947451,-0.8353798752,-4.1794285764,-0.2544223907,-5.7378410331,3.5626267833,-0.3427525656
biasActivation=1,1,1,1,1,1,1
[BASIC:ACTIVATION]
"org.encog.engine.network.activation.ActivationSigmoid"
"org.encog.engine.network.activation.ActivationSigmoid"
"org.encog.engine.network.activation.ActivationSigmoid"
"org.encog.engine.network.activation.ActivationSigmoid"
"org.encog.engine.network.activation.ActivationSigmoid"
"org.encog.engine.network.activation.ActivationSigmoid"
"org.encog.engine.network.activation.ActivationLinear"
