encog,BasicNetwork,java,3.4.0,1,1573290874739
[BASIC]
[BASIC:PARAMS]
[BASIC:NETWORK]
beginTraining=0
connectionLimit=0
contextTargetOffset=0,0,0,0,0,0,0
contextTargetSize=0,0,0,0,0,0,0
endTraining=6
hasContext=f
inputCount=2
layerCounts=3,8,8,8,8,8,3
layerFeedCounts=2,7,7,7,7,7,2
layerContextCount=0,0,0,0,0,0,0
layerIndex=0,3,11,19,27,35,43
output=0.9994620422,0.8420946745,1,0.9506745048,0.8183780738,0.000000004,0.8333894319,0.0000000006,0.0316858916,0.9988006076,1,0.0000000001,0.9999999992,0.1667504346,0.0000000079,0.122399824,0.0000002494,0.9999999949,1,0.0000000042,0.259641417,0.9994306685,0.999999952,0.0000170243,0.9738494322,0.9999980387,1,0.0308248555,0.9998405336,0.9981736053,0.0028060678,0.005851703,0.0804471663,0.0081130093,1,0,1,0.0000468029,0,0.9999999285,0.9999994496,0.5365342357,1,9,20,1
outputCount=2
weightIndex=0,16,72,128,184,240,261
weights=-2.8519846492,31.8806732771,-4.3542342028,0.9719551969,-6.0202192341,16.2616639368,-14.3795173941,-2.8149544112,7.9432451992,2.2176575088,11.1889880688,-17.4623211605,12.6996678339,-8.8347737756,3.8261843728,3.318830091,-1.9613899122,0.9109502577,-3.9445392683,0.58475978,-7.6246012588,2.5486281732,1.8800874442,1.7586958043,-2.5854771988,-0.6084256491,2.1794916191,4.8241238967,-17.2799505813,-2.4054528466,4.4589396402,-0.593484447,3.0400217168,-15.8705937964,5.41290284,2.7679897176,-0.0731130816,3.8897480133,-4.3193890688,-0.0487600568,-1.4126581,0.4654584767,-0.2199355193,-1.2499973488,-9.4108321674,1.993818331,-1.4032186882,3.7361601385,-0.4479307853,-11.2188706682,6.38116937,1.4336394198,-3.4278778589,2.0252976573,-5.8163748579,-4.7863079657,2.8658947758,-4.6124154659,-3.9067945004,-3.4618417373,27.4303639443,1.0163642897,-1.5628605931,0.0495787782,-4.6340803564,0.1612844585,-1.5212651665,-4.4006868768,4.5450946185,1.3245099315,5.4563607823,0.8044474281,8.0521446963,1.2028755088,-2.9683033632,-10.3184618128,20.311755395,-2.3521070954,-6.3323452069,-1.533743525,-4.5873137172,-2.9476095443,4.5468319801,7.7420049577,-2.5877074317,1.5694384359,7.2973006366,0.6394382409,1.1777312461,4.5532265676,-2.6663414194,-2.0358929297,2.0859024007,5.1512671847,-2.4968121091,-0.6101118098,1.0710230371,-6.3514262911,-0.8616327104,-5.7045344332,1.624032235,-3.909205717,-5.9779869794,-0.6613989941,3.0157142007,17.2618593442,-1.5502653359,5.5367440412,-5.1423755439,-10.2621529762,0.4768357485,-0.9221082839,3.9530140907,-0.0622575608,-1.7945411944,-7.3332749797,3.58298663,-1.2578371422,-4.4990913952,-0.337372361,-2.2149998508,-0.3143501156,0.2398033796,7.1080560677,-1.8395860476,6.1157186366,5.6843331816,0.1823447151,0.7142240708,-2.8223952556,-10.5896320506,10.0396373845,4.4284719913,-1.2495237395,7.4331251565,-5.922136902,6.1915641129,-10.6400851765,4.6650778375,-0.5500994002,-1.3453267701,-4.6141358724,3.1213969147,5.098429983,0.3307834452,1.598613673,3.8929529912,-2.7482544426,0.9302909066,1.3114729503,-5.2068315735,1.9150869066,1.6907169536,0.5531113057,8.9088287256,-9.5581255178,-3.741152949,1.5417515209,-6.0829527172,7.3280229387,0.7316792478,1.2410979227,-8.2923768861,14.1546737774,14.5453893657,5.8102049556,7.3558857596,-4.6189996736,4.5118296885,-7.144456062,5.3247703252,-2.4527068278,-9.0731903988,-6.2596798737,5.4364476376,5.8260245045,-0.3254608798,0.245619941,6.7496380844,-6.1030548192,-2.777672592,2.3051972684,-4.5565728479,6.0539364557,0.3264891263,1.111060425,3.4386929291,-0.5870141633,-0.5573637257,-1.3144168158,-6.2251491944,0.6524400971,2.727279776,4.4512676973,-5.84791429,-0.8213351493,4.4097862418,5.4402289586,-20.2139777374,5.2880032846,0.4838154697,0.5796794604,-0.4010029992,1.3347928066,-0.3148011399,-0.4611697937,13.7302428574,-0.8668520792,5.3571247419,2.988041616,-1.8702402776,0.277704009,-0.0449335954,0.3689056131,-16.9189497195,-0.1074912736,2.7813222747,3.7173756077,-5.4667950375,-0.5223363965,-0.9214172704,-0.4894927753,-14.8454932613,0.5237516799,1.7582616576,0.033801836,-3.9644992417,0.6928267087,1.2790029267,2.0527498507,-14.8519452692,2.1669224101,-1.8424605505,3.5152248834,6.7000114633,-1.007905095,-0.2475132979,-0.6474112612,-11.4626195751,-1.2766667644,2.8296362064,-3.9788764549,-3.0318092147,-1.0125772342,1.8145144409,0.6311586448,1.2365546292,-1.046678215,-0.1649467988,1.0247000269,-2.0336436041,-0.8137527835,1.0088532861,0.414430041,-0.9140273268,0.7968266716,0.3247244908,0.7467009138,-2.8414403986,0.1863844356,21.9916727299
biasActivation=1,1,1,1,1,1,1
[BASIC:ACTIVATION]
"org.encog.engine.network.activation.ActivationSigmoid"
"org.encog.engine.network.activation.ActivationSigmoid"
"org.encog.engine.network.activation.ActivationSigmoid"
"org.encog.engine.network.activation.ActivationSigmoid"
"org.encog.engine.network.activation.ActivationSigmoid"
"org.encog.engine.network.activation.ActivationSigmoid"
"org.encog.engine.network.activation.ActivationLinear"
