encog,BasicNetwork,java,3.4.0,1,1573291260576
[BASIC]
[BASIC:PARAMS]
[BASIC:NETWORK]
beginTraining=0
connectionLimit=0
contextTargetOffset=0,0,0,0,0,0,0
contextTargetSize=0,0,0,0,0,0,0
endTraining=6
hasContext=f
inputCount=2
layerCounts=3,8,8,8,8,8,3
layerFeedCounts=2,7,7,7,7,7,2
layerContextCount=0,0,0,0,0,0,0
layerIndex=0,3,11,19,27,35,43
output=0.9997242758,0.9992662871,1,0.7051149139,0.000567377,0.8761445407,0.0282794239,0.997369549,0.0000001055,0.0102270221,1,0.8056354317,0.000017988,0.9781193005,0.0397573605,0.8847718126,0.0053586828,0.1397198561,1,0.4681295108,0.0269655979,0.7865631813,0.0751047825,0.4419279437,0.9945143434,0.0040835641,1,0.5621118465,0.0784435518,0.0000294382,0.4606552481,0.4730586382,0.9973850229,0.3997386473,1,0.00000084,1,1,1,0.0247251256,1,0.8053397689,1,9,20,1
outputCount=2
weightIndex=0,16,72,128,184,240,261
weights=-1.0011516095,-10.6081857486,4.2870642612,5.3408062513,5.1113818896,6.6172505138,-4.22249852,-0.0540972355,4.0934337994,-5.1374490565,6.3913518878,-1.6030986574,-4.8234657078,-9.324618696,-1.1355733417,3.6012114118,0.9419115306,-1.6963875062,0.5695991674,-0.1611439648,-1.1779549541,-0.1667409226,0.8311829437,0.4892210679,1.8574598653,3.7061274651,0.079695143,-0.7496838372,-7.8040271861,3.635034543,0.9034493457,-2.2594926581,7.6007635743,6.2874560936,-0.7279948028,0.0552994542,-1.1238227449,-1.5115455457,-2.2102741457,-2.1460287261,1.7626304645,4.7761865718,-2.2464223268,-0.7450913619,-0.2085252825,-0.832409978,0.3491129025,-2.5899854801,1.0569539644,-2.9123246276,1.6021976303,-2.4915317181,5.752500314,-4.0629586455,-5.3572039295,-0.7009550936,-6.910534643,-7.3131925865,-7.6967214905,3.460596809,-5.0491459011,7.0697450488,5.0869240955,0.6123900299,-0.8312512262,2.930585752,-1.6065987837,-0.1659891062,-1.4261643198,3.6461211046,0.8250117222,-1.1977437996,-3.6725009689,0.1905212492,5.6436895009,-3.0891663091,4.0313391089,-1.5884596863,5.4932285553,-1.2953903453,-0.5032819027,-2.6116763003,-0.1719808284,1.6081083478,2.5189312403,-9.258738149,6.3557075468,-2.5364553983,-2.870397221,5.7626365082,6.2320554262,-1.9943205576,1.472159271,-0.6191765533,1.1074800375,0.1968982538,-1.6613309176,1.1878946809,-1.6777108129,3.4263379679,-0.8514123731,-0.6620428306,1.2093633668,-0.346678584,5.724572677,-3.6019378522,2.5976340695,-5.5418512394,1.8407289717,-5.3268048031,-2.7856214147,2.324208063,0.3937049672,-1.2461981114,-6.2794749534,2.1729096326,-0.7469014273,1.4619045577,0.8726073729,-1.7257283143,-0.7685403188,1.6956723169,-4.9191137377,3.1866939881,-0.5973178689,1.498195771,1.5461301911,0.8939712354,2.5440427272,0.0519913337,-3.3489523577,1.296502099,2.6366483898,-4.5451299684,-1.2332365443,1.6200156919,-4.8096950028,0.2204621274,-1.0699339123,4.2727394462,-3.7079183379,-1.2765664162,4.2153308496,-1.5255328111,-0.3089877253,-1.4091443919,-3.102347611,-1.2336355763,3.6400156382,5.5586256456,-8.7207202878,-1.6230937004,2.7855348375,4.2670495651,3.3411184272,-4.3574895808,-8.4111441405,-3.0153280638,0.236163471,4.4879049948,-0.3954518399,-0.4469394939,3.224268386,-0.9081081532,-0.3233807854,-0.1856383327,-2.6175088481,1.8266867262,1.426695337,-8.3020399265,-3.6725552772,0.2501832886,0.2395749764,2.3545042199,6.3735457179,-0.0751760636,-1.9465174619,2.337937235,5.9962303146,1.4369481244,-0.2106546746,-6.3594286161,0.2625151031,1.089470458,-0.1626861015,-4.2508058643,0.0539506954,0.3927454062,-1.3792702859,3.5145959717,1.2397549826,-0.4250701078,-0.3094484728,2.9860738867,0.8450148991,0.2571736366,-4.446404841,-0.8976107514,-6.7523827149,-0.1064359091,-0.108977938,-5.101190713,0.0726284383,-1.7403497008,-2.000328688,1.9825303097,-7.6560860778,0.5684024174,0.8783565672,0.305073326,0.174295031,0.8137875228,8.5974336199,-2.5580136513,1.3464794145,-0.1897940649,0.5810215403,0.0813848078,-3.4702491534,-2.2727622674,-2.000818678,-2.9760575111,13.2417066101,-2.084788735,-0.3608236993,-1.2754245856,-0.5293283547,-0.0569859379,-10.2111713933,0.9877221181,10.1148342225,-1.0755071616,-0.3734701888,-1.8181438972,-0.389870236,-0.1249717011,10.3927655598,-0.4898222574,0.8403379796,1.482534181,-0.9770216747,-0.2680345027,0.1639840889,-4.7865828333,6.4370003327,0.3625496803,0.9639503571,0.9874892581,0.4487371884,0.7772746023,1.5346916707,0.4052167254,0.0664815809,0.4989283349,-14.2518003239,-0.7179494584,2.4538074994,0.3949049486,-0.9404868703,0.1830258721,6.2238730179
biasActivation=1,1,1,1,1,1,1
[BASIC:ACTIVATION]
"org.encog.engine.network.activation.ActivationSigmoid"
"org.encog.engine.network.activation.ActivationSigmoid"
"org.encog.engine.network.activation.ActivationSigmoid"
"org.encog.engine.network.activation.ActivationSigmoid"
"org.encog.engine.network.activation.ActivationSigmoid"
"org.encog.engine.network.activation.ActivationSigmoid"
"org.encog.engine.network.activation.ActivationLinear"
