encog,BasicNetwork,java,3.4.0,1,1573291275158
[BASIC]
[BASIC:PARAMS]
[BASIC:NETWORK]
beginTraining=0
connectionLimit=0
contextTargetOffset=0,0,0,0,0,0,0
contextTargetSize=0,0,0,0,0,0,0
endTraining=6
hasContext=f
inputCount=2
layerCounts=3,8,8,8,8,8,3
layerFeedCounts=2,7,7,7,7,7,2
layerContextCount=0,0,0,0,0,0,0
layerIndex=0,3,11,19,27,35,43
output=0.9995685951,0.999606147,1,0.0415238967,0.9013907721,0.0984553736,0.9998950342,0.0413133237,0.9933698925,0.9985103444,1,0.0000000299,0.9228233589,0.0510590594,0.9979864349,0.9520839502,0.0000016401,0.6376583902,1,0.0878315006,0.050775413,0.0007690774,0.0237350209,0.999613287,0.0003447784,0.99475039,1,0.9434715317,0.040642124,0.998497241,0.0631706676,0.9711651919,0.3729914278,0.9244584069,1,0.0000001956,0.9999997009,0.4379526749,0.6491517081,0.585179454,0.9999999551,0.0000697063,1,9,20,1
outputCount=2
weightIndex=0,16,72,128,184,240,261
weights=-6.7948941299,4.5769793083,1.0024749186,-3.5037508082,9.3101852253,-4.1152898681,10.107754879,0.9198921295,-7.5073378031,2.8891739822,5.3945173029,7.763614036,2.9157736421,-2.7843447799,0.8114704944,-0.9121580492,0.4204057544,-5.0549532443,9.7097148976,1.3411207575,-1.1537068061,4.1031147835,-1.3645765258,1.6601168166,-0.0572352891,0.104296866,-4.8836366351,0.5086035056,2.0919528216,-3.181988611,-0.3558651992,0.09351188,4.8413173366,-2.0362139959,-0.6375683164,1.4750728916,-0.1596799832,-1.3876468031,-0.0836074396,-1.5696455507,-4.7866773465,5.7027940986,-4.8872709841,7.530678243,-4.4600731483,5.7431602833,0.0787772824,0.8292461726,-4.7406037776,2.3109231446,-2.1633093602,-1.2121854496,1.8818124868,7.7581353353,-6.1074900539,-1.853915702,-1.2367448434,5.0992896666,-2.0190134822,-0.7055132136,-0.6293845808,-0.1072307686,2.2307081415,0.287717407,-1.4220671089,1.3813434307,-3.1106160186,1.923487358,1.5940488247,-5.3421486197,3.4711174591,-0.2588522308,-0.0369722661,-2.3342637664,4.189419084,2.398460523,-5.7937754044,6.4223681713,-9.8099783997,-1.7160137985,-7.0939144337,-3.6381864322,2.2298297447,3.4126992059,-1.5999546025,1.0455160979,1.6952959924,3.1190042331,4.677566655,6.4136516989,3.7368132288,2.5931464052,-1.2243180259,2.1961229232,-2.5309370989,0.0174586875,-1.1306169851,1.7074952466,-3.046914947,-3.5129247077,-0.184186428,-2.2359680292,7.8361648992,-1.3059814452,-1.2598329619,-4.2836818999,-0.2240695501,-0.1823467736,3.0163924722,-1.0623133617,-0.6304377947,0.9341302765,4.1965353806,0.8875289396,7.9201478621,1.3032157926,-4.5966008126,2.6090400875,-7.2086365812,-2.0067037487,-2.9996848351,2.8369396005,-2.1103741725,-2.1710933437,1.1699857735,-0.823135726,-1.7109603559,1.2705182445,0.3768517684,1.0048588062,2.1263459768,3.3543844798,-1.5945639264,4.0641490649,-7.9208032188,2.283303016,-0.2190724261,-1.2900018037,3.5218534242,4.5960217804,-3.5470597772,-0.3275771829,-4.5145985221,1.2645121618,-2.4956886287,1.1757910529,-1.5469754878,5.3621709239,-2.2902344112,5.9251108171,-5.2673015246,1.2267753517,-2.9297756427,2.7088454547,-1.0156020107,2.8566725515,0.3759445304,1.8980174521,-2.0747798316,0.6159013386,2.0572010948,-0.6610596324,1.3480449999,-3.1912578158,0.3570719174,-2.3770087282,5.7762001529,-0.0010569858,-1.4228444651,0.4243194245,-2.2105947392,2.9646032829,-0.5055057735,2.8930961341,-5.8910950462,0.2308027101,-0.4352694356,0.6220036515,0.7153386883,-4.3899044341,-1.2001762821,-5.0388876156,8.5438487001,0.339370867,-0.1567558202,2.0247784055,-0.4765098419,0.3820254322,-0.9284377798,2.3722418531,0.7713730677,-1.0782524587,-0.9862007715,-1.9360596199,0.7201906891,0.5672573138,0.8975526739,-1.9665518006,0.8249205043,-0.4677805485,0.2427515847,5.4301925723,-0.1346875264,-0.2334394382,-0.3733640039,1.1558398613,-0.9931699873,0.3419963515,-0.0560447814,-1.9024882825,2.4525504078,-6.8128403243,-0.8052259023,-0.752252896,-0.3645867401,3.777772527,0.8954057534,-0.3385017171,0.7899391868,3.8940505997,3.570929511,-0.5145966438,0.395110543,-0.5934363337,-0.718151938,-1.9402707812,3.7711405923,-4.2279413626,-3.818945894,0.0277262248,0.8662761209,4.7208418788,-0.8936005676,1.2059283339,-5.3235346981,11.6458680009,-6.1823992529,1.7061690328,-0.4081587105,-2.0182094759,0.0068814754,-0.7849701037,0.1900372024,-0.8194213725,1.2784679723,-3.1721091377,-0.114760192,0.0958826954,-1.1342873779,-0.9862458043,-0.1233890218,11.9593052085,4.4586135924,-1.9687738182,-0.4079734168,-2.3647926721,1.9236113658,-0.270279284,-0.871190861,-0.135943376,0.9884348524
biasActivation=1,1,1,1,1,1,1
[BASIC:ACTIVATION]
"org.encog.engine.network.activation.ActivationSigmoid"
"org.encog.engine.network.activation.ActivationSigmoid"
"org.encog.engine.network.activation.ActivationSigmoid"
"org.encog.engine.network.activation.ActivationSigmoid"
"org.encog.engine.network.activation.ActivationSigmoid"
"org.encog.engine.network.activation.ActivationSigmoid"
"org.encog.engine.network.activation.ActivationLinear"
