encog,BasicNetwork,java,3.4.0,1,1573291640465
[BASIC]
[BASIC:PARAMS]
[BASIC:NETWORK]
beginTraining=0
connectionLimit=0
contextTargetOffset=0,0,0,0,0,0,0
contextTargetSize=0,0,0,0,0,0,0
endTraining=6
hasContext=f
inputCount=2
layerCounts=3,8,8,8,8,8,3
layerFeedCounts=2,7,7,7,7,7,2
layerContextCount=0,0,0,0,0,0,0
layerIndex=0,3,11,19,27,35,43
output=0.3428561809,0.606060396,1,0.9979289258,0.6070218155,0.0049987255,0.000051598,0.9991060059,0.0000251086,0.7755694479,1,0.6376608324,0.9861494835,0.9895848118,0.9968262239,0.9218901804,0.0001505989,0.0254644458,1,0.9998736965,0.7228191785,0.889177119,0.0791300316,0.0033767754,0.9944995028,0.0000001428,1,0.4016945141,0.0006015003,0.1175650044,0.0027466343,0.7699409483,0.9953868886,0.0002545458,1,0,0.9999939679,1,0.0000000219,0.1872988712,1,0.0000011307,1,9,20,1
outputCount=2
weightIndex=0,16,72,128,184,240,261
weights=6.0459759509,-2.8893214986,-5.8037239675,-2.604756346,-12.0589343419,10.3392958499,9.2158530718,-0.0006592755,-4.7243551532,13.8252041981,-6.3913057693,11.7147324571,-6.0879949919,-6.2387579709,8.255888076,-3.5358094768,-0.3215233841,-4.0499975108,0.8365710644,-0.0445888121,9.6001975408,-0.8036943131,-0.6870019282,0.7604170856,6.3628955993,-7.9532812885,2.6526170434,-3.748054968,8.1924326203,0.6094903315,4.7345046927,-2.3414410097,-5.901832223,-4.0413659893,-1.2393452715,-2.0227193596,4.6373565999,4.4301469087,-2.8796049082,1.4954610003,-3.6791426231,2.3390713928,1.9085789251,-4.8768060573,-5.602603207,9.5369022012,2.674825048,-1.7645422773,-1.2296344193,-5.2364090746,14.8222367973,-3.8230379766,4.3041787947,3.1730663491,1.3104931354,-1.8918960543,-5.039259173,-4.1843903105,-0.1966094919,-5.3286324208,2.7430397062,7.5668587253,0.8189162546,-0.2969932103,-5.0289492789,3.7785173387,1.841512081,3.107217034,-3.8871223685,3.3646569333,-3.8555185594,-0.5179036597,5.4542419513,-5.0893746997,2.8285714608,-1.6641869329,-0.4864926232,2.8783007538,7.7710252833,-6.4538704509,-1.4440158917,-3.6776741876,10.0638270808,-4.6130871858,3.1332167116,0.4150008409,-0.5305532747,-0.6391768947,0.5159878905,2.5813051649,-1.2495381806,11.2454833524,-1.5467678729,5.6439359226,-7.2301193277,-3.2141813087,-1.4331920558,-3.038347974,6.2366621729,-2.3662062844,0.9797026746,4.1584953147,-0.1741601957,-0.118347441,4.9821907527,7.7347527284,-10.0563162193,0.6987856505,-8.4287697703,1.4816580642,-9.0881492707,-0.6625722665,2.7591602186,0.3509398701,-11.256654442,0.8244565093,-3.0432061436,-4.6950035919,0.3682397538,2.8101576784,-7.1403898109,0.6497733569,1.3559532524,2.653942317,12.3752571414,2.8460905134,6.0894045452,-1.2627725734,2.0567823913,-9.8779776783,-3.4190006668,-0.6649060323,-0.637417106,9.3785880696,2.0116469256,-0.2848407999,5.6660133382,-3.5320429933,-6.9073800415,0.9070905179,-6.9650883471,5.9105002998,-2.9405947166,-1.0255974784,-5.4694862549,9.7684732369,5.0402241709,-4.2442424546,8.1534640219,-3.7709145609,-2.0903340528,1.1690186557,2.5527511212,7.8294877109,-0.4646578129,4.6336392677,-3.0773468537,-0.0052966386,-5.4066929408,-1.0664375378,-3.8035719904,9.2401517833,6.4986082295,0.0596759394,2.8538507117,-7.5982357286,-2.1062739206,0.4371155143,-0.0407508783,0.0757618072,-2.3004746934,0.9936523798,3.1899813968,3.916298678,-5.1334792906,-0.8715718842,0.3198403883,15.6194378853,2.3872733698,1.4360012743,-3.0229190367,-11.2734432615,-0.4525882015,-2.6353464394,-4.8493341441,1.801724851,-1.8786804659,0.8165742405,-8.1133450991,1.4763807935,-0.6247782194,-0.278202828,-0.7952918824,-9.8008151164,-1.0628974499,-0.2813483655,19.6057984547,-0.5033832834,-1.3541490316,0.2794125775,0.2107716278,-2.4929467088,-0.4920676139,0.0704039856,9.0200887608,0.1058561311,-0.8745080128,-0.8260020193,5.4443360879,-0.6435673252,-0.3155316096,-0.4071632162,-4.7788522494,-1.8515124755,0.1466649891,-2.188947608,0.2612329585,3.664482228,-1.5146731822,-0.6475050999,7.5687091063,-1.5938944619,0.4989625324,-0.7655259027,-0.172669342,7.8876437151,-0.0614691819,-0.5701869906,-15.1555300642,-0.8563713371,0.8333452111,1.2430860636,3.0916078318,-7.8044467391,-1.7336223815,0.7924305521,-2.7471777954,-0.3454090421,-0.0846809366,2.1221993605,4.2432711822,-6.0244262547,-0.548156494,-3.9947738837,2.4599525874,-1.22767255,-4.1769524256,3.5512475494,-1.3016129259,-2.0900361475,0.0182702143,0.8084920607,-0.9088161376,0.2624456109,1.4627751754,-0.3546527541,1.3638264344,0.2657156854,-1.4243737804,-0.0822690796,0.7720322749
biasActivation=1,1,1,1,1,1,1
[BASIC:ACTIVATION]
"org.encog.engine.network.activation.ActivationSigmoid"
"org.encog.engine.network.activation.ActivationSigmoid"
"org.encog.engine.network.activation.ActivationSigmoid"
"org.encog.engine.network.activation.ActivationSigmoid"
"org.encog.engine.network.activation.ActivationSigmoid"
"org.encog.engine.network.activation.ActivationSigmoid"
"org.encog.engine.network.activation.ActivationLinear"
