encog,BasicNetwork,java,3.4.0,1,1573291785034
[BASIC]
[BASIC:PARAMS]
[BASIC:NETWORK]
beginTraining=0
connectionLimit=0
contextTargetOffset=0,0,0,0,0,0,0
contextTargetSize=0,0,0,0,0,0,0
endTraining=6
hasContext=f
inputCount=2
layerCounts=3,8,8,8,8,8,3
layerFeedCounts=2,7,7,7,7,7,2
layerContextCount=0,0,0,0,0,0,0
layerIndex=0,3,11,19,27,35,43
output=0.3128835951,0.2941182793,1,0.9999999997,0.0446100989,0.0000218975,0.9459918665,0.1404201525,0.1762676625,0.0000003625,1,0.7507506944,0.0051959938,0.9999999338,0.9999999963,0.2941080593,0.3578813727,0.9618769396,1,0.5214489787,0.9990523418,0.126834129,0.977976262,0.6853216383,0.9991731973,0.9999999975,1,0.9793832938,0.9919890722,0.9980658015,0.9941268345,0.8299230846,0.9333581416,0.6223849808,1,0.0000001301,0.0000000152,1,0.540684009,0.9999774716,0.0007496402,0.9999855482,1,9,20,1
outputCount=2
weightIndex=0,16,72,128,184,240,261
weights=14.7647621179,-6.2592403742,-6.6383844264,-12.9536188097,-10.5515868089,-11.8134320855,5.9021890847,0.5459334704,-0.7517473945,10.6120727168,1.9721472656,-2.8599606533,9.3260565587,-9.7628742452,-15.85713733,2.5196509068,-0.2443673481,3.921902281,9.8790988948,6.2773077031,-0.1965716984,-2.7404742664,5.19026933,1.9083348307,4.5378529713,-2.7970436265,-0.2618097039,-7.7700789769,-6.7792248589,-2.3769699723,0.1372335779,4.2879626527,1.1056417206,8.3154679464,1.6310933845,-14.7663851398,5.108222161,2.7475987423,-2.013997505,0.9844391535,-10.6246765918,9.0035245027,3.2465839313,4.8858662189,-15.5626524748,-6.5659053171,8.1269695713,1.7701225757,0.972743017,-6.4050993858,-2.3184842564,-1.5865926371,7.322383881,8.8703808568,-1.0530977079,-2.9189003983,-0.5453181738,4.8116718368,-9.869699903,9.5379023744,-8.1698403739,8.2195585628,-2.6282279035,1.1635723053,0.4048583954,-0.0847081741,-9.8135497872,-1.4451776014,2.3102512486,9.1471670692,-7.5585876679,-0.5576585618,-10.734090594,-1.1650737999,-3.7620530568,3.3070857104,-0.6242122901,3.5207876223,-2.0203760789,4.037061334,7.5302749104,-0.5086725432,3.6667619146,-3.7892114665,2.1885998138,-3.3307211821,0.8507911313,-4.4551517966,0.4052590001,11.2531233195,0.9497975923,-0.727608011,2.3452920731,-2.2595422262,6.5515659699,-0.2325479711,1.9485596633,5.5340497665,4.3881223735,-4.106583324,2.6328989351,-3.088492035,20.0313471406,-2.4234742184,1.8668983832,7.9152905373,5.4921196182,2.4010759437,-4.3855421895,6.3451093151,-15.6236384295,-0.5122980181,0.2209245587,3.2944247451,0.485891029,1.8780129541,0.6200420777,2.9965400078,-10.8739001766,1.5655546466,1.1342035685,5.7379868297,0.5154655883,-3.667521599,1.2277080034,-3.3512381961,6.8203465146,-3.8877948505,0.4303237452,-6.9099624721,2.5476127822,-0.2368644218,3.4255396224,6.7926771903,-7.4484204487,-0.33535789,1.66763432,1.9798075535,2.8985751325,-1.6528795796,2.8812902655,4.4240229545,-3.8574313406,-2.0060686722,2.9267857934,-8.9165229205,1.4660550409,4.7935999654,0.0821272287,0.5686371308,-4.925925289,0.2876575912,-0.6968258808,4.9556783881,-0.7998604433,-0.0764591198,-0.8773806641,-1.1298610654,2.0560877149,0.9372141403,1.186201263,-1.1694148729,2.0606126998,0.2365709375,2.0297518317,0.0306595754,-4.0909370517,-0.6821867656,-0.5391817585,9.3824116674,-1.8401671116,1.1409110301,-3.102087326,-1.5483637965,3.3992317818,0.9243717122,3.7234070596,-7.0911313596,4.5667863136,-3.300754338,9.1797355609,15.2904531633,-3.501894551,2.2200220133,0.8801225712,-0.3377981577,1.5983159903,-0.4779236738,0.9722791171,-2.1332949816,0.5530061549,0.9972547686,0.0140858273,-0.1457461428,2.6357343209,12.1326797538,-2.9057627594,-14.1395182998,-0.5384141401,-0.9220715297,0.1713510437,-0.2179777783,1.2219195657,-3.2653091734,3.3400989475,-4.0751646504,2.0074068028,1.4453604762,0.3052405172,0.7178001991,-0.4142309839,0.1341983076,7.2409560786,-1.1737025619,-0.3421715828,-1.424603368,-0.3431175025,-0.6155489901,1.1935562019,-5.755407974,2.3000816967,-6.4232915091,0.4609523944,0.7472227031,0.8043807134,0.9263815876,2.3855351241,-14.7836542016,2.7379420752,-5.3115790872,2.1833120946,3.3300271183,-0.398061028,-0.323911839,-1.972000218,8.154669415,-0.8218555131,0.9348508838,-0.2537396382,-0.8625432761,-0.9179268934,-0.3311631756,-0.970037496,-0.930572551,-0.4372687913,-0.8843307366,-0.8954584164,3.1379715803,-0.8925817126,2.3807954939,-0.2520651142,-16.2227605472,-0.4595897427,0.7591681492,-0.3463434416,0.9490359221,-0.5838063882,-4.0603628189,1.2020781528,-0.0312760592,0.9514972101
biasActivation=1,1,1,1,1,1,1
[BASIC:ACTIVATION]
"org.encog.engine.network.activation.ActivationSigmoid"
"org.encog.engine.network.activation.ActivationSigmoid"
"org.encog.engine.network.activation.ActivationSigmoid"
"org.encog.engine.network.activation.ActivationSigmoid"
"org.encog.engine.network.activation.ActivationSigmoid"
"org.encog.engine.network.activation.ActivationSigmoid"
"org.encog.engine.network.activation.ActivationLinear"
