encog,BasicNetwork,java,3.4.0,1,1573984824025
[BASIC]
[BASIC:PARAMS]
[BASIC:NETWORK]
beginTraining=0
connectionLimit=0
contextTargetOffset=0,0,0,0,0,0,0
contextTargetSize=0,0,0,0,0,0,0
endTraining=6
hasContext=f
inputCount=2
layerCounts=2,8,8,8,8,8,3
layerFeedCounts=1,7,7,7,7,7,2
layerContextCount=0,0,0,0,0,0,0
layerIndex=0,2,10,18,26,34,42
output=0.4404745394,1,0.3750088291,0.0045899962,0.111881389,0.9985708551,0.9963594962,0.0014154647,0.1289913485,1,0.9041366874,0.167258158,0.0000264129,0.368185346,0.999977847,0.0120855391,0.0004435412,1,0.939123618,0.1824675647,0.0000294477,0.9955794682,0.9728518768,0.8889161394,0.6741665111,1,0.69162375,0.999944479,0.2525896714,0.6493814544,0.1418516246,0.0002624101,0.9914850152,1,1,0,0.0000000001,0.0010990206,0.0000053968,0.8331718523,1,1,11,15,1
outputCount=1
weightIndex=0,8,64,120,176,232,253
weights=-8.3631936911,6.1069765623,1.2756179604,-6.7180170289,11.4591669358,8.4573707393,-0.3944358619,-1.9438399051,1.3315938729,-7.1521219076,6.8133468856,0.8077822881,-0.1026449268,-1.1531252809,0.8009340552,-0.6998501057,-3.316505364,0.3946512721,5.7892127727,-0.2061693299,-1.2412914255,-1.0697115518,0.9739508138,-1.1171943995,-1.1838834999,0.4650683314,1.4080634543,-0.9321412192,-0.4318252144,-0.1776332645,-0.757158824,-0.3015981689,2.134228751,-3.363978973,3.0216303802,-0.5331781815,3.6722583058,-0.0367557659,-3.2784239191,1.7082172173,-0.3813295417,-4.5197449372,5.2548533097,-1.0872071274,4.667343024,-9.1335609844,-1.6144163865,2.5567396837,0.7684602353,-0.335615539,-0.4095483881,1.549030165,-8.7345765194,1.1691371389,6.9609647853,0.9493069,-0.4518367392,-0.767130651,-0.863690455,-0.7575431432,-0.1034590086,0.0288289997,0.5934481077,-0.9912913607,-0.897360357,-1.14320017,1.020116503,0.0832151301,1.7076410316,2.7391062384,-1.6437858246,0.2245769723,5.5345716173,-4.6111612999,4.9042290591,-3.6641825646,-0.4521770856,1.2929871888,-1.5919704567,-1.949806929,-6.2155134283,5.8105594968,-0.7564493131,0.1498163741,-3.0058124317,-5.2413880892,1.1775380021,0.8756421022,0.1584516051,0.709181793,2.154436192,-0.6762394489,0.2888880051,0.8727837145,-0.7143679863,-0.7203050601,3.8545920395,0.7887396905,-10.1865347386,0.1530915819,0.6290503261,2.9592805696,1.9386410787,2.252051465,0.8995314975,-3.7910314525,3.3994069118,-7.3855077332,1.5348231406,3.1585810684,0.1656816372,-1.6164240071,-2.7346718797,-1.891922305,6.622822346,-1.9668594167,0.3772197316,-1.4382393942,-0.4159241876,-1.65699944,0.4019630982,2.8913438164,-0.4944162135,2.8216297221,-2.9594304834,6.987201319,-3.9708108209,2.214447678,-1.1715626456,-3.0060720327,-1.1240659411,-2.5509024856,3.4673159923,-5.0083287898,3.8795158797,-0.0801082844,-0.2890241907,-9.8982114864,7.8796621177,-2.3535268283,2.5707301158,3.5397540063,-2.5171661714,1.3328508558,1.161889216,0.7637597782,-3.499356104,5.6101353532,-5.8528355029,-0.6112535163,2.6522500025,-0.708730768,0.0968174647,2.8310623686,2.202450619,1.1794896258,-1.7751553632,1.9697110268,-0.0811144771,-0.3094819019,2.0429557579,3.5139455476,0.8046314981,3.607067227,-5.2221333366,2.4534564037,-4.5661758195,-0.1251746688,-0.9490874944,0.1902296723,0.891083508,0.3227640875,1.4255716618,0.2755266134,-0.7069364324,1.2572324095,-1.1356966277,0.8640490918,-0.6888092134,-0.7037972376,-0.8458038488,2.560634427,-0.2845998228,0.0953474396,-1.2415914981,-0.5678345151,-0.0360115602,-6.947279708,-4.6582611332,11.4471759257,1.6816696525,-0.1711888417,-1.1573072477,1.5591906582,0.959467522,4.3420865496,-3.1948757848,-1.5615905676,2.9576133318,-1.5888355955,-0.4908910457,-0.0964076769,-0.6003189503,-3.5322650617,-0.5106324828,7.0472914415,-3.9884802379,-0.772027359,1.3803412376,-3.4041168946,0.9515095833,4.0205362824,-0.0615340025,-8.043850489,3.6456780195,-0.1285231673,-1.8596834398,1.8322737701,0.9277416702,2.5776340643,-0.9573283098,-11.7614567739,6.1348270624,-2.7239961328,-1.9755752009,-4.723432791,0.9936498306,-4.3693350325,-1.7016411941,4.4216705419,4.6688168027,-1.6150655581,2.5463287768,8.4138031286,0.6263026498,-6.8996549822,2.1967914658,0.4907705942,-0.9903953435,-0.8839510148,0.8553711121,-5.6988733835,3.5972693961,1.9163300276,-2.6831800039,1.1850650419,-0.390701138,1.1380771812,0.4199772582,-17.2102321662,-3.8828921928,5.0035240069,0.6617623303
biasActivation=1,1,1,1,1,1,1
[BASIC:ACTIVATION]
"org.encog.engine.network.activation.ActivationSigmoid"
"org.encog.engine.network.activation.ActivationSigmoid"
"org.encog.engine.network.activation.ActivationSigmoid"
"org.encog.engine.network.activation.ActivationSigmoid"
"org.encog.engine.network.activation.ActivationSigmoid"
"org.encog.engine.network.activation.ActivationSigmoid"
"org.encog.engine.network.activation.ActivationLinear"
