encog,BasicNetwork,java,3.4.0,1,1573292205218
[BASIC]
[BASIC:PARAMS]
[BASIC:NETWORK]
beginTraining=0
connectionLimit=0
contextTargetOffset=0,0,0,0,0,0,0
contextTargetSize=0,0,0,0,0,0,0
endTraining=6
hasContext=f
inputCount=2
layerCounts=3,8,8,8,8,8,3
layerFeedCounts=2,7,7,7,7,7,2
layerContextCount=0,0,0,0,0,0,0
layerIndex=0,3,11,19,27,35,43
output=0.9994420228,0.9997815406,1,0.9169393637,0.0020287476,0.7164440824,0.7881150579,0.0002219532,0.9989644891,0.9697172876,1,0.9997727154,0.9754283942,0.9215481117,0.0000002507,0.2792059341,0.9914671546,0.999514623,1,0.9803996955,0.9790442267,0.0179455626,0.218597995,0.0000013911,0.6408289,0.9999999087,1,0.0035156527,0.9994758273,0.7708639207,0.0626246138,0.9907212235,0.2875440681,0.0133045425,1,0,0.9999986886,1,0,0.9172509325,0.9999337677,0.0000154019,1,9,20,1
outputCount=2
weightIndex=0,16,72,128,184,240,261
weights=-8.3930624936,-6.5437297726,-0.3493991368,8.4846582366,-6.2592981015,8.4039223444,-3.8284843392,4.0819940125,0.7894948564,-0.8508190312,-9.7338600425,5.0149739252,-2.8839516225,0.8819226554,8.258294678,1.839308773,4.4628348768,2.5555732724,-1.7234427672,-10.3231863005,0.5347976362,-1.8176268608,-2.2827477822,0.9695476338,-8.2645873121,0.4938233114,3.2525878372,-11.0450919267,0.5622696022,-0.1596850683,-2.5214900099,1.106900011,0.8289236025,-5.9953635517,6.477238923,5.7360371433,-0.6832055661,-0.8919559379,4.4594047858,-3.4050254672,2.1747704569,1.487886852,1.722200487,-0.8943765229,-12.3456505083,-1.3439462799,0.953613488,-0.072786089,-4.5257697892,-0.6553416593,-2.960861149,0.5097084248,11.7354922653,-0.1121798647,-1.8050452501,-1.8814936718,0.9342006814,-1.2597073872,1.4257840484,-4.4581696871,-0.4524471067,-1.9777705524,7.1861604838,0.7572107745,2.2791709962,0.9578861816,-0.6840107178,-2.2081258836,-6.8964868999,0.0279070509,2.0631296678,0.719517424,12.2259408536,-0.1421313165,-4.2647013431,-9.3900150296,-2.9404243767,0.4668699851,-0.9943368586,-0.6337477893,2.9082346596,3.9024367057,-0.2695582643,-0.6046245739,-2.4802796038,-0.4352100662,-2.621792006,0.0470922096,-1.1204380535,3.1743326235,-5.1733473723,-3.485358441,-3.921495088,-1.1400730204,1.4695058307,0.5700570292,-0.7314178634,-3.3918053467,1.7652560686,1.4928771436,2.6055688427,0.2666499433,-11.2191293865,-0.4707722126,-7.0143900245,2.3848272318,4.1249523497,12.4368878457,5.7981406934,-0.2219073389,-1.8344247624,2.77756849,6.4420322522,0.4574192661,-1.850277206,1.1785163067,2.7603225871,-0.5669073393,-0.8908174849,-0.9786500777,6.234303685,2.0206686222,3.0398544387,-0.0916161902,-4.8182784754,-5.5646345868,3.1845995104,-0.1134729688,1.1233615555,5.6276451567,2.8540711026,-7.0041005812,0.2330276101,-5.2892530631,-2.3828425008,-2.1559701807,-3.3084982963,-0.6848902235,1.5895405397,0.1034891913,3.7382068385,-0.4905571164,-1.479374656,-0.2342566986,3.3564561689,0.289860078,-3.8838612883,0.4006080547,-1.8821096868,3.8825032669,0.6685430769,-0.5956109574,0.9184744272,-3.1270582105,-3.3014612725,7.034599356,-0.0220773461,4.941912205,4.3646710659,2.4955580272,3.5017345315,-8.7552360845,-6.2085137679,6.5189431664,-3.277199191,7.0409920412,2.4091547348,0.8207462062,2.3344606945,4.8549051063,-0.8616757491,1.5569570073,-2.2912712937,-0.9332636853,-1.3632455894,-1.1583700229,-0.9364969622,9.6767843705,3.2796255917,-5.3203291652,5.4444896783,-5.8303568843,4.0457492281,0.574880864,2.1876929524,-0.0483167065,0.1010338834,0.7879004736,0.3162255237,-5.73819672,0.8258436135,-0.2519796841,1.7251301893,-2.3545759098,-3.4097480441,0.8002284582,15.7907803385,2.3206046257,0.5463412063,-3.4870813722,-1.8813719889,-3.1934991399,-2.2821853646,0.7579116257,5.6429276508,4.6738664838,0.422002577,-3.1606679544,4.7803826036,2.0421766543,2.5149201051,-0.8787913022,-9.2924500674,-1.144613254,0.8950775239,2.4050126306,-7.6093337375,-0.1000006144,0.277666216,0.45007614,1.6758024883,3.1531288975,-0.862765077,-0.1970004123,1.8710211061,3.7959610312,2.756508868,-0.756120106,-5.9625271778,-5.4569078776,-0.6179974945,3.4658827335,1.5412656285,1.0058114582,0.6650079209,-0.3591192681,-5.3649597815,-1.7925453688,0.7488852828,0.7363554908,3.1470112404,-6.9847992167,0.0605028215,0.674501004,0.3397030109,0.6798778385,0.7982491912,1.0733414456,-0.8670487537,-0.7966885676,-0.9875446048,0.6086490187,-1.9214506002,-0.1270524051,22.2396718395,-0.727591588,0.8172850406,-0.1751003995,-0.5338494091,-0.2857403256,-0.56155565
biasActivation=1,1,1,1,1,1,1
[BASIC:ACTIVATION]
"org.encog.engine.network.activation.ActivationSigmoid"
"org.encog.engine.network.activation.ActivationSigmoid"
"org.encog.engine.network.activation.ActivationSigmoid"
"org.encog.engine.network.activation.ActivationSigmoid"
"org.encog.engine.network.activation.ActivationSigmoid"
"org.encog.engine.network.activation.ActivationSigmoid"
"org.encog.engine.network.activation.ActivationLinear"
