encog,BasicNetwork,java,3.4.0,1,1573292221372
[BASIC]
[BASIC:PARAMS]
[BASIC:NETWORK]
beginTraining=0
connectionLimit=0
contextTargetOffset=0,0,0,0,0,0,0
contextTargetSize=0,0,0,0,0,0,0
endTraining=6
hasContext=f
inputCount=2
layerCounts=3,8,8,8,8,8,3
layerFeedCounts=2,7,7,7,7,7,2
layerContextCount=0,0,0,0,0,0,0
layerIndex=0,3,11,19,27,35,43
output=0.9999995101,0.9992044226,1,0.2438421671,0.2655662089,0.9999965602,0.0039155742,0.9873197794,0.0000112204,0.9969638585,1,0.9999999985,0.1160227183,0.0583326013,0.0000015677,0.0489681815,0.0000314695,0.9968869709,1,0.0004887166,0.9997685426,0.0000112696,0.8687028236,0.8331533061,0.2490382896,0.9240982525,1,0.9912723542,0.0423820665,0.9887277246,0.017857577,0.0535886035,0.8703299005,0.326741179,1,0,0.6906809564,0.9999999338,0.0000000225,0.000000001,1,0.000035973,1,9,20,1
outputCount=2
weightIndex=0,16,72,128,184,240,261
weights=-7.3896330867,-9.7611120014,6.9851021273,12.337026402,8.385415363,-6.0326684479,2.2980127547,1.3196530963,3.5089990064,-11.0593487775,8.1439484602,-7.9929269333,-4.2191235022,8.5822923622,6.2856786497,-0.9966962523,-1.3243031617,0.0086548087,6.5077327235,1.7932602284,7.2625737213,0.0473088342,0.1244877555,-0.6677824918,-1.0847414233,0.1482859764,11.0428165014,3.6525365317,9.3170460948,0.4924758189,-0.9639216981,-0.0891940462,13.3941588077,3.1133441294,-2.6095533045,-2.6642113233,-2.5494607684,-0.7044864702,-1.4374863043,0.5348160287,-1.9475668747,11.2106630465,2.5962126304,-9.7496553086,1.016002031,2.6388927109,-5.9134788889,0.8018119379,1.4823399698,-1.6910468688,-4.4201836539,-10.317200408,1.2840558687,-3.6310869452,3.3144955341,-0.040273517,-3.5144190373,-2.2672043765,3.3436448653,-10.3883297187,9.5552277967,-3.005069843,-4.1752272515,-4.1209072026,0.0338565709,1.8602041644,-4.5655502538,3.5617045479,-1.8608816292,1.0440002422,4.3799382806,1.5355471008,1.0685889149,7.7749679658,-7.4480961599,3.789513372,3.7561590725,-0.2740416682,2.7614156757,3.6176669075,2.5949779205,-2.0646955101,-6.0025130669,-5.1106988589,0.8810594969,1.4986680844,1.0058737788,2.4352406737,4.0449781414,1.2239815505,3.4929693976,-0.3178386177,-1.3013500122,7.5779151702,-7.0538731648,1.9844067433,7.141544564,-3.8250765127,5.5407507615,-2.7180684942,-3.8009591756,4.3387023672,-6.1205921961,0.5582630272,7.9651931031,0.8763789847,5.1624947185,1.6973191006,-1.3856401181,4.3223169517,-6.962704359,1.1912814292,2.4911884308,-4.764483853,6.4835469445,-3.4823273285,-0.7953935675,-1.3565196581,-1.3571213917,-0.3246386751,-2.3268389242,2.3720741317,0.4861500781,2.1591210625,1.5740821944,-1.9932815197,3.3684142829,-2.4047809521,-1.9861334704,5.7365569693,-5.7282381223,-2.297776254,1.626991799,-0.1590272674,3.5165178146,-1.2906395652,-0.3989849465,-3.4701079557,6.5642087605,0.414252284,-0.8802050023,2.037558067,-4.1975647498,2.0611822373,-2.6192885226,10.404747084,-6.547898089,0.1284518833,1.0719340616,-1.0636338357,0.4694689959,-2.0512669607,-1.7083372906,-0.8562115538,1.5205206737,-4.1203165048,1.3381850079,2.7393150429,-2.4076463498,0.5203092342,0.492599254,-1.8755535034,1.8620529449,2.1769094152,-0.9764073857,-0.7608661756,-2.2793138251,0.7786689662,-0.6718434589,0.5983753731,-2.7465976327,-1.7250204811,2.1631048219,0.5433162697,7.662880873,-0.8092475237,1.1084193076,-7.4113962965,5.212137834,0.4815262376,-5.2932173182,-1.6260091959,-4.1092137821,-0.4057706051,-2.4018593069,0.6731682994,1.2939080673,0.6530865744,0.001152225,1.8786760601,0.0632966272,1.0949627972,5.3602357622,-10.9282322131,2.3632472719,-4.6272568271,0.4098272026,-1.1046394697,-1.0838345017,3.1716297559,-3.7794908889,9.3941603007,-1.1894787882,-0.9341375647,0.6107237372,0.3225214459,-2.5606151126,-1.1472454401,1.9838776847,-2.8441754149,-2.2109651092,2.4767808459,0.7553224409,1.6594656469,-2.5220015905,-1.4913006495,2.2181299157,-4.4704709041,0.5298697912,3.6251561521,-0.1514972106,-0.6062121664,2.8017248578,0.2925697312,-1.3697917987,1.8239835991,0.6545449201,-2.0072521265,0.8353019712,-0.0074191706,5.3400127227,-0.0032296884,-3.8891200458,-5.9467840595,1.6880290577,-1.306250776,0.8055016936,-0.0611024575,6.5658185153,1.7572063721,6.4090416819,-7.9025570227,-0.5375626515,-1.3977244887,-0.0913025188,15.2088755322,0.6778125625,0.5152127938,0.1257515395,3.0621959194,-2.3157092068,1.1426134056,-0.5010548606,-0.7679512279,-0.8336717412,-0.5613590608,3.2792042501,0.5033556493,0.0335581075,-0.6602376564,2.6700238763
biasActivation=1,1,1,1,1,1,1
[BASIC:ACTIVATION]
"org.encog.engine.network.activation.ActivationSigmoid"
"org.encog.engine.network.activation.ActivationSigmoid"
"org.encog.engine.network.activation.ActivationSigmoid"
"org.encog.engine.network.activation.ActivationSigmoid"
"org.encog.engine.network.activation.ActivationSigmoid"
"org.encog.engine.network.activation.ActivationSigmoid"
"org.encog.engine.network.activation.ActivationLinear"
