encog,BasicNetwork,java,3.4.0,1,1573292300026
[BASIC]
[BASIC:PARAMS]
[BASIC:NETWORK]
beginTraining=0
connectionLimit=0
contextTargetOffset=0,0,0,0,0,0,0
contextTargetSize=0,0,0,0,0,0,0
endTraining=6
hasContext=f
inputCount=2
layerCounts=3,8,8,8,8,8,3
layerFeedCounts=2,7,7,7,7,7,2
layerContextCount=0,0,0,0,0,0,0
layerIndex=0,3,11,19,27,35,43
output=0.588989017,0.4302217756,1,0.6157506482,0.2296889329,0.9717155225,0.2420137644,0.0131538732,0.7819998164,0.3058848317,1,0.2225775512,0.016562299,0.4363515014,0.7254282737,0.5546356928,0.0022194343,0.0568195114,1,0.0336503638,0.0399155822,0.0072118159,0.5902847388,0.3870047561,0.3316472032,0.4201699633,1,0.4826950125,0.0006062159,0.9673172532,0.0210906556,0.0034918074,0.8349599066,0.9997850053,1,0,1,0.3370221905,0.9999989374,0.1283067933,0.9999084152,0.9999999998,1,9,20,1
outputCount=2
weightIndex=0,16,72,128,184,240,261
weights=12.5233235903,5.7855793146,1.6564477434,-5.4869320295,-0.8685657023,-11.2388826163,-0.8643095315,0.1025848542,10.9225669997,-5.1584090398,-7.9910274396,3.8765328131,3.2027002571,7.2396947149,-12.8536273782,-0.7667017129,1.7557311374,9.6599463503,2.8670770453,-2.02003704,-4.3722638511,-13.8921231979,-2.4409213682,2.7296499516,-6.8047422612,-0.6137413113,6.6445004575,0.4380507128,-0.8312331769,1.3501783679,2.3886155735,-2.5801177884,1.2936768612,-0.8382834248,-6.5057025141,-0.0864559765,5.6110638326,-2.0668382464,2.5802609121,2.9100628466,-0.6149008797,4.2156944824,1.3468527086,0.9325303594,-3.7405371551,1.7464189549,2.6289413515,-0.4174299836,-2.2812943338,-1.4482036538,1.4849772391,-2.4673887475,-1.1080898155,2.4030631902,-0.1491635714,-2.0263777523,-0.9390172942,4.059615303,-4.5910914975,-6.7318928857,12.4286265031,5.0676581575,2.1841033301,1.2772544211,5.435999991,-0.9977474093,-1.8671567289,-4.2640340393,-0.6149319643,-1.2741213516,-5.1778101052,2.5332433729,4.9692111817,-0.9958640772,3.114734355,1.4780709759,-0.2369869266,-0.3358565017,-1.1740092311,-1.5767348572,11.645270135,-0.4717700009,-1.3706796446,-0.8920972828,2.1134714535,-1.8124899453,-3.8581818514,-2.5162095842,-9.775865015,0.2324523856,1.5726760819,-8.6023926139,-0.0094715268,2.7967656308,5.1094599622,2.0595038771,-3.6252928893,-4.5363145833,0.0841603933,0.7229767498,-2.7762607706,2.931788589,2.2706243109,-0.0046988478,6.7400156591,6.73118761,-0.3947260278,7.3518218161,-1.3070847598,-3.9455421176,0.0382430929,-2.814578478,-1.0596380127,-2.1511624297,8.6378861599,-1.5767832338,5.7724478516,-4.7025187928,-8.4260797902,-2.2523046343,-0.0277363405,5.9523854951,-4.1619066622,0.987053856,-0.1036097637,-2.8882192945,-1.1594017699,-2.1135522811,-11.1840069832,3.2549127674,-4.0948928644,-1.3894036074,-5.981019888,1.5891267744,2.0963844713,2.6274469856,4.2185240629,5.7049732831,-0.017501345,-3.7673390486,-2.3602676335,-1.4504413568,-1.8732646389,-2.0314245282,0.9370254141,-1.9975653713,-0.085929959,0.163699354,7.4386131215,1.3122862382,-3.9910779101,-2.4276748398,-4.4880663262,2.1649031079,-1.8757805598,-0.6640305216,-9.7103107042,3.2361637127,-0.5816308576,2.2720225593,2.203166327,-3.0481293285,-0.0087184305,0.8480619645,3.4354860804,6.2233993985,-5.0030423258,-1.7373008004,1.5380965797,2.6810893357,-0.9212411891,0.669604134,4.6153400714,-4.2429388777,4.0789508315,-1.1192970791,-3.3097574815,2.6840349735,1.4347988409,0.2794237865,-3.5031025884,-8.4917131513,5.3967905422,1.5869436211,-3.7943645817,1.4605861136,6.3018583182,0.1755706931,-5.0587722449,-6.469363206,1.6602672974,1.628307935,-1.519704299,-0.9327592803,-0.1661099362,-0.4858772383,3.6861812565,-7.3288940214,0.252705997,0.6695054805,-1.3126551433,1.0172981688,0.9234396277,1.7432326013,-4.9927149695,-0.4196468458,1.0890199675,0.2871183325,1.3877035609,-0.3105338216,0.4968492759,-3.699301757,0.2041776506,-0.0151426535,-0.1092876965,0.103005044,0.3337670369,-1.5464525376,11.6169340809,-1.9822595691,-7.0038138385,-2.3249228741,-1.8492551165,-0.967690485,-0.7777578583,-0.8379917397,9.0716253357,-1.5435526601,-8.7536649499,3.2344298035,-0.0605931042,-1.1049868048,-0.5846777366,1.4348308099,0.6909510278,1.6434770761,6.8119870924,-0.8587448711,2.7586415688,2.3595108526,1.5927479754,-4.0503224232,0.0437668156,0.382398884,1.0508128403,0.1409817875,-2.1846053871,0.2506058829,13.9727380827,-0.6566106391,1.0376123515,-1.0879802266,0.7678937689,-0.3276117394,-2.2748224474,-2.7170106852,1.7728699896,-1.7061504572,-0.1725706515,1.2389453883,-0.6134656583
biasActivation=1,1,1,1,1,1,1
[BASIC:ACTIVATION]
"org.encog.engine.network.activation.ActivationSigmoid"
"org.encog.engine.network.activation.ActivationSigmoid"
"org.encog.engine.network.activation.ActivationSigmoid"
"org.encog.engine.network.activation.ActivationSigmoid"
"org.encog.engine.network.activation.ActivationSigmoid"
"org.encog.engine.network.activation.ActivationSigmoid"
"org.encog.engine.network.activation.ActivationLinear"
