encog,BasicNetwork,java,3.4.0,1,1573985464017
[BASIC]
[BASIC:PARAMS]
[BASIC:NETWORK]
beginTraining=0
connectionLimit=0
contextTargetOffset=0,0,0,0,0,0,0
contextTargetSize=0,0,0,0,0,0,0
endTraining=6
hasContext=f
inputCount=2
layerCounts=2,8,8,8,8,8,3
layerFeedCounts=1,7,7,7,7,7,2
layerContextCount=0,0,0,0,0,0,0
layerIndex=0,2,10,18,26,34,42
output=0.9994976539,1,0.0009227972,0.6759051825,0.1434405188,0.3246198097,0.0000007732,0.016981366,0.8452049584,1,0.5146634192,0.541506312,0.9947915591,0.0627983788,0.9228089328,0.0641330256,0.311408721,1,0.6102388672,0.6233240386,0.7070390509,0.7108342073,0.7371044991,0.3663006277,0.1184427461,1,0.2662564813,0.0010237427,0.0390618459,0.7987699437,0.9183974269,0.7092240497,0.7066678663,1,0.0000400679,0.6034133927,0,0.9999999998,0.0236191383,0.0933010826,0.0437512366,1,11,15,1
outputCount=1
weightIndex=0,8,64,120,176,232,253
weights=9.0368104408,-0.6674731883,-4.4848212555,4.4040592581,-10.8354671602,6.5570007469,7.6557994428,0.670130217,-0.456115247,-1.1697934551,1.9712336833,0.3704225832,-8.5826194813,4.8370505482,0.1195073843,-0.5305224863,0.2063409825,2.0168923834,-0.93922631,1.4921133499,0.4585947204,0.2980850503,0.0300362367,-0.0743732686,-1.1305436695,2.020456008,0.9346320331,1.1911587041,-4.2344586879,0.5891144575,0.1040630103,0.5335980614,-0.1447668896,-1.1223028236,-2.6574249523,-0.5362818985,3.231100162,-1.5091314167,0.8269058801,-0.5155278964,0.1585006278,4.8133742978,-12.8755918881,9.0568695081,-4.4287219417,2.8587237404,-0.5857457731,-0.4350447712,-0.5578621561,1.1969720774,-3.9643066158,5.2782201086,-0.3960305904,2.4478763626,-2.5566200604,0.1972515828,-0.9980399937,-5.9268457188,3.4219300139,-4.6130021054,1.7947340782,-0.8653859857,-0.4435356967,0.843562291,0.0257073391,-0.9515356361,-0.249854076,-0.7313005296,0.4905664003,0.1894662898,-0.3165774601,0.9390839221,1.6273670512,-3.1105000435,-3.102458798,-1.7883157325,2.3167328168,3.9269197889,3.3538991032,1.0335781553,-4.990230511,7.161565651,9.6772884706,3.013623297,-2.8137090529,-3.83013002,-4.7484458936,-1.1115025267,3.4584702156,-4.158359933,-5.6682253785,-2.9972425343,2.7339942114,1.5089123948,4.6971592663,0.792443361,-1.4948342044,3.9824754725,4.9985717292,0.1969687993,-2.1346842852,-7.9483123401,3.1308145686,1.3509090455,0.9185704235,-1.046114967,-3.7414900031,0.8957522631,-0.5387282832,4.5034548976,-1.8160767231,-1.617762672,-0.5582447102,0.2185079184,-0.6729074243,1.3132801834,0.9473232948,-1.1924236211,-1.403553319,-1.1420829239,-1.06374982,-1.5687538164,-3.1427147725,2.9412519873,-2.5256867079,2.4259637841,-1.5639386121,0.2107467108,2.6080821728,1.8125594852,5.4346507893,-4.3550039122,4.4974714624,-3.7016684915,1.7883754221,0.3048242281,2.6694286953,4.6711392287,8.5001759492,-3.8979210149,4.6485366618,-4.4532554397,3.7690646325,-0.8273036847,0.6197057471,0.0392007659,0.3884084751,-3.6190921585,2.5870065202,-1.6326470334,2.1330258479,0.8847198887,-0.0575677946,-1.1645092377,-2.5004840738,2.9705780044,-1.5932283993,0.6908895332,-0.6966878012,0.2379063796,1.7790552264,3.2070013032,-7.2245264917,-0.1365336316,-5.8873108738,4.5934814664,-3.5798785801,4.0450426787,0.8141989317,-0.3656300931,0.713930858,4.1731186759,-3.6106570757,2.3199651672,-3.0064718025,-1.7897008295,0.3206466345,1.2894480068,0.5855828431,-0.9004594938,-0.6242711142,5.144246251,-2.8688720981,-1.231025325,0.8520562225,-2.8328858539,-0.9474027345,-2.8433334745,0.4917573292,11.6109937862,-0.0006633709,-3.4254693818,-1.0457447153,-10.7633260404,0.0149986251,2.5441789503,0.1234633962,-9.754561998,-0.5480439849,1.6790068618,0.988300491,4.4992302168,-5.0872745651,0.3189822896,1.6762743259,-13.9763237143,4.1311547222,-0.5716226461,-0.3451831134,-5.0081890512,-2.8079296365,3.4263022742,1.7884171319,-4.0356746072,-4.2805163713,2.5380591559,-0.5589406183,1.5239199351,-0.6102409661,-1.1241207576,-1.7057453521,5.9632493433,3.6140672178,0.4219986053,0.2655412442,-1.1563247857,-1.3726054614,0.9369939331,1.5222065412,-5.555318754,-7.2103322095,1.4378175344,0.188067666,-0.8337126923,0.3120501006,0.1871258923,-0.3348903892,3.3846790978,3.3665149176,-4.1129149277,-0.2892404631,0.7890917821,0.8485390331,0.8715395204,-0.0730330654,-0.315115734,1.8083043203,1.1144925512,0.3975689466,-20.4969309922,-1.5089834608,0.4359650933,6.9748434553
biasActivation=1,1,1,1,1,1,1
[BASIC:ACTIVATION]
"org.encog.engine.network.activation.ActivationSigmoid"
"org.encog.engine.network.activation.ActivationSigmoid"
"org.encog.engine.network.activation.ActivationSigmoid"
"org.encog.engine.network.activation.ActivationSigmoid"
"org.encog.engine.network.activation.ActivationSigmoid"
"org.encog.engine.network.activation.ActivationSigmoid"
"org.encog.engine.network.activation.ActivationLinear"
