encog,BasicNetwork,java,3.4.0,1,1573293165038
[BASIC]
[BASIC:PARAMS]
[BASIC:NETWORK]
beginTraining=0
connectionLimit=0
contextTargetOffset=0,0,0,0,0,0,0
contextTargetSize=0,0,0,0,0,0,0
endTraining=6
hasContext=f
inputCount=2
layerCounts=3,8,8,8,8,8,3
layerFeedCounts=2,7,7,7,7,7,2
layerContextCount=0,0,0,0,0,0,0
layerIndex=0,3,11,19,27,35,43
output=0.9994844463,1,1,0.0148832502,0.9999267574,0.9999989298,0.9999972074,0.0000000545,0.9999915753,0.9991204106,1,0,0.0000000305,0.9321773234,0.9999887644,0.0000003038,0.99868081,0.1060561212,1,0.531020535,0.0001598132,0.0000000002,0.2521621384,0.9997973384,0.0000000011,0.9999996623,1,0.4823760638,0.9474166714,0.9732439976,0.9952255246,0.6461069041,0.4902937422,0.9999176379,1,1,1,1,0.0001095267,0.1714698949,1,0.000000037,1,9,20,1
outputCount=2
weightIndex=0,16,72,128,184,240,261
weights=-9.6885477634,-14.2145054745,13.1461836642,17.4240307359,-5.378520519,0.4130999424,-11.5086103061,2.4426544026,-26.3435938066,7.1191530823,7.5175899366,-4.226111588,11.2596377482,13.6117933262,0.0176469752,2.1162768384,4.8247837483,1.8091550294,-0.120764188,-3.3536265796,2.2802447274,-7.9638963484,11.6145920912,5.9952299318,-5.4126724646,3.4141148048,5.9778057202,2.1666956359,8.9476973903,4.9175972129,-2.5691709988,-2.8560229003,-11.8711762962,-0.9229869489,3.1149969037,2.0679154959,-8.8811345754,1.4390184078,5.7022285342,6.7341259317,16.6833237046,7.0743417506,6.5368566217,14.3113063236,0.0725790392,-2.8114938571,-16.1284133315,-3.0978073031,-2.611220276,9.7560402314,-3.6172700723,-11.8848359365,4.1771326622,-0.8940756332,1.0062841106,-0.6820423537,-4.4853919158,2.867665639,5.2250236343,6.9729202846,11.0818604986,2.2406376814,-1.3209731122,-2.2567411034,-0.0112461781,-0.5100567029,-2.5287973316,7.2933984847,-1.0781420319,-1.0421868976,-11.4425849773,4.3535149024,-3.5177724312,-2.8719697021,3.4709342409,-1.3013030972,-2.4349102067,18.6704562071,-11.9756708352,-8.1274910072,-0.7722830716,0.6365997123,4.6558153666,0.1343353691,-6.922073458,-2.8940242372,-9.0307158631,-0.9776764028,0.9108060243,-6.9837558679,-7.0095513748,6.9565829888,7.6880150802,1.627394349,-7.2613666535,-0.0411938062,-1.9107593287,-8.5898601626,-3.9544035245,4.0907756836,0.1145194702,-4.7111927628,7.2561285006,4.0102724042,-3.0277774235,-1.5872221547,4.5908152594,-4.6944298064,0.0164360359,11.054572418,-8.4229024274,-3.8087274678,-0.6561090188,-13.7455732579,-4.7421684413,-2.6477285416,2.2713088153,-2.6963244881,3.757981184,1.6188498931,6.9046848669,15.286947144,3.1739351912,-4.6866298765,-0.2639458025,0.3996431235,-2.8676406868,-1.4873244666,7.5400150939,0.9240919959,-3.272605622,-0.8275447343,-4.6766484382,9.9759363172,-0.5543673389,-1.6949464597,10.7668683181,-2.592976494,-6.0746144254,-6.2789479168,0.1775816618,7.1241802651,-6.4922974219,3.5667408092,4.5196072883,-1.4244811555,-7.0639930237,-8.0152327791,-1.0807986682,3.382912887,-12.5275471047,3.1727151212,3.5927833154,3.5116456217,-3.8778095518,-0.8858340371,4.5378320813,1.3966208389,-4.2741502399,-0.8343995535,-1.852661555,-4.3477874199,8.4699088055,3.7902148563,-1.3031695094,-0.9102367422,2.319352906,0.4703180125,2.8381470223,-3.4433729531,-5.4018582506,-3.4870547865,-2.0210533803,1.5748159415,-10.6337903041,1.123892494,-3.7710077145,2.3921721466,6.9752616621,2.5760106543,4.4406417073,-8.3627577432,7.6908849347,-1.3576122958,-0.8424458515,1.379141082,-0.9290744821,0.7798385389,14.8280320885,-1.8071177577,0.2623337063,-0.4136744785,-0.0545036049,-0.8595811661,2.7256873078,-5.594903212,-1.9252876844,0.8850463068,-0.2553954196,0.5254326988,0.4477896076,0.3339134315,2.8808319226,7.1661930354,-12.4234844236,2.1993677597,0.806082209,-0.1385580915,0.5353588697,0.6426479311,0.9850072528,-3.3587454241,-9.217626443,4.4482405482,0.5731162144,0.3093439541,0.1076564425,1.0820492295,4.2984350265,0.5653794306,-3.0111986575,-4.3458919101,0.675119183,-0.0240107224,-0.2156667618,-0.6002018513,-2.5777089284,-3.1978195273,14.7082222937,1.6659299855,-0.0364695265,-0.8328494359,2.1069641875,0.8585571979,3.3670073203,-0.006609882,-17.2013560223,6.1912806499,0.4565097317,-0.1699907829,2.6801174536,4.8737700967,0.7373277051,0.6657652779,1.0017509753,-0.1545990662,-0.9455777907,2.885305991,-0.5503712385,0.4895103346,-0.7250071132,0.9753164042,2.3437419657,0.1175452552,-25.0198282584,-5.8290961759,6.790916478,-0.5290516364,-1.1791805324,-0.3524817241,0.5505561164
biasActivation=1,1,1,1,1,1,1
[BASIC:ACTIVATION]
"org.encog.engine.network.activation.ActivationSigmoid"
"org.encog.engine.network.activation.ActivationSigmoid"
"org.encog.engine.network.activation.ActivationSigmoid"
"org.encog.engine.network.activation.ActivationSigmoid"
"org.encog.engine.network.activation.ActivationSigmoid"
"org.encog.engine.network.activation.ActivationSigmoid"
"org.encog.engine.network.activation.ActivationLinear"
