encog,BasicNetwork,java,3.4.0,1,1573985706042
[BASIC]
[BASIC:PARAMS]
[BASIC:NETWORK]
beginTraining=0
connectionLimit=0
contextTargetOffset=0,0,0,0,0,0,0
contextTargetSize=0,0,0,0,0,0,0
endTraining=6
hasContext=f
inputCount=2
layerCounts=2,8,8,8,8,8,3
layerFeedCounts=1,7,7,7,7,7,2
layerContextCount=0,0,0,0,0,0,0
layerIndex=0,2,10,18,26,34,42
output=0.654463218,1,0.5635446521,0.6206361623,0.3762805153,0.5178130717,0.5005352405,0.5385637052,0.4797263973,1,0.9818601844,0.032980133,0.0342036929,0.0006083231,0.3568189251,0.1142097367,0.2407691241,1,0.0011857628,0.0458682036,0.8176552805,0.9092666096,0.229497662,0.1526343048,0.2886098389,1,0.0001481631,0.9964018692,0.2195087925,0.9320602224,0.0128772023,0.7015794676,0.2817240239,1,0.0000003329,0.0200024958,0.9999999994,0.0386779074,0,0.00255811,0.0173966117,1,11,15,1
outputCount=1
weightIndex=0,8,64,120,176,232,253
weights=-3.2415584546,11.4486023372,-11.9552345082,2.2105155001,10.0539321265,-0.873331332,-11.2016937951,-0.4743039888,0.3310866629,0.3918115271,2.2023950559,-1.3560592837,-1.5543059808,0.6085202804,0.8653234613,0.1198162432,-1.9362643243,0.8820642228,-8.2823725431,2.6294483917,5.1980208373,-3.0507920353,-2.0118817034,1.6240646481,1.882409745,-0.9316722092,8.4821741678,-2.4951896584,-5.2692126867,3.117436903,2.2774742705,-1.635738438,-0.4152691798,-0.6391590106,-1.5128337331,1.2871213885,0.1455063286,-1.4949854677,-0.4587795765,0.7803422337,-2.3783024084,-0.540601698,-6.4696723535,2.64146979,4.6324206587,-2.0853876267,-2.2951046458,1.7126368861,0.061770215,0.4271677439,1.6916515405,-0.2156157318,0.3097243234,-0.5169447158,-0.686294662,0.1358576407,1.6591988959,-0.7677760899,5.7426558513,-5.4635614214,-4.864074202,3.6978818698,1.9613753398,-1.0369943082,1.6235507714,-0.7685623033,2.754976572,1.5745679171,2.4947553219,-9.0137146157,2.3588297667,0.4628239628,-1.9191288362,0.256703166,-1.5123267612,-0.6748795693,-0.1896887938,-0.4741139803,-1.3350770255,-1.0363895945,2.2702370432,-10.5036296362,1.3977374107,-1.4520246463,0.4107885998,-13.1191553682,4.6034118864,-2.1045503474,-4.5576862221,2.5862058345,-3.7555280449,-3.5628508583,0.1866291215,6.5971481672,-3.5389728641,-1.2355071241,5.7650571856,-1.8642435081,1.4434797415,0.2836981941,-5.741677137,0.0900845739,3.734044826,-1.7224810644,-2.8888954016,3.8997518929,-1.7171838636,-0.0558304472,3.2435677456,-4.6943795412,-2.2986669018,-0.1335134715,-2.8355109651,-2.8643426603,-0.9232076484,-0.5637309753,3.1709631783,1.2890093207,-0.5094745435,-0.5237118867,4.1915175092,1.8954311527,1.5695861811,-1.3247625365,0.0585918134,-6.764792577,-0.621835584,-2.8147230722,-8.8080598345,-4.4714601376,4.7773181849,1.4784886882,3.8340657428,1.7627550771,-3.8936286428,-1.1942133227,1.7164604984,3.4021854365,1.7952762596,0.3863335533,-0.644981913,0.1861924326,0.0560187128,-2.781926477,-0.3133112503,1.6235525098,1.2060069222,1.1276272344,-0.5218824625,0.7887784644,0.1767229744,-1.2251545251,9.0067411826,0.7883487872,-1.1642986092,0.141433231,0.9304211856,-2.6289532905,-3.4246102796,0.9229863913,-5.1961271122,-0.4262261161,-11.2343585911,2.9306785353,2.501078352,-5.3936580784,-3.2556257273,3.1149073672,1.2688881077,3.452863223,7.0285772133,-1.4023918737,-0.3511715212,-5.2194943879,0.6584494486,-1.0975823063,-0.3077087032,13.0947992925,-4.1196079857,-9.1962130621,0.9659251045,-2.3718949027,0.6701241702,-4.6092695538,-0.5969266832,2.4644253676,2.3364290478,-1.5626825149,-0.3354000313,-8.3184965696,-2.8118256388,3.3686498243,0.2579084281,9.9667461537,-0.7623531305,-10.489985138,-0.4691265827,-6.0458925251,10.104004627,-0.4601166537,-0.0298978289,2.7966593052,1.970725554,0.1592091199,0.5103960093,-2.4551371033,-2.0394355111,0.6277119336,0.0458053177,7.0957040242,-2.5113977593,-4.1462158039,-0.7690124804,1.8608676266,0.8141939469,-1.8284275809,-0.8318324008,-8.565085321,-0.0847403225,-6.8961402625,0.8137568252,-3.8519664813,1.9784417645,1.353058029,0.5244719952,-6.0116777468,-0.8139069798,-1.8001664277,-0.8234739849,-1.9403982301,3.8156859819,0.0064398686,-0.9646551531,-0.3063554644,0.2911057918,-0.6917809374,0.4056560743,-2.3669437712,0.6643415583,0.866295162,1.0056397394,0.667018535,0.3780654059,-16.2212259229,-0.9028982773,-0.9646531911,-0.7166931589,0.280603029,-0.7200621599,1.7483738817,-0.8045327554,-0.3731274756,10.4128423344
biasActivation=1,1,1,1,1,1,1
[BASIC:ACTIVATION]
"org.encog.engine.network.activation.ActivationSigmoid"
"org.encog.engine.network.activation.ActivationSigmoid"
"org.encog.engine.network.activation.ActivationSigmoid"
"org.encog.engine.network.activation.ActivationSigmoid"
"org.encog.engine.network.activation.ActivationSigmoid"
"org.encog.engine.network.activation.ActivationSigmoid"
"org.encog.engine.network.activation.ActivationLinear"
