encog,BasicNetwork,java,3.4.0,1,1573293352656
[BASIC]
[BASIC:PARAMS]
[BASIC:NETWORK]
beginTraining=0
connectionLimit=0
contextTargetOffset=0,0,0,0,0,0,0
contextTargetSize=0,0,0,0,0,0,0
endTraining=6
hasContext=f
inputCount=2
layerCounts=3,8,8,8,8,8,3
layerFeedCounts=2,7,7,7,7,7,2
layerContextCount=0,0,0,0,0,0,0
layerIndex=0,3,11,19,27,35,43
output=0.4545424933,0.4838759624,1,0.7466509211,0.8663363363,0.9470914448,0.0000083783,0.6866484024,0.9998563507,0.9502865123,1,0.0304666689,0.7145866409,0.584437696,0.9588042859,0.021328924,0.6404697068,0.38932699,1,0.1561697108,0.1881584865,0.6147129513,0.3449910712,0.5903751169,0.5205830525,0.5769285449,1,0.8294337717,0.462544611,0.9959008214,0.9865895954,0.1108144477,0.9947178351,0.9221683112,1,0.8891377702,0.0782903399,0.9998363281,0.7969991497,0.0000001681,0.0000207664,0.0000044568,1,9,20,1
outputCount=2
weightIndex=0,16,72,128,184,240,261
weights=-4.7759278666,8.0535846777,-4.6270730695,8.8927059747,1.2876859419,4.2883337875,-4.0529437563,-0.5317562699,-3.8632497997,-6.4277703612,7.7551496119,-1.58716525,-3.6559225755,4.6873001623,-4.8578829846,3.4838562115,-1.3599465468,-2.0221185109,-2.2390982895,1.008982989,3.8034205255,1.0924971569,3.449450451,0.7846392563,-4.062392333,0.7081752426,-3.2573126368,5.2955452547,7.3462852206,-0.8912902907,-5.3179372697,0.7975389226,3.3848548161,0.7128591496,-2.1582124314,-3.3372931124,0.5303020415,6.4467115673,-0.2958535029,2.7084068807,-3.1951117228,-1.6289137857,-6.6650850511,-9.718226833,3.8631189958,4.8659728606,-0.9953029198,-0.0267176053,-1.0595318026,1.2169326277,-2.7121283404,-0.7056796261,-1.5467917949,2.7865044806,3.4036023053,-0.8679427502,0.3000921424,4.0145831657,4.8250430382,7.5192915643,-3.7468511003,-4.4823987301,-4.5655504471,0.6688646509,-4.6579121469,-1.4307944504,-0.1481615725,-0.1297164525,1.3304788306,2.1803873046,5.6878263362,0.6865148125,3.4673729159,-4.8838735064,-1.3759797124,-1.5286330085,1.4911847976,-3.4327821742,-1.9292963042,0.3102152529,-0.754264129,-2.4171169455,-1.2131172772,-2.0458812741,-0.5632303986,-0.4256488844,3.5710610196,1.4357454599,-1.1377162176,-4.2517836708,-3.3488517712,-3.6152557316,4.7479926243,-2.0525221691,1.4526586199,2.0518484568,-0.9665519476,-5.4738111578,-5.7887360771,-4.8762669145,6.3537374654,-2.684043571,5.0106617683,4.3243077883,5.166599942,5.5231358778,2.5613962884,-0.3295411828,-5.3530527303,-2.9678016049,-3.0780368489,-0.6519538634,1.0628854513,1.0351504658,4.2757994903,4.118686102,-3.0738417203,3.0987219614,-2.4732531805,-2.204190841,4.6687759199,-4.2056465168,2.1115328197,-5.0649989343,0.4512241675,5.471327612,-5.13312435,-0.0917685155,1.8274770969,-2.6429288154,4.4514138018,-5.7332097511,1.3064492797,0.2366902643,-1.9291283661,0.6416191624,3.5497803117,1.9683995747,-0.3312969839,-5.0147364272,2.1921096895,-5.8403394466,3.9539223597,1.8810153939,6.2794186461,1.3289084182,2.5364438939,-3.8858612532,-1.2046113177,-3.3408653489,0.6074746738,-1.1516580282,5.2261432211,4.4758883611,-1.4202228705,-0.5876301331,-0.2136700513,-6.7106037128,1.8776770779,-0.0847165309,-5.1891176879,-2.5813039078,-0.9459616264,5.2402661753,-2.0806034968,2.1545078141,-0.7955907074,0.4567079648,4.3189332511,1.7406441571,2.835296325,1.0795399236,-1.0148101786,-4.4682257338,-1.2872191146,-2.4496405656,-6.0914234061,2.366111502,-2.5601152405,2.600294956,0.883878322,0.4764103502,2.4283573935,1.441179822,4.7910742231,-2.0147727527,-5.1348494619,8.1969808616,-0.9228025071,1.7998758911,-1.7074848506,-3.9195755576,4.5034841129,-5.4152755207,-0.2835589637,-2.5271219954,0.94742292,-0.1611548986,-2.2323020672,-1.4327170407,0.165896096,-2.1141354482,1.7077354057,5.8594602218,-0.6106159022,2.4302367594,-0.4658137818,-0.8666160465,8.1263373291,-2.2162031308,2.8361530292,-6.1222904609,0.1463554872,1.0001370357,-1.7727183816,-0.7099443102,-2.8927411216,-1.3447781701,0.4296392465,1.2280903721,-0.1169789636,0.0588123849,-0.9474338056,-0.8134731311,0.4056966938,-8.0988653667,6.1713949387,-2.0841438467,1.0732450724,1.2168841042,2.1793087737,1.0021065969,0.4115317218,-0.2711010313,1.8332746768,0.8399215307,0.6234498223,-0.1292196705,-5.8393568263,-0.3748674708,1.3030032959,-0.354640605,-2.5522536253,6.7154895842,-3.1535104345,0.1649963827,-0.1271556665,0.8900265769,-7.9386477688,-0.1867177965,0.1162794688,0.7225142364,-1.8745971491,0.0357043094,0.5585817977,0.193679572,-0.6147753009,-0.2297653647,2.8839556834,-1.9543844274,0.8110125409
biasActivation=1,1,1,1,1,1,1
[BASIC:ACTIVATION]
"org.encog.engine.network.activation.ActivationSigmoid"
"org.encog.engine.network.activation.ActivationSigmoid"
"org.encog.engine.network.activation.ActivationSigmoid"
"org.encog.engine.network.activation.ActivationSigmoid"
"org.encog.engine.network.activation.ActivationSigmoid"
"org.encog.engine.network.activation.ActivationSigmoid"
"org.encog.engine.network.activation.ActivationLinear"
