encog,BasicNetwork,java,3.4.0,1,1573293440965
[BASIC]
[BASIC:PARAMS]
[BASIC:NETWORK]
beginTraining=0
connectionLimit=0
contextTargetOffset=0,0,0,0,0,0,0
contextTargetSize=0,0,0,0,0,0,0
endTraining=6
hasContext=f
inputCount=2
layerCounts=3,8,8,8,8,8,3
layerFeedCounts=2,7,7,7,7,7,2
layerContextCount=0,0,0,0,0,0,0
layerIndex=0,3,11,19,27,35,43
output=0.9999999997,0.9994907593,1,0.0008475967,0.999970412,0.0140391833,0.0031399974,0.0150891338,0.0007165005,0.000055316,1,0.9879617986,0.6599500813,0.9999151234,0.0000000001,0.0008630553,0.9999784297,0.9990843425,1,0.9850619832,0.0000000456,0.5147346648,0.9996105557,0.0231660601,0.0000005432,0.9999987278,1,0.0008121439,0.9977829229,0.0320158221,0.8245128102,0.3891369191,0.0053414958,0.9972651889,1,0.777252242,1,0.9999999997,1,0.0000001949,0.9973770652,0,1,9,20,1
outputCount=2
weightIndex=0,16,72,128,184,240,261
weights=0.4396271575,12.3035566522,6.0736387759,-15.3434520001,-16.4305284086,-7.4672181599,4.612179833,9.9806763925,-1.0949743173,7.2919513704,6.7595406699,-1.780472748,-7.9829169822,-2.015165564,-6.8005026257,0.3242404715,-1.5761029744,-0.8561061722,-1.4463125428,0.4183415158,-0.6540240875,-1.1823123587,-1.6108332437,-0.7117413928,0.2551050298,0.405872876,2.7437915153,-6.0555307984,-1.2553789696,6.7832344011,1.0883254071,-0.7046685812,1.5658590733,0.6667420283,-3.260027695,4.6455691504,8.0742502286,-0.980684921,-3.0772157286,1.0690545,5.7672717898,-12.2232585843,-5.1785553493,-10.1040288134,-6.4705736778,-0.2242888442,-0.4984592707,2.5144950348,3.5295369226,-10.234756973,2.7298149795,6.3737914136,5.1785819066,1.0221297666,-7.7015515024,3.0271438852,1.4066128542,-1.2764178901,-1.5310763639,3.2572195685,-2.4897455204,-7.239327234,-0.9199341333,1.9036354675,0.6982354842,-0.5535070678,-0.9560579147,-2.8180188227,3.6565674027,-0.6434098864,-8.8278951895,0.2890922394,0.9882152621,2.0197503455,-0.2978179651,2.0547386237,1.8110228922,-1.4157253635,0.7763776654,0.7151342505,0.2144804712,-7.2358928636,-4.9283550895,1.629667801,-4.2604846493,-10.2812183911,1.1352311735,0.3230321105,0.8564131955,-5.0057043776,0.7313917739,3.8504560751,-2.0400455142,-1.9770383201,4.2034565892,0.1489879848,-4.5778136348,3.9180931389,0.289503856,-4.7535977453,5.7797630989,1.1767817519,-10.7586904032,-3.9053552116,-8.3241300535,-7.2915139439,2.4532510712,2.22804716,7.1729369594,-1.1982155303,-1.5943035264,-0.9162033385,-2.2366783391,0.5095614247,1.894358986,4.0846586861,-4.1107292986,-1.4922247274,6.8280273601,1.1564904809,0.0774250541,-5.8191683016,-0.597319248,3.0914141406,-8.1960993576,-3.4368334245,3.4167239466,0.9090881756,1.462131542,-1.164100359,0.6132278875,8.13812437,-4.7621505954,-1.4057733874,-3.51703867,3.9875641232,-0.5431905585,-3.9357324019,5.5703398993,-7.3706128118,-5.6345048976,6.1865445264,-3.6301299492,-1.2962803083,-1.1906448213,1.3892254571,5.6074626068,-6.1130412578,0.222826409,0.7728805233,2.6759110362,0.7750993235,1.0881364873,0.6032286764,-2.9100336131,4.3661022331,-0.2206597738,-8.1121282089,2.8164459887,1.0613393819,-1.4627623802,-1.5277231194,-1.1799823172,-0.6073225923,6.7060852102,8.2492398123,-3.387697899,-0.952796447,-1.9130380372,-0.338735852,11.6259383389,-12.2813839157,-3.3843524045,7.1081303612,-2.0174299586,-1.0414180597,-0.2262866507,4.4401351979,-1.8837422774,6.2539208702,1.6654085929,-7.8611837416,-0.2633478968,3.7050593813,-0.7165934116,-2.9147061355,-0.7492199531,-2.5606908844,-1.2237644604,0.4015834326,-0.7436308916,-0.7339596335,1.1296830834,-0.1102649212,1.3185431433,2.2748262328,-2.9197166124,0.6518998848,-1.8658563049,1.0980034224,-11.696642727,1.0474512319,5.5938430288,0.8823827157,-1.3300550534,-0.4443143901,-0.0972506323,-1.3982714714,13.2487029256,-2.0321190083,-1.1177356867,-2.502238107,-3.9310133562,-1.2214298538,-2.9776354105,-1.8800377305,1.6337017207,-1.764739979,-6.8506077958,3.2630225186,-6.5088931754,1.2294221031,1.3964236683,2.4053892039,-10.3183692522,2.7999689333,-6.3179801057,2.2496144428,-0.6591000706,2.5494278854,2.9932334946,1.5187378504,0.0907320139,-2.5999475393,5.9577175131,1.989119813,-2.6640835284,0.6646246347,0.6869864049,-0.1813379489,-1.7917124797,-0.1757768737,20.8906747244,-3.1225851383,5.3068584392,-0.6866227152,-2.0905412159,2.0009583103,0.846696762,-1.0307658334,1.9185442405,-1.0010628024,2.6517825609,-2.0131167576,0.9455589808,0.4327989334,0.0957164784,0.1313150877,3.0765898897,-5.175617886,0.5174065372
biasActivation=1,1,1,1,1,1,1
[BASIC:ACTIVATION]
"org.encog.engine.network.activation.ActivationSigmoid"
"org.encog.engine.network.activation.ActivationSigmoid"
"org.encog.engine.network.activation.ActivationSigmoid"
"org.encog.engine.network.activation.ActivationSigmoid"
"org.encog.engine.network.activation.ActivationSigmoid"
"org.encog.engine.network.activation.ActivationSigmoid"
"org.encog.engine.network.activation.ActivationLinear"
