encog,BasicNetwork,java,3.4.0,1,1573986164420
[BASIC]
[BASIC:PARAMS]
[BASIC:NETWORK]
beginTraining=0
connectionLimit=0
contextTargetOffset=0,0,0,0,0,0,0
contextTargetSize=0,0,0,0,0,0,0
endTraining=6
hasContext=f
inputCount=2
layerCounts=2,8,8,8,8,8,3
layerFeedCounts=1,7,7,7,7,7,2
layerContextCount=0,0,0,0,0,0,0
layerIndex=0,2,10,18,26,34,42
output=0.3622176202,1,0.855450442,0.9999560525,0.9112716827,0.5089113136,0.9999882701,0.1706755462,0.9495297108,1,0.3473378636,0.8402129238,0.8940063548,0.9234772155,0.5257697775,0.9703394978,0.9526712324,1,0.0451882341,0.2147539294,0.3436916773,0.0146626627,0.5997562284,0.3453216019,0.1441195529,1,0.679343419,0.8721833134,0.8859066971,0.0101167323,0.0105503218,0.6189309028,0.9685533387,1,0,0.0399346956,0.9718109075,0.0379355867,0.0018167759,0,0.631299444,1,11,15,1
outputCount=1
weightIndex=0,8,64,120,176,232,253
weights=2.837806104,-5.9396371236,6.2786895852,0.4054682227,-7.3521318232,13.5271554272,3.3778793876,-1.1460236155,-1.0345696715,2.5070593256,-1.6130829414,-0.789867723,-0.9108539011,1.8595369096,0.0992616856,0.7823721612,0.9787003381,2.489041274,4.7907217961,2.5144077772,-1.1184065036,1.4165685492,-0.1707884885,0.3724492786,-2.4768645545,3.5599422493,-3.4300363716,-0.7944033099,0.0907145829,3.6916814382,0.3439979727,0.0409527464,-1.5093222584,0.0952557158,1.0760162758,0.3752580378,-0.5670248927,-0.2233107536,0.1641960501,-0.4702619789,-0.230283042,1.3766325357,4.7252289525,0.4771947352,-2.9187650505,2.3177402359,4.5453832472,0.5669597765,5.7607947546,-3.1716893029,-9.3743056438,-0.5128419344,10.7184052319,-0.1963405675,0.2266549127,2.2765676223,-1.8779209076,3.2984482436,1.5918377595,0.9317354354,-1.9511231222,1.5865826918,-0.8915069902,-1.1324625546,-0.2266063716,-0.2868439465,0.0877321179,-0.2374532643,-1.3123345404,2.2157624631,4.8865507364,-1.267909248,-0.635884776,-0.0286452851,-0.3050213764,0.2763797037,1.4678345838,-1.8176363247,-6.7014552657,2.5086171194,5.1962590938,2.772729611,0.037369469,-1.3483452399,4.2224771508,-6.7768492004,-5.4235418029,1.8983700177,1.4424611067,1.0637536606,-0.0699619386,0.5163668268,1.4123529241,-0.6672612058,-0.0662895007,1.6063099279,-5.0513383248,-2.3109964679,0.7123729337,0.6277961401,-1.3542314294,5.3445629574,6.7983945532,-1.4394805452,-2.6071234812,1.195308274,1.6839901351,-1.3235689976,2.8327835409,-1.5413617331,-1.8447133283,1.8887227408,-2.8006622198,0.768697844,0.057880388,-2.2864597437,2.1387805027,-1.0435214692,1.1226796607,1.8930637212,-3.8760568186,2.533227832,-1.7195191809,2.5545124142,-0.2230030962,2.4269241479,-5.2425973639,2.448536995,-2.867270285,0.9354641914,-1.5657858572,0.2275509637,-0.9232827754,0.0586489374,0.5773735175,0.6345230116,0.8047900782,-0.6111938691,-0.2061250286,-0.4976703236,1.0545294218,-1.2286796665,0.2654744872,0.0193168671,-1.3025351359,-0.2555236385,1.3610240407,-0.4962093432,0.8265974434,-2.4211317532,-2.8171704984,-0.0822956328,-2.5950053672,1.6438150454,-3.0788767557,1.266211058,-0.4645260336,0.162220801,3.0483181694,0.4004675726,-1.5098644726,-3.5050683404,8.1532113405,2.653876216,1.0164455131,-4.0107578136,-2.4178185082,1.0067218858,-3.1610739883,4.8054301065,6.2174555203,0.7630213038,1.3789793257,-8.9502679895,-7.4474755004,3.3972726054,0.1141450625,-5.715220229,-0.4712525493,0.8695359877,3.860401865,2.4521423097,-0.274785558,1.5704321368,1.3726279516,2.3009604906,0.7935718187,0.1738123274,0.2656701321,-2.9268000702,-0.6025910236,1.4306516589,-2.4199820615,3.5582338521,3.4707680783,0.9581495574,-9.477505234,5.8519905946,-4.770331029,1.5269456785,-1.0960582079,3.5754997973,-1.37844314,0.5645333815,0.6892124954,0.0602904491,-2.0815218164,-2.0952012125,2.6280616798,-0.2263609517,-1.4007132222,0.8923192732,-0.5848049341,-0.0365213298,-1.2516956686,-2.4133179225,-3.000797547,-7.0134720348,0.8298841277,-0.5243008851,6.4186476058,6.4215744328,-1.2389661734,0.7489904208,3.5828592897,-9.3387042164,2.239011847,-0.1339242503,-4.3682654908,7.9349666902,-0.1478154782,1.7308853948,3.9268830222,-4.8814204198,-0.4730301577,-0.8206761667,0.3594031435,0.4566348834,-0.9388516379,0.9839558214,-0.8917431695,-0.3477792026,0.0110931136,0.4259827534,-2.3504304443,0.2106144428,16.3866448192,-7.0143321573,3.0188830639,-0.2987341236,-0.7612418488,0.6158345073,-0.3260617812
biasActivation=1,1,1,1,1,1,1
[BASIC:ACTIVATION]
"org.encog.engine.network.activation.ActivationSigmoid"
"org.encog.engine.network.activation.ActivationSigmoid"
"org.encog.engine.network.activation.ActivationSigmoid"
"org.encog.engine.network.activation.ActivationSigmoid"
"org.encog.engine.network.activation.ActivationSigmoid"
"org.encog.engine.network.activation.ActivationSigmoid"
"org.encog.engine.network.activation.ActivationLinear"
