encog,BasicNetwork,java,3.4.0,1,1573293750575
[BASIC]
[BASIC:PARAMS]
[BASIC:NETWORK]
beginTraining=0
connectionLimit=0
contextTargetOffset=0,0,0,0,0,0,0
contextTargetSize=0,0,0,0,0,0,0
endTraining=6
hasContext=f
inputCount=2
layerCounts=3,8,8,8,8,8,3
layerFeedCounts=2,7,7,7,7,7,2
layerContextCount=0,0,0,0,0,0,0
layerIndex=0,3,11,19,27,35,43
output=0.6748766495,0.4412653182,1,0.0000118552,0.7975924011,0.9998001567,0.4657993209,0.9999987473,0.9994504847,0.8940368151,1,0.9968241611,0.9936681721,0.9908757918,0.8864945207,0.0689064825,0.9765823172,0.0000098801,1,0.0038775941,0.9997612994,0.2171532448,0.0221867131,0.9710570217,0.655211923,0.9602130012,1,0.5397104281,0.0765975441,0.1440021985,0.9716560745,0.001595145,0.1995050209,0.9496843984,1,0.9999999926,1,0.603154383,0.9999999315,0.2303509632,1,0.9579099,1,9,20,1
outputCount=2
weightIndex=0,16,72,128,184,240,261
weights=5.2057072243,-6.3365735233,-3.3378466576,-9.0776256422,12.9174794004,-2.5656234935,1.8281935489,1.3620760167,9.2532664099,0.0997378372,-6.1822549432,8.5750798927,-2.0368851347,-5.3903833982,12.0402335504,-1.4690433505,-3.1429946887,-11.5343257458,4.1060912601,1.9799690859,-3.7630569134,-0.7898637932,-0.3459764401,-1.5416156784,7.6178037399,-2.1291921049,-5.9728775901,-0.7341733229,2.6723172435,1.4968852684,-0.1699646993,0.8166642686,1.4580448677,7.6587246295,-2.7289509407,0.2530245095,2.1840939328,0.3187634057,1.1112531947,1.4720704635,-2.639316706,-7.6180280242,1.2160809865,-1.5724098696,2.1003407516,5.714937457,-7.2678995624,4.5268953436,-3.3986421153,-1.1073146427,7.2308597831,7.0941286493,-2.2459705697,3.1689278215,-6.6248323724,1.6847091873,1.0573026379,6.051242093,-2.5138755024,1.3594470124,2.5613450612,0.7564820549,0.7123935326,0.8095814577,-3.9240384734,12.6852986663,-2.2401998083,-3.027901004,-6.3813979601,-0.0324451752,-2.9570479753,-1.1853342504,-5.3961581935,3.6855124536,-5.9543962783,-4.6886420979,6.2070658821,-6.5986072425,1.9641423127,-0.1075877668,4.8815144116,-2.2930689463,-4.3307053411,-7.8995725296,8.8793521234,3.6954919067,-4.7100404534,1.9240541716,-4.9917965932,3.0548639856,-0.2198237534,1.8551381139,-1.3372229776,-4.2006086737,10.1848815124,-4.0693915284,1.8795561935,-0.1789656317,4.1808394185,3.5729411428,-2.3280038144,0.2616519315,3.9016392069,-0.4173137833,5.1251139828,-1.6049020132,-1.1088986854,0.5577418084,3.78893869,-6.036290681,-2.1710755547,1.569931919,-1.2510365558,1.6682390949,2.0875012042,-0.41153996,-0.9975062289,1.5637237614,3.2864704032,-1.5882458152,1.8533660425,-9.4607432113,0.4501324615,-0.0359800391,2.64500571,-0.2574162987,-4.7821787084,0.0214919685,-1.2191150731,8.5917627539,-0.5648729257,-0.6156695244,-0.5564128301,0.8728433853,-4.2421548647,-1.0137728946,-1.8949715235,-0.6821522774,-1.6645045954,-1.2823171698,-0.4556144068,-1.1645841517,8.8209675632,2.7566443989,1.0435637825,5.9882277036,2.7789384123,-4.9237851315,1.2177323599,1.4325327169,3.109283826,-1.16076523,-4.8328461016,-1.9493110694,-5.5755282703,-4.8346215936,1.0450272678,0.8091928018,4.9327062106,-0.3753166164,3.8724260347,-1.4171693606,4.8855011118,6.0925559491,0.3072824819,1.5168435585,-7.0855477593,1.3341547395,-1.6812827386,7.8325204182,2.9824350701,-2.8908866446,-1.5438499355,-0.3439746975,1.8086798596,1.6823654303,0.130193677,-8.2767414388,-0.0341411893,-2.0413653437,0.9968078183,-0.9162036518,9.321227524,-2.9352796135,-0.5022722798,0.5269250972,5.4526327829,-1.3888610198,2.2397026147,-0.8365369974,-1.7288031527,0.2112626953,-1.1663002479,1.3711349528,-7.6444488695,-1.4859417958,7.8062400106,-2.259068412,6.5602260042,-2.4208222615,-1.6922607596,-0.8774649794,7.0691714928,-0.931325373,4.8142470449,-1.3884708469,-1.4866813009,-0.8415788362,0.9234098838,5.5846937286,3.2603664114,0.8185796714,-1.8289691693,0.1683749869,-5.2770889544,-0.4506927686,-1.0949745376,-0.9771433325,-1.0513328744,-0.1715931009,0.7166021876,-2.9945414938,-0.5472158525,-0.2077122778,0.0037010144,2.0032672438,-1.2624940323,0.4102500262,0.1399093905,-1.4156557139,-1.2782787535,-0.4372269802,-0.9174384499,-2.3643963016,-3.3134686201,-0.3999204399,-7.4713255261,-0.7527444905,10.9312053872,0.6207644596,1.0940157169,0.44557338,-0.0358203472,-8.0654589837,10.3298387206,0.6408067457,-1.9794208422,0.5937035448,6.3593425419,0.6269312753,0.5222926837,0.4082915626,-2.0525221091,0.3649513584,9.9673412722,-1.2947306549,3.845042659,0.8227220218,-0.1237230331,0.3214567105,-2.1906857481
biasActivation=1,1,1,1,1,1,1
[BASIC:ACTIVATION]
"org.encog.engine.network.activation.ActivationSigmoid"
"org.encog.engine.network.activation.ActivationSigmoid"
"org.encog.engine.network.activation.ActivationSigmoid"
"org.encog.engine.network.activation.ActivationSigmoid"
"org.encog.engine.network.activation.ActivationSigmoid"
"org.encog.engine.network.activation.ActivationSigmoid"
"org.encog.engine.network.activation.ActivationLinear"
