encog,BasicNetwork,java,3.4.0,1,1573986482100
[BASIC]
[BASIC:PARAMS]
[BASIC:NETWORK]
beginTraining=0
connectionLimit=0
contextTargetOffset=0,0,0,0,0,0,0
contextTargetSize=0,0,0,0,0,0,0
endTraining=6
hasContext=f
inputCount=2
layerCounts=2,8,8,8,8,8,3
layerFeedCounts=1,7,7,7,7,7,2
layerContextCount=0,0,0,0,0,0,0
layerIndex=0,2,10,18,26,34,42
output=0.0003398813,1,0.9558035575,0.9957611671,0.9489709186,0.979370133,0.0228227417,0.7679441385,0.001147902,1,0.9574219841,0.9825306424,0.1276528047,0.3531371277,0.4470193177,0.7990167816,0.0096259854,1,0.0189925735,0.7847909843,0.001000601,0.3900348727,0.6482185647,0.1558630772,0.7096525038,1,0.8828744478,0.3011321168,0.5546252573,0.4032770818,0.159629651,0.3856065379,0.9981097313,1,1,1,0.0000000127,0.0000495805,0,0.2646368241,0.8268607653,1,11,15,1
outputCount=1
weightIndex=0,8,64,120,176,232,253
weights=-4.2475122443,-3.5371297552,6.8221653162,-3.1876925652,7.5075126168,-11.9503245303,8.5228772814,5.2393001968,-0.2515768664,4.1425789286,-0.7428412679,-0.2810018936,0.6988828133,1.2027793151,-1.8495992957,-1.8170301905,3.5198960295,2.3553058075,-0.946744194,-1.4389567132,-0.0027953071,0.3677573209,-4.0926797885,0.1508384522,2.4603646369,-0.5156594187,-1.7175401686,-3.9579596481,1.9491859603,-0.7360753086,-2.0060661025,2.4271008774,1.6535441141,2.2036877209,-2.3993440892,0.425862832,-0.7944419346,0.6515381089,-4.1939935821,0.1426469189,-0.2308193675,-3.8019504127,0.8388652811,1.2967010925,-0.909744512,-3.4900475711,-0.3315711269,2.833088577,4.8028180611,-1.5855446148,-1.9289809683,-14.4075852716,-1.191458453,-0.2462477558,-6.8439834304,4.2855956695,-5.9358946679,-2.7411642139,2.4269487509,0.6276271602,-0.5981538505,-0.3344049269,5.6856464709,1.5561693375,-2.4547896146,-1.9334497323,1.9789278054,-0.5409564976,5.5827158514,-4.4542628294,-0.1893606009,2.0957099302,0.6534242144,1.0234670267,-4.4148731996,0.8868733284,0.7250372031,2.7521704712,1.5543562237,0.8705741593,0.2308659794,-1.0727763349,-2.1629347103,1.4124097925,-4.0472657851,1.2217531305,2.8361192281,-1.2126502667,4.9282070757,3.5428729972,-7.2175542736,3.0665176547,-10.4968752925,1.3674525837,6.1124372477,-2.4146912642,0.614155421,-1.3897169475,-1.2146096111,2.0347672443,0.0156933927,-1.1507907466,1.1025688261,-0.5394108522,0.1091673295,-0.5737143717,-3.0559178795,0.8218012914,0.5702238268,1.1731216451,0.6094693593,0.5258721484,0.6439323563,-2.5095010883,-9.0877898301,4.19104053,-6.0437491694,2.8801656187,3.2485462141,-3.1385512438,-0.3969458802,-0.6721994747,2.685574169,-2.5310493947,2.7460185805,-1.3073230657,-3.378890813,-0.4221606859,2.7017301528,0.366111792,2.6721853487,0.7873773846,-0.1757019889,-1.3070264843,-2.5701825605,0.0960478514,-6.3123781922,4.9682408744,-1.0848701008,8.4438704378,-0.9188353037,-0.865505255,-4.0863190538,-1.0737232178,2.3445148574,-4.785682906,0.9142138672,-3.9076505778,0.3285457454,-2.7475962869,1.4561784994,-0.4535157328,6.6582346879,3.7428075485,-6.295411529,0.2089184885,-5.1009170127,6.1105785323,-6.5551662219,2.013849005,-1.0892426727,-0.861098274,-0.3592767783,-1.5804259093,8.6735869278,-2.4877402276,-0.5947992195,0.5366477235,3.7176983807,-3.0324967128,-3.5681635638,-4.0329306135,8.2191098714,-2.9007948784,0.554062415,1.3835370645,-0.8030085123,-1.1809724561,0.868039744,1.3476218063,-0.2840671971,-1.466963052,8.1222072643,-2.3238713822,2.9037041428,1.9250491174,0.6400905674,-2.2093316051,0.1333823544,-0.8420409534,-9.7158373387,2.5859233909,-2.2962788983,-1.9723828785,0.0538816743,1.3682332598,0.6187334108,12.6040620707,3.9151912891,-2.0848464568,3.8550208539,2.604703739,0.9837590938,3.6058420669,-1.0061467753,0.0252029602,-11.2016994316,2.4038437404,1.1124452244,3.9035958484,-1.0566076952,-0.7195345081,0.2802208892,-10.6022980368,-8.0738707466,2.8047338058,-2.92114249,-2.1015420733,0.8417644539,-2.2754237208,-0.6919948509,6.0236293572,6.7582425008,-2.6252203629,0.4790163448,-0.0975784966,-0.2942255109,0.1973337267,-0.278624591,-5.5203442879,8.5681232922,0.2639380188,0.5544050527,1.2639659024,0.8664929361,-0.2658288085,2.0091719339,0.0970036106,-0.6788095809,-0.6693830864,-0.6716693862,1.112674332,-1.2752048786,-3.0232087461,-1.8241474546,-1.0153408455,0.3824218687,1.1575040352,0.2449973667,-17.4295109709,0.0029350562,-0.3963231532,7.4761019039
biasActivation=1,1,1,1,1,1,1
[BASIC:ACTIVATION]
"org.encog.engine.network.activation.ActivationSigmoid"
"org.encog.engine.network.activation.ActivationSigmoid"
"org.encog.engine.network.activation.ActivationSigmoid"
"org.encog.engine.network.activation.ActivationSigmoid"
"org.encog.engine.network.activation.ActivationSigmoid"
"org.encog.engine.network.activation.ActivationSigmoid"
"org.encog.engine.network.activation.ActivationLinear"
