encog,BasicNetwork,java,3.4.0,1,1573986687670
[BASIC]
[BASIC:PARAMS]
[BASIC:NETWORK]
beginTraining=0
connectionLimit=0
contextTargetOffset=0,0,0,0,0,0,0
contextTargetSize=0,0,0,0,0,0,0
endTraining=6
hasContext=f
inputCount=2
layerCounts=2,8,8,8,8,8,3
layerFeedCounts=1,7,7,7,7,7,2
layerContextCount=0,0,0,0,0,0,0
layerIndex=0,2,10,18,26,34,42
output=0.0000258298,1,0.0714844144,0.8073150332,0.8680212118,0.647142963,0.8970240285,0.1239815938,0.1645180294,1,0.5261647426,0.9206244908,0.5313503081,0.6246614255,0.4429601865,0.3734739462,0.5843463976,1,0.0000008365,0.9997275734,0.3522152126,0.0078343704,0.7236235845,0.9658236212,0.1780537548,1,0.9997936586,0.0020940182,0.416198699,0.8179892568,0.4227788344,0.9863560965,0.7959297728,1,0,0.4787803489,0.326264654,0.2248707529,0,1,0.9999999999,1,11,15,1
outputCount=1
weightIndex=0,8,64,120,176,232,253
weights=-0.2905684328,2.4460872048,-9.7302043574,-2.3029222573,-7.2454158173,11.4782267842,5.3521095935,1.6141005606,-0.3365002374,-0.5329862799,-0.3661575047,0.1969727651,0.4673500475,-1.1804104469,-0.6997781473,-1.1821083991,0.8476262091,0.0789402694,0.766967532,-0.5374393237,0.8220135616,0.8271062932,-0.0595292096,0.2039449644,-4.7215596724,2.5568119663,-1.9058232308,4.0548715415,-1.7902381603,-6.446296831,4.3035143998,1.1795523855,-0.5626728583,1.7216602967,-0.3520385703,0.3751793463,-1.1358901289,-1.5039694643,1.3583154834,-0.4586232696,-2.9213446767,3.2361877893,-1.8984978609,2.7729702061,-0.9356895437,-4.1394545898,2.5697098575,0.4578326678,3.8910430248,-2.6996929621,2.4419776252,-4.8616034519,2.9572474559,6.3662685418,-4.7607063398,-0.6835463187,1.6201361704,-2.6173610966,1.4755285413,-1.9152511085,0.2430107301,2.0278995328,-1.4579523716,0.331458032,2.4301304396,0.9049142888,-1.6753482055,-1.7381423132,3.5502781981,-2.8838553738,-4.590093542,0.8372992305,-0.0268830261,-1.8804425187,2.2567208943,0.8534738762,-0.8453343428,4.4007254099,1.9622285538,-0.458748086,0.9617031957,1.8645448419,0.1217187157,-1.8352225143,1.3900185394,-2.6585578533,-2.0737296312,0.1641180113,-2.3958507084,-1.674208914,0.9392383476,2.0727129184,-2.3863564825,3.6234581641,3.671230495,-0.5903903443,0.5519694473,0.573298034,-0.2328253722,-1.0849115072,2.0165907806,-1.6325311567,-2.8433626277,-0.0880390032,4.5289188627,1.4794047926,-2.3995772473,-2.549052361,3.0081500191,-5.4004360292,-6.0542118256,2.9858656962,-1.877823249,-1.0545460779,1.7743880147,1.4013546238,-2.2686040101,3.5003308279,4.244320162,-1.7358470656,-8.8641556135,0.4631837944,-0.9167879652,1.0231512412,0.2447539348,-4.6147350334,-3.9640734822,2.0153482586,1.6990178656,-5.3173476758,-0.0864501113,-0.2369818123,0.5663521193,0.420437348,5.7313334444,1.5342835054,1.4410085065,0.0366850736,-4.9460893619,-0.3174230451,-1.1692895869,1.4059529328,0.2033854421,-0.7861994093,-5.3055256873,4.3908536526,-0.2248929921,-0.5824837643,-1.6884508632,0.1076211444,1.5716943567,0.3806626875,-1.4364127307,2.0579767359,-0.7788948295,1.7164881798,-2.3543518943,-1.5590652963,1.978980658,2.2724546922,-1.2970825934,-11.0671166717,3.0654112516,-2.5587200095,-2.6361889275,6.405008999,0.7750317763,-0.3413441552,-0.1572615981,-1.892619866,-9.2207280143,0.6847098305,-10.6773043458,0.8056018865,6.8258477036,0.1958050895,-0.0736855442,-0.6347389618,1.923476606,-17.0963581094,0.8290861657,3.6812622041,4.3357577333,3.9895613676,1.7875267914,0.6836675107,3.5429774207,12.5414489334,0.5180305281,-4.181451217,-2.8401335831,-3.4484693865,-9.1128277592,-1.5342137279,-1.2042202033,-12.1532716283,0.4779166832,0.6595938868,1.0785116701,1.7838577579,-0.575832462,0.5300668498,0.9861060784,3.4484094426,-0.1088898558,-0.366012386,-0.329303634,0.8471359317,4.7079295626,1.0811110436,-8.3855881333,-7.9812665738,0.3893789341,0.9739312193,1.2763932658,1.4513589235,4.344697855,-1.0618376371,-9.2734014019,1.4476755393,0.4528998018,2.9078050492,2.3500778801,2.2312719262,-7.630864898,-0.2759726652,1.8314255708,-8.5737763512,-0.6086486646,0.8199537073,0.9456728617,1.0580126047,-4.5772389004,1.8957458558,-5.4271224751,-0.1010142922,-0.0164106455,1.2723872792,-7.8158835647,5.5029024207,2.7060544035,-1.4970372743,-0.2478396243,18.9475004012,-0.7502224223,-2.4042403312,-0.5998491766,2.0943780872,0.6877680319,0.6925242926,1.33329004,0.4931980154,0.6748016474
biasActivation=1,1,1,1,1,1,1
[BASIC:ACTIVATION]
"org.encog.engine.network.activation.ActivationSigmoid"
"org.encog.engine.network.activation.ActivationSigmoid"
"org.encog.engine.network.activation.ActivationSigmoid"
"org.encog.engine.network.activation.ActivationSigmoid"
"org.encog.engine.network.activation.ActivationSigmoid"
"org.encog.engine.network.activation.ActivationSigmoid"
"org.encog.engine.network.activation.ActivationLinear"
