encog,BasicNetwork,java,3.4.0,1,1573294006179
[BASIC]
[BASIC:PARAMS]
[BASIC:NETWORK]
beginTraining=0
connectionLimit=0
contextTargetOffset=0,0,0,0,0,0,0
contextTargetSize=0,0,0,0,0,0,0
endTraining=6
hasContext=f
inputCount=2
layerCounts=3,8,8,8,8,8,3
layerFeedCounts=2,7,7,7,7,7,2
layerContextCount=0,0,0,0,0,0,0
layerIndex=0,3,11,19,27,35,43
output=0.2499958273,0.2456148817,1,0.451687337,0.5303977947,0.9999896167,0.999999995,0.0000000018,0.4731159329,0.0000371402,1,0.9457143153,0.000000006,0.0002419303,0.9996391765,0.0000000004,0.9999841992,0.9999999998,1,0.0004023448,0.9998064812,0.9986406634,0.0000001725,0.0177973381,0.9999973376,0.1623302256,1,0.3222099157,0.9822557056,0.4114435103,0.0729321934,0.9990677999,0.7911844449,0.9102015794,1,0,1,0.4688466393,0.0000000918,0.9949279191,0.9999999674,0.0000000001,1,9,20,1
outputCount=2
weightIndex=0,16,72,128,184,240,261
weights=1.8191763105,7.992101891,-12.0341431245,3.5998748121,-6.0094923348,4.3717105583,-4.9003757825,0.2066728046,18.5611158523,8.9733026864,-0.9173227478,-8.5388534709,-40.2134542391,-11.9128814348,6.0458475107,0.8267370284,-6.1101916886,-0.7512918418,8.474409213,-8.720015536,7.5221769583,18.7502765606,-1.9933918055,-2.4571292697,1.0048016064,2.0322573212,-1.535150306,2.3720128856,-0.8977946605,-2.3808284362,0.3744389789,-1.1929477288,3.8545239173,10.6854844963,-3.7019893844,1.8373266403,-12.5928555991,-4.4270389907,10.3942220978,0.0269992064,3.8094390056,-5.7935631487,-1.5213213581,2.8353978594,-0.3835523502,0.5506831255,9.5973419083,2.5301535954,0.8708539102,-2.2050970932,-4.3949360599,1.1472329896,-2.8531768096,-27.5780639016,3.7383538373,1.7391406307,0.8070277461,5.3099357813,9.9683675166,-2.0607256934,0.8502078063,12.6237893198,-7.7068866317,-3.7299905406,-2.495980492,4.0334029722,-0.1255004169,-1.0618724899,0.7364882888,0.3023146343,-5.0875296255,-1.9935482441,-1.5574383697,-0.4806246994,2.6209860235,1.1540457447,7.4160626855,3.606723644,-6.4834837652,-1.9648199641,-3.2978376697,-8.9268790399,0.4314964718,-1.7579639153,5.6426547804,-10.9238714421,1.0543307813,0.2192776104,-5.1050006869,-6.9653459162,0.2598599319,-4.0348900746,1.4738948969,-2.3738613957,4.7435395831,-0.0424691878,-3.7233613369,-1.2093006851,5.072908646,-0.9025405194,-3.512775899,3.6500421637,-2.0689645933,0.819654024,-0.708920125,-10.93762268,-2.3045069764,0.7047523933,8.4445593074,-9.0846202743,1.8509051748,0.1972722596,-11.4734084216,3.9723363443,1.4226343352,-9.9059008132,3.3904799555,3.9580513559,-0.2668098292,1.6927102971,2.8539337272,7.2787891307,2.9070063918,2.2875904435,-5.1715704544,9.9227241953,-0.4335461045,2.4000917518,8.1064160898,2.9581078231,-2.1877691887,1.5736615393,-1.032236943,2.9654115888,-15.740350529,0.4619673907,-0.2202301052,7.9213134591,-4.0496586284,-3.5488085282,-0.0795773225,7.0086269466,-1.6987738886,-1.1542112374,-0.2648039137,1.6852680774,-2.4566782582,-2.3497201382,-0.1774394053,4.1150585084,3.9069452454,-0.4230929562,9.4418766509,-1.8926700583,0.8830523673,2.896180205,-5.2057966235,0.1821800343,-11.5902471573,-1.7241580168,-4.8320025678,-3.228968353,1.7865593215,-2.8290650701,1.9630725571,-8.9777048812,5.4792757675,0.3436370606,0.1094708901,10.3821504688,-4.713554643,-4.3209749524,-1.2238267855,8.9496029462,-0.0412091983,-0.9630101313,-4.4991378838,-5.2201471568,5.6926956668,0.9585098785,2.0333655582,-3.9833960058,3.7190628807,0.2590999777,2.3529679692,-0.8488998774,-10.100177954,5.6077113129,0.4756185754,1.3353621793,-0.2272652337,3.0321311328,1.0530061466,3.6653255579,-9.6410404482,-3.9099271099,0.9459959163,1.0855780063,0.1076028058,2.8418561422,-0.0457205749,-1.6282041602,6.6267120224,2.6252071594,-1.0344466056,-0.4541012671,-0.9103465226,-0.3534078591,1.43303573,0.0228671629,0.4811309626,4.9600490465,-1.3797655524,-1.0626116573,-0.0451804656,-0.3555619175,-0.6286930044,4.1431850358,-0.0388136304,-1.6262250864,2.3815761948,0.615649553,0.0984018341,-0.1331029522,5.5148598496,4.7220494427,-12.4482265204,-0.6015148761,-0.5565159584,1.9681106181,0.3182161325,1.031922261,1.5726976415,-1.3582166,14.216379825,-10.24690017,2.0278930432,-1.9700435064,0.7580806006,-3.0385496228,3.8830217233,-3.5596538405,0.315332988,-2.1932566419,4.055360552,1.0058316646,2.0534973234,-0.1437662202,-15.7309265821,4.9767694192,-3.0496622173,-0.0016868581,-0.070813046,0.3965755304,-2.0152740669,0.7239451279,0.5578553124,-0.4346132222,-0.5727222772,-0.9058610686,-0.3676036729
biasActivation=1,1,1,1,1,1,1
[BASIC:ACTIVATION]
"org.encog.engine.network.activation.ActivationSigmoid"
"org.encog.engine.network.activation.ActivationSigmoid"
"org.encog.engine.network.activation.ActivationSigmoid"
"org.encog.engine.network.activation.ActivationSigmoid"
"org.encog.engine.network.activation.ActivationSigmoid"
"org.encog.engine.network.activation.ActivationSigmoid"
"org.encog.engine.network.activation.ActivationLinear"
