encog,BasicNetwork,java,3.4.0,1,1573294110075
[BASIC]
[BASIC:PARAMS]
[BASIC:NETWORK]
beginTraining=0
connectionLimit=0
contextTargetOffset=0,0,0,0,0,0,0
contextTargetSize=0,0,0,0,0,0,0
endTraining=6
hasContext=f
inputCount=2
layerCounts=3,8,8,8,8,8,3
layerFeedCounts=2,7,7,7,7,7,2
layerContextCount=0,0,0,0,0,0,0
layerIndex=0,3,11,19,27,35,43
output=0.666691303,0.8780005735,1,0.9361532809,0.5877625082,0.9131535254,0.9983130864,0.0323402441,0.9812931619,0.0132526674,1,0.4548448708,0.9822811239,0.2058362121,0.2082226172,0.58572652,0.1738651554,0.2180201262,1,0.7670397649,0.6271872609,0.6755951761,0.8260344238,0.1751015258,0.919400109,0.9995068019,1,0.0460091036,0.5602134279,0.1614392582,0.6731933903,0.3843334644,0.0098663693,0.9990358821,1,0.1504885409,0.1772853165,0,0,0.9903822089,0,0.0000000287,1,9,20,1
outputCount=2
weightIndex=0,16,72,128,184,240,261
weights=3.7448053487,6.0098850608,-8.5563913707,-2.5728195549,6.6043565634,2.5177317362,-10.9540224484,1.4978900672,5.1104133313,-10.1025797964,-2.2630999779,8.8359284458,0.1430867884,-5.1806083728,3.5539931833,1.4049212814,-0.3364317685,2.827655957,1.2422120579,-1.6018060059,-0.9833473062,0.6159222587,6.0579654727,-0.7132679852,8.3546955436,-2.5477740812,-5.9493075565,8.159513236,0.3408757133,-2.412187611,-1.1755964869,-0.941109824,5.2467585639,-0.15465797,-2.0578764956,7.6898119454,-1.3041873176,2.0547193562,-0.3419890856,-0.5781752589,2.1649420749,5.4463068342,3.5088619519,-2.5077865594,-0.1689240618,-5.456780029,0.29302403,0.8323782455,-3.3083995073,-1.4871480068,3.1062708151,-5.2447152779,0.5383171298,-0.8905901433,1.7560565148,-0.5235965347,-2.3683018338,3.1468184049,-0.0237537003,-4.4052472728,1.5335875487,1.5935596253,0.9805046324,1.4791961028,2.5030695686,-3.1392093552,4.9538839111,4.8610404747,-0.5478093356,-7.7620330782,0.2341935215,-2.7776500526,4.2868744676,7.9875515027,-0.209018373,0.4273493565,2.9188294988,-5.9441035243,-3.9748621839,0.236018535,-0.3012756299,-0.2647907941,2.6910342339,1.8533165496,-3.4063086016,5.3342038666,-3.8452959742,0.5990395137,2.3386136263,-6.4929027478,0.3715434503,0.1373450699,1.5924300152,5.1328635182,-2.9843647958,-1.4513167222,4.5248165198,9.2331818952,-2.5627150294,3.8262310487,-0.0649494162,-12.418702525,-4.486870693,3.8872255768,-1.1446385627,0.1444094453,1.1685322334,0.8264759053,-0.2344252692,0.1913642778,-0.089050366,-0.384299772,-4.2388427599,1.5380844565,-6.7070114267,0.3204731521,-2.0491469822,-0.2558701535,3.6722123541,1.9183732907,0.6847063396,-2.6552948475,-3.2590646131,-0.046764044,6.1038196801,3.0669302036,-1.4640478628,-0.3218327744,1.3833668932,-3.5267270111,-2.2421378586,4.1995981747,0.1021741978,-3.0651259916,2.9032639009,-2.270921543,-2.9648199181,-3.446807055,-1.3564557167,6.7041523469,4.2459578305,-6.6206124552,-3.8674623929,0.5905107917,1.3194880495,1.5804839437,2.3985819276,-4.7655681777,-2.697507129,-6.9719251306,4.2041510493,-0.4861591307,-1.6577309434,0.6111718541,-0.5224000944,1.689259945,-0.1346753253,0.7466164635,-0.1550464879,0.4380911413,2.492506449,-4.053395029,2.4120818452,2.4616026781,-4.5850085852,-2.3652235922,-0.4009605876,0.7457370334,5.70131689,5.8495286986,0.8004927918,-6.0877349021,-6.8536256993,4.5810674772,7.211853222,-1.7521019027,0.9455361242,4.3520186983,-0.0543441729,-4.8400970103,0.4384825635,1.0167080948,7.9065031857,0.3222033054,0.6607558994,-0.2548871795,-1.7484527275,-1.8834038079,-6.6908105455,0.6278027387,0.197979434,3.5403964385,-0.4942168092,-8.8005225755,-7.721798156,0.3641739901,1.8526543804,-0.1477036448,0.0325225154,0.0417697449,0.3437785678,-1.5316260222,0.3267079984,1.3279587211,-3.0049377232,0.2912083489,-0.1008566415,1.5482788743,1.9625726425,7.7320525092,-5.3720179857,1.6617679045,-4.7746744675,0.9804481216,0.3851920743,3.7852926206,-7.857116787,10.7265637114,1.7522194619,-2.5352965371,-0.0217114089,-0.8457364262,-0.2157065149,-1.168948509,8.486365042,-3.2798686968,1.0772379755,0.3190754059,-3.9269486295,-0.7947299044,0.928729638,-1.4151560807,-11.5875481234,9.0836856509,-0.0868848846,-3.3782361729,9.039352709,0.8573851837,-0.4744969243,-1.8756926004,-0.1687440552,0.7323709165,-14.8594963231,0.4244444875,0.1813611282,-8.9820720215,3.8532099731,-6.2695915728,0.8642323835,1.6546393375,-3.6156921941,-0.2771223093,-1.0306869223,0.5939996776,2.0306650667,0.6968481677,-1.8125246797,-0.6992335906,-0.7355336368,-0.5475171613,0.2052180614
biasActivation=1,1,1,1,1,1,1
[BASIC:ACTIVATION]
"org.encog.engine.network.activation.ActivationSigmoid"
"org.encog.engine.network.activation.ActivationSigmoid"
"org.encog.engine.network.activation.ActivationSigmoid"
"org.encog.engine.network.activation.ActivationSigmoid"
"org.encog.engine.network.activation.ActivationSigmoid"
"org.encog.engine.network.activation.ActivationSigmoid"
"org.encog.engine.network.activation.ActivationLinear"
