encog,BasicNetwork,java,3.4.0,1,1573294724051
[BASIC]
[BASIC:PARAMS]
[BASIC:NETWORK]
beginTraining=0
connectionLimit=0
contextTargetOffset=0,0,0,0,0,0,0
contextTargetSize=0,0,0,0,0,0,0
endTraining=6
hasContext=f
inputCount=2
layerCounts=3,8,8,8,8,8,3
layerFeedCounts=2,7,7,7,7,7,2
layerContextCount=0,0,0,0,0,0,0
layerIndex=0,3,11,19,27,35,43
output=0.9393933249,0.9995942013,1,0.0001023284,0.3490626907,0.0042821948,0.0001017516,0.9996386608,0.0468353732,0.9962296215,1,0.9818316608,0.8296304302,0.9960201227,0.0000002154,0.0000135084,0.9999999979,0.151451059,1,0.0200636602,0.8842151366,0.0627087824,0.9994978941,0.9803679257,0.976094148,0.9999947916,1,0.1864579199,0.6906821891,0.7044272197,0.005247451,0.3224061201,0.997487675,0.9555250984,1,0.9151004444,0.469980008,0,1,0.9999999911,0,0.999999999,1,9,20,1
outputCount=2
weightIndex=0,16,72,128,184,240,261
weights=-10.8366634504,-6.3367636175,-8.4820317098,-3.0199201421,5.4718469278,6.3137697876,-0.2389055268,-0.5370778553,5.249893698,-1.3963005914,-4.6724373702,8.858144811,8.5478228149,-9.7169056078,0.501083643,-0.2736201008,-3.518515998,-8.0056187899,-4.1717689941,4.0871038323,0.6990815171,8.3689581499,-2.3243258372,-2.9527069498,-1.7477756001,-3.3020200534,2.3285484368,0.2239526106,-1.2030219839,-0.0314037541,-2.0890186091,1.8608388723,2.4820100737,2.695524501,-4.646198677,3.936743233,4.5223057182,-5.9540631322,2.6839910818,0.0530118324,-3.2019115761,1.5638018013,-3.1590727341,2.648248933,-1.0001725425,-0.1013740298,6.2981407494,-5.0524863467,-0.7614774038,-0.4354563318,-1.6049671432,6.2700869385,-2.8309685789,9.8012452882,2.5101726162,0.4514454177,-1.8957677026,0.9991251399,1.2964215175,1.9929109367,14.079162824,-5.2659790813,5.2446734568,1.1994864397,1.8899418285,1.9911741204,0.2058843461,-0.1718909862,0.9343234965,0.9372005505,0.1407168936,0.9056692001,-1.8207371378,-0.4891342889,-3.9719765604,1.0948609212,0.6277527643,0.703342101,1.7909234507,0.5206657104,5.2042368594,-1.5019452027,-7.173049746,1.1851956588,-0.1684269414,1.6437818313,-0.5739231097,1.2064042785,-4.9794552068,5.1040778792,-5.1607296043,0.416359096,1.143137907,-1.6115309676,-0.1150260765,1.5841283662,0.6596809422,-3.3834401096,3.324339788,-5.967717208,-1.6085274471,-2.5464493667,-1.6901808189,-0.8634360198,1.1680716384,-3.1894048144,7.9346081379,-8.1424594525,1.2596895155,-9.3903342271,4.4246878617,2.7315244388,0.1190314077,5.167347963,-7.490180173,9.3763133928,-0.0164406664,8.1727459163,-0.9106275259,-0.5320516953,6.6498192414,-6.3998401264,-1.6144578919,0.3221814537,1.6328749838,-0.4164910972,2.1928191372,0.1942801156,0.7539920659,-6.3844944866,-1.0216469889,-0.6429336187,5.7190423971,0.3388631414,-1.2829468404,0.1475629948,-0.9398146824,3.6709225737,5.4765748212,-0.8891317533,-3.9726904397,-3.6181288523,0.7178640023,0.0235004853,7.7962040545,-2.7679012627,-6.9526748995,3.1756223904,-1.4058038243,7.77619783,-1.9284151791,-2.8261995178,-7.0379774069,2.9601963654,7.2020053114,-3.1917293301,-0.2782118497,-1.9604690904,2.5160886455,1.4484439255,0.4976888382,-0.0585631982,0.8174464147,0.8090952889,-0.3744497463,0.4776000161,1.4220073132,1.5638976843,-5.2454435563,-3.3006955327,8.629430453,-3.4789934687,-0.5476177463,0.0662669424,0.2977242852,0.732643846,-3.4282207738,-1.8930513694,2.349845397,-4.1696291881,1.6726914745,9.293368508,1.2664653118,1.4590920388,-5.4393357357,-6.9803926236,8.3074324816,-0.3340484832,2.2506799446,-0.7788658673,2.7732967555,2.0950632664,-1.6344771319,6.5912112292,-4.8799868241,0.106039165,0.0602514042,-0.7083330733,0.4026265237,-1.367633322,8.7884533901,5.7469690853,-3.3119029273,-1.28418991,-3.1360493512,-0.6286972349,-2.7976594722,-2.6569095605,-6.7511466887,-1.1287746195,-0.0517366755,-0.0369959094,0.297830575,0.6929799319,0.2077987493,0.9950938429,2.1605494092,-4.6925897534,5.7487897964,0.8456326601,-0.1092774504,-0.1327946273,-0.7830179374,-0.4677697467,8.7834518218,-9.8579714883,3.7398694536,-0.0130066029,1.5891715157,1.640940251,0.6320451801,0.371129937,0.3785701038,0.1231289007,0.0224266022,1.046830152,0.8516185224,-0.9911003325,0.8970675135,-0.1324779609,-1.2474185611,0.4642638852,4.3190543212,-0.2060918721,-0.2084612435,5.9038271512,1.2580537955,-1.7736143258,-0.1655420859,-0.3036476637,1.6605870566,-0.0184671867,0.7578898169,0.5740081079,0.231331352,0.2180139556,-1.4788654756,0.9823772202,0.4504000762,0.7948219624,0.7320553159
biasActivation=1,1,1,1,1,1,1
[BASIC:ACTIVATION]
"org.encog.engine.network.activation.ActivationSigmoid"
"org.encog.engine.network.activation.ActivationSigmoid"
"org.encog.engine.network.activation.ActivationSigmoid"
"org.encog.engine.network.activation.ActivationSigmoid"
"org.encog.engine.network.activation.ActivationSigmoid"
"org.encog.engine.network.activation.ActivationSigmoid"
"org.encog.engine.network.activation.ActivationLinear"
