encog,BasicNetwork,java,3.4.0,1,1573295369501
[BASIC]
[BASIC:PARAMS]
[BASIC:NETWORK]
beginTraining=0
connectionLimit=0
contextTargetOffset=0,0,0,0,0,0,0
contextTargetSize=0,0,0,0,0,0,0
endTraining=6
hasContext=f
inputCount=2
layerCounts=3,8,8,8,8,8,3
layerFeedCounts=2,7,7,7,7,7,2
layerContextCount=0,0,0,0,0,0,0
layerIndex=0,3,11,19,27,35,43
output=0.99993032,0.9994453224,1,0.9419853015,0.1856642805,0.9942301624,0.8347414873,0.0000377093,0.9902718668,0.9561670386,1,0.9999975545,0.7873512366,0.9936270481,0.9999973947,0.0384962409,0.9769368336,0.2851131678,1,0.9998836839,0.9999999927,0.0808313758,0,0.7841951171,0.8041060091,0.9923222821,1,0.9993423701,0.9999921552,0.8038819385,0.9999969891,0.7128797071,0.8026317824,0.9999938697,1,0.9999999979,0,0.1055071526,1,0.9999996863,0.00000001,0,1,9,20,1
outputCount=2
weightIndex=0,16,72,128,184,240,261
weights=13.9171274228,-18.5064839101,4.5442701611,10.327462753,12.176936977,-1.5792838858,-6.2954932084,-5.6580170112,8.1109479319,0.4391223677,-8.5487053597,15.5308585516,-22.0101670362,-11.6064505293,9.130802227,-1.9264262544,1.909800018,-5.6749724486,3.6329654631,8.7206143005,-4.0767460659,-6.6689231199,-8.127651573,2.0046466904,-9.8464050041,-4.2063909843,0.2600095515,8.6873238086,-5.2566834383,5.0360363609,18.593349183,-7.284533795,-6.7622035446,-3.9088152098,-5.8008305809,16.121571002,-8.4711879116,4.4832152905,-7.1435144349,2.6144562282,0.1772655881,6.9458829625,3.2818956525,-0.8402731369,-16.4140142645,-5.0379668062,3.7551862439,-1.9642128056,-2.5142394301,-1.9642532796,-3.2205043373,-4.2288765628,1.0011335588,-0.5055544672,6.3269328723,-0.0444659639,6.3178008255,-1.3538367293,-4.2705997073,10.7872580899,-16.0358671444,-4.9232842253,-15.6123414118,2.7056129676,6.4843999458,8.7008395432,-5.4934186136,0.2762408808,-9.4589231241,-3.3076300084,-1.0700592248,-1.1697186099,-1.6781220459,1.2289215674,1.4696569112,-4.6071205656,5.9234968226,0.754311227,6.9959381729,1.0575037034,-3.5894397492,-1.4217268715,-13.5979649475,-0.6600209312,-0.7681816732,12.9613820941,-1.1000685622,-1.3093744088,10.471757257,0.1272702947,-9.4699641719,0.8505301302,-7.4891290008,8.3748340686,-5.542691139,-0.144220208,-4.9959999614,14.6875603958,-7.7657689746,-2.5884279738,10.06446375,1.4034588721,-2.4245518232,-2.8215659489,-12.1214244793,-9.1364102103,1.4239776179,2.05596895,0.3156338834,12.1477775488,2.4663366574,5.4603644656,-2.2898899456,0.5297893334,-12.2771535314,0.6520439399,1.0173178919,8.7144793473,0.1710044808,-1.476433833,6.0200817404,5.1920060318,-4.6336001644,14.0197401464,-5.0608428329,-2.7412810532,-6.2222014776,0.5913126764,-2.8415740769,-2.4215497826,6.8881599675,-4.528835973,10.4887275503,12.5970289555,-3.7552523285,-0.5208734784,8.7107587352,10.5729910286,-4.2567799072,4.8270996717,-4.2271720547,-5.4098323923,6.6524023454,-1.2407394874,0.1857864046,-5.0505530335,2.0488677097,-2.3805284411,0.367177141,6.1142087856,-1.9435633226,-0.0584416939,-4.1687567228,-3.0035440272,2.3947137438,-17.5930964452,2.3142500039,3.1905744097,-6.132492059,0.9507286712,4.4106554666,6.8254467136,-0.3567939307,-16.1994003754,0.6043954238,1.4891870045,4.1389339541,0.7782682902,0.9618009533,8.6018738321,-4.8324864419,5.3411883513,-4.6016156629,-7.1586166083,0.0843999711,-0.6655088545,2.5566167771,1.2495043942,-1.6438195409,4.4297962145,-3.4759748465,-1.9305502518,2.905390604,-0.928950392,0.7443734493,-2.5539986042,-5.8772476118,4.1170728098,1.4853297018,0.3424910473,-0.494704381,1.5995265498,3.2658084422,-1.5733406206,-21.7962300836,3.3601827919,3.7861963124,-0.336355205,0.0809117613,3.6431252435,0.3073508058,-0.0651976606,10.8286110703,0.4274947281,-0.7714498092,0.8197516642,0.0117761258,0.3048436886,3.5431233269,7.9901002668,-19.268321348,4.2334246541,4.2241680507,-0.0478000859,-0.9046074351,2.7455019635,-0.3734043266,1.357880483,12.2150244782,-0.8564239614,1.012666236,-0.3067829901,0.839333726,-0.1621986542,-0.3907805513,1.4220737529,17.9399536738,-0.4434258539,0.5321149714,0.9173983922,-0.415091999,-0.1878768917,4.0548807478,-6.0485794094,-2.6988843718,4.4906076012,1.7265706084,-0.5215519583,-0.1953155453,2.0149578089,-1.1566367726,1.5533611418,-0.6750484035,2.5626276986,-4.1519553538,2.2137710385,3.3148684926,-0.2817599197,-26.3360961979,-0.6885667885,2.2089230311,0.3150244447,0.4076931972,0.6089279532,-0.8728858019,-0.6273374316,-0.6347988298,-0.07456498,-0.9080909882,-0.7856581846,0.1601831974
biasActivation=1,1,1,1,1,1,1
[BASIC:ACTIVATION]
"org.encog.engine.network.activation.ActivationSigmoid"
"org.encog.engine.network.activation.ActivationSigmoid"
"org.encog.engine.network.activation.ActivationSigmoid"
"org.encog.engine.network.activation.ActivationSigmoid"
"org.encog.engine.network.activation.ActivationSigmoid"
"org.encog.engine.network.activation.ActivationSigmoid"
"org.encog.engine.network.activation.ActivationLinear"
