encog,BasicNetwork,java,3.4.0,1,1573988143347
[BASIC]
[BASIC:PARAMS]
[BASIC:NETWORK]
beginTraining=0
connectionLimit=0
contextTargetOffset=0,0,0,0,0,0,0
contextTargetSize=0,0,0,0,0,0,0
endTraining=6
hasContext=f
inputCount=2
layerCounts=2,8,8,8,8,8,3
layerFeedCounts=1,7,7,7,7,7,2
layerContextCount=0,0,0,0,0,0,0
layerIndex=0,2,10,18,26,34,42
output=0.1797866849,1,0.0766587821,0.2975469097,0.9999562477,0.0000137914,0.0264683876,0.0000016886,0.7338354549,1,0.1319521234,0.3027404543,0.9995388617,0.1830823504,0.9998100874,0.7973178397,0.0557786879,1,0.9469062685,0.9010644263,0.7004748889,0.3911412852,0.3198323093,0.4156876759,0.001015113,1,0.0001583018,0.1222329135,0.9896416326,0.5213625242,0.4660390735,0.9922212536,0.3673143717,1,0.7980861871,0.0000000021,0.9327538369,0.0000009051,0.9999999964,0.9999859392,0.9999994027,1,11,15,1
outputCount=1
weightIndex=0,8,64,120,176,232,253
weights=6.6570958633,2.629728862,-7.8163002573,7.055051406,-11.4028578741,8.7420700024,8.1649832042,-0.6846786261,-1.877174604,1.335007805,-0.306003731,3.0372178124,-0.0222803144,-0.1834752743,3.5652778682,-2.9255990558,-0.555229764,0.881218625,-0.666717094,1.5139617551,1.0047684307,-0.4372905921,1.0741030949,-1.3791236269,-2.7917239793,0.7318631746,5.6295920628,-0.5359771201,4.7410947005,0.7493958047,3.1388894543,-0.8579195515,3.0835408793,-0.2842471655,-6.7788550139,-0.7497167564,-5.1884854016,-0.2762818243,-2.8421955993,0.967026756,-8.4897940484,3.4292000799,-4.5092751284,-2.4196247302,9.8683075638,-9.6328166303,1.7869870736,-0.8583968209,4.6503163075,0.6584521505,-7.301887432,1.0504431903,-6.7587061274,-2.225204054,-3.7099955463,1.7401652335,3.5718792401,0.6877779339,0.9106709333,1.7461131192,4.5219778476,-4.5557269592,2.6773880613,-1.9333964998,-7.9991025268,5.0644207266,1.7296622999,0.2744058833,-1.970686685,-0.2374411848,1.2288209176,0.5360500317,2.1082016417,-1.5479597389,-1.7449013058,-0.0840038516,0.3067235276,-2.7656560859,-0.1710478803,0.8710998516,12.2200061141,0.3484786302,-0.1452549664,-0.8854651526,0.7014583882,-6.772069575,4.7855921891,-1.1699023809,-0.2599875895,-3.1906941188,2.1211612015,-0.5897985696,-0.807066726,0.1153726023,-1.1217440271,0.5817827607,14.8119381628,-3.2284357726,0.2876753421,-1.4811865014,-5.300093284,0.8967025312,0.2678808502,-0.8477670695,-2.2099259096,4.0735954285,3.2218109347,-1.903339735,-1.7906627843,5.9511440923,2.3112359467,-3.6241393914,4.7288963879,-2.3536181435,-2.6440378936,-0.1834657602,-1.5433148761,-3.9335371436,0.2062663925,-1.1336700975,-5.7444608737,5.3067442642,9.5545887353,-4.9248251155,9.8770526811,-4.4194841567,-7.8755115671,-1.9798055428,0.4523338846,1.2603744977,-1.042595832,8.9839452026,0.6197666581,0.5444234601,-2.4272199252,-1.5345903107,-2.4785761399,0.9274831893,0.5807196997,4.9204423873,-5.4679163209,0.701386697,-1.9264005029,0.1564714546,-0.4326515438,1.553093955,-0.9179585294,0.3129945084,-1.3777431906,0.5657601192,0.4046112656,0.0450816662,2.3968085248,4.0265044829,-2.5565269201,-1.2307901622,0.0960312534,1.407409152,-1.5609120611,1.0567698442,-3.803898395,-6.3588423402,3.9502929207,3.6312190674,-5.0854690313,-1.5334433197,3.9093454067,-2.9096117498,2.6482429029,2.1947933334,-2.3283939939,0.5244155111,-4.9477130488,-1.3246868939,-0.9068557771,-1.1762586081,-6.1078266957,-0.8557214546,-5.7188378731,-0.1991621027,0.2042189726,0.9721393413,0.4372819575,-0.1556349728,-7.1731223369,1.1939617624,-2.3312901714,-0.8835723434,2.3319158649,0.4755611502,1.9478731967,1.1724952223,-1.3856956673,0.0706861009,6.5208459174,-0.546199603,0.6694292362,-1.550979357,0.3670512224,0.0975865851,-9.0620838352,-1.9142294152,-13.179691281,0.949606496,4.8493844717,7.215335822,3.99955235,3.5470640546,-14.1114242703,3.3980725686,9.7600962274,-0.2445740532,1.3771706757,-0.8717080288,1.0040844836,0.5127538324,0.4436760751,-1.2867187522,-1.575496864,-0.1130425033,1.1458546094,1.1851472056,2.5168931742,1.1161332157,5.8826258656,-1.6120128907,3.8691522551,0.8367906631,-1.6110903898,-0.9902005858,-2.8782213219,-3.3680687443,0.1567476712,-0.2565205843,3.4979600395,0.3025520902,-1.6122779599,0.8596428626,1.3297235416,-0.3962767353,-6.0530265646,-0.9740944542,-0.1772520539,-0.5414311049,0.7687403416,0.7389124175,-0.1001847817,0.0050695292,1.2098021063,-7.0306877758,0.9012953046,0.3453999993,-0.7643705532
biasActivation=1,1,1,1,1,1,1
[BASIC:ACTIVATION]
"org.encog.engine.network.activation.ActivationSigmoid"
"org.encog.engine.network.activation.ActivationSigmoid"
"org.encog.engine.network.activation.ActivationSigmoid"
"org.encog.engine.network.activation.ActivationSigmoid"
"org.encog.engine.network.activation.ActivationSigmoid"
"org.encog.engine.network.activation.ActivationSigmoid"
"org.encog.engine.network.activation.ActivationLinear"
