encog,BasicNetwork,java,3.4.0,1,1573295444737
[BASIC]
[BASIC:PARAMS]
[BASIC:NETWORK]
beginTraining=0
connectionLimit=0
contextTargetOffset=0,0,0,0,0,0,0
contextTargetSize=0,0,0,0,0,0,0
endTraining=6
hasContext=f
inputCount=2
layerCounts=3,8,8,8,8,8,3
layerFeedCounts=2,7,7,7,7,7,2
layerContextCount=0,0,0,0,0,0,0
layerIndex=0,3,11,19,27,35,43
output=0.9999880922,0.99961018,1,0.0000033284,0.9998432573,0.9999999906,0.1557284524,0.9688891508,0.9863573933,0.0023903035,1,0.0009322863,0.0000044777,0.0238651555,0.9999625635,0.0005692576,0.9999959022,0.1045273435,1,0.0533465721,0.9812244646,0.9697701992,0.0353921004,0.985315729,0.999950832,0.9999599637,1,0.999805322,0.442104739,0.8315339258,0.9969073702,0.1256155296,0.0184358772,0.9462521077,1,0,0.9249001262,0.9999999853,1,0.3047254724,1,0.0130082486,1,9,20,1
outputCount=2
weightIndex=0,16,72,128,184,240,261
weights=-11.8347940146,1.0855710397,2.4158441694,-2.0911388464,10.7583277385,-6.0765008904,8.0552402365,3.7134679563,4.1409870567,-12.2647742056,13.4283521969,-13.068702593,6.3827578297,4.6595174395,-1.960913198,-2.0563566677,5.8288937331,-1.7211937501,0.4073223861,-9.6367127284,8.1487225567,-2.9359868314,5.5328861482,-0.6388262665,-8.6205179655,1.6328595124,-0.7630031658,3.4278166159,5.1523011798,3.989396476,-5.6087634736,1.9532545678,-3.043909176,5.8141615988,-4.4295401822,5.9883883074,7.9428283224,12.1799063466,-2.1960253032,0.6443845229,-4.6536848308,2.2395598212,11.5841612132,-0.4827137552,4.5123749851,-1.9103330574,3.1504325525,0.0986562118,-3.205028538,-0.2878840144,-2.9470097468,6.2644610251,7.1571348093,-0.053275219,-9.189687106,-1.7425384382,-2.0884797716,-5.8024077828,-2.514241145,-1.6834072705,-2.0361984822,7.8389465278,-0.9356716656,-1.7138109438,-1.0247855374,1.489400957,-0.4115519913,-2.5811389373,2.873824742,-0.8366831058,5.5340777131,-3.1855476979,2.5633753881,-4.4030008846,-12.2265655557,1.2764668487,2.6848602959,0.863294116,4.3795047451,1.1304128777,5.0045660916,-6.4898716284,-1.2744289641,7.1617788933,0.3904015636,-4.8617168578,-2.2255686833,1.4693756354,5.1207386191,-4.4000741777,-0.5055787249,4.3694766179,1.1019270937,-2.2253888825,0.2583781073,1.549921137,-0.8456491566,0.7778201725,3.0583803437,-5.0128670332,1.2088433811,8.5745452556,-5.7994586985,2.7202235791,1.6750664312,0.3536025321,2.6992850355,6.8779007166,-3.3663226735,-1.9417914921,-7.2355254216,1.7257823893,-7.5931583033,5.7472917235,5.6131336152,-3.184084567,-1.3488864614,5.6577364539,0.6998579353,-3.188234826,-3.5496047128,-3.9405223851,-2.0882705138,5.9687699168,-0.3705210854,0.4506070966,5.6535768217,-2.0169667315,2.3820846597,2.8728487313,-8.180841141,-3.2158547629,5.1571293787,-2.1991104778,0.2198429713,2.6654120894,1.5478743504,-1.961859099,0.6785028552,2.189716137,-7.7354136472,-1.7564487329,3.8899876654,-2.1479608497,-4.1078034331,-3.2565424652,7.0553325252,2.8298266091,-8.1757090565,-7.5373819597,1.0341185895,0.5145615268,-3.5314854118,5.572780895,-2.7021694353,-8.0869588042,4.1827340147,2.755797298,6.269658069,1.5618073529,3.025666939,0.3490697668,1.4236510436,0.6224113209,1.5145211716,1.2907433265,0.7376334087,-1.6895492104,-0.6825652911,-1.4825425902,6.5098014917,3.3313205308,-5.5263053603,1.2617040041,5.3686465717,-1.885213213,2.9231394077,-1.8879003938,7.6607039983,2.5456415989,-2.995053443,1.0605642615,1.9559060013,-2.3642477265,-6.4016202658,2.9296999864,0.9295825071,1.2439277022,1.3565644321,0.9662483912,-1.2336076864,2.2971979841,-3.3768658464,-2.709392893,0.9311629749,-0.3719354569,-2.1647318454,1.1356330996,5.3554920358,1.1684161668,3.1017221088,13.1980852711,-3.10855053,-2.8436385842,3.2645685147,-2.8888254354,-3.3441566989,-2.720654081,1.4337032081,10.8437787762,-1.5845214866,-0.9705895703,3.9343351683,-1.7745848298,-4.0459004283,-1.0703424921,-1.8469560766,-10.119053226,2.2605398722,1.6067849625,2.3239040001,0.6847048738,6.1760066715,2.078297869,-1.4558575334,2.2135063534,-0.8888946252,-0.8660191575,-8.4745644735,-0.4185028478,6.5689961416,-1.3517398882,-1.0381141816,7.6711611202,-0.1254844779,-1.376091374,-3.9562480755,0.0487753973,1.2395973271,-1.5846082831,5.3676783956,-7.0764249264,-0.6431839164,-1.2531019329,-0.2690465299,19.1697148757,0.8560706045,0.5476828033,-0.6219177939,0.6336169938,0.9170680479,0.9508364135,-1.742538521,0.662906104,1.5998291183,0.701964969,0.9756830529,0.4508690524,-0.0369126706,-0.3522564493,3.0482650023
biasActivation=1,1,1,1,1,1,1
[BASIC:ACTIVATION]
"org.encog.engine.network.activation.ActivationSigmoid"
"org.encog.engine.network.activation.ActivationSigmoid"
"org.encog.engine.network.activation.ActivationSigmoid"
"org.encog.engine.network.activation.ActivationSigmoid"
"org.encog.engine.network.activation.ActivationSigmoid"
"org.encog.engine.network.activation.ActivationSigmoid"
"org.encog.engine.network.activation.ActivationLinear"
