encog,BasicNetwork,java,3.4.0,1,1573295465286
[BASIC]
[BASIC:PARAMS]
[BASIC:NETWORK]
beginTraining=0
connectionLimit=0
contextTargetOffset=0,0,0,0,0,0,0
contextTargetSize=0,0,0,0,0,0,0
endTraining=6
hasContext=f
inputCount=2
layerCounts=3,8,8,8,8,8,3
layerFeedCounts=2,7,7,7,7,7,2
layerContextCount=0,0,0,0,0,0,0
layerIndex=0,3,11,19,27,35,43
output=0.9999998217,0.9992405111,1,0.9310235575,0.9999558889,0.0191833137,0.0000001428,0.9995332912,0.0000008298,0.9963810522,1,0.0000000665,0.9999962348,0.0018208697,0.9999882461,0.0111779263,0.0226022647,0.0004388906,1,0.999987727,0.3608580222,0.9838460552,0.0000008697,0.9999999999,0.0003197231,0.9999999735,1,0.9643724793,0.8515348171,0.0412264449,0.0028289133,0.0615444272,0.9633155165,0.9972362255,1,0.0000008581,1,0.7880769828,0,0.0000000138,0.0304944413,0,1,9,20,1
outputCount=2
weightIndex=0,16,72,128,184,240,261
weights=17.7966262358,0.9576288884,5.5253165255,-2.9756259934,-7.2033092509,-4.809687314,3.996878695,1.1247875498,8.105725234,-5.748680185,6.3856817413,-12.5935266312,-1.1817490152,10.1850053094,7.0918801504,-0.6236121343,-1.424698763,1.8941886379,0.0287259994,2.169299242,3.0700051037,-16.994285882,8.6803815433,-1.1150045951,-1.8958484451,1.2399224244,-3.3813834002,7.0582239639,1.5815395147,1.5818646248,-2.8991818623,1.6846930433,0.5338373916,-0.2028175145,0.1165127569,-3.5288827054,-3.2999457248,8.4109751492,-3.0177501331,-0.3547950392,6.9975441278,-10.2011151342,3.4102920821,-3.0238772743,-1.2939045063,1.631714591,1.4640114784,-2.5661727538,-3.1109961171,4.5758782274,-0.1219940377,2.3281903922,3.1492224402,1.4881328156,-1.4167470808,0.6973214325,-9.3347586062,-3.1147431783,5.9836483525,-4.6728465721,-0.5842539051,12.1213048326,-2.0171194401,-6.4919923551,-0.3464183729,0.5114997516,1.9806981349,3.2830668188,10.0652810008,-8.2197951092,-6.1717454113,1.8957995549,-0.8819481706,0.4225078462,-0.2949790886,3.0490932525,-11.659389225,2.293715615,-4.341068074,0.4933220214,-0.5619708692,3.8965380394,-0.5486171086,-3.1175305064,7.9943167595,-1.7754938518,4.9280385138,-0.736456405,-1.9944294165,-5.2187141881,2.9802947929,2.4652113456,-1.7745995848,-1.3002552363,-4.912722515,1.3265855977,0.8140963473,-2.09334386,0.4286537769,-1.9956101007,7.2381727691,-1.4485164473,4.9588111218,-1.325620001,-4.1277987248,-1.6303174957,2.6052675549,5.5542731377,4.1454132678,-4.6817074267,-6.4888717914,0.015255937,-2.4509022599,8.9271274249,-0.5205452726,12.0892800645,-3.9162372067,-1.4694350765,-2.3901864836,2.281622411,2.8148461625,1.6385012909,-1.1017976783,6.5245001353,-6.0560104284,1.5006093511,-4.3402415886,0.3428663466,1.7579836319,2.6239546067,-5.9457635046,-0.4641359181,-1.6210058821,4.123531745,2.8220458769,0.9380498866,1.292033802,-5.485648766,2.3808056072,0.8222923377,-1.6554787953,-5.7805342797,7.5201150374,0.9241314308,0.1016414149,1.8809655092,-1.6443103384,0.4542628909,2.458074644,2.1139589855,-1.1065954957,1.3919281815,-7.8432407677,-1.5376763075,11.8632161511,9.0910433394,0.1110605454,-8.5874085607,3.8078514651,-1.1284808063,9.5495311104,1.7165133834,-5.005454628,-8.9890352283,0.8286922175,3.662539064,6.6216259313,2.4057793617,-3.3436426279,0.3469789922,2.2504291422,5.1975255403,-3.3063467699,-2.690907657,-1.467353537,-0.9671853483,6.9269797702,0.9487683761,-7.9300083421,-8.5841582749,-1.0605221211,5.4077245809,4.1259812425,1.0508850965,-0.3496068103,-0.6189581972,7.560109546,-0.6780328454,-0.9927217217,-7.7771359438,-2.4987465237,-1.8034711783,0.2699439918,-0.2860252727,5.3610911413,-0.854579147,0.1505626269,3.8168071282,-0.7269623814,-2.3086289767,0.6191428816,4.3463966466,-15.1712669779,1.2044995017,-0.7909873832,-2.0262535628,3.9876540736,4.5249436046,-0.633484616,0.1941507315,-10.2013856471,0.314534399,-0.3775882783,9.9993775089,2.1582410488,1.6753718907,0.0509077336,-3.398233588,0.3476304233,0.7781049617,-0.8382043906,1.3119496817,1.9556385106,0.3597906393,0.3556716375,-1.7175790999,8.4646177495,-1.2881528224,-0.415015746,-2.9097357691,-1.3544956274,-1.596433724,-0.5711097261,5.5245866704,-3.3829073368,-0.9900333467,-0.5216592282,-6.2540962448,-3.5015911451,3.2205107642,-0.6686591706,-0.3987054497,0.0234766829,-1.2755585466,3.8342645204,0.4540675209,-1.7255958414,-0.1926925304,20.6975858767,-0.4683215003,-2.6428985725,-0.6580337551,-0.4145938321,-0.7266405437,0.1638488059,0.759837956,-0.4951333092,-0.3951172132,1.8679367324,-3.0261484302,-1.5379693969
biasActivation=1,1,1,1,1,1,1
[BASIC:ACTIVATION]
"org.encog.engine.network.activation.ActivationSigmoid"
"org.encog.engine.network.activation.ActivationSigmoid"
"org.encog.engine.network.activation.ActivationSigmoid"
"org.encog.engine.network.activation.ActivationSigmoid"
"org.encog.engine.network.activation.ActivationSigmoid"
"org.encog.engine.network.activation.ActivationSigmoid"
"org.encog.engine.network.activation.ActivationLinear"
