encog,BasicNetwork,java,3.4.0,1,1573295522751
[BASIC]
[BASIC:PARAMS]
[BASIC:NETWORK]
beginTraining=0
connectionLimit=0
contextTargetOffset=0,0,0,0,0,0,0
contextTargetSize=0,0,0,0,0,0,0
endTraining=6
hasContext=f
inputCount=2
layerCounts=3,8,8,8,8,8,3
layerFeedCounts=2,7,7,7,7,7,2
layerContextCount=0,0,0,0,0,0,0
layerIndex=0,3,11,19,27,35,43
output=0.9998194693,0.8791193897,1,0.6571205278,0.0000190315,0.9993812324,0.2197872642,0.9855010801,0.0000000012,0.9991987467,1,0.9999999954,0.998372344,0.1637829705,0.4500126047,0,0.0008769922,0.0000337306,1,0.9999995987,0.9999959122,0.0396842865,0.8609095011,0.7052850813,0.9118428862,1,1,0.999864987,0.8831159682,0.4091987828,0.9981578846,0.7704849549,0.9999115838,0.8822842265,1,0.1304719547,1,0.9999999993,0.0000000001,0,0,0.0000000714,1,9,20,1
outputCount=2
weightIndex=0,16,72,128,184,240,261
weights=-18.7136455314,-15.4705959767,-7.0316542888,-12.609452732,2.9233968537,4.1253611495,9.9561812571,17.8863300739,8.7782539938,-3.0919185202,-25.7568665438,-0.0669407211,12.1549068761,-4.2801006742,18.1504625892,-8.1431462814,-2.3159102888,-0.7622875861,-8.4205778143,2.5730094581,11.1889479305,2.2445472737,3.7906412299,3.9466098315,0.3676204158,-10.8750522552,14.1366205555,-2.356284633,-10.5084684221,0.6094092333,5.0008080461,-1.6353459121,3.9798709305,13.8660820581,-2.3827566369,-16.1444984584,-6.7958665289,5.4056078772,-3.2925862167,-2.7853688024,-3.8170726761,-9.1454067502,1.6014562716,19.2106332437,-10.0283553328,-1.3735160861,3.7875777321,2.7744457455,-3.2721863523,1.968817526,0.3278484612,6.8636138503,-20.6527578341,4.4204985881,-5.6899410202,2.3795558782,0.1355127884,-19.3850070635,-1.6120724772,-0.7278195401,-0.6917365201,6.0246810377,3.7262952607,-0.7137992944,4.8548614076,2.7695642097,-30.8622846311,1.3810306043,-2.3537711298,-1.1711941001,-2.3015507186,3.942954369,13.0980972089,10.9765601414,-1.3776449468,-2.3736902708,-3.0702757023,-1.4504062809,1.7070204173,-1.0064768415,-2.4852956356,-4.2474978743,7.5940325024,10.7143743518,14.3736762349,-6.5337888955,-1.7363616897,1.182901286,-3.7597877624,-11.974129822,4.8688656335,1.6648461182,3.4839988153,13.4741509477,-3.373113818,1.1066145854,2.360819068,1.8679473825,-2.8781276174,-2.4372843283,5.6796863247,-8.8158996036,3.3719801295,-1.5559427799,-11.5537575447,-7.935215399,3.835501596,3.4139819603,2.5652849794,-3.1024117867,-12.2839153566,3.2759332211,1.4021552756,1.7942817032,-7.5524924979,-7.0782071592,-7.9946624446,2.573891079,0.7434255033,-1.2930467625,0.0443724346,0.1089427778,-5.7196351723,-4.7669473269,-8.237248607,2.9010302074,-0.7756067141,-2.1795655014,-3.1616108386,3.635740276,-10.3352717188,3.2529277755,6.595205153,10.8251710298,2.1105539729,-2.106719272,-3.1306430969,6.7325451741,-10.0710289609,2.7051726376,6.4814940882,5.8229041064,1.0745626435,-0.7513773407,5.4260992715,-9.4982561929,-1.2869414211,2.5339808534,-2.2688669994,-1.4024498365,-0.9091708604,1.7262909701,9.8687792351,-5.7077416672,2.5223891706,0.3508725088,-2.4443136189,-1.6466333694,-0.2681055972,-0.6200291666,8.4508342158,-5.0048468665,5.4989878002,-0.014488088,-7.0004785101,-1.381558926,-0.5679528383,1.8833387807,-3.3551811284,5.5635663203,2.3317170534,-4.4957048463,2.3535193829,3.7789777392,-4.2686810899,2.4852835335,-0.3163285563,4.0363033882,-4.4205833002,6.5511973398,2.4318282645,11.8160933759,2.3159887174,1.4817149945,4.4771892531,3.1078095366,2.7337602677,-0.3099289516,-12.0393977817,0.778314955,-0.6684326265,2.4842873116,-16.4417599265,1.2618150325,1.2901403418,-0.9664513475,-4.2658600007,0.1310771536,0.8652211458,1.6155073861,12.8472099577,-0.4130333409,-1.5551090652,0.0766260661,-3.0533654326,0.2243877015,0.0449170211,-0.0753367453,-8.2912713215,1.7118165254,2.7446406136,0.3134788737,3.5094978456,-0.0156214655,0.4752143829,2.9203180794,-10.0552130601,0.5005048198,1.5922958432,0.1234625088,-1.6518914595,-0.6626952214,0.8537307865,0.4301741249,-14.1953116612,3.2787493807,3.4646017447,-0.7870402275,1.395605523,0.7825934861,-0.3809660982,4.4421059757,-4.2716191683,1.8756453914,0.3249282645,0.0328271864,-3.2385948568,0.1844719063,-0.78039552,0.3709941398,1.7064679303,0.2603717313,-22.4624382895,0.8729301161,1.8584075004,-0.3373636116,0.8036438304,0.7417612413,-0.9417677677,-0.7799354695,-0.8564240004,0.5334277363,8.4588063007,-10.4429387072,-0.9316629916,-0.7222601089,-0.9799758177,0.1403192955,-0.9854115253,-0.4212679252,0.8396398254
biasActivation=1,1,1,1,1,1,1
[BASIC:ACTIVATION]
"org.encog.engine.network.activation.ActivationSigmoid"
"org.encog.engine.network.activation.ActivationSigmoid"
"org.encog.engine.network.activation.ActivationSigmoid"
"org.encog.engine.network.activation.ActivationSigmoid"
"org.encog.engine.network.activation.ActivationSigmoid"
"org.encog.engine.network.activation.ActivationSigmoid"
"org.encog.engine.network.activation.ActivationLinear"
