encog,BasicNetwork,java,3.4.0,1,1573988425929
[BASIC]
[BASIC:PARAMS]
[BASIC:NETWORK]
beginTraining=0
connectionLimit=0
contextTargetOffset=0,0,0,0,0,0,0
contextTargetSize=0,0,0,0,0,0,0
endTraining=6
hasContext=f
inputCount=2
layerCounts=2,8,8,8,8,8,3
layerFeedCounts=1,7,7,7,7,7,2
layerContextCount=0,0,0,0,0,0,0
layerIndex=0,2,10,18,26,34,42
output=0.0000779068,1,0.9999998672,0.4553691585,0.747353368,0.735652209,0.0266934749,0.0000776969,0.8464600455,1,0.9972735437,0.9803532503,0.9999970719,0.0223976346,0.5128658296,0.0547179825,0.1879111261,1,0.9714452527,0.9972181507,0.9316646003,0.9881938839,0.0004304066,0.0029519453,0.276560218,1,0.996346169,0.537901118,0.8741342805,0.9995850745,0.7162182443,0.01412493,0.3079134766,1,0.7657981355,1,0.0000791942,0.0000004834,0.9999999968,0.1593782526,0.9999999983,1,11,15,1
outputCount=1
weightIndex=0,8,64,120,176,232,253
weights=-8.9975422223,-7.2771537115,8.6504608123,-1.9417221048,12.0816037694,5.9100923637,-3.8031538016,0.7111532379,4.9788922207,0.3893389517,10.4405227096,-1.5769146726,-0.3078505203,-3.0035268056,-5.3714905047,1.4140233946,0.5635330267,0.3841140719,2.414952427,-1.6692660695,-6.5706185734,-1.6757270717,2.6001029374,-0.5221717057,-0.8133789217,0.1481197859,-0.0558392109,1.3421294591,6.4416387612,-3.5179899633,-3.1257578415,-0.7475580077,0.1210254354,1.2624646564,0.2063520094,-1.0295951163,-1.4755712272,-0.0955213646,0.1700060889,0.2118948967,-0.901305134,-4.4336434801,-2.4245719786,0.7108585367,10.4776797268,4.7830117901,-2.5242865227,-1.10327116,-1.7768792082,-1.0446843438,-5.8520069534,2.6142879936,0.8148154813,1.7618727352,2.0932647256,-1.7806323664,1.1945566121,1.7252579202,-0.4722862324,-0.7785182892,-3.3013841356,1.0711094996,0.6207513122,0.8320741647,1.499278572,1.3929743397,3.8483982061,-0.3781974344,0.3682022365,0.1847395102,-2.4092920152,0.5103825745,-0.0011752941,-0.2673310135,1.0071369394,2.8949569202,-0.1026942718,-5.9098425362,-1.0344764264,0.6822223252,5.3696889379,1.9193120804,8.2907156088,-1.2209013075,4.0375391219,1.6056467346,-4.633224341,0.3680420541,-1.6579259788,-1.3284515695,-2.7861122797,0.8669541187,-2.4712476711,-0.322747964,1.395107994,0.514381116,-5.3045620882,7.3407943482,-4.7309009556,8.1268822842,-2.0079674897,3.4507673939,-4.59778652,-4.4768868375,-0.0527767012,-3.1544557376,-7.9370255366,4.1071940182,-1.8333764139,-1.1104449851,1.8461871025,3.1770861603,-0.5178572608,0.2583119633,-6.3535723738,2.8911961053,0.2456417972,-1.4707559374,4.8654072134,0.5028298757,-0.3680408344,3.5584163833,0.3260000008,-0.7571003914,2.0994731876,-5.1987836853,-0.1979503008,1.0821031315,-5.167526732,6.3010625188,0.5113758756,1.2721830203,3.8018099644,-10.1793975151,-1.1602912964,3.7006111214,4.529405526,5.4602389751,-5.1781747817,-2.4606073503,2.7066044627,-10.0364333434,-1.4823866263,0.8083181665,-3.126456971,-1.4495380989,3.6034980346,6.8208155333,-2.1417233068,10.9611185695,0.6940306368,-0.4805088805,-5.3023040541,-2.5403064892,-1.68689872,3.6165917212,-4.117557877,1.7433051131,2.865166752,-1.1992782182,-3.1571487045,2.1809769405,-5.3598359879,-0.5660031672,1.7353224217,-8.7833796788,-1.0200629968,0.5963993579,-0.9540538978,-4.1552966722,3.5993640538,3.2077935145,-5.8954888002,3.2396417867,2.1253374046,-0.6063951867,10.8567949376,-1.1844446598,-3.2699601562,0.9609679291,4.2735078655,-4.0967698127,-2.903949161,-2.2377142866,-5.9402633826,4.7879431664,4.0857766407,0.8035547736,-3.3163784471,-1.5989885639,-0.4168249993,3.9007187856,5.7020245254,-1.0824713126,-3.8247090974,0.6336979494,-0.7690033304,5.8644681635,-0.7344178174,-0.7770550112,7.6304278939,1.0227233034,-3.5681949796,-0.9242054675,-1.5784939031,4.7709883291,0.6603227392,1.0789681031,-1.0077656051,-0.3723984201,4.2196840722,0.5070486598,3.2662603422,-5.1226224639,0.8464116468,-1.2266488841,18.3009250328,-5.4155610575,3.6520109382,-0.220563235,-5.4904746934,-4.5055366032,-3.1078264828,-3.5287449434,0.8156112837,0.1562785816,-2.8109186023,0.180503827,-1.731769062,3.7908463724,-0.0609236692,-0.4020275641,-1.257526174,-0.1631247751,17.464394733,0.8591629749,2.3379174599,-0.6285918798,-2.5345905161,1.307549491,-1.1762746692,-1.0901821749,-0.1167872111,-0.7985516211,-4.5371474385,4.6316575851,-0.00752512,8.4080932958,-6.3137135196,0.5538150706,0.8109034726,0.7849246231,-0.5151265818
biasActivation=1,1,1,1,1,1,1
[BASIC:ACTIVATION]
"org.encog.engine.network.activation.ActivationSigmoid"
"org.encog.engine.network.activation.ActivationSigmoid"
"org.encog.engine.network.activation.ActivationSigmoid"
"org.encog.engine.network.activation.ActivationSigmoid"
"org.encog.engine.network.activation.ActivationSigmoid"
"org.encog.engine.network.activation.ActivationSigmoid"
"org.encog.engine.network.activation.ActivationLinear"
