encog,BasicNetwork,java,3.4.0,1,1573295580449
[BASIC]
[BASIC:PARAMS]
[BASIC:NETWORK]
beginTraining=0
connectionLimit=0
contextTargetOffset=0,0,0,0,0,0,0
contextTargetSize=0,0,0,0,0,0,0
endTraining=6
hasContext=f
inputCount=2
layerCounts=3,8,8,8,8,8,3
layerFeedCounts=2,7,7,7,7,7,2
layerContextCount=0,0,0,0,0,0,0
layerIndex=0,3,11,19,27,35,43
output=0.9729935704,0.9997891837,1,0.1167959599,0.9889426419,0.9992263818,0.0003150711,0.9999293391,0.3472558459,0.000003147,1,0.9999972241,0.9999303008,0.0009088427,0.8549411362,0.0000101044,0.997114909,0.0025137538,1,0.9929902535,0.0075826768,0.0019253406,0.9999998127,0.0491368783,0.0017309628,0.0499876894,1,0.2623564462,0.0072276649,0.5896123336,0.8124882066,0.9672678255,0.0283672053,0.191647219,1,1,0,0.0000118699,0.9999752758,0.3059695322,0.1146389403,1,1,9,20,1
outputCount=2
weightIndex=0,16,72,128,184,240,261
weights=7.1517553142,2.6934702495,-0.3048425094,-9.0940738253,3.2711261546,-9.2475651567,-0.1652499325,0.3331673143,-8.0371881752,6.5707939594,7.6357776572,6.5583633096,-6.1365101374,-7.1284248742,-10.8671570251,3.8844464674,-2.6549836762,-1.6882924297,0.2757458385,6.274986382,4.4014976057,-0.9590712142,8.1481798725,-2.1091940891,-0.2879730934,1.5858879767,-3.0805012346,4.1425642625,-7.1237895464,-2.2767769278,-0.8122350483,1.9292081454,-0.3147140116,6.7609751983,-0.7276538325,-0.0249850342,-1.0677935581,0.6176328155,0.4953089722,0.1228042361,-7.0920035063,-1.5704056163,-3.9227903259,3.5121668375,6.7927207692,-4.1710715898,7.8406443316,1.7400118102,-0.3249331941,4.8448905462,-4.2382028997,2.914874146,-0.2273372917,2.8747624835,-1.2790299925,-0.3135177433,5.4121597565,-7.0983738875,-4.9748339114,-1.6535030332,2.2497346461,1.9378388756,2.5919667105,0.5339937385,-9.6967295179,-1.9994215629,-1.2551054608,-2.7890980645,3.7775061201,1.1815041024,4.5051304313,0.2231383753,2.8706783209,2.1556608392,-1.4181565394,11.3483302352,2.5117286268,-9.889820629,2.182461945,-1.6333584474,8.8972815764,1.7805599689,-0.3996091633,1.3943294984,0.2367773454,-3.0066301538,3.1020142984,-0.8322161565,-1.1684951632,4.5192861736,-0.6765380275,-4.9925419748,1.8516742675,3.5875077375,1.2226939562,-1.0408646746,-2.7714832213,1.0415055557,-5.9150934134,3.4538540819,1.1162520672,-0.0198912068,4.0206872361,0.819786988,-1.010762291,-0.9879286236,7.625637672,-12.0622775185,2.4057086098,2.1915534035,2.4581379655,1.3113512178,2.4035403303,2.4340254684,1.3473255422,4.449118222,-0.1211316383,-4.6681829005,2.915572772,-1.1432607007,-2.9748690029,0.9369431087,7.4631346152,-4.151457173,2.2863499545,0.0565766335,9.1191160048,0.5322519605,3.9072752024,-5.5327669632,-3.887735,2.9328149643,0.5892214177,0.0335449069,3.7972088099,2.5790773982,2.9670031359,-0.16740178,-2.384510044,2.5973621376,-6.8538737044,-1.182555328,2.0146333685,-0.0788910594,4.8270707814,1.5011377433,-3.4551414405,-1.6551764608,-7.1879734634,4.1951178081,8.0759873671,1.1399684607,2.0213168506,-6.2572823368,3.5195015633,4.810518102,9.0765749312,-6.7779965205,-3.3035599199,1.0675154729,0.933781658,-0.0029262928,-0.6098612916,0.000302876,-2.8589701331,-1.5090468248,1.3659698548,-0.3019741725,-0.969339999,4.7329910139,-0.285518324,-4.8709324522,-1.7548456008,6.5781896509,1.6183485103,-0.8106717926,6.1234965295,-2.3812366665,-4.6178327745,0.9766202422,-3.0116788629,-3.1630570788,3.4422837951,-0.2616644207,0.2592843335,0.2018727859,-0.0222055229,-1.5722158035,5.8204338138,-4.7447975706,-1.239306017,0.2815053752,-1.6101555629,-0.1205649458,-0.2396336606,-2.9064970302,-5.9010346588,5.786544576,3.6421703351,-2.9059986402,1.275791144,-0.7322811549,0.7182314679,-0.4398720352,-5.5659729955,0.1303189614,-1.1980844316,2.4125874665,2.0256380289,0.2420129335,-0.8194579809,1.5666328838,-3.8023343423,-4.9579482159,-1.3986322954,1.0044418909,2.3985411778,0.3186792107,0.2540970522,2.318502292,-8.5401187107,5.0952703403,-1.55600621,2.2540336802,-1.921986138,-0.5096628328,0.6994046363,-3.9584717919,7.5263439115,6.7755841457,1.2135177124,-1.9464878831,-1.4564891194,-0.9953848064,0.7270004791,0.2608358854,8.3605807019,1.7812178181,-1.434952954,-1.5710181747,1.065472977,0.8998785024,-0.0160413487,-0.9962810841,-0.9844245026,-0.653282646,-0.91338198,-0.1386641656,-0.3477688278,-0.6115058127,0.8538008464,-0.9647633029,1.3456054319,0.1724097658,-16.3776745356,1.0729901679,-0.5719706148,-0.2617072134,-3.2990302519,5.9050906286,0.0845002716
biasActivation=1,1,1,1,1,1,1
[BASIC:ACTIVATION]
"org.encog.engine.network.activation.ActivationSigmoid"
"org.encog.engine.network.activation.ActivationSigmoid"
"org.encog.engine.network.activation.ActivationSigmoid"
"org.encog.engine.network.activation.ActivationSigmoid"
"org.encog.engine.network.activation.ActivationSigmoid"
"org.encog.engine.network.activation.ActivationSigmoid"
"org.encog.engine.network.activation.ActivationLinear"
