encog,BasicNetwork,java,3.4.0,1,1573295634598
[BASIC]
[BASIC:PARAMS]
[BASIC:NETWORK]
beginTraining=0
connectionLimit=0
contextTargetOffset=0,0,0,0,0,0,0
contextTargetSize=0,0,0,0,0,0,0
endTraining=6
hasContext=f
inputCount=2
layerCounts=3,8,8,8,8,8,3
layerFeedCounts=2,7,7,7,7,7,2
layerContextCount=0,0,0,0,0,0,0
layerIndex=0,3,11,19,27,35,43
output=0.1787679569,0.3287642422,1,0.0002187375,0.000000007,0.9974837021,0.63256961,0.0000034066,0.0000096158,0.0000000094,1,0.0265925297,0.9370621815,0.9902950849,0.0398278513,0.9999919557,0.944364591,0.9989971344,1,0.0000000116,0.3624974636,0.0000000974,0.0798930051,0.999997495,0.999778957,0.581980615,1,0.5080263085,0.9566991065,0.9832695349,0.9735741205,0.7866798779,0.0105178913,0.0072382345,1,0.000053381,0.0000010048,0.0000000017,0.9082879777,0.6687220122,0.0000313345,1,1,9,20,1
outputCount=2
weightIndex=0,16,72,128,184,240,261
weights=9.9922584044,4.5482614027,-0.2066598606,-2.4723828133,-5.5010622284,-10.0150474056,-7.3434714176,0.2433064036,-7.4146920426,-12.0871008002,-9.8258524883,9.8476245852,8.5941660688,4.2550664638,1.3995558151,2.8595918999,9.7355158713,-3.0638134883,-5.3734619753,-4.6606767294,6.5010142979,-9.5578751117,0.2845152443,1.9325369085,6.4502291763,-1.2752851716,-5.4717040154,3.2386490634,-6.5863929344,1.3354676743,-9.4431230601,2.2983856284,-10.0980948554,-0.0972953739,3.3180718379,-3.7226635074,-1.7039312231,2.5185094256,5.3564445932,-2.8209981776,0.5457679208,5.533269744,0.3705041831,-2.3802421984,-0.087910928,4.4561477183,-5.403617267,-3.6505030539,-0.3393286266,1.2899699569,-0.4602771783,3.5623728169,-1.8020311499,-8.7877391023,-2.3579516911,-1.01918308,5.6784203856,-2.7072780565,-2.9446249378,2.5124452204,-0.7268729264,0.4966341753,-8.158879075,2.0583341972,1.080741859,-9.0766961973,-1.3241010628,4.4662871952,-4.8254658147,-2.4878740513,-1.344349805,-0.3531752802,2.7021099759,0.6068105915,1.7373464083,8.9993562373,-4.2205280689,-4.3119882191,5.5631966844,0.7547544044,-10.4367663579,-5.8040667491,5.3903148823,-2.8239585993,1.7621363563,0.5206979851,4.2230039072,0.2897547805,-1.1036671407,-0.8665363918,-1.3251569619,-2.7859569127,3.0501829668,3.6584033215,-0.8579260678,-1.0464072946,-7.7182535062,1.6989123842,5.4589185889,2.5112951744,0.2630085179,-4.9737158144,1.3212715256,-0.0583787974,-8.1806267027,1.0380550287,9.9707657026,-5.5739783554,10.7670663688,3.573365975,-3.2357602934,-0.6569027521,4.9353129908,6.9207625384,-7.6908620745,0.1467057507,2.7589767078,-0.5988065147,-4.8904222034,0.9970487998,-2.1827591585,-1.2790689655,-2.3397361004,-7.9065363887,6.0508961824,5.542811332,-5.1738487388,-0.5821606361,-4.2169714007,-9.7487706329,-7.1492282972,-0.2982658603,-1.40894165,13.1038936457,0.2420107742,1.4886168834,-3.6977533827,-3.0467499978,1.1188721472,2.5153947918,-0.6655085103,5.9344409142,-1.0470240749,1.1484650103,0.7245326647,-2.5390057229,-2.0111314081,-11.6077407419,0.2470743013,3.965301799,3.55634404,-1.0670072353,0.3144908899,0.4103833914,-1.0798461355,-5.6054298387,0.3629420913,3.7108907902,8.3180671753,3.1381383969,-0.7619510137,1.6815986572,6.3110332205,6.5962388481,0.8969563931,-7.6967871003,-9.5572303762,-1.5073405797,0.5860141007,0.4831636859,-0.0030092203,9.8492923197,-2.1650843862,-4.2598406975,-7.1028202406,-0.1296332647,3.1115766393,0.8792838956,0.1666615813,-4.3237757694,1.4843396483,0.2206021152,6.9417417375,0.7343130011,4.3884770157,-0.2844767343,0.9963413919,3.240227366,1.4839710422,-0.8527274333,-1.9008390105,-2.0026839178,3.3321122697,-0.5377700533,0.315850792,5.1486985282,7.425861189,0.7479443893,-2.6192093579,-3.9280135625,-2.6351512309,-0.2983521266,0.907092773,4.5001726909,7.3374894804,0.5743467856,-2.970046821,-1.9503717323,-4.5631147597,0.7828885321,0.6130036492,-1.611743731,15.4255545188,-0.6042141734,-2.7039312338,-2.5406572964,-1.00695173,0.4925588335,-0.4208927384,3.400225953,-0.7665920511,0.4341067126,-0.9085565582,-0.362123717,-2.0514403733,0.2120994758,-0.196858755,-9.4045295729,-9.7613791071,0.1071435414,5.408822535,5.1168496875,5.258442426,-0.6367728926,1.0366259864,-0.480646578,-11.2725748983,0.7535338252,1.660576864,1.3927905406,1.0925363413,-0.9969360197,0.2678917584,-0.7072281287,-0.3849659921,0.2536267354,-1.3109675969,-0.3995232871,-0.3860944744,-0.8276513468,0.5301462294,-0.8611544566,-1.246924448,-0.1665316974,15.2553645604,-0.8894139378,-0.0727731867,-0.9105697577,1.9062948492,0.8769780463,0.7536258968
biasActivation=1,1,1,1,1,1,1
[BASIC:ACTIVATION]
"org.encog.engine.network.activation.ActivationSigmoid"
"org.encog.engine.network.activation.ActivationSigmoid"
"org.encog.engine.network.activation.ActivationSigmoid"
"org.encog.engine.network.activation.ActivationSigmoid"
"org.encog.engine.network.activation.ActivationSigmoid"
"org.encog.engine.network.activation.ActivationSigmoid"
"org.encog.engine.network.activation.ActivationLinear"
