encog,BasicNetwork,java,3.4.0,1,1573296152964
[BASIC]
[BASIC:PARAMS]
[BASIC:NETWORK]
beginTraining=0
connectionLimit=0
contextTargetOffset=0,0,0,0,0,0,0
contextTargetSize=0,0,0,0,0,0,0
endTraining=6
hasContext=f
inputCount=2
layerCounts=3,8,8,8,8,8,3
layerFeedCounts=2,7,7,7,7,7,2
layerContextCount=0,0,0,0,0,0,0
layerIndex=0,3,11,19,27,35,43
output=0.1552394105,0.1321156997,1,0.9484159506,0.9964044561,0.4810560543,0.4200469699,0.0000730321,0.9858801896,0.3308051782,1,0.6121499563,0.1033179183,0.9999983872,0.7552900317,0.220527841,0.9999993017,0.6843433186,1,0.9994350555,0.3541865239,0.9999538704,0.3329283677,0.9999999746,0.1152156097,0.6441138756,1,0.9960600991,0.9996600181,0.5981960553,0.999996749,0.2020093872,0.2474718342,0.9777919216,1,0.0004673298,0.9999999999,1,1,0.299588689,1,0.9999999841,1,9,20,1
outputCount=2
weightIndex=0,16,72,128,184,240,261
weights=13.0452161913,-4.5563222329,-8.213463017,-3.3317108369,1.0448048786,-4.0619928533,8.4665990742,-2.9720577745,-3.3451765493,-8.7698717221,4.9138312516,6.480671206,-9.1635655787,1.4246967483,7.9462952237,0.9099764504,-0.7785073099,6.1024276334,7.06452442,-5.3610290035,-12.1007734423,1.0945142132,-3.3096415429,3.5812475746,0.6592457832,-3.697465777,-3.4799374797,-0.1285862288,-0.1713680638,8.1707960783,-0.8001257095,1.5945286795,6.1838305995,-0.0153999845,-4.4275046502,-0.0340360273,-2.9372996802,1.9657536434,-0.1129295398,-0.6471613659,0.4070514577,0.4251917494,0.1835554591,-5.7533147872,-3.4386916362,4.5964517108,-6.6664498737,4.2701982788,-2.5302360349,2.6039670574,-11.476138136,0.4432504276,0.654464138,2.7668329015,-2.1429462888,1.4519982238,1.3028100059,-1.188252307,-0.5500076952,0.969738854,-0.3819385166,2.488513517,0.9865327304,0.3093706316,0.5031535994,4.3321362527,-9.3639345486,5.0522289372,-3.2132447925,-7.7884290784,19.8075755762,-0.9702655025,5.6680834963,-1.7588921977,-0.0619454097,2.6883816456,-2.2177188199,-3.6385188009,-2.4353961771,-1.2130374956,-0.6673045714,2.0260693752,2.3773596981,2.4149603406,-7.9481036166,0.6071580634,-1.2919350604,3.3174743477,11.2690529405,-4.3776714194,3.9616288643,0.8890707148,-6.5031460505,7.9449376977,5.2464918304,1.5763654117,0.4860303015,2.6121960054,0.3507186406,2.6859398329,0.5046723298,0.8692461597,-7.0531989733,2.4093800297,6.5102308355,-7.1121049575,-1.3495948401,10.7662158032,-6.1960239861,-3.8617194621,-2.7216213142,0.9090079679,3.6183096879,-1.0895600145,0.2313978384,-0.2407152224,10.7210437384,1.6100834335,1.3364126578,-0.9744042121,3.0761902355,-16.9069381677,5.0447718885,8.180475366,-0.6822874894,8.1668805472,-11.3621861217,2.9793874506,-1.9815811846,-0.6542397512,-1.3832784991,13.4764832642,-7.8122773851,-0.0652079227,-0.7269061836,-0.2379050347,-10.7731811871,1.0738725746,2.2746986818,2.1948083557,7.1353565343,1.289238677,2.6760133667,1.1239808839,-1.0313956006,6.3448836976,-1.5904282755,4.4983118203,-0.4756016931,0.3372519269,1.6039650396,-0.4340222515,5.7711804515,-4.641870112,-7.84508509,-0.1299900852,6.4404389153,-3.5682710246,2.6421492802,0.01831316,-1.4593464721,3.9082470881,-0.5523994141,14.3135939008,-3.3742213325,0.1529023263,2.1365916882,-0.3924529417,-0.455373015,7.7711656533,-3.887683397,-1.2871470014,0.2563569872,0.124878322,-6.5311634594,0.5626847173,-3.1292537184,2.2092875036,-2.2289308629,4.6307910882,-19.5983152752,-0.4196869295,2.0781898447,0.235081842,1.0470296874,0.0314312834,-1.3334964075,-0.4571806337,20.8615472475,1.1977197913,-0.3619587002,0.2057637829,6.1926192568,1.3951054731,2.8494325597,1.524005395,-16.538312977,2.7793094548,1.6486261392,2.74159658,1.0368614074,1.3545047064,-2.4154846444,-0.0181124665,7.2319024751,-0.8107969283,0.3979541551,-0.277191271,-3.9851043754,1.2167146821,9.2671424677,1.8642148495,-18.332025661,1.6175341549,2.332957411,1.8319064942,-0.8037125289,0.1635455691,-4.1956766021,-0.2359486746,17.7270325176,-0.2123018992,-0.8397590809,-1.3640848244,0.6797168974,1.1028586542,-1.8122161528,0.1726764765,1.5954145595,-2.0117058189,0.453144554,0.5048148346,-0.4734701682,2.2200343179,-1.9774657267,2.439472612,-9.9754123748,0.7729652518,2.4985843359,0.8199920042,0.3661446225,-0.5583499068,0.2036885896,2.1223223908,0.180560024,0.4303953285,-4.0342452383,6.3142011625,-0.3358131734,0.501358855,0.959242077,0.9126698638,2.1252301282,-0.1889343043,-16.1976423204,-0.1791634251,2.2223445914,-0.0393032574,0.6179186925,0.6208739555,-0.0235011651
biasActivation=1,1,1,1,1,1,1
[BASIC:ACTIVATION]
"org.encog.engine.network.activation.ActivationSigmoid"
"org.encog.engine.network.activation.ActivationSigmoid"
"org.encog.engine.network.activation.ActivationSigmoid"
"org.encog.engine.network.activation.ActivationSigmoid"
"org.encog.engine.network.activation.ActivationSigmoid"
"org.encog.engine.network.activation.ActivationSigmoid"
"org.encog.engine.network.activation.ActivationLinear"
