encog,BasicNetwork,java,3.4.0,1,1573988758418
[BASIC]
[BASIC:PARAMS]
[BASIC:NETWORK]
beginTraining=0
connectionLimit=0
contextTargetOffset=0,0,0,0,0,0,0
contextTargetSize=0,0,0,0,0,0,0
endTraining=6
hasContext=f
inputCount=2
layerCounts=2,8,8,8,8,8,3
layerFeedCounts=1,7,7,7,7,7,2
layerContextCount=0,0,0,0,0,0,0
layerIndex=0,2,10,18,26,34,42
output=0.9386134302,1,0.0000027815,0.566801123,0.0000034688,0.9979083127,0.0000000001,0.2142646207,0.1373182964,1,0.9999961057,0.9812258382,0.1908451387,0.0027279038,0.8282523731,0.2233658206,0.999999814,1,0.0000371935,0.1460825581,0.5786935125,0.9224529721,0.9999999997,0.9443488136,0.0137110858,1,0.6149790847,0.9869322277,0.0251346981,0.0025604073,0.9837846286,0.9992956945,0.1205307119,1,1,0,1,0.0494067053,0.9999999999,0.0166772757,0.7319452491,1,11,15,1
outputCount=1
weightIndex=0,8,64,120,176,232,253
weights=15.2226573897,-6.6487667411,-6.4320680396,4.0546036363,-10.127637645,10.2871883934,7.5610257438,-0.7928493063,-5.9450284492,-7.1420046705,-0.5051466383,1.4573229441,-1.8689123778,4.1392534168,-2.0495608803,2.9257552682,-1.0765372421,-0.844138347,7.0673128125,-0.989131644,-1.4847945511,-1.1612266089,4.0931096043,-1.776374963,-2.5826593743,-3.3019981005,4.4487763002,5.3520287313,-11.7171465034,12.5618033419,-3.9442654583,3.2304768642,3.0358917346,-0.1074727583,-4.8782165861,-0.4411338651,-0.0065872895,0.8448673803,2.1289292015,1.8572654142,-13.4601680309,-6.6823549551,11.2439922199,4.4359567123,-2.3159392571,5.5272740156,-6.4687970671,1.7736969253,-0.5845226974,2.3514156692,-7.123354494,-4.4038321209,-2.9396669246,6.8202345664,-2.2728586541,1.5335501926,0.4653075046,-0.368921416,-6.6431556797,-5.1894371329,2.0313338704,-6.3180941216,1.1986461236,-2.1289411707,-12.6632417437,6.0223617216,-3.5735934275,2.5905472107,6.0168388452,1.8356371278,0.6595816184,3.4956965236,-11.4983611222,0.1239041549,-0.1371964612,-0.6715856429,3.3623224331,1.0135233076,-1.6934354095,0.3413262682,5.0280029711,-8.0783286647,9.4123402099,-0.9618265748,-4.9941348543,2.7678846492,4.1686991097,-2.5011036648,2.529763865,0.8475258866,-0.0875474547,-3.1664897298,-2.7781816744,0.2045886757,3.5815743534,-0.5179206626,-12.4680791221,-0.4721288994,-0.2397088386,-0.4293596523,1.2048410301,1.1992583414,0.0460937616,-0.160483859,14.0106021723,-0.6441807142,0.6437768193,0.5639527493,-0.9832651696,-1.1430479042,-0.6006425047,0.0255911184,-6.1533026431,0.5107871977,0.3699986385,2.0110561721,10.6430772497,1.1641779265,-3.8899568719,1.664619712,2.9914073841,-2.6439859706,4.3370505776,12.1544044362,-4.4114857619,-8.6632551313,5.1552733909,2.8060473774,-10.9973438844,-0.2988577933,2.113678509,6.8676053577,3.008972821,1.993740005,0.8818586316,0.1629076763,7.2534493192,4.3533094636,3.1185011468,-5.653324142,-1.8189106867,-6.1787685256,2.2039115857,-0.8054422448,2.7923393355,-0.7184773246,-1.888261432,1.6112031474,1.4703866738,0.1195101549,-0.4632453572,0.0012110164,10.1082953939,4.4981045681,-5.7136429022,-2.4952478268,4.1191296313,6.5157406315,-1.0459338949,0.9122704485,0.7868215924,0.4682803167,-1.5982743368,-3.6597519929,1.3366452863,1.085956294,-1.1121842978,-0.3312151234,-5.9124676324,0.1614858598,5.4253039594,-0.5776047237,-2.1840710842,-1.2037347413,3.8099737408,1.9583628783,3.5212496208,-1.9493506044,-1.1518446976,8.9725975938,-2.1478140896,-17.0694879441,0.5989299884,-0.3503181205,2.4517394774,0.0120054352,0.0833065423,-1.9173023478,1.1280142665,-5.1219357115,-0.5351082865,1.2332095073,-1.1803731762,1.0759397671,0.1846804469,0.5672847577,-0.4780730411,8.070555219,-3.6159388686,0.2997624763,-4.739753104,1.6695300975,0.1770360902,5.2539708037,-0.8819600656,9.9897570472,2.3860955239,-2.6930227597,0.1137892941,-0.5279138097,-0.4748586109,-2.0599998253,0.8193459654,-6.8835936953,4.8622554758,0.3048433064,3.1345238301,-0.5314680207,-1.1816787469,-5.9406757623,1.2339306022,-11.4781661113,4.6013579513,1.187809802,-0.9276823354,-0.3875301913,0.7835869087,1.1458319972,0.1870632961,4.5667534096,-2.8988829514,-0.0413311081,-4.2795904276,6.6556509286,0.1731995334,-0.488217641,-3.1491525235,-0.2889211693,-0.1951016652,2.1368848125,0.4875522526,-8.5597290536,6.052924406,0.4061533392,2.2713778505,-0.1559919311,0.7228170029,-2.4902541479,-0.1027372977,24.8569647792,-3.1327849392,2.9035406944,-8.087961624
biasActivation=1,1,1,1,1,1,1
[BASIC:ACTIVATION]
"org.encog.engine.network.activation.ActivationSigmoid"
"org.encog.engine.network.activation.ActivationSigmoid"
"org.encog.engine.network.activation.ActivationSigmoid"
"org.encog.engine.network.activation.ActivationSigmoid"
"org.encog.engine.network.activation.ActivationSigmoid"
"org.encog.engine.network.activation.ActivationSigmoid"
"org.encog.engine.network.activation.ActivationLinear"
