encog,BasicNetwork,java,3.4.0,1,1573296231749
[BASIC]
[BASIC:PARAMS]
[BASIC:NETWORK]
beginTraining=0
connectionLimit=0
contextTargetOffset=0,0,0,0,0,0,0
contextTargetSize=0,0,0,0,0,0,0
endTraining=6
hasContext=f
inputCount=2
layerCounts=3,8,8,8,8,8,3
layerFeedCounts=2,7,7,7,7,7,2
layerContextCount=0,0,0,0,0,0,0
layerIndex=0,3,11,19,27,35,43
output=0.298246002,0.316664185,1,0.8033567665,0.1251247787,0.9177639081,0.018067338,0.2827262509,0.8430716542,0.0008321866,1,0.181005124,0.7803678241,0.4565478786,0.0000003207,0.8473513452,0.9995234999,0.4018740305,1,0.9991469209,0.004020761,0.2850397895,0.6129338041,0.996498496,0.7043776848,0.579109953,1,0.609684405,0.5973473882,0.4506131713,0.9817340404,0.4336336818,0.6169169339,0.6858575849,1,0.1595137326,0,0.0000000018,0,0.3529050597,0,1,1,9,20,1
outputCount=2
weightIndex=0,16,72,128,184,240,261
weights=-9.6462863103,-0.2681220229,-2.5028650729,-1.8742304654,6.1259749975,8.4374492453,2.0147245074,0.4111705541,5.3142659521,-0.1728789585,5.4889229856,-9.8231886145,2.2735001425,-6.9556166677,8.005884809,-4.6621784802,4.5487788056,7.7462351452,-2.8875388462,4.9433974819,1.4295129492,-2.1376185134,-3.0147842901,-2.0056952389,0.5305453334,-0.1897342491,-0.9441076324,-0.0818787298,-0.4566156863,0.0607272785,-0.2280592502,-1.0438416966,-0.8870236494,-4.576731745,1.191768434,3.1190189042,11.14650603,-2.0514489737,-4.9796864078,0.2070067922,7.8721937721,1.3603841886,-2.2816967674,-4.4342964097,1.8494187997,-5.2626778008,-4.0526148161,-0.1185158994,0.0775649446,-2.7716062851,2.6619758357,1.0821373118,-0.9994172154,0.6863986317,-0.8345197594,0.4986922766,-1.5615139127,0.8313507438,0.2155866875,-1.2380534322,6.6172236852,-5.9412469628,2.5411485808,0.5268009944,6.040561481,-9.5989652973,0.1650205355,1.3266267133,4.8090346174,-3.7290707442,-0.5883324067,-0.8798229953,-4.1502884089,5.5056586598,0.4870765776,5.8059677303,-3.5956399295,6.9192043651,-2.2466592869,-1.0720722481,2.1309298616,1.5361009273,-0.5578123428,-3.892614892,7.8883077081,-4.013374259,-1.1306950066,-2.7015219455,-1.528900814,0.3290404892,2.0876700538,0.8920147614,1.5625486914,-1.1472759738,-1.2817602142,0.2035287514,-8.3892144038,2.4559620587,-5.4795461595,2.1236775755,-6.9665061522,2.3601990488,-0.8327310211,-0.5583550312,-3.9787321749,-1.1671972656,6.6036754498,6.3589274816,-3.213250266,7.2036458578,-0.3208294,-1.7721971714,5.0946335417,1.2401295894,-1.4743613277,0.3605613651,4.3311209323,-1.3954788282,-2.8154362309,1.04997958,-0.1818660784,1.7879680951,-2.9613669507,-2.543091742,2.8982125994,-0.4596976606,0.7744870147,-0.8330633139,-3.3941738942,0.8035974732,3.3389480479,8.9607860639,-6.3801099962,-0.2561004878,0.7052570214,0.7943876374,1.4347451902,-1.9048974404,0.8176374944,-5.9759663999,1.555796295,-1.3057583855,0.6774623666,-0.0844839773,-3.5275015795,4.5582950934,-5.7839006005,2.2593455579,-0.7156983041,1.9246775333,-1.2193109512,-1.1443373341,0.7304270787,1.84618672,-5.2395762802,-4.1980824516,5.2248545701,3.4172611774,0.7446333389,0.5093872973,-1.1938889651,0.3422479881,7.1370846557,5.0322017647,-9.0676419111,-1.2202055407,2.4043907759,1.0538922138,1.7683611545,2.0054216066,-5.8719755612,-5.0779141813,5.9088416462,3.9670785182,1.591785934,0.1219380465,0.2903932032,-0.6856303646,2.8417388416,-0.5433538381,-2.4913202027,-0.1564025111,1.2139902654,0.1487193185,-0.2742454488,1.3980650084,-0.6129918063,1.6256222103,4.6704436464,0.3942632457,-1.0360768609,-0.1224145921,-3.8359990923,-2.6754340096,0.2825784493,-1.2913264914,-1.0203315887,-1.2084239697,0.668262196,0.6981371663,9.8290421978,-1.6106118335,-0.9281144301,2.975844845,-4.9486233098,1.5003530524,0.7863984792,-0.8060650232,-3.0029935156,-3.5904216409,0.8159556594,-3.2312786088,-9.247414557,0.9999966528,4.676742554,3.0500167743,-8.9939145778,1.853820608,0.5679698443,3.3396798543,6.4091995096,-1.8455650747,-1.4808495671,0.3866225679,-4.0333884251,-2.7696791882,-0.1382460104,0.8199212453,2.0770932098,-0.3361259788,0.5181983669,-0.1313516898,0.7177960584,-1.4819397797,0.158670968,-1.9513255589,1.6987487064,0.8619826477,0.1084935321,-0.0416653049,-1.5210163172,0.3202815188,5.6216658811,6.3550775247,-7.766189434,-1.7270433278,0.0937042872,-1.0088766137,-0.8021928336,2.2830580485,-4.8784436496,0.017506672,0.1574451351,0.3684698193,-9.3926965572,-4.0633941772,0.5624796432,0.1828322507,0.6830243189,2.6683363388,0.1950843929
biasActivation=1,1,1,1,1,1,1
[BASIC:ACTIVATION]
"org.encog.engine.network.activation.ActivationSigmoid"
"org.encog.engine.network.activation.ActivationSigmoid"
"org.encog.engine.network.activation.ActivationSigmoid"
"org.encog.engine.network.activation.ActivationSigmoid"
"org.encog.engine.network.activation.ActivationSigmoid"
"org.encog.engine.network.activation.ActivationSigmoid"
"org.encog.engine.network.activation.ActivationLinear"
