encog,BasicNetwork,java,3.4.0,1,1573989087540
[BASIC]
[BASIC:PARAMS]
[BASIC:NETWORK]
beginTraining=0
connectionLimit=0
contextTargetOffset=0,0,0,0,0,0,0
contextTargetSize=0,0,0,0,0,0,0
endTraining=6
hasContext=f
inputCount=2
layerCounts=2,8,8,8,8,8,3
layerFeedCounts=1,7,7,7,7,7,2
layerContextCount=0,0,0,0,0,0,0
layerIndex=0,2,10,18,26,34,42
output=0.2787140967,1,0.999962061,0.9999998999,0.999997473,0.0381228957,0.1177442354,0.9999900987,0.9967388205,1,0.7502057115,0.0516836176,0.0002408033,0.6183211072,0.4790985459,0.9998628183,0.9998347951,1,0.2435870742,0.9999807597,0,0.6555192931,0.1074358698,0.000897317,0.0000000078,1,0.0022195177,0.9997810883,0.2418824462,0.0007199287,0.999996165,0.3556848018,0.9999990585,1,0.0000000023,0.0000000001,0.0000000027,1,1,0.9174453323,0.9999953358,1,11,15,1
outputCount=1
weightIndex=0,8,64,120,176,232,253
weights=9.3053493356,-12.7261357647,-20.1006049779,-5.2515238992,15.0639713592,12.976384119,7.750207542,0.2961624405,-0.3967451485,-3.2537150586,-1.5008508391,-0.2136851492,-2.5365358041,4.5415375012,8.7594646547,-1.3058956764,1.0626712715,-9.1862905444,-3.6812184656,2.4481591346,-3.5251155426,5.5296006163,13.3620101895,-2.9175541977,4.4423976359,-17.4335685691,8.5497970094,8.6204827257,-6.9206699229,3.5138247458,4.6071464639,0.3204486202,0.0172195448,3.0813372407,1.2874049426,0.8387212256,-1.6952698449,-1.5378400159,-1.8573318121,0.2877017842,11.9261062817,-2.4658667278,-5.3190588591,9.0369730696,-5.6505717434,-4.226085361,-4.4739641021,-5.0141143982,0.1036587557,-8.871450043,0.792803196,-1.2510713458,8.6495560305,3.8796738488,4.3824714395,0.2720727073,7.6263389609,-1.4901054186,-2.6385169701,3.9749393695,-1.8393959158,-0.2238335993,-0.3756958638,-0.8983741418,-14.572245338,1.8432246504,-0.6639141602,4.0418848672,-1.6885261891,-0.0985609446,-1.4577255305,0.3380943588,10.0255783035,-4.4009237548,4.3370597378,6.6560024823,-8.1560735046,5.3341545463,7.4689834217,-4.4424792098,9.219092579,-3.1944458989,1.3074412434,-7.1889918748,0.9354142214,-2.0648182946,0.745043347,-2.7686781015,-10.0927999069,1.1935396502,-1.9590115899,2.3990740263,-0.4543833967,-0.3444107958,-1.2430053852,0.2238739876,6.301873735,-0.9284447612,5.094115404,-1.7023241759,0.3192123515,-11.6438203758,2.8625247379,0.401777005,-0.2727172647,4.0464690239,-12.352376638,0.7041253603,0.1216904886,1.9957973869,-2.1477912113,4.4376734703,-0.6061765277,4.8234818723,-11.5320670321,-1.3907909947,-0.0286460689,0.7746967314,-7.329691916,4.9464991533,10.0714313592,-3.4899019387,-0.4695340856,6.4035993176,-1.4921900667,6.2726548639,-1.0702562455,2.7739847848,0.3076490147,2.6913903594,0.8233046284,-1.2935279381,2.8878674867,1.055465864,3.6793611899,1.0261637497,2.5586091354,-6.2546328906,0.0082274868,7.1358704757,-11.2185212098,1.3625223983,-11.2394602885,-1.8827898518,3.7766706661,-3.4737932047,0.3002383509,-1.0893172307,1.8112053521,-8.4426796807,4.2868292729,0.9411110629,5.3123394349,-2.0326452459,-1.5382380461,6.1056116866,0.8232818951,-0.6122204227,-0.3963221208,0.0616828753,13.4963353617,-6.3630641794,-0.3381989126,10.3567906428,-1.2706450985,2.8454971167,-0.3544761659,0.0038764886,3.8319208273,-3.2516404046,-0.3528691566,7.7693254056,-5.8493451293,-0.1990937955,-9.1480567435,-0.2836364755,-0.3113040813,1.4101436745,-0.8213070211,4.8668890813,6.5728491102,-19.5784120904,-4.1366428663,4.5507647881,0.5383767642,-0.4973709319,-0.5299116617,-2.4390483388,-1.1452250871,14.263215157,1.0028166203,-2.0776354666,0.4979959616,-0.1834574222,0.7283699853,-0.1585069811,-1.0251732676,0.8012342155,-0.3509332093,-0.3428633824,0.6542086321,0.9271129361,0.157496134,2.8140094308,3.0238287362,-15.3933430335,-0.7748350595,1.8239057312,-0.8780729643,-0.5805068316,0.2518595808,-0.6509722562,0.4187812381,14.2185963616,-0.3003408504,-0.040909597,-1.0028197536,0.8312501568,0.6170577897,1.8022902687,1.7549854218,-6.3070408032,-1.8276592995,3.4625971362,-0.8478443654,-0.082260317,0.5732294484,-1.5406982865,-2.4373609929,20.1315728518,1.26896013,-1.8847082787,-0.7304660218,-0.7437560279,-0.680168288,-1.7488162092,-0.2101624765,-0.4427540423,-0.8983435161,-0.6198065968,-0.5589143613,0.9486202049,0.8707058413,0.9620051422,1.5168268162,3.684491601,-0.7081934646,2.6681267177,0.1629246215,-29.3851309355,3.7043394764,-1.9788789858,1.2110453066
biasActivation=1,1,1,1,1,1,1
[BASIC:ACTIVATION]
"org.encog.engine.network.activation.ActivationSigmoid"
"org.encog.engine.network.activation.ActivationSigmoid"
"org.encog.engine.network.activation.ActivationSigmoid"
"org.encog.engine.network.activation.ActivationSigmoid"
"org.encog.engine.network.activation.ActivationSigmoid"
"org.encog.engine.network.activation.ActivationSigmoid"
"org.encog.engine.network.activation.ActivationLinear"
