encog,BasicNetwork,java,3.4.0,1,1573296536588
[BASIC]
[BASIC:PARAMS]
[BASIC:NETWORK]
beginTraining=0
connectionLimit=0
contextTargetOffset=0,0,0,0,0,0,0
contextTargetSize=0,0,0,0,0,0,0
endTraining=6
hasContext=f
inputCount=2
layerCounts=3,8,8,8,8,8,3
layerFeedCounts=2,7,7,7,7,7,2
layerContextCount=0,0,0,0,0,0,0
layerIndex=0,3,11,19,27,35,43
output=0.85915962,0.7689897024,1,0.4938583038,0.9251236807,0.9800518512,0.3747313653,0.0000000541,0.1318354423,0.8626671359,1,0.7386387537,0.9636312322,0.9998854625,0.2192125443,0.5841631509,0.9165387867,0.3219511575,1,0.9848997784,0.0956039888,0.0023350275,0.000986591,0.8039760103,0.8398414834,0.0264163357,1,0.03360259,0.4879163389,0.0686585621,0.9070447919,0.9517777305,0.9741787825,0.529834621,1,0.9999998361,0.9999999994,0.712629556,0.0000088801,0.9999957088,0.1352688704,0.9999980295,1,9,20,1
outputCount=2
weightIndex=0,16,72,128,184,240,261
weights=7.8328910986,2.8090993917,-4.8367839516,0.2807154637,-11.3708474465,-9.5693450766,-0.3329307523,1.525118903,-9.0128195351,-3.8687744326,6.5387890788,8.281342163,-0.1496516403,1.8502020287,-3.1541591868,2.1982021824,4.6707718255,-8.5406719315,-3.3926486499,-2.4072444817,8.298538035,-0.3022603893,0.3690277936,3.9859596875,-0.4093115123,-0.8165640526,1.5657360656,-4.2993531948,0.0138662584,1.3651017526,2.2711811274,0.9897268985,-0.4754300722,2.5871885147,7.3408219151,-4.8261321516,-4.2339546176,0.0848264434,-0.1641741308,-2.0810582593,6.6790936873,0.8987322751,0.2729469606,1.3236576908,1.0597752194,-3.8028729193,-4.1983409637,-2.6564743251,0.0529655347,-9.4116414147,-5.9333777168,-8.8723881041,5.495747002,-2.2832790805,0.7719527413,-1.1909564752,1.4063835999,-7.9520262411,-1.084784027,-5.7748212477,5.1736186272,0.4319819476,3.7821957138,2.4539098125,0.0408818191,-0.5142279658,2.049703156,-3.0175884143,-0.6258922697,-0.4568837256,1.3693814895,1.2584762452,-2.0155928081,3.3074776659,-4.7453552415,-5.7593296754,1.6727453845,1.2691975699,1.7923135642,0.2664986374,5.6758679466,1.3454405222,4.6431320671,-1.9564015425,3.5827799698,-7.6849506849,-8.1877969582,1.3392588981,5.5025560041,-0.7739581327,0.8160498612,-5.0604369922,3.0197697671,-1.2208394564,-6.3601202497,2.4976085262,3.5600296286,7.7333835283,0.5710232988,3.0044333912,-4.4554624827,-2.5748300693,-7.2858789001,0.4168268844,-3.7580634548,-2.7935417488,-4.3498158179,-0.1436918245,-0.0428276249,4.3303720909,4.795620079,0.5894991735,2.1066333121,-0.2500405724,0.7726072009,2.3864186948,0.3639046474,-0.5895676397,-3.8435927307,0.64525248,-2.6254762916,-0.9180965086,0.0466935434,-0.736593621,1.8526045237,1.4282056976,-2.6285881291,-0.6900754022,-3.3443945565,-0.0764783133,1.479990261,4.1384034487,-1.1364026468,4.4776568956,-7.1463491759,0.9781421031,-0.7072416914,-0.2849724521,1.3582535161,3.6986475699,0.4583707749,-3.2804096651,-7.6846044775,1.2986682307,-3.3023486562,0.3213961968,3.0600577636,-6.91325063,-2.4377696533,3.986377231,-1.5566594321,-0.7811692208,5.6637878398,-3.7682916299,-3.8147959087,2.3705080003,0.1964283995,-8.1268327195,-1.4028082892,1.3130749054,-3.1003161593,0.6238010079,1.739766189,-0.8945037167,-2.3002787221,2.6667262269,4.944996007,-1.1254907083,3.4687893489,2.4112839396,-5.2426863531,-0.6598509926,5.5158869687,-3.2474664994,2.0783012369,-1.8649876833,10.797085934,-0.7137534685,-5.7314991167,-6.0081120126,4.3335918254,-5.152749258,2.6042766522,1.7368308301,0.6979252262,1.9692010839,-11.7355891468,2.4989538392,1.4118827821,5.1265618275,-0.6131074157,0.8447725547,0.2397082834,1.479185745,2.0827658731,-0.2258398774,0.6732398274,-1.576534387,-3.8042466804,0.0927817117,-1.3263758926,0.2728808952,7.4904123019,-1.2667681852,-1.1747603858,-0.1365753726,-4.3239323753,-1.3747096754,-0.4608499027,1.2101855265,1.933332772,8.928528947,0.6628482787,-6.7198871101,0.8548993942,-0.4578425753,2.4284218685,3.3367372588,-5.140338645,0.3082936538,0.9623508996,-2.7197097907,-1.0189268935,1.3049765616,-0.1990362711,-2.1127684004,10.4293300784,-4.8503503168,-0.0009300042,-2.7766796896,0.1431145601,-1.2565888045,1.3013048874,0.7432762196,-1.1708425249,-9.6746209979,-0.3065729755,10.5445634247,-2.1576581823,-0.0527631669,0.9242923281,0.3546295463,0.2126780292,1.706931901,0.3076421735,-0.2985462207,0.8008538186,-0.2195070062,-1.9093546437,1.434770116,-0.9585293543,-5.3740335274,1.060062692,0.1678202809,-0.5380396195,2.6490114321,-0.424910673,-17.1980436247,-0.5025553351,0.8664201358,0.331834202
biasActivation=1,1,1,1,1,1,1
[BASIC:ACTIVATION]
"org.encog.engine.network.activation.ActivationSigmoid"
"org.encog.engine.network.activation.ActivationSigmoid"
"org.encog.engine.network.activation.ActivationSigmoid"
"org.encog.engine.network.activation.ActivationSigmoid"
"org.encog.engine.network.activation.ActivationSigmoid"
"org.encog.engine.network.activation.ActivationSigmoid"
"org.encog.engine.network.activation.ActivationLinear"
