encog,BasicNetwork,java,3.4.0,1,1573989185973
[BASIC]
[BASIC:PARAMS]
[BASIC:NETWORK]
beginTraining=0
connectionLimit=0
contextTargetOffset=0,0,0,0,0,0,0
contextTargetSize=0,0,0,0,0,0,0
endTraining=6
hasContext=f
inputCount=2
layerCounts=2,8,8,8,8,8,3
layerFeedCounts=1,7,7,7,7,7,2
layerContextCount=0,0,0,0,0,0,0
layerIndex=0,2,10,18,26,34,42
output=0.6333883399,1,0.0310811864,0.1357921955,0.6855046363,0.3662011238,0.1224311721,0.9243178032,0.1322053583,1,0.9493687311,0.068489209,0.8875664904,0.0656709282,0.8505022308,0.7039062118,0.9664179896,1,0.0224167444,0.6413284299,0.0058534894,0.7629729943,0.3019140868,0.260165446,0.082370806,1,0.9894536094,0.9278082491,0.0867974001,0.8752699011,0.999408457,0.0032181465,0.8222407773,1,1,1,0.491892904,0.0000000006,0.9999999883,0.9972889002,0.171833181,1,11,15,1
outputCount=1
weightIndex=0,8,64,120,176,232,253
weights=-4.5065836307,2.3084529693,11.5277104972,-8.6692976328,-1.7417504708,-6.4038124293,5.5984176103,1.0380497792,-2.3517710641,1.5473400501,1.3574324666,-0.9981424347,-3.1987284088,0.1418192997,-0.1804686042,0.342987323,0.3872277389,-0.0720051236,-1.9266968854,0.4044445907,0.0173480158,-0.6963736112,-0.8690838564,0.7854589537,-0.5168503057,5.4945840659,2.9508461544,-7.1276747444,-12.6697220108,1.6786962485,6.3323285718,2.216862451,6.443708081,-4.4202581244,2.5346563275,-3.2967807153,-3.0059182754,2.5319328725,-6.4876885486,-1.35232148,-1.2680515498,0.5207720902,0.3866572458,-0.8056271513,-1.3055496136,0.0019816258,0.497552361,-0.4635684587,-2.6503668015,1.3474392445,3.3476965337,-0.8794930478,-3.5367839564,3.3066385177,3.3995606504,-0.5920601333,0.318694732,-0.3204719211,-2.3565654524,2.4576185956,-1.333407777,-3.0895619878,1.4172761737,1.7071528215,4.8523803632,1.3273925137,0.079973426,3.0305829949,1.0268750037,-5.329925315,3.8146922813,0.42085278,-1.7402371515,-1.8223224066,-1.8538814886,-3.3246620281,0.9199535893,3.8561220679,-2.8250358989,0.0967888809,2.1177150673,0.9786527354,-1.7381109458,-0.3512552017,-2.3971041179,2.2133298524,-0.3303161158,1.8442795212,-2.152324637,-1.7813948493,4.2295397762,-0.8360685618,-0.3365801164,-1.1109751375,4.5128151294,-0.8323935248,0.2997860531,2.0701454105,2.3533460479,3.5780960747,-1.4132080736,-10.1072668646,6.5304513957,0.1787267404,0.3153189776,1.2694713119,2.1299856332,-1.4130734022,-1.983702475,5.0774184991,-1.7288993641,0.5307711041,-1.0233640145,2.150609245,-0.8503567826,-1.1125611666,-0.1463544546,7.6748651722,-7.0627278219,1.486345576,-0.8293862983,2.6121742361,-2.3883520976,-6.8855252593,-1.1088975749,1.7225334129,2.8443278759,-0.3802611505,-1.4459011198,0.214623183,-1.5581916688,2.30638475,-0.0823990595,2.1548538729,0.207799942,-0.1662505748,0.6916371545,-2.6112020292,-0.5598397545,2.0222737048,-4.8163595712,-1.3021966197,-0.9312490978,0.4654747415,-0.2832537051,-2.3584122037,-1.4219320333,1.6367743526,-0.7830356414,2.1387643029,3.4752030077,0.2465058927,1.3187824472,-6.3854647582,0.3084612908,2.1771478315,0.3912854034,-0.519283007,0.6616075755,0.9156639956,0.7194231447,1.1520551312,-0.9865488341,4.4417144586,3.084994465,-10.4628934297,-11.9851607786,0.1772894716,2.7777261611,-4.7707125318,-0.8825901716,-3.2817135691,-5.4031168076,0.9378057132,6.3923850113,2.3571276205,1.2231781356,1.1175705287,0.3936367893,0.2954962031,0.5201222214,0.3485005206,0.7152009269,1.0164202316,-1.6903904523,-1.3788851886,7.2916989679,-0.6818924712,-2.1097626836,5.1231653729,3.8961984306,-1.6329695132,-0.1563988668,-1.4767325642,1.2707508114,-0.6310484728,-1.6091397054,0.0105765353,3.1321160244,-0.2849326038,-0.1388683014,-0.0390657898,9.2142327884,-0.7166153755,-0.6844994116,0.8519845175,-13.5227925216,-0.2476123726,-0.2129948646,-1.1241144928,5.3551459787,0.9354031911,-1.2427325806,6.7296752925,2.3697493403,0.2592359958,-1.2701570301,-1.8286270849,-7.8677573144,0.1644007332,-1.8111396245,2.9326451212,8.7959490222,-1.3918389819,0.6985812457,-0.1570774439,-9.6970458065,0.7180561278,0.5189386371,5.8294094365,-1.9160790335,-0.2432904668,0.8231906663,1.7256285334,0.2006686948,0.9356023651,0.881200058,0.5334491214,-0.0071880648,-0.0998582035,1.5445105387,-1.0283240287,-0.7234218333,0.9207768295,1.060953441,0.4639146368,-0.3635944606,1.3796011977,-0.525055367,-1.3920965452,2.0645202164,-0.7746314196,-12.6629415647
biasActivation=1,1,1,1,1,1,1
[BASIC:ACTIVATION]
"org.encog.engine.network.activation.ActivationSigmoid"
"org.encog.engine.network.activation.ActivationSigmoid"
"org.encog.engine.network.activation.ActivationSigmoid"
"org.encog.engine.network.activation.ActivationSigmoid"
"org.encog.engine.network.activation.ActivationSigmoid"
"org.encog.engine.network.activation.ActivationSigmoid"
"org.encog.engine.network.activation.ActivationLinear"
