encog,BasicNetwork,java,3.4.0,1,1573296685970
[BASIC]
[BASIC:PARAMS]
[BASIC:NETWORK]
beginTraining=0
connectionLimit=0
contextTargetOffset=0,0,0,0,0,0,0
contextTargetSize=0,0,0,0,0,0,0
endTraining=6
hasContext=f
inputCount=2
layerCounts=3,8,8,8,8,8,3
layerFeedCounts=2,7,7,7,7,7,2
layerContextCount=0,0,0,0,0,0,0
layerIndex=0,3,11,19,27,35,43
output=0.3695616321,0.3624058234,1,0.8612760133,0.999821851,0.9927678153,0.4573675078,0.9782726954,0.0110782217,0.9999972435,1,0.9846666678,0.0555385258,0.9996015913,0.2661491137,0.463000482,0.3620907446,0.000057833,1,0.9999999942,0.0000006647,0.9969046925,0.9999999958,0.6310418389,0.0012146872,0.9999999998,1,0.9652892498,0.9972381722,0.4136039857,0.9981747168,0.2898634391,0.0304540286,0.0002252278,1,0.2422928479,1,0,0,0.0000000016,0.2763125087,0.0000002368,1,9,20,1
outputCount=2
weightIndex=0,16,72,128,184,240,261
weights=11.3394472915,-8.2177366756,-1.5230857216,0.768134728,-11.3149743619,-0.9507864489,11.7749072347,-1.6186798056,8.776023686,-1.0162265903,6.907586356,-17.358218475,1.4047140324,-2.1850509327,-9.1318895894,1.7558627289,-5.1106074761,21.436791892,14.9195752864,-4.7820165125,-10.0112457554,2.9008140177,8.2611889289,-4.3889200195,9.5264698402,0.1501205706,0.7594947869,3.9937622986,1.9739793667,-6.1186802233,0.7970300523,-1.2766331288,5.2821462915,2.5300161459,-1.8414805447,7.7469546786,4.4999604858,-8.5696740746,0.9811547027,0.3786497069,5.4876149952,-3.0465665973,-4.632954811,-8.7656118258,3.6948974902,-7.5490060474,-19.1679301879,2.5826484689,-1.3004528584,7.7021009319,2.3965638812,-2.3027348079,3.076644063,3.9856976431,-4.8678524281,0.0098393348,-1.0965018845,-2.2816447958,-0.6638981815,-1.932836825,-0.1782899466,-1.5250169363,-4.9137173596,-1.4721425063,10.0894881241,-0.145515025,-0.0093698803,8.0525240327,1.8782488617,-4.3845345689,0.4055313031,1.4590029537,-1.8683269321,-0.2544629041,-2.5023571592,-2.9941455325,10.1613847549,0.8942219382,3.8956442443,1.2103689796,-7.886498014,-8.2251603548,-4.4684291047,-3.9648644508,4.8449925408,-4.2067045032,8.9586844316,1.461460252,-0.4690722744,-5.9881686941,-5.5637030405,10.8142303571,-0.9961229732,-12.6339289732,2.7925962077,0.8803066566,-4.988288382,-0.0786642594,5.7945198639,-6.2776819158,10.2071247737,3.0691354353,0.0268108326,-1.9965245337,2.7802275134,-0.8040688391,-1.5413042311,1.3550238119,6.0759442636,-0.2310155022,-8.9552546569,2.3743737753,0.0990617811,1.5715166348,8.1444675121,0.1511390034,-4.9558483875,-2.4880662791,-3.8022791248,-2.0031118664,-4.2414351449,-6.1321243595,-6.6171894475,-2.4974647614,-2.3545288225,8.6856618815,9.7171989041,-4.6642246372,0.0516793216,9.3182862949,2.4849339038,7.7343201219,-2.0153283166,4.7205940866,-9.5135708111,1.3213551177,-1.2437321705,-5.5874188224,-1.6019238604,-8.6436795354,4.6838705356,3.1436068962,6.2994955459,0.3842439539,-1.6805614916,0.550802879,8.8690465617,3.6497927202,-2.1679252389,5.5145243791,-5.909672649,-0.001895822,0.7636467172,8.5178783653,2.1697429831,9.2847654021,-5.2767280082,1.5363953018,-14.1763047494,1.3719300763,2.1275198241,-3.4640548471,4.7157808148,-2.862449635,5.5744126363,-9.25593965,3.8781500995,1.5094525011,1.6746792344,-4.435424131,0.3034434023,-7.9450923362,6.6064553024,-0.5505254449,13.4142531242,1.9984306638,3.3094666219,9.1739832819,4.3632081752,9.6304746936,-4.5285147969,-3.4022479367,-4.2557277382,-0.0044141215,0.0978792643,2.1887285509,2.2982753344,-2.7253876888,0.2607742287,2.2202996008,-0.3196030606,0.4994378806,1.788135247,4.6783678793,-0.9364393037,-6.4525786648,-0.6217193027,-10.7549141713,-0.948929048,3.7491941993,0.7851396015,2.4709974945,-0.8355593095,-2.4679259732,-0.5474776783,-10.8941388997,-0.8366213622,-0.0001305499,-0.1793219033,3.9003484873,-1.1987933409,-10.1047818627,1.2347397598,-9.9707574151,-0.527172509,5.202338214,-1.9942063357,-1.0049764601,1.1821471319,5.5155757111,0.3672088772,10.4758690493,0.0212158869,-2.3025026496,-2.2088864052,0.5285069819,-0.9355511531,5.0318604703,-0.6114152343,-13.3918909905,-0.7562469253,0.2464279683,0.2933351825,-7.752927189,3.1038142147,2.0610440553,-0.4915377204,16.9457830536,0.1703623646,-5.3986507007,0.220701578,-0.1744354107,0.3622441543,-2.5011239629,4.4511896631,-0.8407575281,0.3546028204,-3.2932514973,0.8527614495,4.2863524894,-4.6462206305,0.9054376313,-1.1380758613,-0.5257578548,0.5323676136,0.7501475784,0.3520626243,-14.755407847,-0.5447745662,-0.515526129,-0.0425341201
biasActivation=1,1,1,1,1,1,1
[BASIC:ACTIVATION]
"org.encog.engine.network.activation.ActivationSigmoid"
"org.encog.engine.network.activation.ActivationSigmoid"
"org.encog.engine.network.activation.ActivationSigmoid"
"org.encog.engine.network.activation.ActivationSigmoid"
"org.encog.engine.network.activation.ActivationSigmoid"
"org.encog.engine.network.activation.ActivationSigmoid"
"org.encog.engine.network.activation.ActivationLinear"
