encog,BasicNetwork,java,3.4.0,1,1573989310603
[BASIC]
[BASIC:PARAMS]
[BASIC:NETWORK]
beginTraining=0
connectionLimit=0
contextTargetOffset=0,0,0,0,0,0,0
contextTargetSize=0,0,0,0,0,0,0
endTraining=6
hasContext=f
inputCount=2
layerCounts=2,8,8,8,8,8,3
layerFeedCounts=1,7,7,7,7,7,2
layerContextCount=0,0,0,0,0,0,0
layerIndex=0,2,10,18,26,34,42
output=0.7677255956,1,0.2900117965,0.3664865811,0.3861504021,0.6237450526,0.3036070616,0.569315251,0.5696005281,1,0.0050255324,0.3589670242,0.3600842516,0.0388642795,0.0000076611,0.9999659092,0.0016347566,1,0.3327950991,0.9555337413,0.1926150046,0.054833048,0.4669952244,0.9956794144,0.0044240339,1,0.9252276362,0.1178959051,0.3782667185,0.026704617,0.1595754792,0.0028434094,0.9999631565,1,1,0.0000471006,0.9353606985,0.0000003196,0.9999999838,0.4155428897,0.0000174924,1,11,15,1
outputCount=1
weightIndex=0,8,64,120,176,232,253
weights=7.7284157542,10.0389051189,5.3193740064,-8.1732647167,5.3475369315,-5.771060101,-4.303847771,2.4324887069,-1.2344786753,5.7445457153,-4.7404129405,0.0318841009,-1.8184801713,-1.6282459029,-0.8024318229,0.383999677,2.7446163812,0.3193936578,-4.5035702164,2.9147500449,-6.2656544049,2.2251784389,4.6879411165,-1.4000973948,1.734212585,-0.1854982084,-1.9855631474,1.2183803932,-3.5763647908,0.4992872042,2.4709513176,-0.2413142531,-2.2462535685,0.2677158281,4.2985557488,-3.3668310753,4.9507241946,-3.5816537908,-3.1103677768,2.5902479057,1.4008445856,-1.0455641506,-1.9102936236,1.4617818417,-3.2295412853,1.1588619853,2.0821195407,-0.9930426448,1.3399194941,-5.3659507589,5.4641782098,1.2239484294,0.7055692974,-0.1114645214,0.5395758726,0.2939643554,1.0035151571,-3.5037728029,4.216627302,0.2269534529,0.8503261062,0.6463633082,0.5238298051,-0.6414483869,1.2298926805,-7.190242646,1.4442394914,0.1665113116,1.3688116005,1.0099599877,3.7596875728,-0.7757388221,-4.3319380075,5.9186819239,-2.4322248832,1.940612744,-4.4585674524,-1.5748986994,-5.3687167383,-0.7576543112,0.9845942865,-5.3749343184,-5.1945952837,-0.4202480036,5.3763175977,2.6615491982,3.6525366286,0.0799415945,-0.4425319744,-2.4352458653,0.3086464589,0.3250477864,0.5313659743,1.092359921,8.7111932536,-2.1854055729,0.563713023,-4.802866462,8.9815766865,-1.4032008716,-3.1018518471,-8.470792145,-1.4438448334,0.8584454777,2.8103583263,-0.0562260184,-1.5788939635,-2.6177479476,4.4763746202,6.2797911607,-1.9800840334,1.5182153502,-0.6538071397,-0.807330764,-0.7426299591,-2.1101024927,2.2883766076,-5.3213852836,5.4787029475,-0.9613697763,0.5513809443,2.445937103,0.8545138658,-1.1222270007,2.0303094975,-2.8254802429,-0.6552085277,-1.4481238107,-0.4697743941,-4.7939630258,1.546603884,-13.5056971001,-2.2909933095,1.0025711898,4.0697266811,0.1361708571,0.6822933501,6.3335140077,-3.0316855344,4.5917758701,1.7046523739,4.6531660594,-2.5028220667,0.430563149,-2.9404954849,-1.8467732375,-0.8300868772,2.0590190443,-2.4077717224,0.6051276463,0.851579899,-0.1187527134,-2.3096765757,3.61029652,1.8307394607,-3.7753494259,2.3234647649,-5.6617898249,0.0331365234,0.5996330028,-3.9802432502,-1.0016740195,-0.8053131684,-6.7792605804,-1.6791610515,-6.3423598012,8.2692963343,1.7434146252,-2.2000204704,4.1509498727,-3.2764523267,8.10581345,-0.4024105515,-0.9641411633,-4.6740842147,1.8936487893,-0.0257663787,-7.3396810234,2.3467527927,0.9672293337,0.6683923846,-0.5296112999,1.0450746751,-0.1016915515,-0.4227595763,0.5098191872,0.6271455036,0.5338999595,0.4327946686,-7.0524625465,1.4878135753,0.3214001204,-0.0855944387,-4.1353254267,-2.3436024589,0.3450306649,1.0270995368,2.262052595,-1.2251935739,-0.1860668645,3.2405175043,6.6362780737,-7.7450506737,-0.460433149,1.7931447396,-10.0675234952,1.4417388499,2.7980528101,-0.7430460561,-1.7360760148,1.1286474543,-0.7566370873,-0.353041639,-5.0362477292,-0.3025868119,0.4718693457,-1.2749818906,0.3121583422,-5.221448302,-0.3286528144,-0.9747360733,3.4404423891,5.6862495826,-0.1560139614,2.3095309237,-12.2251809946,2.7249820932,0.0568907401,1.2833855572,2.8326066159,-3.6958937614,2.8906090932,0.9505180258,0.9120630205,0.9257210548,-3.3029314954,0.4163644786,20.1236009861,-0.824909757,0.9424889038,-2.3912166098,-0.6170396665,-0.5375905017,-0.1047477246,0.5594361515,0.8472224761,-0.9226218316,0.3824531545,-0.2233704323,-1.1975257823,0.1550107472,-1.0612260573,3.2595440925
biasActivation=1,1,1,1,1,1,1
[BASIC:ACTIVATION]
"org.encog.engine.network.activation.ActivationSigmoid"
"org.encog.engine.network.activation.ActivationSigmoid"
"org.encog.engine.network.activation.ActivationSigmoid"
"org.encog.engine.network.activation.ActivationSigmoid"
"org.encog.engine.network.activation.ActivationSigmoid"
"org.encog.engine.network.activation.ActivationSigmoid"
"org.encog.engine.network.activation.ActivationLinear"
