encog,BasicNetwork,java,3.4.0,1,1573297128184
[BASIC]
[BASIC:PARAMS]
[BASIC:NETWORK]
beginTraining=0
connectionLimit=0
contextTargetOffset=0,0,0,0,0,0,0
contextTargetSize=0,0,0,0,0,0,0
endTraining=6
hasContext=f
inputCount=2
layerCounts=3,8,8,8,8,8,3
layerFeedCounts=2,7,7,7,7,7,2
layerContextCount=0,0,0,0,0,0,0
layerIndex=0,3,11,19,27,35,43
output=0.5394776165,0.3827193149,1,0.8598781925,0.9091301793,0.0005837502,0.9975018357,0.993899491,0.922164409,0.0408291663,1,0.0088044972,0.6513881676,0.9999752917,0.0053858654,0.6427210342,0.0142958297,0.7014409481,1,0.0929803812,0.0017144582,0.5715477981,0.9862182552,0.9611730798,0.2368507817,0.0000000006,1,0.8306336479,0.9994524902,0.9854816025,0.9690054064,0.0924513417,0.0090688656,0.3987916639,1,1,1,1,0.6338993674,1,1,1,1,9,20,1
outputCount=2
weightIndex=0,16,72,128,184,240,261
weights=8.1970397556,-11.3309694882,-7.2067607167,4.6765612691,2.3657032676,-3.3577629569,8.5539032951,-0.8536715963,0.0363148284,1.9713843259,-9.114579926,-16.7475743094,1.8093413806,15.107779796,14.062145644,-1.8947425256,-6.1123027148,3.1665728017,-3.6900246284,-0.917459917,-5.9334622843,8.2473198606,8.468860662,1.2555541957,2.0104249665,7.8682908138,5.1107470262,2.0056707466,-6.7596777145,0.9943459742,-5.6225644787,0.3128940273,-0.0374599201,-2.9570745387,-8.0968859216,-0.4407387567,3.6518467916,19.7971122868,-2.313198493,1.5725766049,-5.7769628859,1.004603799,3.5454572191,-0.174306642,-8.33807392,4.9706181665,8.4733099089,1.1862130494,1.811331828,0.1877998808,0.3349748875,0.1046718446,4.9535458283,2.6218876088,0.4329008833,1.0945704668,-15.9486913054,9.557633487,-5.9668982361,-1.0251779303,7.8072742763,4.8365187373,3.6725313056,-5.3040174354,8.0093077955,-8.4267326354,10.6680233001,5.4654794771,0.8036076224,-3.7055065625,-3.8364532184,-6.2077894047,-2.1164536579,-6.6957374487,0.6373454164,3.6041043387,-12.3971400099,1.2648709527,1.0388941143,3.1821237822,2.1130119436,5.8342833249,-10.3070104994,3.3880246487,-0.4439837871,-2.0456458029,9.3447413327,3.879550826,-1.9425239931,-3.8409602588,-1.1377960939,1.9666878544,11.8059577413,-11.1151268243,-7.4929617088,0.7913282634,1.1294582339,1.0528734075,-0.1690403953,-1.5331703882,-3.5247157235,5.5556957576,-0.2087801247,-1.6447531466,1.1307868092,-0.3849657,8.0299902005,2.6136011212,-11.5439202793,5.9158295648,1.7098204399,3.0101450985,0.5805426515,2.0003791449,7.5974797411,-4.139616341,-1.3769700153,3.3923994009,14.3543989554,-4.0305406202,2.9362628161,0.1278152401,-9.9843190784,2.1564010919,2.3896276686,0.5604152954,1.5007064409,1.7311878796,-3.445864564,0.7589698164,0.6914174247,-2.3287201127,-0.1038903493,3.0373577511,3.3044498248,0.0653568121,-2.6963606888,2.4930759262,-1.5825083146,-5.6214412809,-0.1062638527,4.6984191976,2.871371552,-0.7900895483,-3.5992482683,15.7243156263,-10.1650121266,-0.9426841701,-0.6629711699,0.2356926921,0.6325135318,-1.7000682756,0.8285777948,-0.012186365,0.5887275949,1.8520020621,0.1073765869,0.1671245011,0.0403176502,1.1921666018,-5.2804098826,14.523546527,6.0923276514,-5.3427263523,-1.1407014077,-0.1977083394,-3.4198573089,-6.276151094,3.8366772575,3.5162764775,-8.8358606964,0.1128265542,0.3284243207,1.2176461148,-2.4863199563,1.6771185946,-2.2226380336,-19.2825690425,1.2596462398,-1.812409138,0.7059138075,-1.3029460077,3.0860847846,-0.8371863151,0.9784304001,-0.7738633766,1.5153092316,6.4920110957,-1.7479368897,-0.154589979,-1.0720913128,-1.2704150928,-0.6301295438,-0.0451122123,-4.8774356093,16.3629853703,0.8704620511,0.1463347497,0.4734950372,1.1994819065,0.879861272,2.6153224837,1.8777226249,-11.5255442655,1.0883318822,2.133640989,1.3841074063,1.5447623831,1.2987605277,-0.5974707058,5.0607140773,4.0922897133,-1.6170677504,-1.6672113389,-0.9944806886,-0.6348865814,-0.7383221965,-0.7887861535,-0.6890866314,0.4457097946,0.2077324994,-0.3315927111,-0.6227509761,0.3962063001,-1.9336488689,0.2358324347,-4.4829125904,-1.7587311942,1.2396642249,0.7400898757,-0.1992107015,0.8212463583,0.3610054271,1.4086590708,-2.940640973,-4.7831432121,1.6366671168,0.6470221974,1.4163335576,0.0924826712,-1.6948703079,5.7865731105,0.1808420949,1.25375586,1.1198543433,0.1858411596,-9.0005053173,12.0712602848,-1.3096791568,-0.4386501914,-0.334161129,11.180056269,2.933800031,0.0051517203,0.1597371617,2.1067659434,5.5108834346,-0.4585684574,1.7018462733,1.86287683,-0.2567769672
biasActivation=1,1,1,1,1,1,1
[BASIC:ACTIVATION]
"org.encog.engine.network.activation.ActivationSigmoid"
"org.encog.engine.network.activation.ActivationSigmoid"
"org.encog.engine.network.activation.ActivationSigmoid"
"org.encog.engine.network.activation.ActivationSigmoid"
"org.encog.engine.network.activation.ActivationSigmoid"
"org.encog.engine.network.activation.ActivationSigmoid"
"org.encog.engine.network.activation.ActivationLinear"
