encog,BasicNetwork,java,3.4.0,1,1573973668542
[BASIC]
[BASIC:PARAMS]
[BASIC:NETWORK]
beginTraining=0
connectionLimit=0
contextTargetOffset=0,0,0,0,0,0,0
contextTargetSize=0,0,0,0,0,0,0
endTraining=6
hasContext=f
inputCount=2
layerCounts=2,8,8,8,8,8,3
layerFeedCounts=1,7,7,7,7,7,2
layerContextCount=0,0,0,0,0,0,0
layerIndex=0,2,10,18,26,34,42
output=0.106058896,1,0.015408002,0.000262655,0.0000140275,0.8839401559,0.1134161641,0.9999995852,0.001388344,1,0.9093682514,0.9881836881,0.6179312382,0.0025414037,0.4697803393,0.0097721586,0.0922937894,1,0.6269361484,0.4542000779,0.3488467224,0.7570415562,0.7720827338,0.0805601377,0.7808854088,1,0.0000256773,0.9767487506,0.4304667624,0.9731736484,0.7632221866,0.7422741372,0.993261202,1,0,0.7803153827,0.9999999999,0.0363065884,0.0026414572,0.0056440147,0.9939871586,1,11,15,1
outputCount=1
weightIndex=0,8,64,120,176,232,253
weights=-5.8176189232,-12.8115679218,12.7089871386,-3.7512229421,0.8029993901,-8.0931503382,-5.9327325634,9.2873464371,0.3654972679,-1.3476207667,-3.9807014626,-3.3451603917,1.5971847488,1.7091337385,3.8646737648,-1.8134272262,0.561906691,-7.7536924665,-3.7071893937,4.9596096597,-0.4249272246,5.447358826,2.273536037,1.1214262686,-4.2466024441,-4.3196549069,0.8121753894,15.0987628661,1.3605918178,1.3773832351,-1.0311286269,-4.1418542297,1.3625695722,-1.4660704935,1.7196445731,-4.3033370658,1.3081243234,-2.2820274037,-0.4763305522,0.6399988589,-0.298344587,-1.514228492,0.3100198553,-0.2443209718,0.0242854939,0.9949610124,0.1058658465,-0.510523337,1.7939705645,7.3996251884,4.0543912556,-8.4928592758,1.0703569535,1.1411209005,-3.368084532,3.065026501,-0.3697550264,-3.0769976372,-3.2903505422,-3.6118339977,0.7484760266,2.9058040784,3.8317105668,-1.8926407946,-0.1109111626,-0.4198432414,1.2174716422,1.7492416462,0.9838506633,-2.0876494301,-0.4770603797,0.5983096966,1.7409281533,-1.5688576572,0.1323282287,3.0513085691,7.6277499326,-0.0907473681,-5.4650694107,0.0770320391,6.1928049935,-1.1089525922,-0.1965124788,-0.2093726989,0.9156146351,1.4799371088,-2.508648174,-1.5381612322,-5.1600217154,0.5562887611,-0.7718287161,-5.5073872098,-9.4311803548,2.9119599465,8.5487562158,1.8198791757,2.3394609305,0.8871472423,-1.1031383404,-0.8291062068,-0.5808949066,1.8550697438,-0.9274968063,0.0451558998,2.8877498069,1.0865116836,0.1006189579,-0.4331919175,-6.8331212226,4.305228231,-1.4472818896,-0.5704159755,-7.3861371626,0.7802102464,-0.0923304039,-0.5463237187,-1.3292210263,2.1342303517,1.5186776422,2.1045413303,5.7120715734,-6.496974834,3.9138542983,-3.478275093,6.3161795359,5.2320814408,1.2373207492,-1.3682278231,0.7986167727,-0.8397983067,2.0519553503,-0.0529260418,0.2292960672,-0.0550423063,-0.4285681788,0.096277208,0.4238131029,-0.4467224252,-0.9321388956,-0.2299653141,0.0492746416,-0.695538773,0.3989629492,0.5196617798,3.0080149924,-3.7821857934,-2.0739107912,0.5750875476,2.5220608872,1.4661572267,0.0836321439,2.0675333808,3.0985020045,-8.4298025611,-5.3403630141,-1.5424488601,6.3039656571,4.1596279711,5.6401960537,-0.2473506912,0.4515190345,1.7685567271,3.5283181543,-2.2033705477,-0.6215255994,0.675516778,-2.6035428373,-0.9778278056,-7.3392253727,4.1807096112,4.3813967586,-0.3548380653,-3.5224987246,-1.6985628953,1.1386456072,-1.534931504,0.3927890614,-9.4042267053,-0.1934760459,3.0796949793,-1.6504793548,1.461850537,-1.8470464131,-1.317902767,1.2820871225,5.0596867329,-1.2976436135,7.8910471473,-8.964502488,-3.2287822646,1.0528086977,-0.2037098705,0.0662777775,-8.1713218065,2.409659218,3.9587950276,1.0998563738,0.1545210268,0.8786420828,2.6657352233,0.3650213258,3.1106463328,-0.2638505518,-0.0486094456,-1.6058260242,-0.1611759217,0.627019924,0.8114097184,0.1456098636,-6.7948095555,2.9744597717,-3.7494186694,1.4975437695,2.1360322347,2.6843630057,0.9499563803,0.7695786947,-4.8819103568,1.6853104442,-2.1758056672,1.2799398215,-0.5447595486,2.5106647652,0.7650627327,0.0063441848,-0.4539080682,2.1458057788,-6.8874317627,-1.8677914267,-2.2180143062,3.32703839,0.1619756856,-1.2782957342,-0.8092178155,0.4766126271,-0.3459513138,-0.574512947,13.6906638702,3.6740791343,-1.0533110187,-1.6227283838,-1.4714393884,0.3351906925,7.8791989019,-0.8120911468,0.3443378464,-2.1658446628,0.443522098,-0.7770516024,1.6055313106,-0.5115607237,0.6671453082,0.7278152098
biasActivation=1,1,1,1,1,1,1
[BASIC:ACTIVATION]
"org.encog.engine.network.activation.ActivationSigmoid"
"org.encog.engine.network.activation.ActivationSigmoid"
"org.encog.engine.network.activation.ActivationSigmoid"
"org.encog.engine.network.activation.ActivationSigmoid"
"org.encog.engine.network.activation.ActivationSigmoid"
"org.encog.engine.network.activation.ActivationSigmoid"
"org.encog.engine.network.activation.ActivationLinear"
