encog,BasicNetwork,java,3.4.0,1,1573281466446
[BASIC]
[BASIC:PARAMS]
[BASIC:NETWORK]
beginTraining=0
connectionLimit=0
contextTargetOffset=0,0,0,0,0,0,0
contextTargetSize=0,0,0,0,0,0,0
endTraining=6
hasContext=f
inputCount=2
layerCounts=3,8,8,8,8,8,3
layerFeedCounts=2,7,7,7,7,7,2
layerContextCount=0,0,0,0,0,0,0
layerIndex=0,3,11,19,27,35,43
output=0.9996652253,0.9997422131,1,0.0000003542,0.9847129176,0.2798693372,0.1297010658,0.9573765727,0.886420022,0.3997624407,1,0.074518704,0.5156846782,0.0094736126,0.4410625277,0.6603427768,0.9991726615,0.9998298963,1,0.1486860151,0.1422089956,0.9098598789,0.8447772889,0.7131399169,0.0294805234,0.4805420641,1,0.1832650009,0.9826651077,0.8100594573,0.8293846013,0.9795997591,0.9910777459,0.8643722466,1,0.991334887,0.7606825824,0.0004196278,1,1,0.0184048535,0.4008197439,1,9,20,1
outputCount=2
weightIndex=0,16,72,128,184,240,261
weights=-6.1283568817,6.5733846173,-7.9883026764,-6.9806630173,-1.3999118162,2.5467199568,5.0309357727,1.7415039488,-10.5288483056,4.0808766132,5.4371754809,5.4979941114,9.0348179033,-1.6699403108,-8.2027811392,-1.8804539069,-4.1148128702,-5.7962076033,5.7327296556,6.406276675,-0.8433004145,-9.4737867355,-3.9547931543,-0.4608289593,-1.8365094583,-0.2276574062,-5.5276885891,-2.3555452167,-0.4061031433,3.1613073715,2.7017030332,-0.0808624747,-8.0767903102,-4.1797343475,3.2475018292,2.9879537867,0.851742289,-4.667204434,4.0094976232,0.5556326687,1.6633524741,1.7312602773,1.6023661008,-2.9804830025,0.4464993018,-6.152121173,4.741517722,-0.50946302,6.3788668517,-0.6753916855,-0.3108668798,-0.6306649274,-2.8972844806,4.1631573651,3.7350546076,-2.7150866867,-1.6923483734,0.8296903396,0.1999433388,0.1097059734,-0.1599707479,1.8466347071,-0.9243174693,0.8873441468,7.9864448494,-6.3219215554,6.1412651314,7.8655235385,-1.7231831781,1.2361861354,-1.3086699192,-0.05766865,-0.2855697695,-9.7456516596,-4.4489605712,2.96917052,1.1836678868,2.8978800316,-7.3275654933,3.0404103099,-4.5494851545,5.1048369629,1.2363668683,-2.4393042188,3.6901472356,-2.4250368594,0.968193,-2.0763588188,6.2727326125,0.2626398341,-3.7019660134,-1.4905618714,-2.9482156051,5.9360556957,-0.3645266534,1.1103822008,5.2602247631,-4.9847900321,-3.0450722149,2.5129037143,-3.5058233073,5.3073494521,-1.9061263513,3.5973072099,-0.0363137688,0.7146393027,-0.6027025748,0.2017367442,-0.520260025,-0.7736311717,1.3792495827,0.6775834025,-4.1950517684,-0.6689501414,7.9328553863,-0.4627180144,4.9484369799,-0.6060702251,-3.5832753582,-0.8006940809,-5.792425959,-2.6474440608,-0.6482849022,5.4049449284,4.5243273732,-3.425342565,-0.2094555992,2.9157037473,6.4834742816,-3.5274740364,2.3157779919,0.4096004394,-0.8735358307,-6.3886075555,4.8442499214,1.3176404313,-0.066988167,1.2258419709,-0.4708759115,4.4410885332,4.900991999,-3.9252301953,-9.7283284964,1.206783658,-5.31376371,3.2404156293,-0.3096800136,-0.5593089719,5.9770071339,0.6636912132,-3.1664144199,-2.9596333361,-5.9587003094,-0.8580257392,0.5783208734,0.9143725201,0.0521793949,-1.2885170593,3.3647338198,0.7200676186,-5.2963085149,3.9059607705,-0.3414737026,-0.290096093,0.6885619432,1.9680507073,-5.5109219382,0.6987565192,5.2617074006,-1.7228595845,2.3397742716,-3.7705590626,-0.3193891422,-3.965790628,1.2416182276,1.6365529108,0.6338031377,0.1925624908,-2.2938836581,4.7744699982,3.5463459963,-2.5128325125,-4.5907662806,0.4996044741,2.4751431268,-4.297590991,1.1242885851,-5.7951507513,1.196793001,-9.9856071869,7.3994141752,1.1368637064,0.1808378661,5.9895189081,-2.6028404753,1.6803871393,-1.4133303117,-0.2092946137,-2.2744439919,-0.0483170936,1.1934417476,-1.5365715064,2.4624530896,2.4222488771,-1.7899537868,-0.1299784992,1.259473604,0.3003812443,-1.0927533211,7.8872514857,0.4570840503,-2.1655479114,-1.7507842528,-4.3459194798,4.3505408299,-1.0827945398,-2.6397836434,6.5727323395,-0.0433167254,2.5405470498,-1.4034674333,1.8461271938,4.5950586259,-1.5240853813,-0.5462315438,6.3224177046,-1.0736364614,0.252218821,0.3135545032,-7.3366854783,0.8683520999,-0.3359551154,2.7909820793,-8.0083089881,0.4617942658,3.5181605765,-1.0979519416,-7.8337619498,0.640878174,2.6439729482,-0.2258580981,0.3540698829,-0.308927332,-0.181674197,-0.3838165426,10.4678240128,0.5233998796,-0.6578987726,0.6716537661,-1.2479557445,1.9715734552,1.4779311321,-1.8259664243,2.743744864,-1.9494120984,-3.3519087512,1.2595563978,0.9994862649,0.645930789,-0.2013431752,-2.1885642695
biasActivation=1,1,1,1,1,1,1
[BASIC:ACTIVATION]
"org.encog.engine.network.activation.ActivationSigmoid"
"org.encog.engine.network.activation.ActivationSigmoid"
"org.encog.engine.network.activation.ActivationSigmoid"
"org.encog.engine.network.activation.ActivationSigmoid"
"org.encog.engine.network.activation.ActivationSigmoid"
"org.encog.engine.network.activation.ActivationSigmoid"
"org.encog.engine.network.activation.ActivationLinear"
