encog,BasicNetwork,java,3.4.0,1,1573297567643
[BASIC]
[BASIC:PARAMS]
[BASIC:NETWORK]
beginTraining=0
connectionLimit=0
contextTargetOffset=0,0,0,0,0,0,0
contextTargetSize=0,0,0,0,0,0,0
endTraining=6
hasContext=f
inputCount=2
layerCounts=3,8,8,8,8,8,3
layerFeedCounts=2,7,7,7,7,7,2
layerContextCount=0,0,0,0,0,0,0
layerIndex=0,3,11,19,27,35,43
output=0.4313784173,0.3621593562,1,0.1229778383,0.0984092654,0.1259881364,0.9999987383,0.000000185,0.9998794045,0.781926072,1,0.000010449,0.2896528013,0.3910943966,0.000531216,0.1282873481,0.9888632149,0.9999790464,1,0.0061858985,0.9939813667,0.2188947058,0.0942969164,0.5267260612,0.5615325657,0.0062118828,1,0.1531532811,0.7983427426,0.8361382538,0.8130992528,0.4665286173,0.9979492006,0.164879123,1,0.9999999609,0.2293559639,0,0.006984567,0.9999999787,1,0.0093016362,1,9,20,1
outputCount=2
weightIndex=0,16,72,128,184,240,261
weights=10.1215166377,-2.7587737017,-4.5568627588,9.2999464961,-9.935799313,-9.1641891996,-1.2098979108,0.1338496875,4.4412506443,9.0949612017,6.7324686009,-7.1820320307,-7.9606082795,-3.9964711372,9.1874649407,1.1386760727,-4.3969900336,7.2158681458,5.6978549546,3.9244202528,-4.509127414,-0.179452806,-3.8935206844,-1.6357050605,-4.9420615396,-5.0021537103,1.0792273695,6.326595585,1.3755104287,0.5047562288,-2.6807817103,0.8136032683,-5.1496359651,2.8987712921,-6.4005989993,-8.0209325726,-4.7149217417,-0.0420796744,1.5193538211,-1.141836504,-6.1299242841,2.8694669636,1.7560732241,-1.3061084582,-0.8913814639,3.2956018006,6.8127470901,2.1087559597,11.2641430123,-1.437904909,-1.3077233053,0.9574970204,-0.3747233534,-2.9744477794,-9.7538193381,-1.8323995321,-10.7506234703,-0.9132256178,-0.1014568668,-0.5837274797,-1.7823824542,2.4846192709,5.2993256528,1.800062284,-7.0230696005,-2.9751557924,-4.0917591661,2.2082633856,-2.1520203841,1.6280460825,0.5961749979,1.8078522843,-1.3562323845,-6.5912476676,-1.2411560793,-3.2098867564,-2.0138069998,-5.52265266,10.1947262358,-0.2361190869,9.7728075653,-1.0948143564,3.8142268026,-7.2108562721,-0.3379405091,0.2461988262,-2.375522788,0.0302579216,-5.1531473777,-0.9159665735,3.1852145949,3.3005111432,0.1496084678,2.0559493455,-2.256850963,-1.7281042765,-3.5177641844,-5.61661473,2.0709265589,-3.0676805353,0.8373464565,-3.9014798041,10.5744559335,-0.4152130424,-4.6281136468,1.4496388111,-2.3886979601,2.5634087614,-1.024375266,-2.4761356042,4.4839356032,-1.1451780713,0.5944350097,1.920998035,0.4118355536,-0.0339007071,0.1427062256,2.6719415102,-3.5193830013,0.9325498902,1.9031558057,7.7115625267,0.9052806988,0.7796362803,0.2792747349,3.8243720102,-5.5472754348,0.5644284371,-3.9066696014,-10.2944930688,2.8308492455,-1.9495854826,6.1613633913,-2.6814313416,2.7333817728,2.3066026818,-1.0947691305,-6.018796153,0.4222358627,1.6322701161,0.6783917986,7.47154438,-4.6983102161,1.4012851283,-0.5093024779,-0.1071787135,2.2575021205,-4.1506683635,2.5802337998,0.7916456079,0.8814202236,-1.7603337858,1.6307416791,-9.9361160636,1.4233842517,2.0745111683,-0.7471279549,1.2737999763,-1.4743746876,1.8639426743,-0.8508475601,-0.2400004307,0.4034235245,-1.0075195703,-0.8822484778,1.2937098294,0.9610151297,-0.1270993604,3.868502787,-4.8306950626,-0.8779887182,0.1926849047,-0.310266666,3.9357639707,-2.2448446834,0.6760924716,-1.7414022691,10.1101624704,-0.1072037427,-5.4643575606,-1.1042349906,-9.0292915976,7.3601687132,-0.0346377596,-1.0331928233,3.0050619822,-0.9424626441,-4.3161306588,-0.2254624061,-0.5052067901,2.81100015,-0.6314479619,0.8882141857,-5.801296496,-9.749183905,3.9900187533,1.3119341192,0.1142675521,13.2768854604,0.2407493396,0.729412738,-2.9536975499,1.2021482696,-0.3807513675,0.2142358732,0.0872717121,-1.9972498272,1.2975358464,0.258474498,8.1934439901,1.3135125605,-0.2998130914,-0.7563573159,-0.6357307311,-1.4308847567,0.7400774054,0.3312483858,4.7792342432,3.7163978749,2.1751152744,-0.2513636973,-1.409434845,-0.9699737985,0.0931483272,2.4879590645,5.5630271179,-1.0804304198,-5.2041177816,0.5884188961,0.7793175384,-10.9582820484,1.1941423298,-0.4423599867,-7.2302785159,-0.2210559521,0.2075125315,0.284471681,-0.5440840829,7.8812994792,0.6631576496,0.9635676694,0.4040948558,0.3023286311,2.0789714696,-0.2277100999,-15.3684925801,5.9759338205,-7.0158924654,-1.2936084557,-2.6439767847,1.0114315917,-1.3898839829,0.9350280265,0.4373721426,0.5032346407,1.0228099496,0.8129150396,-0.4646666471,0.2346217382,-0.6384893315,5.9899711964
biasActivation=1,1,1,1,1,1,1
[BASIC:ACTIVATION]
"org.encog.engine.network.activation.ActivationSigmoid"
"org.encog.engine.network.activation.ActivationSigmoid"
"org.encog.engine.network.activation.ActivationSigmoid"
"org.encog.engine.network.activation.ActivationSigmoid"
"org.encog.engine.network.activation.ActivationSigmoid"
"org.encog.engine.network.activation.ActivationSigmoid"
"org.encog.engine.network.activation.ActivationLinear"
