encog,BasicNetwork,java,3.4.0,1,1573298933545
[BASIC]
[BASIC:PARAMS]
[BASIC:NETWORK]
beginTraining=0
connectionLimit=0
contextTargetOffset=0,0,0,0,0,0,0
contextTargetSize=0,0,0,0,0,0,0
endTraining=6
hasContext=f
inputCount=2
layerCounts=3,8,8,8,8,8,3
layerFeedCounts=2,7,7,7,7,7,2
layerContextCount=0,0,0,0,0,0,0
layerIndex=0,3,11,19,27,35,43
output=0.9993016079,0.9997575251,1,0.9829236555,0.0031793475,0.9998715238,0.9947220535,0.3966748257,0.0038923489,0.9887336822,1,0.1467779173,0.0000003167,0.9877435182,0.2517429466,0.0021460871,0.9880124368,0.9999967518,1,0.1295959325,0.9047609117,0.7852630087,0.8758289084,0.0039958116,0.9691112966,0.0354410039,1,0.6284056042,0.1562672196,0.9584092249,0.9865186641,0.9149729496,0.9230802552,0.8694192102,1,0.4535944979,0.0000000134,0.0373898022,0,0,0.9999998412,1,1,9,20,1
outputCount=2
weightIndex=0,16,72,128,184,240,261
weights=-3.2591357498,-3.7067570269,7.5387492033,-7.3375633472,0.6501533608,-7.4557091539,12.8217317761,-2.6638039236,1.3920639448,6.6249634651,0.4522668646,9.15099654,-12.1144684767,-2.0901644916,4.0692054335,-1.8296128467,-0.0351850752,0.7583123451,0.745367588,0.5914813125,0.2538176953,2.9947527359,-1.0551009322,1.2685680499,-1.2544453848,4.1238021809,-0.9413483004,3.3268574518,-1.1067589015,1.443703833,-7.4293383479,0.5338185646,0.2799034414,-3.3941910013,0.0013555605,4.3412130265,-3.7956728623,3.1816613574,4.7595472682,-0.0705599732,-9.1069544333,2.5427642075,-1.2919610371,2.9458165092,-8.9172228174,0.6455727797,1.6366990597,4.8547723221,5.6023090031,2.7800489925,5.596543807,3.2713943438,0.9165329315,-3.402784318,-4.9168821163,0.6837565164,1.4957745393,0.3492736727,1.3573883359,-3.9266425531,2.8462694833,-0.5155135874,-4.6083799602,-1.0050457878,-10.1021168766,-3.8587527858,7.5011383105,-5.4333067228,-1.044330938,-1.6561548502,-3.056817049,4.6113221976,-3.5215251004,7.3363825898,-12.0578681401,0.4759965199,4.9317799849,2.6503341771,4.261522079,-1.6288976343,-4.3376067403,-2.7339279022,-1.7158098598,-5.127379612,-2.2037197698,-2.825762829,8.3745885097,-3.6410126545,-3.3760036387,-2.5036719833,3.2797644528,0.1712368235,-7.0580686544,2.5704256888,-7.4686148946,2.1685265186,-2.4803464058,3.0379678082,-3.8049434087,-0.8196990664,2.9443441611,2.099541465,10.4346902115,-2.2270026229,-3.3516696149,-2.0814093717,1.0280240524,-0.5845032038,-1.2348718729,-1.6688593737,11.775197802,-2.9148445571,-0.7098128412,2.805329856,-3.3131803766,1.7850915777,0.7385557496,2.3694145012,1.1894831272,0.6626108542,-4.731362078,5.9042346046,-1.800525004,2.5188142412,2.5927185311,6.9112052181,-7.2788050178,0.6663655322,-7.758656214,-5.0265947477,-0.5840474781,2.7553265654,3.2421982414,-3.6044545907,2.1615551125,0.0794939257,4.7625666972,-6.6829261778,-1.0244872243,2.8861983916,-1.0639058462,-4.2747985952,4.7000688162,-0.7295344816,-3.2674141121,6.282324915,0.1948971612,-2.9644477049,1.0793127681,8.2836975502,-4.8806502141,0.7151077853,0.9607951729,-3.7312647397,0.0231491506,0.4330298367,-1.1808672082,0.0707280451,2.5970448835,0.2406904757,-4.3500548582,-3.9138692192,-1.4690867577,1.5881981366,0.1044088538,-7.1219470816,4.6077164665,0.1404629985,3.8778616485,-7.9850317262,-0.3332447975,1.0538689854,0.8030121086,-1.5287647479,4.7968567134,-1.9574000682,5.6586056422,0.5876127438,0.3927275959,-11.1425684363,-1.4660561277,7.3575872971,-2.858367255,0.6993098654,-10.5375050563,-0.3076244809,-8.2375526885,0.9234607217,0.2089279989,-0.7251933839,6.3739742823,-0.0356433297,-6.9869788356,0.5070728501,9.3548775105,-0.7954444863,0.948151695,-1.6212670175,4.5104589436,-1.7559823994,0.7091427979,-0.0507276462,-0.3362816203,-0.8593473675,-0.7328179042,0.7442676645,1.6714465906,0.4125925592,7.2724407913,-0.5805814749,-7.3991817178,0.9860585175,-0.0160130646,0.6968181195,0.2310967904,0.3428760633,5.0037612285,-0.41645516,1.3003724189,0.7168414643,-0.8692878955,-1.3744945623,1.5127018596,-0.0805816839,-11.6897644207,0.6955310663,3.3643204344,-0.2404503212,0.4726784874,0.7758980912,6.3403273163,0.5453498314,6.2884357354,-0.9486833631,-6.3609156126,-0.39347928,-0.3469592948,1.2777493247,-1.4947315189,-0.5017507633,0.2269342441,0.1660926825,-5.5504196029,-0.9561846359,-0.4340025039,-0.839502581,-2.1039385148,0.773500431,0.2171874629,-0.8878594219,-0.8166762636,-0.9165635114,-0.7394234389,-1.0978159329,-0.3721186128,1.0319572759,0.3157109759,0.0535046902,-0.8374763644,1.8048490287,-0.4901760666
biasActivation=1,1,1,1,1,1,1
[BASIC:ACTIVATION]
"org.encog.engine.network.activation.ActivationSigmoid"
"org.encog.engine.network.activation.ActivationSigmoid"
"org.encog.engine.network.activation.ActivationSigmoid"
"org.encog.engine.network.activation.ActivationSigmoid"
"org.encog.engine.network.activation.ActivationSigmoid"
"org.encog.engine.network.activation.ActivationSigmoid"
"org.encog.engine.network.activation.ActivationLinear"
