encog,BasicNetwork,java,3.4.0,1,1573281530454
[BASIC]
[BASIC:PARAMS]
[BASIC:NETWORK]
beginTraining=0
connectionLimit=0
contextTargetOffset=0,0,0,0,0,0,0
contextTargetSize=0,0,0,0,0,0,0
endTraining=6
hasContext=f
inputCount=2
layerCounts=3,8,8,8,8,8,3
layerFeedCounts=2,7,7,7,7,7,2
layerContextCount=0,0,0,0,0,0,0
layerIndex=0,3,11,19,27,35,43
output=0.9997725332,0.999443979,1,0.196037807,0.9252295477,0.3058320157,0.0000171185,0.6781502901,0.0000287086,0.0005862679,1,0.046565092,0.4194505631,0.6567958789,0.9999167676,0.0550898383,0.4303900773,0.9984210467,1,0.0637522832,0.3254105051,0.7963821281,0.9284643605,0.7465769228,0.3527465438,0.8610508325,1,0.8178862534,0.1423941588,0.9089374504,0.3668732726,0.3743812331,0.465076911,0.9831726331,1,0,1,0.1306833617,0,0.0976997579,0.9466829551,0,1,9,20,1
outputCount=2
weightIndex=0,16,72,128,184,240,261
weights=1.0111744042,6.2464743623,0.9591552134,3.099772953,6.6528557553,-8.9989311876,4.8984651493,-2.3970152382,5.3874818277,8.6141367157,1.2750213068,-11.4634672052,-7.0408031271,4.9611387987,7.2664591397,2.8485185198,-1.0428775866,-0.7938493117,-3.0897220496,-0.4289506774,-1.8111933273,2.37493516,-1.419969219,1.9238861787,-3.5492591475,-3.34617317,-1.8102590909,0.9671176866,-2.9289517469,-5.2788481132,6.8890878014,-0.1385125271,-0.0453350165,-0.8102403596,0.4642916219,-1.1481223326,-0.9945154057,-0.4973638027,-0.3685648591,1.0022018024,9.1222268727,-0.0053107406,3.8136130678,-4.0128685908,4.3709327546,0.051286596,-8.8874637436,-1.2795505365,3.0427931626,1.1688343987,6.8179605825,-3.7246814243,-1.0809259106,-4.472126041,2.6308682535,-1.2827164891,3.9389346341,-0.6986189926,-1.8505461116,-4.3150684333,6.275104068,1.8802054869,-3.0372783768,-2.9409582485,-0.1316275609,-1.8242486604,1.2419700622,-9.3325208531,2.9880024706,2.3840945194,0.9084872606,-0.2515646485,0.3009236236,5.1036364495,3.0078378734,3.6093378489,-4.1669292772,1.3957178996,-5.1498362579,-3.3928419937,2.6939997207,-0.7960532651,2.0844292826,1.8413186738,-1.4626635138,1.3907611139,-1.7038712572,-1.5388104059,-5.502853896,-0.517915175,1.2715072407,4.6772171176,-0.2452230002,0.7005607136,-6.2267208916,1.1106480744,-0.9454571944,-3.8257696208,-0.5963392771,-0.8406146251,1.0108074366,3.4404464961,10.5342244648,0.9156520441,6.0408961527,1.3634100963,0.116427554,0.1770123594,1.6309294411,-0.818105187,-5.7222695971,0.070150534,6.0859879125,-0.0165049661,2.135646047,-1.879611889,0.5129381037,3.9032798671,-3.392472758,0.5427530034,-7.3656520528,-0.6752064562,-2.1267862732,1.9439304571,2.1413339303,-4.393986322,6.9151947058,1.0245326003,-2.0722577815,-0.8860286727,-4.5134601339,-1.6681310204,5.3163338475,-5.1781293423,6.1806214923,-1.8101181326,3.3530510945,-0.5335526132,-3.1056376352,-1.7995148198,3.3812403237,1.0594983522,-2.890221337,1.1705331307,-0.1663332419,-0.1532460274,-2.5784191146,1.3439325951,3.05383453,1.9170143391,0.3647184815,0.9788271544,-0.3155782643,0.6602837893,-0.9409162488,1.4802710962,-0.6444703969,7.980403699,0.2719116815,-0.697975102,-0.5219197288,0.1902403943,0.4737555461,-0.8320233714,-2.058797053,-1.3735014383,2.6705934785,0.1387575155,-0.4455904463,0.58407592,-2.7177357259,1.5955565502,6.2873699334,-1.0562708412,0.0073937151,-0.3107255633,-6.5022789756,0.3027198677,0.2770897172,3.5245151075,-4.535923309,9.5181146448,2.8382018381,0.0352236425,-0.7830236616,0.6189465909,2.9875986611,-0.1126611123,-4.8443372343,1.9911704894,3.296599535,-0.9190008169,0.1836237283,-1.4698635024,-0.0305593253,0.6012509518,-0.4546145291,0.190263622,0.5788897794,-0.4573921238,1.273182439,-1.7204873698,-0.9097871812,1.1454169082,-0.7738633253,4.2545510883,-3.4777408925,0.1880063317,1.5003035582,-1.2085401159,-2.6441650244,0.145251641,0.9918359769,-0.2616150393,0.9765281498,1.159198733,-3.2071983948,2.9005280588,0.1828681739,-1.1772849934,9.7543516445,-4.0834038399,0.3416107253,-0.5252014349,3.4661709759,5.2506691731,-11.6526701435,0.7807009952,-2.11886167,-6.3584101095,-1.2004495721,2.358631493,-1.4780405234,2.7169424688,-7.5063999867,-0.351932496,4.0285235705,0.1760153864,-3.5390679187,1.7715807501,4.2187965193,-5.4223794029,0.1662629475,-2.3590487592,3.8880768138,-0.6066593262,0.8150322205,0.2300043752,-13.8303076064,-0.8921009946,-2.392732773,-0.4639426757,0.077700038,-0.2356755905,1.7911632207,2.1288941766,-0.7380794955,-1.5217495028,4.954162266,-4.1964041934,-0.2015306919
biasActivation=1,1,1,1,1,1,1
[BASIC:ACTIVATION]
"org.encog.engine.network.activation.ActivationSigmoid"
"org.encog.engine.network.activation.ActivationSigmoid"
"org.encog.engine.network.activation.ActivationSigmoid"
"org.encog.engine.network.activation.ActivationSigmoid"
"org.encog.engine.network.activation.ActivationSigmoid"
"org.encog.engine.network.activation.ActivationSigmoid"
"org.encog.engine.network.activation.ActivationLinear"
