encog,BasicNetwork,java,3.4.0,1,1573990855464
[BASIC]
[BASIC:PARAMS]
[BASIC:NETWORK]
beginTraining=0
connectionLimit=0
contextTargetOffset=0,0,0,0,0,0,0
contextTargetSize=0,0,0,0,0,0,0
endTraining=6
hasContext=f
inputCount=2
layerCounts=2,8,8,8,8,8,3
layerFeedCounts=1,7,7,7,7,7,2
layerContextCount=0,0,0,0,0,0,0
layerIndex=0,2,10,18,26,34,42
output=0.5266946109,1,0.2633672188,0.9548248956,0.9999999646,0.9522416352,0.0456362001,0.082715046,0,1,0.9976221459,0.9996732033,0.0170964335,0.4177806357,0.0000121252,0.9983998513,0.0000666633,1,0.0363258656,0.9840814068,0.7579325365,0.6961905376,0.4714415897,0.7061867165,0.9997318706,1,0.9905158101,0.0004528894,0.9489461539,0.0024670959,0.8834332889,0.9999966358,0.1156051873,1,1,0.9914218227,0,1,0.9999999949,0,0.0334270687,1,11,15,1
outputCount=1
weightIndex=0,8,64,120,176,232,253
weights=10.6882093885,-8.686709049,7.8779064811,4.2530824564,-18.128561049,-0.2049352089,17.2403237508,-5.49735638,4.7256464475,-2.9556675821,1.9167799656,8.1698860153,-5.2104193831,-6.0904400806,1.2130703084,-0.1535615424,-0.1403807478,-2.6487598562,-4.3329439437,5.5211585009,0.6327307977,3.2211248149,-1.022448918,0.3904577439,4.787984186,8.725687408,-8.3984157911,-3.4469214386,-4.7425067784,3.073449076,-8.2369682756,2.1726874956,3.5803228143,1.3394426198,3.3638500575,-5.49595041,-0.450752678,0.3595698452,-0.0022533149,-0.0385466789,-7.2968479065,-4.3127888914,-4.1741703109,13.1549864516,-10.4535787039,2.1581586175,7.6703358518,0.9709078773,-0.7971613148,0.354254908,0.579972127,-0.0422439541,-0.9475992335,-0.8028414258,-0.4185588377,-1.1555606034,-12.9268701465,-8.6004311814,6.7688302516,6.1536075438,6.6896944727,-3.4391687213,7.5376030963,-2.2419476433,-5.7895634862,3.5597407688,10.5866779453,3.9390600673,0.0294808897,1.9508248705,-10.4421394796,1.0278828538,-3.7104147089,2.4832356701,-2.8797495377,7.1132471808,0.8429429825,-2.0612343032,2.8085409362,1.1978338805,3.8633561463,0.3674517704,0.9779012596,-18.7522410713,1.809438717,0.7621507533,3.7854780183,2.5846378347,-2.2910539955,-0.5641670486,-7.2805396708,-8.975597735,-0.5239105096,-0.3193484946,14.6108447404,-2.0610101309,-2.8299968871,4.4143462712,2.7348419199,-11.5469794713,-7.5381446946,4.6460525907,-6.3533884523,-2.9709173047,-0.0529434185,4.0343333486,2.3138253137,1.7036102985,-0.7740306431,1.8932849816,-1.77642967,0.3319581133,3.669357542,-2.361334819,-1.5318968605,-8.2516297779,2.5123597162,-1.8947870827,-1.5169520857,1.1506328164,2.5640958551,1.9506976794,-3.1972742805,2.9396227819,-1.0737357608,-1.9051786429,7.1590687786,-0.7659746371,-1.4556801072,-4.17564093,3.6379829661,-4.3783870652,1.1778240097,0.3650674619,2.4006577314,0.4434143779,-1.6940252254,-5.3182923863,7.413693718,-2.3052467297,1.4061907064,-8.6264751341,2.4871644542,2.8888777291,-9.5763038847,-3.7134058759,3.6505444094,-6.5908049715,0.3299079501,7.0333971796,-15.4732887929,1.3324421458,0.6196163384,3.6600031911,-1.0663681206,2.7752175236,0.7057263726,-1.4079256543,-4.7161263208,1.6049911492,-0.6894719394,-4.8104959602,1.9116973782,-1.9717300281,0.0076384816,-0.3171055971,2.8054419381,-0.2611539493,1.4627111501,10.4560699758,-2.9020635146,1.5284487044,1.1139085398,10.0514637965,-11.245046297,-0.2151784222,-2.1119020576,3.2682738665,0.5901074047,-0.5092597039,1.5008853296,0.9089645385,10.2421381198,2.1862733868,-2.2630035245,0.6594428502,-1.2034838922,-6.5671164975,0.0041184051,0.2643888852,9.8551873526,0.1433759937,1.6289962084,0.4219342615,0.1250080215,2.4722564898,-0.8662675213,-0.8802290498,-7.8405000707,-0.4687439057,-2.8260432824,0.3546287459,-0.6419285678,-4.1056974798,0.0313034389,0.4797597194,7.1490472427,0.3076355142,0.1649344706,0.9470855499,-0.6891630253,0.5380664199,0.2355444697,-0.7879907309,0.6676506908,0.125527798,3.8411486442,2.0287991804,0.2460810946,2.8133806102,1.8907017845,-0.7243343119,-22.6440828908,2.8026111624,-2.9616131998,-0.7471856979,-0.5070124431,1.3252687604,0.7046864971,-0.5234710319,13.4954657598,-0.8134024648,-5.0844098349,5.857287406,1.08740204,-2.4109920817,2.1098933525,-0.3775687433,0.356163282,-2.0715954801,-0.8936566329,-4.1471637457,8.7460044265,-0.0954351562,1.0087683031,0.5506135101,-0.2634897884,-0.8747468305,-0.9900273555,0.4406225271,-0.7841057302,0.337573043,0.1971766449
biasActivation=1,1,1,1,1,1,1
[BASIC:ACTIVATION]
"org.encog.engine.network.activation.ActivationSigmoid"
"org.encog.engine.network.activation.ActivationSigmoid"
"org.encog.engine.network.activation.ActivationSigmoid"
"org.encog.engine.network.activation.ActivationSigmoid"
"org.encog.engine.network.activation.ActivationSigmoid"
"org.encog.engine.network.activation.ActivationSigmoid"
"org.encog.engine.network.activation.ActivationLinear"
