encog,BasicNetwork,java,3.4.0,1,1573990938511
[BASIC]
[BASIC:PARAMS]
[BASIC:NETWORK]
beginTraining=0
connectionLimit=0
contextTargetOffset=0,0,0,0,0,0,0
contextTargetSize=0,0,0,0,0,0,0
endTraining=6
hasContext=f
inputCount=2
layerCounts=2,8,8,8,8,8,3
layerFeedCounts=1,7,7,7,7,7,2
layerContextCount=0,0,0,0,0,0,0
layerIndex=0,2,10,18,26,34,42
output=0.9024313476,1,0.0057083499,0.2737907472,0.2876808191,0.0344190491,0.564159962,0.1654331021,0.3714167264,1,0.0010284919,0.3488516644,0.6334649243,0.014365874,0.0000026109,0.9999999817,0.0296242312,1,0.9963350138,0.9999790756,0.5118822424,0.9997264374,0.9999351372,0.3390387446,0.6897099206,1,0.0033332105,0.9949274349,0.3603178791,0.9933474687,0.0130519636,0.5220034036,0.5589413619,1,0.5459595708,0,0.0940080729,0.9999999969,1,0,1,1,11,15,1
outputCount=1
weightIndex=0,8,64,120,176,232,253
weights=-12.4450990738,6.5068724187,-1.6362490816,7.5427318374,-0.1079104599,-9.1921297813,5.2068451987,0.3728116051,4.6515876767,6.913870094,3.7110126252,-5.3194383037,-9.5218470216,-11.2379093682,-7.8969855785,1.6206984056,0.2990537924,2.0210370846,-1.6943549231,-2.3486281898,-5.5940343579,-1.060532367,0.6096153489,0.4687182694,-0.2853355381,-0.3109722471,0.250260904,1.1721514713,1.39817618,-0.4772193291,0.4320623107,-0.5088521777,-6.1480684462,-0.522241368,-10.121963798,10.4960309711,-1.6144889747,4.2411258176,-0.0433000774,-1.1243261904,-0.3582736839,1.0641389511,0.3385381325,0.198456651,0.1009588455,-0.3199957025,0.920504965,-0.0373724758,-4.6181773797,0.9434715941,-0.3909277726,4.6224338161,-0.0010090298,-1.2052192885,-2.6185051596,-0.4787036849,0.6733501847,-0.1559731675,-1.6408178104,-3.2613012631,-0.6393105146,-0.2755560994,1.9824098487,0.8306575018,-0.4263705165,-0.9073708585,5.392220965,-7.981389309,-5.5876452954,2.8391617644,2.7399257109,2.4074938956,-5.5741911249,4.9719299054,1.7779819625,-0.9004702543,-2.7914690389,-2.0101123683,2.7241944963,1.5418417538,-1.1637517759,-2.2473893768,8.6786402686,-1.9135167783,-2.2843217617,1.1681059523,4.4150849885,0.2675033731,-0.6406391205,2.8667370868,-6.4791568207,0.5909564066,2.6271751813,3.6430657196,-8.4332881216,-1.7766677408,-2.6018530887,-10.5533442615,0.6900696625,-3.4831484891,1.6097609245,3.3944879253,0.5982186294,0.2454797421,0.7882742945,11.9811356794,-5.1487413485,7.8511624025,3.7699352155,-0.4420306427,-2.6674289792,-1.9430487967,-0.464014485,-5.8438731004,0.8431995234,3.510220739,-5.5027884959,2.5186161648,1.6131138043,2.4120371368,-2.4450493965,1.2996182943,1.9279673729,1.2210084494,-4.9788947101,1.0159873656,1.062721233,1.3534528334,-4.2654325883,4.2339781259,5.2534727826,3.415827999,-10.2450465918,-1.0522662973,-1.9285770427,3.051229849,3.5740737612,-3.1601018663,-1.1687940156,-2.2343091095,4.8291729959,0.0921783583,9.5397084845,0.3769942435,-6.4625009446,4.7131941305,5.1576513822,2.4274209016,-7.7703022761,-1.3830102752,-1.3342796267,0.8354326011,-6.9037317606,7.6017436607,0.7967243411,3.3147589117,-4.8281151494,-0.4868061955,-2.2601149815,0.1036202511,2.6028079982,-0.4658108169,-3.2767430632,-0.0558633992,-1.6142951361,3.3246574289,-1.6433964361,0.2275017699,1.6105085036,-1.9756481375,3.6741720937,-2.2151309304,1.6599627394,-2.4454725034,7.1712795303,0.88210113,6.6432257707,0.540399254,9.9157046312,-3.0570910462,-2.9076842262,-2.1579539601,-1.3429631463,-2.9518311006,-5.478625103,-0.0759955408,-8.4159264752,2.2116521978,1.2174778766,0.779246956,3.3941343513,2.2378316088,-8.1924901573,0.8214106705,-2.8032638442,1.7504423363,0.8271216738,1.2517990939,-1.0907112305,2.6754603404,-1.2693659755,-0.0294798335,-4.0538584059,1.6165753134,1.2837883703,0.6775378333,1.2632962924,1.9165410408,16.8768366956,0.9198355983,1.8778917355,-4.0352041436,-2.8485972543,1.2247697202,-4.4065302988,-2.4259546181,3.5341569537,-0.0497273816,-2.4136802422,-1.0608265483,-0.816989595,0.3457012742,0.8021220447,-0.5388367938,3.9715889495,0.2606685012,12.7713144395,-0.8507159063,-0.864958208,-2.1614375233,-0.4589237206,-0.9574690884,-1.2469497079,-0.2110482407,17.0665290799,-2.476646331,-0.8864517843,0.3025264371,-0.3649625926,0.5404201993,-6.3573642058,1.0859390961,0.5407424905,-0.4765582049,0.9525724815,0.9147909653,0.474440218,3.3085794617,-4.4517965489,0.0776265469,-2.5485832546,4.944857117,0.1602528842
biasActivation=1,1,1,1,1,1,1
[BASIC:ACTIVATION]
"org.encog.engine.network.activation.ActivationSigmoid"
"org.encog.engine.network.activation.ActivationSigmoid"
"org.encog.engine.network.activation.ActivationSigmoid"
"org.encog.engine.network.activation.ActivationSigmoid"
"org.encog.engine.network.activation.ActivationSigmoid"
"org.encog.engine.network.activation.ActivationSigmoid"
"org.encog.engine.network.activation.ActivationLinear"
