encog,BasicNetwork,java,3.4.0,1,1573299736168
[BASIC]
[BASIC:PARAMS]
[BASIC:NETWORK]
beginTraining=0
connectionLimit=0
contextTargetOffset=0,0,0,0,0,0,0
contextTargetSize=0,0,0,0,0,0,0
endTraining=6
hasContext=f
inputCount=2
layerCounts=3,8,8,8,8,8,3
layerFeedCounts=2,7,7,7,7,7,2
layerContextCount=0,0,0,0,0,0,0
layerIndex=0,3,11,19,27,35,43
output=0.9257696685,0.9217470509,1,0.9968767991,0.0007179735,0.9105455545,0.0032022096,0.0000051672,0.9669099331,0.0000220387,1,0.0147185052,0.5450720014,0.9999813067,0.8040348888,0.0079038903,0.234435065,0.0000025915,1,0.0123180102,0.3370733312,0.1068421686,0.0596459556,0.2910693677,0.9987565427,0.9999998973,1,0.7994389874,0.8314032067,0.0051843903,0.5832215091,0.4301988801,0.0013399105,0.9759692429,1,0.1262365466,0.7363126151,0.0000000108,1,0.9997619331,1,0.0000000003,1,9,20,1
outputCount=2
weightIndex=0,16,72,128,184,240,261
weights=1.3751229447,-11.3425569015,5.0124576481,14.3279138065,-5.317178177,-8.3005611056,-13.8193057083,4.5770431206,12.8096038076,-1.9555699824,-8.284015878,-5.9855740993,11.0419374626,0.0245157688,7.783420675,-2.7636607111,-2.3591499482,-0.3729541231,7.4117847654,-0.331571955,-4.0029639383,-0.4877478198,-0.5866848309,-0.9952863051,2.7974309654,-2.6789323324,-4.5986988254,-1.4198051768,11.8442549991,2.4993848309,2.2519067062,-0.758701854,-3.3279335967,-1.3946332942,2.960628464,3.8625056343,-4.7223200344,-6.8858031673,-1.7021144072,-1.2850873928,6.2120482467,-3.025954473,-1.8220303013,-3.2988487018,11.3266479697,3.6922839333,-1.6745865118,-0.6635112325,-0.9781493805,-2.1692604217,-2.8781275211,-6.1852280624,11.8125166215,-4.0759688392,-10.9922808431,-2.2629457656,-5.0828327833,-0.4399152492,-1.6537341477,1.5018103357,-1.0523535856,3.8986982303,0.063880243,3.229990671,-1.1031340522,-7.7499573863,-6.0343508062,0.1077284715,-1.4079120012,3.8974265399,11.6328417715,-1.4371444762,-0.8164103918,3.0613355282,1.0205273787,2.0198419983,1.2719805033,-3.3970293642,-1.6642160981,-0.7683839291,-0.2743855853,-0.7426618725,5.1798598909,2.0234280213,0.0038393183,4.8356104919,-7.8288796541,2.7585370966,-1.9916626666,-4.215048319,-7.7208877467,2.4696172575,-2.6138299491,5.5086021481,6.8999608418,1.369348713,-4.4007335182,-3.2895431824,3.0958804904,-0.5477661662,-2.4942119403,-1.4196516303,1.3678246609,3.0526835593,0.9239276281,6.8197959349,5.371097203,-0.3140379701,2.9632840235,-8.5677604189,-0.7173667105,0.7142064379,-0.9255612625,0.691482136,-3.1633079588,2.4312386438,1.8812922471,-3.3646122614,4.5006444649,-2.8999554191,8.5820144156,1.8922210654,-0.6526920299,-2.4540633546,3.3058851461,-3.420255479,-10.6555123695,-0.2814103303,-4.1729271247,5.5744790164,1.2677963246,-3.8423387809,-2.1963198638,4.2896581653,-2.4489494079,-0.1193696716,-0.7633738581,-0.5446425867,4.4462870861,-6.2773984398,4.9596013532,4.3691979266,-0.6005289695,2.4714155704,3.6536301859,0.2506109913,6.0448180641,-2.6229437932,3.6941154334,6.976330705,-4.5905119876,-0.8725587512,-4.6656184173,-0.4940818247,0.4835184561,-4.615759996,0.6890676103,-2.2778092712,1.9114841058,1.9133983864,-1.1691403747,-0.1880434903,3.113997779,-4.872134825,3.2997949264,3.1959506729,-0.030974205,1.6325694378,2.8035206096,-0.1047228058,-5.4146321754,7.6659924683,-2.501700522,-6.367643071,1.7464609911,-0.5281928762,0.3296432239,1.5848562169,-6.6307752419,3.8023057626,-0.5120597439,-9.5818411725,8.3694754142,4.3921035112,-5.3496925847,-5.4236218398,-0.8189938592,0.2444918573,4.5724758997,0.3486356383,-0.7122121609,0.8870847799,-1.3702922635,-4.7489682331,-0.3603619035,1.2230527951,-0.0388836399,2.1944494116,0.8498717992,1.8866832197,8.7693981781,-4.6425235137,-1.0043228022,-0.2069226249,-1.706963749,0.3909358907,-0.6912300156,-1.4230309517,-12.4020525662,0.3203611561,-0.6429153352,0.257192166,2.2561554697,-0.823824389,-0.2608265744,-0.0232676198,6.694173479,-1.7336042778,-0.4728488961,-0.6905974647,0.9567069626,-0.0307147761,-0.1568722169,-0.0847813733,12.8270718818,-4.6455888219,-0.8353886691,-0.2385597441,-3.3210106238,-0.3093042879,-0.6974324723,-0.9443672419,-7.5072203732,3.0615957388,0.4398990784,0.9068833453,0.9718578983,0.6427047984,0.169444953,-0.1237241515,1.5656388353,0.1489411037,-19.0042237809,-3.5045019161,1.5218272418,2.1308629329,-2.1850196287,0.0901574992,-0.4806430201,0.9845619694,0.8143336949,-0.3023934441,-0.1746664156,0.4942204218,0.0303098652,0.8784761955,0.9722262371,-0.033949552,-0.9905581298,-0.6912004596,0.8585788427
biasActivation=1,1,1,1,1,1,1
[BASIC:ACTIVATION]
"org.encog.engine.network.activation.ActivationSigmoid"
"org.encog.engine.network.activation.ActivationSigmoid"
"org.encog.engine.network.activation.ActivationSigmoid"
"org.encog.engine.network.activation.ActivationSigmoid"
"org.encog.engine.network.activation.ActivationSigmoid"
"org.encog.engine.network.activation.ActivationSigmoid"
"org.encog.engine.network.activation.ActivationLinear"
