encog,BasicNetwork,java,3.4.0,1,1573991186500
[BASIC]
[BASIC:PARAMS]
[BASIC:NETWORK]
beginTraining=0
connectionLimit=0
contextTargetOffset=0,0,0,0,0,0,0
contextTargetSize=0,0,0,0,0,0,0
endTraining=6
hasContext=f
inputCount=2
layerCounts=2,8,8,8,8,8,3
layerFeedCounts=1,7,7,7,7,7,2
layerContextCount=0,0,0,0,0,0,0
layerIndex=0,2,10,18,26,34,42
output=0.000256642,1,0.9951820375,0.0899092093,0.2674699677,0.9964111801,0.1781144342,0.9999104719,0.8803709353,1,0.8612324766,0.9257482722,0.5245995612,0.9035393142,0.5906910464,0.7956097218,0.0536535022,1,0.6074118268,0.662709906,0.5777581305,0.5581390136,0.7346674414,0.216162168,0.5860848438,1,0.1197172704,0.776875872,0.8023902461,0.1738352954,0.7813571311,0.2122393125,0.0012093352,1,0.1107501289,0.9996735406,0.9972120316,0.9999999082,0.000281195,0.3034494161,0.3293400664,1,11,15,1
outputCount=1
weightIndex=0,8,64,120,176,232,253
weights=-1.8939553579,-0.2022326656,8.2450026616,-2.5307530267,6.8461997405,-6.5110169761,-5.7186115488,4.2773478116,2.1862340205,1.4451417414,0.644900891,0.6750555522,-2.0985266828,-0.0939226128,-1.9812932364,2.5822373771,-0.6882106122,0.0326230186,-0.4134533563,-1.1154130114,-0.5911399569,-0.0847532563,-0.5550678317,-0.0811254773,-1.4496964535,-1.8162904204,5.0369695335,0.0586394293,3.0455699525,-2.6218543862,-0.5028376134,-0.4589577656,1.0951538271,2.5463606026,-0.2851801918,1.2754591183,-2.4420860291,-0.1500666023,-1.6804933828,2.9751207007,-0.1723308454,-0.6399845583,4.078616634,1.1446369119,-5.6951260095,-1.3644703091,-1.9482473708,0.592017714,3.6578600565,5.1668139072,0.6020142418,2.4019684242,-4.1523579298,-1.1106807208,-5.6443792534,2.5406116673,1.3720862357,3.7924953944,-0.4985761773,1.5863674854,-7.1261654781,-0.8420520195,-8.6453973379,1.4747364372,-0.4540914382,0.5069267716,-0.5656109954,1.4677826658,1.5321123987,-1.095127177,-0.5069346005,0.6812377901,-0.3193524064,1.228565792,-2.4840121678,5.2934039738,0.2208489747,-0.1886079605,-0.4145148502,0.5051001933,5.4781838264,-0.3191846782,-1.9863951695,-1.5846150091,0.153132018,1.3664686906,-2.2587809427,-0.0694602931,0.9451138023,-0.8760618021,-0.0480557768,0.7689140555,1.2122916647,0.4325518944,-0.2842378323,1.0247442295,5.4199888186,-6.5025267374,5.0521643514,-6.0971281151,-0.4011966735,4.1339583877,4.3869157084,-1.3019016088,0.6296797451,-0.9665285262,2.8513241959,-0.2153330986,0.7009299611,-0.3472042641,2.1419523095,-1.6053231365,1.5441106753,-4.9060049532,5.7663894622,-7.7874835142,-0.9350484339,-0.0623235159,5.5446231039,-2.0909930054,-6.387643733,0.7085059703,-1.9199318841,3.1061516254,-0.6919600461,7.3715227657,-1.9108422813,0.6297636178,3.2633077543,1.9956583426,-4.3905301077,-3.210241845,1.2461285187,-2.4237582331,1.9490946804,2.3537010034,-3.3793592833,-1.2210581306,5.0665746189,3.2810590261,-2.4860516869,2.8790839364,-4.1178296576,-1.6325593753,1.0730657397,3.6461378252,-6.7944081872,-2.8862884593,1.7717488365,-3.6714289867,4.1822933128,2.6158525802,0.4375970271,1.1613200091,0.8000029695,-0.4462283335,-0.9434173551,1.0016834909,0.4769034381,0.0234727235,-1.8220850236,-2.2773048933,1.1502127647,3.1459229211,-0.2066794976,0.4825021991,-0.0492097914,-0.7115028464,-3.7875447716,-1.698221404,4.7381889201,2.2802027883,-2.4057464644,2.381486312,-2.9489516711,-0.699842587,-1.2324237619,-3.622893496,-2.8579868338,0.1354943517,-0.6995710937,3.1715207661,10.35153142,0.1062426653,1.1981415484,-0.7600973013,1.324218102,1.1747856,-0.5125171302,-0.1651764621,-1.7990275545,0.0221541266,-2.3738980543,1.1749692446,2.1271461054,-1.1793634986,2.8423371975,-3.3286969172,7.9258291175,-2.0532287167,-6.4824709477,2.1135928097,-3.0024017834,-0.7507794776,-0.2972632546,0.4426247611,-0.6919793373,0.8848222799,0.6927359189,0.3935771479,0.8097606354,0.6489867714,-1.4038139251,-3.546694431,-1.573735453,0.9418648811,2.8863384458,2.0699547849,-0.402541743,-2.9566368331,3.6698979069,-1.543517532,9.2725512369,-2.9288403336,0.3246202367,-3.409744839,-1.421160935,0.9657781547,8.4077111134,0.9658473219,-7.8268125676,-0.6101408148,7.9163183868,-5.7736163709,-2.5583583849,1.9865056557,-0.2894722691,-9.4825995874,2.9477028247,-1.8144367661,0.6714706843,1.4261474997,0.0327464479,0.0244571838,-2.226813365,0.7916491457,4.4440288959,-0.0892707058,-0.1497069047,2.396655846,-0.2804360015,-0.2068371925,5.4761825541
biasActivation=1,1,1,1,1,1,1
[BASIC:ACTIVATION]
"org.encog.engine.network.activation.ActivationSigmoid"
"org.encog.engine.network.activation.ActivationSigmoid"
"org.encog.engine.network.activation.ActivationSigmoid"
"org.encog.engine.network.activation.ActivationSigmoid"
"org.encog.engine.network.activation.ActivationSigmoid"
"org.encog.engine.network.activation.ActivationSigmoid"
"org.encog.engine.network.activation.ActivationLinear"
