encog,BasicNetwork,java,3.4.0,1,1573991239376
[BASIC]
[BASIC:PARAMS]
[BASIC:NETWORK]
beginTraining=0
connectionLimit=0
contextTargetOffset=0,0,0,0,0,0,0
contextTargetSize=0,0,0,0,0,0,0
endTraining=6
hasContext=f
inputCount=2
layerCounts=2,8,8,8,8,8,3
layerFeedCounts=1,7,7,7,7,7,2
layerContextCount=0,0,0,0,0,0,0
layerIndex=0,2,10,18,26,34,42
output=0.4047882002,1,0.5276791287,0.6641357961,0.4019187653,0.2359350056,0.5163084114,0.464338681,0.5125728595,1,0.3121321851,0.3995994434,0.8462049988,0.5199580768,0.4989117061,0.524396722,0.4049311526,1,0.5383758622,0.3824513554,0.5672310681,0.686153469,0.6698066681,0.5387689091,0.7114548919,1,0.0367825662,0.4806196684,0.7788688059,0.2433832189,0.7656199009,0.000004738,0.9942617639,1,0.9851754061,0.0000000025,1,0.9504083409,1,0.9978606625,0.998758888,1,11,15,1
outputCount=1
weightIndex=0,8,64,120,176,232,253
weights=-7.4787323615,-1.1113885188,4.9068865312,0.5894084095,-9.9451395141,2.321475886,12.6539562162,-0.2415677068,-0.223877803,1.0061464614,-0.9460829171,6.5828769527,-0.1778811451,-3.0192163433,0.6465861078,-1.4333949419,-0.7576707818,0.2957927231,0.3012700616,1.156168666,0.5827860779,0.0662130149,0.3995781955,-0.5433032651,0.9386337386,-0.5348500397,0.9295904555,-4.5633132974,-0.2679243652,0.3656527189,0.8665059841,0.7004271452,-0.9387251525,0.1293267574,-0.6879100597,-0.6455440413,-0.4747833608,-0.8218091287,0.262333012,0.5456018935,-0.1085699945,-0.4831560133,-1.249571834,8.8519867669,-1.0161254115,-4.1048285423,1.9047629197,-1.3648365761,-0.7475281778,-0.1117564295,-0.03790605,-1.9629058989,-0.5245389861,0.5345481074,0.3377729712,1.0324111506,-1.441020554,0.2300012909,0.866413615,-10.9431198657,2.1265740842,5.3472550045,-2.298491203,2.430657568,0.2207569412,0.888152087,0.1370932853,-0.614575577,-1.4050549814,-0.9586027478,1.1849318774,-0.2902105347,-0.5995575657,0.071929336,-0.5572678334,-0.7800241627,-0.0731676428,-0.4616103605,1.0560581933,0.2858311074,0.3959950093,0.0855942745,0.4578013577,1.0220436517,-0.0314054247,-0.6269166756,-0.5402281975,1.24140011,2.8843965946,1.2913237419,-2.7580845352,3.3729438925,-11.8573319468,-0.1789637433,11.3101666305,-2.7249024608,-0.1654357461,-0.712116403,1.0634837913,-0.8308320313,1.0045946393,0.5695276375,-0.9867887198,0.0462282368,0.1704944368,-0.7175731801,0.9539947258,-1.3216484628,4.2847251449,0.6701610916,-4.6945188186,0.7549683651,1.2136254797,1.2620894257,-0.858460786,0.4383067956,-2.713840906,-0.4604605906,2.0380993924,-0.7190198227,0.6104083599,0.733665333,-1.5322956168,-3.2548773731,0.8380821889,0.7503534211,0.8752176081,0.2525279938,0.1933044094,0.7846599904,-0.2562859201,-1.9976548946,-0.0490907069,2.029197533,0.0684323689,-0.2080453221,-0.131418423,0.0977978803,0.6970395981,1.2312950458,-0.7972100703,-0.4780541494,-1.0519597029,1.042099648,-0.1394556097,1.1032608298,-1.5874382431,-3.3522682625,1.2255554254,1.3763430801,1.7278290024,-0.3468605992,1.2547999419,-4.4707921089,3.4618067418,7.941924243,-2.1693082808,-7.2198932905,-1.1254722332,0.9605960742,-0.2261579136,-0.3737921564,-0.0937170665,-0.4862646107,0.8392632821,-0.890979713,0.1027356843,-0.2099985959,-0.0016879393,3.8834825947,-4.4870207891,-8.8964670955,3.8169567439,5.348034086,3.9319190138,-2.1356242358,0.018653524,-0.0905630991,-0.2841992192,-1.3617007761,0.1199380797,-0.5854505805,-1.3534842109,0.1108032253,6.3556438919,0.0925332997,-5.4374338103,-2.00202336,-0.8093251257,5.1581780587,-2.4577476516,-0.881931264,1.6451655955,-2.0507609963,1.9009259881,-1.1842993574,-0.4397606066,0.9978420738,-3.4111521409,1.7139235478,5.5673895567,8.2609079265,6.6862085287,-1.459658003,-6.4391166546,-3.985147305,-0.1611120056,-1.3413619018,2.3145693724,13.9414712354,-1.1952016913,-4.2142121201,2.4853215522,2.3646433393,0.7582445903,-1.4983007797,-3.3645950319,6.6589582248,-1.5548986667,-7.7045671153,2.0028688837,-5.1927815393,1.2679315913,1.8446570635,-0.5278256781,-4.459421127,-0.370753484,3.1557797923,0.112463549,0.8853180683,0.3952600314,1.6556664936,1.4498348736,-1.1530770454,5.5445042249,-2.2792576323,1.6187128537,-19.0154825695,-3.9083622064,5.7504216443,-2.1707544481,1.391813571,0.1715939811,-14.9307899288,-4.7991379226,6.5538533802,1.07845986,2.2571757164,-0.6331596975,-9.1864199704,-0.71825129,1.2092362685,-3.547274227
biasActivation=1,1,1,1,1,1,1
[BASIC:ACTIVATION]
"org.encog.engine.network.activation.ActivationSigmoid"
"org.encog.engine.network.activation.ActivationSigmoid"
"org.encog.engine.network.activation.ActivationSigmoid"
"org.encog.engine.network.activation.ActivationSigmoid"
"org.encog.engine.network.activation.ActivationSigmoid"
"org.encog.engine.network.activation.ActivationSigmoid"
"org.encog.engine.network.activation.ActivationLinear"
