encog,BasicNetwork,java,3.4.0,1,1573300181799
[BASIC]
[BASIC:PARAMS]
[BASIC:NETWORK]
beginTraining=0
connectionLimit=0
contextTargetOffset=0,0,0,0,0,0,0
contextTargetSize=0,0,0,0,0,0,0
endTraining=6
hasContext=f
inputCount=2
layerCounts=3,8,8,8,8,8,3
layerFeedCounts=2,7,7,7,7,7,2
layerContextCount=0,0,0,0,0,0,0
layerIndex=0,3,11,19,27,35,43
output=0.9992880365,0.9994476748,1,0.0036926679,0.0000067286,0.0009242281,0.9781724231,0.9809088743,0.0002023077,0.1672612161,1,0.9653978209,0.9991643798,0.806044799,0.4830325938,0.3052263122,0.0092931879,0.0155278432,1,0.758411992,0.686737322,0.8259667286,0.0159596607,0.64205274,0.9893789666,0.0000009615,1,0.7250138303,0.5196186341,0.0664091266,0.1126098434,0.8749095236,0.999999671,0.9805198304,1,0,0.810761739,0,0.0000015309,0.9879476457,0.7827608511,0.9999999703,1,9,20,1
outputCount=2
weightIndex=0,16,72,128,184,240,261
weights=-4.2011627129,3.7080783104,-10.5913050933,-0.0558009038,9.9224392552,1.2941331565,1.3305855199,-2.6291940087,4.068207917,-7.8821655543,-1.0470163569,9.0263134282,1.6562920107,-5.7900935665,-6.8622820786,-1.8181782002,-3.2499075569,3.9996381429,-5.4337291999,-3.9415613499,-0.3680496298,0.2013499928,1.6661161692,-0.088221051,0.3470936312,-10.5993981177,-3.914005005,1.9045888905,0.4843071214,0.9636838425,6.4760537699,0.3238608741,-5.8706334372,2.6997589162,-4.0746106792,-1.9763179683,-0.0179584974,-3.3634468818,7.9019366921,0.1373500179,1.8055175983,-2.6581487906,7.1947696225,2.6167650664,-2.4068565029,4.4528163384,-4.5143654842,-1.5845393954,4.6133967271,3.6782228611,-1.0221367336,-1.6138515547,-1.5676139568,1.5151217088,-4.5486825738,-2.0511976023,-2.7457528216,-1.7438017262,-2.1687736313,-3.9998454444,-0.0636788861,7.2162798182,-2.0312285979,-0.4483306527,2.3666560519,-2.4282227909,-4.0559853761,2.0592411142,-0.2947151599,-1.9075599254,-4.1595119209,0.983161598,-3.3187345488,4.6289324123,3.6057297736,-2.3711407007,0.9532101047,0.1945837966,-4.3447152296,-1.0781632847,6.3978659454,-2.688818431,9.7126074536,3.8026047718,-0.52147169,-2.0152893543,1.255498331,-1.6734887183,-4.3266162354,3.8629027313,4.0489731545,-4.5045614926,-1.1886888071,-0.4929576107,7.8641274707,0.0315596716,-4.300334236,3.805937208,2.5214148259,-0.9159517121,-0.6330385367,-1.2762714342,2.0678248076,0.1810220077,1.1580098337,0.000047067,-0.8379608325,-0.9485592473,-0.1112940217,0.2441457355,1.2761977581,-1.1636443217,0.8793861791,-5.4980570236,5.660870059,0.9845206616,-2.1970815527,-2.3430573061,-1.5752030942,-2.5229406319,2.6166089226,-1.1920505588,-8.065311797,3.2030053621,4.5265996727,-0.1463577584,1.6401695779,-1.4662665336,4.0658804896,-5.5922491485,0.8342855773,-0.4098231183,2.3140455703,3.9819597759,-5.0118032797,0.0003896795,1.9182773132,4.5790111181,1.4161676444,-0.3040717567,-6.2640639694,-2.8878415119,4.2887892876,1.1180745703,4.9788646897,1.9715479441,-1.9453284206,-3.4540060231,-11.0581017964,9.8849869641,-0.8940614056,-1.8922483732,5.1610007766,-2.056695627,0.5441403815,2.894315524,-8.5457749146,4.34990723,-3.1845824975,-0.9073460823,-1.7592725726,0.7029667994,1.4871178125,-3.3299794622,1.8684501806,-0.2022773864,1.4395715101,-1.0732385886,0.623417032,0.7159806692,-0.4778169035,-0.8486919333,0.9576466546,1.1767163545,0.692923168,1.1435256675,-2.5938861768,-3.7842652624,1.2054126398,2.594657246,0.7077318301,-10.0322023792,0.4202617104,-1.3790962082,0.1690188957,-5.2060918454,-0.1071123481,2.6668818738,3.8304999891,-4.2348796126,2.1040900191,2.6168404893,0.5531011352,0.070581586,0.0876156139,1.8113740453,4.2075872679,2.1184622974,-2.7653945963,-3.0284435486,-1.4329323518,-1.1160100169,-0.4979318923,0.9851458441,-2.3761713783,1.2849645291,-0.5216662351,0.1249921144,-0.2535261297,-4.0170933825,-0.1398402018,-0.4167444694,-4.6990178192,2.6969544131,1.5153249297,2.2085390139,0.9100730775,12.3934825035,-0.5118767377,-4.4336452142,-5.9770463198,-0.6261389475,-1.320602615,-0.3873429751,0.271300936,6.2906498219,0.7415838573,2.2152313697,13.7854450406,-3.9009013614,-0.1240944797,-0.6146806947,-0.42161542,2.1226528696,0.0261556484,-5.1244945318,-1.5824562958,6.9119762685,-1.1877252442,-0.4615872697,0.203714956,-2.4704056569,1.0374208998,0.7773732646,0.3155788538,-11.8529690951,-0.9041802979,-0.8575228072,-0.1951932996,-5.6285224853,1.9730379981,-2.1937049599,-1.4210209565,0.3922269698,9.3510189005,2.1812991117,-0.5197305053,-7.9552534917,0.8242978403,0.4760729308,0.3929898895
biasActivation=1,1,1,1,1,1,1
[BASIC:ACTIVATION]
"org.encog.engine.network.activation.ActivationSigmoid"
"org.encog.engine.network.activation.ActivationSigmoid"
"org.encog.engine.network.activation.ActivationSigmoid"
"org.encog.engine.network.activation.ActivationSigmoid"
"org.encog.engine.network.activation.ActivationSigmoid"
"org.encog.engine.network.activation.ActivationSigmoid"
"org.encog.engine.network.activation.ActivationLinear"
