encog,BasicNetwork,java,3.4.0,1,1573300305578
[BASIC]
[BASIC:PARAMS]
[BASIC:NETWORK]
beginTraining=0
connectionLimit=0
contextTargetOffset=0,0,0,0,0,0,0
contextTargetSize=0,0,0,0,0,0,0
endTraining=6
hasContext=f
inputCount=2
layerCounts=3,8,8,8,8,8,3
layerFeedCounts=2,7,7,7,7,7,2
layerContextCount=0,0,0,0,0,0,0
layerIndex=0,3,11,19,27,35,43
output=0.9999999412,0.99922924,1,0.9609718171,0.9904599383,0.9998722321,0.9994200455,0.8513324115,0.000006802,0.0000001113,1,0.0010477901,0.0000001409,0.7593945228,0.9218367859,0.0390473312,0.0000002552,0.1641510656,1,0.0086777913,1,0.2200166863,0.000004539,0.9999994233,0.9995750567,0.0015983722,1,0.9820513304,0.6217161124,0.000025972,0.0380601238,0.0000000498,0.9991249879,0.3088337238,1,0.6285157869,1,0.9999999997,0.9999720292,0.0000000016,1,1,1,9,20,1
outputCount=2
weightIndex=0,16,72,128,184,240,261
weights=5.8163344628,-14.9500178629,-5.3103474499,13.0291810451,22.7975137546,5.6630707398,-13.2556983539,-1.2537526857,9.5198449025,5.940346434,-11.3360348392,-7.6735430774,10.0831809404,-16.7663562509,13.851837521,2.5550375659,5.5672296098,0.5405552455,3.7344932068,-0.7751466255,1.162250799,2.931132909,-3.2455236944,1.5638053147,14.3693307937,-6.3966427121,1.8550078551,9.4041764387,-2.846216691,-6.3425332592,1.7781126416,-5.6309245607,6.874061474,2.9348913453,2.7154982562,-3.974032954,0.0169482646,6.9523054249,-17.5117873602,13.4331547924,0.3250534564,2.6123906202,-4.9601159431,8.8481394821,-0.1765183054,4.3601324231,-2.8610809159,3.5383251979,-4.7076353776,6.9117376651,0.4729171356,7.0558264917,-4.646652794,3.6241526448,-26.4258256835,-0.5941637469,-7.0761935003,-0.2967910149,-0.5379140731,-8.5721868088,-2.572965978,-4.4451011452,13.4581636954,-5.6889280661,-9.1062368002,-1.3713166141,-12.8728223803,-14.0153108819,-6.1629068029,0.5348773515,10.5220919342,5.2073455984,-1.6071573794,-11.2640747377,6.8111495379,-2.3997845098,7.7413846902,-5.0055631421,11.8648162355,0.1625334269,1.4527699593,-11.3618659938,-2.0944000005,4.275586399,-7.2060947542,-0.78598641,3.5052887876,4.0206855562,7.7698231776,-1.5325609674,4.314339232,-3.2950495442,2.6209272502,-2.2514979178,-1.7220848113,1.2976552184,-1.8805609706,-2.2811958693,9.8717469992,-13.8379830135,1.0422716407,4.2340419684,-0.6904191939,-2.6802124427,-1.6819444939,-1.4909016482,6.074688513,2.6531386057,2.0316544618,-6.1494140688,-5.5107814834,1.0897576124,-1.6615753789,-8.1159914205,-1.5871674841,10.4425681556,-2.093350775,0.1874776489,6.4301969733,-4.8059605576,-3.3234416057,0.9616534339,-10.0709515427,13.2892289571,2.1856838494,-3.4296120138,21.4201868771,0.8634776066,3.6083157485,-13.3905166747,0.0453028714,-2.452173197,0.798444695,0.6732758578,-4.6430243189,0.8978406669,8.9349683016,0.2280121519,-2.8201102988,-15.9479336874,4.3447218007,17.4062091301,0.2798855168,2.0965986914,-4.9751563181,4.0847502438,-0.6101032993,-19.2191897566,7.1201557467,2.6114929004,-0.1804241642,-0.7412518093,-5.6084944708,-2.6146642192,7.783237328,13.5021045339,-10.1083122924,-6.037075311,5.2228231559,-1.2646674814,2.4697226583,1.3297773972,-0.382557522,-9.2969608499,0.3829981404,7.6559920896,-1.0468069971,4.1416043953,4.1810927327,-0.4803128309,-5.3595337628,0.985968134,3.74702306,3.3325658239,-4.1217597973,1.8616019577,-1.9971346377,-12.2240648834,1.4479910358,15.4324049066,-13.3141162503,0.9850519813,2.2948490422,0.8437039356,7.8123821251,2.0882867346,-0.0515153698,1.0641499709,0.9637245092,-1.1727199909,-1.5204645619,-1.3157849375,-21.0349665212,2.3257770993,2.5863675585,0.4006158888,-0.1348401666,3.0474849324,2.5801950878,2.7772178136,-6.1743298882,0.8862912079,-0.727687059,-8.1758463829,0.0353428908,0.4174542206,-0.1499635386,1.0717217844,-13.7708546165,3.1043529967,0.3596720256,5.2750621739,-0.1097582567,-1.5155265112,-0.7259042817,-1.0720941639,11.3498010268,-2.7363635481,-2.5488664881,-13.7648470017,-0.6594989654,-0.8290260317,-1.0570263385,-3.0137839013,18.3835414376,1.4688610694,-1.1107752441,-2.5967235408,-0.91777311,-1.7529747402,-0.1217139677,-0.4006947701,-5.6891982781,1.3114590354,0.9154093078,-3.897518059,0.7758644259,1.3857779607,1.2285110149,1.8264252507,-1.4034291825,0.0574470513,12.0077763953,-0.2107190808,4.479830795,-0.7071973613,1.0793377655,0.6501031649,-0.6409343784,-1.3500275515,1.1339202771,-0.0438352086,-0.6431493836,-0.7428843086,0.3869081082,0.931679331,1.4078543753,0.020312999,2.0241710737,1.38166715,-0.0725190769
biasActivation=1,1,1,1,1,1,1
[BASIC:ACTIVATION]
"org.encog.engine.network.activation.ActivationSigmoid"
"org.encog.engine.network.activation.ActivationSigmoid"
"org.encog.engine.network.activation.ActivationSigmoid"
"org.encog.engine.network.activation.ActivationSigmoid"
"org.encog.engine.network.activation.ActivationSigmoid"
"org.encog.engine.network.activation.ActivationSigmoid"
"org.encog.engine.network.activation.ActivationLinear"
