encog,BasicNetwork,java,3.4.0,1,1573300977598
[BASIC]
[BASIC:PARAMS]
[BASIC:NETWORK]
beginTraining=0
connectionLimit=0
contextTargetOffset=0,0,0,0,0,0,0
contextTargetSize=0,0,0,0,0,0,0
endTraining=6
hasContext=f
inputCount=2
layerCounts=3,8,8,8,8,8,3
layerFeedCounts=2,7,7,7,7,7,2
layerContextCount=0,0,0,0,0,0,0
layerIndex=0,3,11,19,27,35,43
output=0.0001306761,0.090906896,1,0.0000286048,0.9999970672,0.0000689222,0.8570722165,0.7914067492,0.9811965095,0.9999744561,1,0.0000038084,0.0255383322,0.9996116354,0.9996476674,0.9936193936,0.0532810344,0.0186537604,1,0.0000006325,0.1281882179,0.4232579976,0.2693059754,0.9972928978,0.9613118997,0.403698365,1,0.9688232047,0.107380991,0.2484504385,0.7570121073,0.9807275011,0.5739950652,0.2417755273,1,0.0000000001,0.0000002696,0,0.8305706085,0.0000000371,0.9999149618,0.433795024,1,9,20,1
outputCount=2
weightIndex=0,16,72,128,184,240,261
weights=-0.7802602031,-3.5165523131,5.5955931936,-8.6680688512,0.3877107785,-8.401078449,6.3305426289,3.608572441,9.7314367537,7.077132649,-5.8104854473,2.6433789957,6.3686918908,-2.3749626664,-11.9886141463,-2.3667808907,1.8878048833,2.1659036896,-0.348707791,-6.5442525685,-4.4724554489,1.126564042,7.7614591594,0.6124041698,-3.928076546,-1.7453341881,3.9389866899,4.4374013014,5.734874319,-0.56083287,-2.7483269476,-1.2063019208,0.7194895916,7.1652291902,-2.2197730495,-3.5190860282,-4.0452423629,3.8389571412,5.1735635289,-0.3103160151,3.4615401994,-0.294894544,0.3281119545,5.1871226771,-4.5959212336,-4.2912587069,-1.4412741375,1.107545364,-0.8723722709,-1.9669968186,1.8809216925,0.4936436468,-0.1164552282,-5.5215162808,-0.9791948336,-0.561827981,4.0175238953,0.0490191961,6.4502324528,-3.7093264749,2.7188601249,-4.8237071872,0.0894336406,-1.232413098,0.3952119921,-10.17030483,1.7969384743,4.6358172958,2.8478224402,-8.1840902047,-3.5921179163,2.0778043941,5.4202299324,-0.7867889392,-0.0109805127,0.8151187169,-7.590426873,-3.009225696,-2.159556503,-1.2578198214,5.1794903978,5.0728920883,1.1376010876,0.9313586119,-5.4449927138,1.2358044691,1.6230945253,-1.4372936919,2.8786103375,-0.5645433953,2.49111247,-2.8217170258,8.3840967837,0.0239397057,1.4714551364,-1.3473721427,-9.2841988947,-2.9440744795,4.5403774688,-0.3190332473,4.6131199317,0.669333232,0.8628160977,0.8997633961,-9.7153026017,-0.7318898131,-1.2973277985,-1.6307870396,2.3226850903,3.3748823769,0.2465716238,0.4699494479,4.7686927689,8.0186131645,0.1232543642,1.372276615,-3.3410143603,-1.2262138956,-1.3663920639,0.735306864,0.9939562426,1.912200851,-5.8898737606,-5.0134484264,-0.8438211794,2.6505597127,-4.2003226452,-0.3757263821,-8.248700686,4.0766905195,7.2448850769,-5.1852611292,-4.1314315592,-3.1207287877,6.2305506578,-0.2578047219,-4.6605764433,3.1402561105,5.4059197764,-1.4611045051,-2.9824071152,0.6138213046,5.5353795402,3.2582465063,-1.3551439971,-4.9916881803,0.0190671834,2.7973354671,-0.5896280896,-1.6342223167,0.2070406053,0.8833828696,-3.8099952341,-0.4676964895,1.2779705293,2.6538185596,-2.3347762669,1.4612107959,1.8226697102,1.4271763511,5.6287362047,-3.8169592288,1.7411362816,-1.6991604089,5.3936672345,-4.2703808167,-5.5060511053,0.2121714309,3.5203336214,-0.3408984866,-2.2388441504,-0.7050305492,1.9485533358,1.5966140949,-2.05803497,-1.4011155299,0.3750296252,-1.6984198052,-2.6783369471,3.6715004388,-1.373072113,0.6952217799,-0.1746730329,-1.6951869809,0.5695781259,-0.2164538063,1.7834434825,1.6036184849,-2.8054608595,3.1691622765,9.3198309276,-5.1072992093,-0.0518637498,-0.0382403422,1.9122439626,-4.1993954635,-0.5083459177,2.0084953255,-4.9269529235,1.4990809355,-0.0916497354,-0.5552614509,-0.9639893439,-0.7464714658,2.2247020476,1.8772093247,-7.9680206909,1.0925415886,-0.0947144101,0.1064749907,-0.960840056,2.5524746279,-3.2348652446,-3.2766864905,3.9119617229,0.5957756336,-0.7196319861,0.1317241505,-0.0625929113,2.7887186548,-1.3460977148,2.5449890008,6.0515882579,-3.556533695,0.28296164,0.4956789321,3.1773205096,-1.2111126171,-1.9849365021,-2.2298861644,2.8148708658,2.3127039167,-0.5474493565,-1.0575509301,-0.4924091027,-0.2676707537,1.516328237,-3.2847995477,-7.5049422707,5.6194767585,-0.9447891554,-0.7009294804,-0.8636466642,-1.3585468834,-0.1440899491,-0.017680981,2.4131165307,-4.5324018496,0.9017915375,-1.0599142947,0.5018242552,1.0924202218,3.2080510591,-2.3195066625,0.4089093315,4.7494709148,-1.7102974994,0.8330371928,-1.1682313296,-0.1608438278,13.4645744896
biasActivation=1,1,1,1,1,1,1
[BASIC:ACTIVATION]
"org.encog.engine.network.activation.ActivationSigmoid"
"org.encog.engine.network.activation.ActivationSigmoid"
"org.encog.engine.network.activation.ActivationSigmoid"
"org.encog.engine.network.activation.ActivationSigmoid"
"org.encog.engine.network.activation.ActivationSigmoid"
"org.encog.engine.network.activation.ActivationSigmoid"
"org.encog.engine.network.activation.ActivationLinear"
