encog,BasicNetwork,java,3.4.0,1,1573301024207
[BASIC]
[BASIC:PARAMS]
[BASIC:NETWORK]
beginTraining=0
connectionLimit=0
contextTargetOffset=0,0,0,0,0,0,0
contextTargetSize=0,0,0,0,0,0,0
endTraining=6
hasContext=f
inputCount=2
layerCounts=3,8,8,8,8,8,3
layerFeedCounts=2,7,7,7,7,7,2
layerContextCount=0,0,0,0,0,0,0
layerIndex=0,3,11,19,27,35,43
output=0.9705863992,0.8400004692,1,0.0000086808,0.6497937018,0.6918306595,0.3663550212,0.0002885759,0.3696304222,0.0000002895,1,0.999593797,0.0038998775,0.99256916,0.9999953693,0.6891441004,0.851239788,0.9253650552,1,0.0455427245,0.6954977872,0.9997629599,0.9997288223,0.2352578019,0.0000495586,0.0391957175,1,0.5229882191,0.3271162426,0.4486350136,0.0000367367,0.8464929404,0.7923391424,0.9072442591,1,0.000000257,0.0330933097,0.0000008413,0,0.9999997596,1,0.8093578296,1,9,20,1
outputCount=2
weightIndex=0,16,72,128,184,240,261
weights=-8.3239363676,-11.4794189085,-7.2691147312,-8.1633544584,-0.1293901365,17.0017608777,-11.3894556119,12.6911245293,-0.9253830519,-15.484609431,0.5896725676,2.2095876548,-1.8398912906,12.5667859175,-7.0438403393,5.858060793,-8.8213979238,0.893295459,-0.2968177168,-1.0288959538,-4.5006153812,-0.0907986569,0.6923842422,1.0215997861,12.2080797135,1.2626733314,3.4675017324,-6.8609719853,-4.2842691976,4.8540798714,-5.5489770922,-4.215385153,1.070628045,-5.3265856154,-2.1061089307,-2.7658297191,8.213089174,-1.9412168613,-1.8576157226,2.3269590922,-0.0304161255,0.9741438027,2.9412904374,8.3210860309,3.5600768248,-5.6416965141,-8.6067600163,-1.4483373477,-2.111352588,-0.5522918338,0.97532843,-2.9529529317,-1.0444438156,-0.8933222268,-1.1165051168,-1.5393782615,-3.4338317965,-8.9157360964,4.0615314592,8.2905219565,-0.3905833081,10.4154000882,-14.2421776777,-4.8060510716,-7.2338322973,3.5364279371,-2.2276627422,-3.5328259669,-13.1938043523,-8.1630578856,12.567766884,2.3172180897,-2.9685437895,2.3176865709,9.8587070977,1.6625255085,-5.0286589276,5.5964719297,5.3709734954,-4.2147092964,5.4283863926,-8.6635517725,-4.1493797133,6.2200387947,4.3141300782,2.6550949407,8.8521769996,-3.1966327423,-1.9345919365,1.5140675078,5.7872342756,-2.8472630197,-1.1849214042,-2.4689674424,-0.8388674904,1.3021265836,-7.8718357772,9.6313622465,7.6246464129,-1.6494746657,-4.2265768668,-1.0776048509,-5.3769725582,1.1740361624,2.0817082935,-4.04686359,6.9087942245,-0.4607067557,-5.7493797881,8.0254565474,-8.1962307397,-1.2572299372,-5.0671162679,-0.2465726445,4.1130164379,-3.1448943939,-3.9705396563,-8.9890265724,2.8048458017,2.003227228,2.5228643651,-3.0773985722,-5.5420349708,8.8845472754,0.7243903847,9.6748637411,6.2725344549,0.7848341186,2.565357055,0.2084004655,2.3071868934,9.6529436599,-0.2615152772,-5.551965888,-1.186569094,0.2091645931,-8.6621200623,-5.761850653,1.1625896705,-2.248160166,-0.134646022,5.9546382248,2.2578663602,0.066882984,-2.2929074236,1.1706853372,0.8670360141,-9.8501756106,2.9410082979,3.5442823577,3.0220696048,0.7350648476,-6.1061599044,-3.078206943,2.0464629198,-4.1111053748,-1.1574989251,1.5381679956,14.1593229846,-1.5900183215,6.7047267232,3.8193967555,-2.2385041198,1.5680983375,1.3775506764,-2.1910948983,-5.723772369,0.8323400277,1.9979319529,0.1576020785,1.6873187641,15.9485368367,-0.4326587378,-10.0865152682,-2.4137042802,-1.2183272908,3.7441870777,-2.4381581868,0.2442412083,7.9014528128,-1.9205500777,-3.6271752587,0.8979398975,-0.7846390539,0.2720883997,11.8613102957,-0.3274780048,0.0135398986,-0.4080338755,0.6025048724,-0.1215731066,-0.3965870092,-0.9876530448,3.7234038954,0.0755134574,0.3402817049,-1.0543783715,-1.2924964702,4.6299902603,-2.24492085,0.503262712,-0.7969542286,0.5717110654,0.7286795549,0.8580600765,1.808128271,-4.0503981871,0.4322192599,-0.0436688282,16.0903257273,0.8221465216,0.0165646111,0.4761343332,-0.9691562306,-11.8298675167,-0.6765625644,-0.1885973257,-0.8001095724,-0.2505532645,0.493030781,0.045834626,1.6554647914,0.0876656868,-0.038418478,-0.1391809305,-11.213271512,-0.6443407948,-0.6650431096,-0.3159296471,-0.6466844463,3.1845249721,0.0953618962,0.2424552774,-14.250075013,0.7610080117,-0.7438886104,1.6072611568,1.1803832891,-1.6132062718,1.2700406324,-0.7542777879,-0.4008886835,-0.3678994456,1.2631503039,-0.1314189564,-12.114744465,-0.9682991221,-0.2727286092,0.180914206,-0.9935720391,-0.7453521967,-0.7480218364,0.8654193812,0.395192249,-0.4517168434,-0.9588934474,3.6287496746,-1.101200817,2.854663059,-0.6177793632,-11.8905373539
biasActivation=1,1,1,1,1,1,1
[BASIC:ACTIVATION]
"org.encog.engine.network.activation.ActivationSigmoid"
"org.encog.engine.network.activation.ActivationSigmoid"
"org.encog.engine.network.activation.ActivationSigmoid"
"org.encog.engine.network.activation.ActivationSigmoid"
"org.encog.engine.network.activation.ActivationSigmoid"
"org.encog.engine.network.activation.ActivationSigmoid"
"org.encog.engine.network.activation.ActivationLinear"
