encog,BasicNetwork,java,3.4.0,1,1573301056036
[BASIC]
[BASIC:PARAMS]
[BASIC:NETWORK]
beginTraining=0
connectionLimit=0
contextTargetOffset=0,0,0,0,0,0,0
contextTargetSize=0,0,0,0,0,0,0
endTraining=6
hasContext=f
inputCount=2
layerCounts=3,8,8,8,8,8,3
layerFeedCounts=2,7,7,7,7,7,2
layerContextCount=0,0,0,0,0,0,0
layerIndex=0,3,11,19,27,35,43
output=0.2315721004,0.3038699452,1,0.978043129,0.0000000001,0.9926372603,0.7717317328,0.0034744441,0.9996708965,0.8766857084,1,0.1986044935,0.3994556366,0.9991920989,0.8134815581,0.9999988766,0.9962760336,0.0000001592,1,0.9999999963,0.0446260454,0.0000000027,0.0055415092,0.0155904631,0.9999998601,0.0102886301,1,0.0211151458,0.9321038433,0.9960391057,0.404782761,0.9885791673,0.9971782177,0.5054411849,1,0.0000000011,0.0000002776,0,0.1275036459,0.9999999999,0.0022264678,1,1,9,20,1
outputCount=2
weightIndex=0,16,72,128,184,240,261
weights=4.4895679752,-12.5556239658,-4.9253984963,-13.34134236,10.2536148809,-2.4458482667,15.3797458741,-1.4791609367,-0.1229866702,2.5621133597,5.4833307229,-8.2948839289,-1.9119886248,8.0354936015,-5.6504486484,-2.8227220946,-2.7046121223,-1.7380914838,-0.4256274191,-0.1673493858,-1.6594549767,6.8314484889,3.5661884672,0.442775545,-1.4196879213,-2.4952040326,-4.1971383144,-0.5228385455,-11.9713747233,-2.7681894548,11.0185128333,-2.4837623011,-5.9063234994,2.1625978591,1.1763371804,1.7559185094,1.6561506858,1.2487008191,-3.1947597001,-0.2908994806,11.4078057031,-3.5452297884,-1.8863655298,0.9196046096,-0.075905601,3.6141187501,-6.3440353457,-2.0193572311,-5.7515401893,-0.9514952027,3.0747808366,0.3753616007,-1.8378491337,-4.7717690842,4.7825123513,-0.9222794028,0.8958814741,1.8948306221,3.9016631062,-0.6591621179,2.9838067147,1.1400249556,-2.5307575089,-0.3978949262,6.0830233217,-11.8513067714,3.6881941717,-3.6290438182,4.1081672744,3.4095233762,-8.4169507784,-2.7506742311,2.6977988665,5.612997864,0.6443674335,-3.8136597119,5.3589230282,-1.3979795908,-10.2517216921,-2.9022830628,1.9927878268,-2.78354107,-1.158696044,6.7763631748,-3.5203436477,0.5123461191,5.6804065284,-2.829760331,5.4220825328,-0.2282194392,-3.9249089998,0.7965257702,-0.521159032,1.7927260931,1.5907359351,-0.0970164836,0.5772600581,7.4158029073,-0.5971157651,1.1067497127,-2.0086068891,-0.3606412736,2.6612953983,0.9230373139,6.3821945119,-0.1046739334,-3.7383819282,1.407299268,-1.0482795972,6.9964534033,-1.0041700989,0.3440170712,4.2712834177,7.4941185611,-8.528964859,3.7665204053,-6.8866456605,0.8209207975,-2.6641335312,0.2765021495,-7.6375943746,-0.5601252712,7.4500375801,-3.7296810699,1.2621850146,-7.2012275311,1.6785041701,-0.8053615069,-1.0809623634,0.2753654966,7.6343125203,-3.4699645573,5.1738962291,7.4269707631,-0.4963904087,0.7066220641,3.397019153,5.8875839359,0.6590358986,2.7011414785,-8.6181347482,0.1006116004,-1.2483218019,-1.3228203479,6.2021008956,-0.0156727971,-9.3010580699,3.5435330758,-4.0036802826,-6.8687740278,-0.4751763841,-0.9700617089,-2.5802645315,-4.7139969925,2.4676540676,-6.9740153275,-0.774731251,1.9685465495,-1.5863279824,-0.771745946,9.1948882254,1.8533140662,-3.7332503232,7.6895353351,-1.9652954987,-2.0209595512,-1.9255509136,-0.5297834556,-2.7170439388,2.936317314,4.7174176043,-1.7439362622,4.9717742197,3.215600233,-1.2725537548,1.6319435209,-2.3041929369,-0.5661531502,0.4518574099,8.5139341982,-1.8973723633,-10.4597915082,4.8202745506,1.9832452791,0.159775102,1.864451958,-0.1563826552,13.047187421,-6.1940723809,0.243932197,1.9195939566,-1.2260525922,0.2471568585,-6.4603511285,-0.2398630134,2.3065333582,0.6806140203,-3.4289508524,0.4356954154,1.2167001906,-0.0917295203,1.4765174553,-0.5349557422,-10.5203817325,3.9911509253,1.4668407044,2.7056208672,0.1686656502,0.2985981721,-4.3256058103,-0.0102194672,10.6287847729,-0.5013067333,-2.4938330541,-1.9063096268,0.6723852727,-0.3147605244,-1.4928407528,-0.9246583152,-5.9830526782,1.2901030018,-9.0356993931,2.1897609811,1.7639447633,0.4621978894,2.8686235819,-0.938734301,-13.1550091542,-2.1103237554,-3.2683219052,6.8822789963,2.7801932037,-0.177737933,3.3793792494,0.1194659795,3.3947806479,1.890222441,0.2723951225,-2.4543971152,0.1524859466,-0.8725353561,-0.6456292271,0.0928275747,-7.2932207042,2.5761545921,-0.9813666811,-1.4060985488,-1.9289270042,0.18236265,2.0403186609,0.2083381133,-24.4528437306,-0.6097571514,1.4095503811,0.2297730928,0.5697286422,-0.5341234542,-0.5501986477,-1.9431602876,4.5576869782,-0.3368673661
biasActivation=1,1,1,1,1,1,1
[BASIC:ACTIVATION]
"org.encog.engine.network.activation.ActivationSigmoid"
"org.encog.engine.network.activation.ActivationSigmoid"
"org.encog.engine.network.activation.ActivationSigmoid"
"org.encog.engine.network.activation.ActivationSigmoid"
"org.encog.engine.network.activation.ActivationSigmoid"
"org.encog.engine.network.activation.ActivationSigmoid"
"org.encog.engine.network.activation.ActivationLinear"
