encog,BasicNetwork,java,3.4.0,1,1573301226863
[BASIC]
[BASIC:PARAMS]
[BASIC:NETWORK]
beginTraining=0
connectionLimit=0
contextTargetOffset=0,0,0,0,0,0,0
contextTargetSize=0,0,0,0,0,0,0
endTraining=6
hasContext=f
inputCount=2
layerCounts=3,8,8,8,8,8,3
layerFeedCounts=2,7,7,7,7,7,2
layerContextCount=0,0,0,0,0,0,0
layerIndex=0,3,11,19,27,35,43
output=0.9999979088,0.9999867594,1,0.0000001728,0.0000000124,0.9998964757,0.9712391435,0.0655915702,0.0003960997,0.9776908725,1,0.9999999999,0.3337719775,0.0000541912,0.9999999982,0.0059071676,1,0.9999806562,1,1,0.9999999986,0.0001334296,0.047190169,0.9998850067,0.8004780103,0.0000016946,1,0.9411775942,0.2190526152,0.9996826182,0.9961640644,0.2355173542,0.153077374,0.8914309954,1,0,0.8923629637,0.9999999947,0.9999999842,0.0000000001,0,0,1,9,20,1
outputCount=2
weightIndex=0,16,72,128,184,240,261
weights=7.4818680752,-1.8501627913,8.635459298,14.3585502072,4.4279658753,-18.1293665228,1.6583174099,-11.4069600521,6.4189211456,-8.233116159,-4.356047521,9.2094509557,-13.9965119878,-5.3163721887,-7.5271033637,14.9225622822,-3.352823581,2.1229046451,5.0674977174,-6.6434731324,4.0042652791,-7.7062906774,-2.992763659,4.3918971993,-2.5677481537,3.2353687161,6.6080836975,-4.3628069891,4.7850202133,-10.4566390624,-6.4399036702,4.5101023281,5.2191631371,-10.9662975093,-7.0853035391,7.0553757625,0.8453179178,-1.3397627928,2.3725639527,-0.4760605874,3.8702705635,-8.7871280481,-7.6807887144,3.4277145376,-3.431089254,0.4508328717,0.8210164858,-2.0966798054,0.3923889323,3.4529472111,5.0111687326,-2.4163226755,-1.3065322084,3.3430105076,-13.3310157192,8.2101639531,-0.7870686945,-1.0484674398,-0.0480242703,2.4900050526,0.2082416144,-5.4714336342,-3.2561843708,-0.4601082651,-8.93833913,3.0739056421,-15.5982757171,1.9864453797,8.7139282223,0.4603556237,4.6930093855,4.5022042547,6.011384631,7.0016586132,-4.9997158681,-2.36045771,7.8821374865,2.8137680643,-7.3527463031,0.0132260789,-0.3562006775,2.5975788386,6.6117357255,-4.4299314573,5.0769107422,-6.1860208184,-3.2602643622,-2.8489328449,-2.7271924118,-1.2753777761,7.1040621608,7.6114842678,-5.0096725163,-2.8867923671,8.4336079334,1.1393937089,6.5252886891,10.2729502938,-1.7379733316,-0.4579801144,2.8727966036,0.7442212384,-3.5681668207,-0.1334016999,-0.4455366384,-0.3722217582,1.9216609938,-0.9047207258,0.4009509235,-7.0038468363,3.5098611916,0.9400464023,18.5214303738,6.0862434853,-3.8249572117,-4.7871830727,2.7257990224,0.9728392743,-5.2165266154,-2.1762741976,6.0755625406,3.1604399408,0.6901770936,-0.9248989799,1.4853512567,0.0289510459,-2.787030487,0.1523184484,7.3258387067,-3.3880421306,4.9018708443,9.3343996878,-4.8386959627,-3.5470489785,7.9836460665,1.1281789391,6.8961589314,-5.0822409802,9.5276436564,3.9216654693,-5.198123447,-3.2012328396,2.7461780133,0.822585233,-2.0081899512,3.0203740947,-3.5590184437,-2.5575258416,4.292327248,8.0305980329,-2.4990466627,-1.6002491326,-3.11461347,4.3839511451,-0.6028910394,-2.1055987522,4.6769355921,7.3403559718,-1.2478860917,0.553342633,6.6501593941,-2.4878437399,1.5507335822,4.1362428652,-6.9851110206,-2.3485642946,-1.2588794382,0.8127222921,2.1658112739,-6.7402084414,2.2096127448,1.9743486427,-4.4564406594,-7.2633221765,0.1033251679,-1.2790426314,-8.0923225851,7.0198069681,-3.1908657816,-6.0617509471,10.1497499417,8.2685179383,-0.4370192634,-1.2476963339,0.561266268,7.0937674468,-0.6675927099,-1.4804572777,-7.1259803502,-0.4293438476,-5.5746304238,-1.4095563644,-0.8256663296,-10.1342771064,2.174736688,3.2566396055,2.8372791333,-3.2819754367,2.9924897976,2.3408814971,0.1507590416,14.8678987613,-1.637010491,-2.0051088675,6.054307187,-0.4494866267,-1.3675043567,-1.5703552758,0.6499221621,8.0046927294,-1.5811189214,0.2688122135,-0.7963855362,-0.0976651235,-8.7825846764,-0.271286025,-0.9185151426,-10.5829757565,4.2601188337,1.7056916262,0.8145473443,-0.7111297682,7.7887626123,2.3006304766,-0.1588982752,-13.2354184232,4.0320370198,3.342749798,2.2984164622,0.1211229541,4.3592169048,2.7253446322,-0.4275891474,-2.9278074982,1.0596579653,2.3662512497,-6.9779156145,0.2354987311,5.2556452795,1.2921998782,-1.4151273888,-2.319937778,0.7427406988,-2.130045201,-0.1736044588,24.7576041524,2.0913390345,0.0098814652,0.0298522376,0.9946877889,0.4147976545,0.7133357447,2.5493170308,-2.2522819207,-1.3664033267,0.3820759578,-2.4842532793,-0.011707675,1.177448411,-2.0126889802,1.2917999493
biasActivation=1,1,1,1,1,1,1
[BASIC:ACTIVATION]
"org.encog.engine.network.activation.ActivationSigmoid"
"org.encog.engine.network.activation.ActivationSigmoid"
"org.encog.engine.network.activation.ActivationSigmoid"
"org.encog.engine.network.activation.ActivationSigmoid"
"org.encog.engine.network.activation.ActivationSigmoid"
"org.encog.engine.network.activation.ActivationSigmoid"
"org.encog.engine.network.activation.ActivationLinear"
