encog,BasicNetwork,java,3.4.0,1,1573992627672
[BASIC]
[BASIC:PARAMS]
[BASIC:NETWORK]
beginTraining=0
connectionLimit=0
contextTargetOffset=0,0,0,0,0,0,0
contextTargetSize=0,0,0,0,0,0,0
endTraining=6
hasContext=f
inputCount=2
layerCounts=2,8,8,8,8,8,3
layerFeedCounts=1,7,7,7,7,7,2
layerContextCount=0,0,0,0,0,0,0
layerIndex=0,2,10,18,26,34,42
output=0.4222207382,1,0,0.2872708453,0.000050219,0.449629192,0.4802532204,0.3516481732,0.3676783422,1,0.0629608958,0.9974442072,0.9999236268,0.0318713425,0.9570906141,0.9999999561,0.7038776775,1,0.9948728715,0.999934565,0.9967882771,0.5381243008,0.0002378197,0.9979944295,0.9989149859,1,0.0016487439,0.8448838683,0.3133855534,0.9466200304,0.7417470638,0.0023025654,0.000491206,1,0.9999999987,0.000000033,0,0.9999999938,0.0274818146,0.6914593999,1,1,11,15,1
outputCount=1
weightIndex=0,8,64,120,176,232,253
weights=-12.4474438045,3.9005237711,-6.4892245966,11.6067030913,-14.6958999084,10.1970592779,4.6291522291,-4.8826200806,-2.4629766044,-1.5636761634,-8.7987858456,1.4343212448,2.221744067,-17.9770635818,-4.5853348869,4.1061476803,-1.5488395049,-2.3967499018,-0.9263209445,-0.9640542559,1.8804289565,-0.484169123,2.492494885,-0.5335427819,-1.0765677136,-0.9736130575,-6.2989730425,-0.6649663031,2.7989064555,-7.4339673397,-2.4276259945,3.9234369318,-5.507878608,-6.9542156752,7.4129090389,-3.4821832497,0.7623525561,-2.4036159373,6.881064814,-3.3897595107,6.586689806,4.9442737318,2.7870760391,1.3246431926,-3.8645656033,0.9783877176,-9.3821060176,1.0697561404,-3.730827465,-4.4956509343,-0.6757833322,-3.1929033147,3.4665834816,-2.0283931883,7.6214708709,-1.7692758962,-2.8651726876,-1.4286803235,-1.3465414992,-2.0650279264,1.6037938051,-0.5002363729,3.4047070848,-0.9557500695,-6.5501524672,4.2898500835,-0.799026145,-0.4552173707,-2.5918895047,5.8200468286,-4.83413342,-0.4106577372,-2.3910284341,12.2221046986,0.4126623906,2.2510894612,-4.5700798093,-0.070449204,-3.0379017659,-2.3924044753,-1.2130737099,3.0935410234,2.4929212114,12.4557167209,-3.9361485326,0.6531171017,-2.2627612577,0.0151147483,-1.2247239533,3.2915531051,-0.3052102088,-3.5403862109,-1.9312526914,1.1837747135,-3.2114672401,-1.2501115394,-1.596601286,-1.0310670576,-0.255721852,0.4389376479,0.3521714365,-1.3302977627,6.2097108974,0.8674926398,-2.3762182431,4.0535722982,5.5591602532,15.2922827204,-4.0482616411,5.3245861542,-4.2183083921,0.382730721,-3.0086552373,-1.8337214648,3.8020704554,17.1462342253,-12.3131667908,1.277231896,-3.9238133717,-4.6761876687,-0.9513500936,1.1139427934,-0.8965757296,2.4571417916,1.2427191966,-5.8447030337,-1.755515245,1.3760165058,-16.3217886051,0.8306808535,1.6138551621,-0.1450104555,7.1293515569,4.0041523213,-2.6540423894,3.2948893097,-2.7382467147,0.5195551747,-0.3011447751,0.4385159074,5.0998410335,1.9542290835,-3.2996410954,1.196877172,-7.2846262453,6.2045108951,-2.3739556199,-9.2245190743,6.683939245,7.7857600162,-7.3000200183,-0.573342708,11.2731196248,-0.0023687765,-0.9124514364,-5.3128644831,-2.0885223265,-3.9511570146,1.9972935037,-1.4878598556,3.7715789192,-0.198136684,-2.0232175118,4.6036183351,3.9231286817,-0.7480895387,-3.9490303754,-0.2591337938,-3.396045167,0.5527391934,0.6237421551,10.9515332303,-3.8338044165,3.8465650076,2.5542980777,-1.3651354682,2.0147231411,-0.9309102369,10.9953344624,1.9432388953,-6.2761306705,-20.5283376344,1.911342038,2.0915960018,2.0104062858,0.8657943493,-0.147848639,0.981166087,-2.6689688725,-6.6523166919,1.1970037583,2.1796039753,0.4564199801,0.9309577896,-0.0342791643,-0.576315845,4.7971587644,-1.7132672429,-0.6025269147,0.990904169,-3.1770314198,0.7530935581,4.4605245237,-4.210366164,6.6853507875,24.6478759768,-3.9547074476,-3.0091639221,-1.4582025233,-0.964702606,-0.3472917836,-1.472332055,4.0636169256,9.5419900733,-0.9865569985,-1.7374138756,-1.4872520284,-0.5066419576,7.2516494145,-1.7387136876,7.3784311152,1.7553857172,-2.4466321643,-1.8153789247,0.3724722849,-0.5348581907,2.5303214966,-1.3559361717,1.8754926178,-9.0097091638,-0.916414601,0.4600290334,0.8701888684,0.7190657767,0.08786207,-1.1527629141,-0.3457808945,0.6398743948,8.6558186175,-11.6116727079,-2.6383990078,1.0250414274,0.5413744933,-0.5000543722,-10.0241962833,6.616221784,7.4564680777,1.7012956676,-0.1167717458,-16.1557251603,2.0103225652,0.1223296707,0.2645116464
biasActivation=1,1,1,1,1,1,1
[BASIC:ACTIVATION]
"org.encog.engine.network.activation.ActivationSigmoid"
"org.encog.engine.network.activation.ActivationSigmoid"
"org.encog.engine.network.activation.ActivationSigmoid"
"org.encog.engine.network.activation.ActivationSigmoid"
"org.encog.engine.network.activation.ActivationSigmoid"
"org.encog.engine.network.activation.ActivationSigmoid"
"org.encog.engine.network.activation.ActivationLinear"
