encog,BasicNetwork,java,3.4.0,1,1573301651678
[BASIC]
[BASIC:PARAMS]
[BASIC:NETWORK]
beginTraining=0
connectionLimit=0
contextTargetOffset=0,0,0,0,0,0,0
contextTargetSize=0,0,0,0,0,0,0
endTraining=6
hasContext=f
inputCount=2
layerCounts=3,8,8,8,8,8,3
layerFeedCounts=2,7,7,7,7,7,2
layerContextCount=0,0,0,0,0,0,0
layerIndex=0,3,11,19,27,35,43
output=0.9994850634,0.9994073397,1,0.0021985469,0.8271926295,0.0000165893,0.0036038805,0.0025673644,0.0007955,0.0001422274,1,0.0245081622,0.0000004689,0.7894164459,0.1342584757,0.9997758666,0.9858826001,0.9944016654,1,0.999864762,0.9999752317,0.0829902928,0.0412062398,0.1765591877,0.0212061223,0.0297070107,1,0.2288445358,0.7809127745,0.8880761852,0.8256754644,0.9216229823,0.5919051805,0.0003749531,1,0.2625601258,0.0000223661,0.9999989836,0.0000023712,0.0002413287,0.0000014374,0.0774788394,1,9,20,1
outputCount=2
weightIndex=0,16,72,128,184,240,261
weights=-6.7217537888,9.3927815166,-7.2659776068,-0.8459591176,1.1841275201,7.8956998566,-1.0838115571,-0.189907492,-5.1387221923,-5.4152552614,-2.0319047251,-12.510557101,-4.3245112615,-2.5731039986,6.9340661196,11.9783368112,0.3976030342,2.7970267258,1.205777813,0.3709465431,3.0129277825,-6.3548195615,-4.3462439131,0.445598688,0.4588483621,3.4643097594,5.1062455323,-4.4548474013,-1.6332029307,-6.1254931639,7.174858974,-1.3410779586,7.1942329462,-0.8100944107,-4.2137750569,0.8653465393,-3.9531352615,0.1157161331,-3.0430081343,-1.1086701445,10.5695351661,3.1167161635,-5.9074162839,2.7009646592,-3.6044960917,-0.458113197,-0.2741624335,2.7475707327,1.3368281129,6.9170628865,-0.8818616069,-1.0650905206,-0.4604889751,-1.5127292541,-0.5105556333,-2.6964611359,-2.3115109244,-1.952031482,-1.7561582837,1.4736165747,-8.4357155417,-1.9929467492,5.1975333969,-0.6603969574,1.2292222629,3.7390651891,-1.6035027922,3.7846201881,-4.9962726284,-5.9501597761,0.7405753314,1.9945277222,-2.9694656093,-0.6070423452,-0.3453603188,6.2174681773,5.1755717094,8.5446894619,-5.3578531647,-1.2712098387,-6.609313934,-8.3192636824,-0.630226031,3.7676916822,-1.0658487447,-0.0842042656,4.601065076,0.3048915919,1.7802702556,0.3510889856,0.1447073947,-4.5252981441,-2.2326130072,-5.108942084,-0.687079496,-0.112296816,0.2538730558,-1.8424600336,2.294161091,-0.0744380898,2.0450968538,2.6357321883,0.7443762302,-0.9016571297,3.2299582908,5.9488139645,-5.7433402283,-7.5997508772,-1.2601572739,-3.9524855142,-3.4149263784,0.4224120502,1.2061169798,2.2753339584,-8.3939116536,-1.5267639255,-2.099369472,-3.2856910174,7.1897900422,1.7511756892,2.7756021204,3.1449898149,-6.7792728973,0.5327577848,-3.6375065009,1.1801035078,3.9770520259,0.2992577331,-2.8308673846,2.2002110463,2.7227154017,1.8102686148,1.4076458193,1.3399646538,-6.1906637443,1.8371919215,-1.1055020203,0.8962957275,1.5265349376,2.1149077557,2.223028578,3.0834496299,-8.5628788857,3.1863809702,-3.271696942,-5.214392495,2.7724536302,-0.4466469478,-0.9843049732,4.2991926812,9.0125524762,-1.3159989691,4.8474378996,-6.6284830156,4.1488597228,-4.3326163269,-0.0282908992,0.8916897753,3.6548224799,0.3096099285,0.4187040464,-3.543389359,1.3667734266,-1.8822155996,-2.1471601675,3.4275679467,1.5244645728,1.4212300087,4.1497617507,-5.2083384951,3.8743027742,-3.8380021148,-4.9700797543,3.1828912099,0.2544974774,1.7103192692,3.197076871,2.9536664633,-4.5388751817,-0.715875957,1.0537925192,-6.5335050247,-2.8130349583,0.9946145399,-3.9492914112,-0.747800423,1.3174912171,-0.6422466426,4.6885455921,2.9107596001,5.1727678682,-1.8973079985,9.8672526744,-0.4384540397,0.4328301314,0.2968838928,3.1355690736,-2.8241306319,-4.0866254644,-1.4366998187,-6.2902658,-0.7592852703,-0.6855014549,-0.5052091938,-2.8268633153,-3.6259389834,-0.4508912124,4.443952979,3.7508605005,0.3813168291,1.0168749889,0.4715649125,-1.1217073118,-0.5457454315,-4.6671175613,-0.0845525832,0.6916299728,-0.1710808757,3.1919918224,0.7305029191,-1.5065035493,-0.2392243494,-5.0049223843,-0.5208359684,-6.3094296412,-0.8483029068,-0.9611986097,-0.9757350018,-3.5190293943,0.4469654096,-4.6147736784,3.3480663745,-1.899961163,-0.765769853,-5.2879125116,-0.7201345686,9.8446202643,-3.9751547138,5.3460862037,-2.5181332411,-0.420458377,-0.2254527628,7.2604761978,-0.9668171588,-0.0509283852,-0.9880204808,-1.4377556731,1.3644583518,-0.5500892785,-1.4992757008,0.0542664991,-0.5439697312,-4.8643494283,1.9246598864,-3.0431619999,0.2544650259,-0.8197024931,0.6511620406,1.0571307662,-0.352686087,-4.9375606099
biasActivation=1,1,1,1,1,1,1
[BASIC:ACTIVATION]
"org.encog.engine.network.activation.ActivationSigmoid"
"org.encog.engine.network.activation.ActivationSigmoid"
"org.encog.engine.network.activation.ActivationSigmoid"
"org.encog.engine.network.activation.ActivationSigmoid"
"org.encog.engine.network.activation.ActivationSigmoid"
"org.encog.engine.network.activation.ActivationSigmoid"
"org.encog.engine.network.activation.ActivationLinear"
