encog,BasicNetwork,java,3.4.0,1,1573302063077
[BASIC]
[BASIC:PARAMS]
[BASIC:NETWORK]
beginTraining=0
connectionLimit=0
contextTargetOffset=0,0,0,0,0,0,0
contextTargetSize=0,0,0,0,0,0,0
endTraining=6
hasContext=f
inputCount=2
layerCounts=3,8,8,8,8,8,3
layerFeedCounts=2,7,7,7,7,7,2
layerContextCount=0,0,0,0,0,0,0
layerIndex=0,3,11,19,27,35,43
output=0.9993075921,0.999598177,1,0.2071492097,0.9599292432,0.9699989676,0.0091752634,0.9638924026,0.9953271947,0.9995229883,1,0.0000003417,0.0007811152,0.999833879,0.9629422299,0.9924154718,0.7865583772,0.0003344202,1,0.999979328,0.0062558073,0.9999999987,0.0386106573,0.9937921838,0.9987048722,0.9629901299,1,0.9999954579,0.9652456809,0.731138879,0.996283924,0.5630411271,0.9897070391,0.0055943698,1,0,0.3498522964,0.9954464841,0.0028270499,1,0,0.7931128352,1,9,20,1
outputCount=2
weightIndex=0,16,72,128,184,240,261
weights=-7.0363529963,6.2054389446,1.6096143688,4.1130116289,4.5266659743,3.6183436307,-7.8534819529,1.061454139,8.62583028,6.5387813905,14.5862272405,-9.8497793149,-3.5947972885,-5.7016366431,-1.6016139708,-3.5619138152,1.9332993656,4.5404037947,0.2559894464,-0.2205791614,1.9859365724,-2.982295612,15.0645988101,-1.0194473531,-1.3056488918,-5.2669810168,0.8930768719,-0.1483739086,2.1907789219,1.7206064561,-2.5904776037,-1.0963796919,-8.9342328839,8.1711069573,-4.442790729,-3.7451841271,5.7587066507,9.4918076928,2.1103782467,-1.6634638532,2.5145003285,7.6705461205,0.0566400473,-0.233548692,-2.4430636367,-0.7373226234,-1.5035278313,-1.5147714894,0.6714394849,0.3157497521,0.9674080573,0.6979730251,2.2884078165,-0.2746204549,-1.2868445843,-0.4097414985,0.9406465305,0.4668277395,1.9951658766,2.6353648309,0.9071526504,-0.7416355292,-1.1753473789,0.5118687969,5.9269917062,1.4982521501,1.4105257768,-1.707997676,-0.9545310695,7.0037946128,-1.9711080838,3.3197890621,-5.3864108955,-0.9715804329,-11.5332596194,2.1022940354,0.263253937,0.0814433035,3.4503380921,-1.7105075537,-4.964776085,0.2910918239,-8.8603613259,3.671021806,1.3341937737,0.7437899257,3.899574621,0.7034768468,0.6391304133,-3.0392388149,2.5463068127,1.3375197649,0.0986903134,4.1131776136,-1.397507523,2.6244319392,-0.6093828289,-4.8283248979,0.1294158014,1.820558579,-1.969382575,7.9491505848,-3.4835130081,1.0702721446,-1.3356825527,-5.2779830256,0.114570973,5.5392574469,-4.102155929,6.352410662,1.0025463594,2.6813238502,5.7308870429,2.6404025584,-2.7745139515,-6.4041207537,-6.4531745586,4.0751853619,2.5788694991,-1.5614204993,2.2678853859,1.6943970801,-9.0387312504,12.5672003856,6.083566429,-4.2348596189,-0.2265667777,-3.3259568766,8.8416354761,4.1208853428,-0.7018641319,8.1481990399,-6.4684116561,-3.5634659935,1.0879567122,-2.4746288325,-0.8084694989,-2.5298397653,0.1356349264,1.9897674892,-5.7457660512,-0.2320838,5.9039731554,-0.467359657,13.2054871552,5.8235629136,0.7368619029,5.5722078708,-2.0533060286,-1.3935691185,-1.0302085939,-1.9457200821,-4.6844003547,-8.0306693328,1.7622320168,-3.7300554203,8.0904822083,5.0145448486,6.9811110239,2.0915952681,1.2465304909,-0.2066367383,0.8525242779,7.8893319415,-4.3282738445,-2.5791045615,3.8515792977,0.5133280625,0.3695361923,1.4631508608,0.170877356,-1.1222569275,1.4012844305,4.3044217061,-7.5542217108,0.852330706,-3.4959192856,4.827931778,-0.0718560343,-0.6834742914,7.5333936242,-2.5393432841,3.347535156,1.0809609619,1.6918665114,1.6836852914,2.6959626625,0.6778013924,-1.1851086104,2.8800475698,14.4658221438,-1.2604449128,1.2903741217,-3.2873358165,1.8163335842,0.2150056575,-2.8932449049,-0.2137871738,10.9603091659,-3.1340268951,0.1836784077,0.9224744209,0.3928264318,1.3720960015,-0.1867078255,0.8046674352,0.5195579466,0.0574017396,1.2629655716,7.8895675453,1.7956465831,0.4494471501,-3.8993603676,-0.2302089109,9.4404119549,-2.5455115258,-1.9237021799,-6.6512091956,7.2620057665,5.9997081413,0.4535543298,2.8560360393,-6.8682964271,0.3283345486,-5.0438347713,-0.6913012104,0.4821191039,-0.746016205,2.3258516983,-2.4566356735,-0.3682784542,2.2962219663,-0.3938462624,9.8366407352,0.1716138084,2.0080784418,-4.2043153339,0.7889999554,1.2944930791,-5.6206289035,4.7135573205,-6.1285395908,-0.9154067197,0.3683087683,-0.4201625063,4.4687826928,2.5430581393,-0.9945572752,2.390913964,0.0812229438,-0.3375855296,0.1550136093,0.8295057175,0.8203034731,0.0822229515,2.5324633035,-3.7960805896,0.3760722256,-1.6797443565,-0.204060769,20.5427065427
biasActivation=1,1,1,1,1,1,1
[BASIC:ACTIVATION]
"org.encog.engine.network.activation.ActivationSigmoid"
"org.encog.engine.network.activation.ActivationSigmoid"
"org.encog.engine.network.activation.ActivationSigmoid"
"org.encog.engine.network.activation.ActivationSigmoid"
"org.encog.engine.network.activation.ActivationSigmoid"
"org.encog.engine.network.activation.ActivationSigmoid"
"org.encog.engine.network.activation.ActivationLinear"
