encog,BasicNetwork,java,3.4.0,1,1573971573225
[BASIC]
[BASIC:PARAMS]
[BASIC:NETWORK]
beginTraining=0
connectionLimit=0
contextTargetOffset=0,0,0,0,0,0,0
contextTargetSize=0,0,0,0,0,0,0
endTraining=6
hasContext=f
inputCount=2
layerCounts=2,8,8,8,8,8,3
layerFeedCounts=1,7,7,7,7,7,2
layerContextCount=0,0,0,0,0,0,0
layerIndex=0,2,10,18,26,34,42
output=0.0066713405,1,0.0608427985,0.5114369336,0.8496401808,0.3393442093,0.028262918,0.9897258233,0.9994339319,1,0.9898661562,0.9380484856,0.3789728125,0.897852595,0.0000009502,0.0002572955,0.0000000701,1,0.9887001843,0.9363073137,0.0040668954,0.0027620323,0.0119613537,0.9844851724,0.9933123821,1,0.0580328022,0.1300503461,0.9943263355,0.000263555,0.9937564438,0.5101273288,0.9764955465,1,0.9999999606,0.9791613823,0.8308460681,0.468155143,1,0.2817383085,1,1,11,15,1
outputCount=1
weightIndex=0,8,64,120,176,232,253
weights=0.0439111635,-10.7377524648,8.1608473958,0.2591345198,10.3221837586,1.1102760165,-7.7041728045,-0.2267410715,0.0890185101,-0.4512826246,-0.631070388,-0.7139357355,-1.7413300885,-0.574049833,-0.0430532371,-1.5211639114,0.3975189041,-3.3147342425,6.7914779693,0.9002472164,-11.7445247396,-0.340350127,-6.7283761222,-0.6203289629,4.5671889188,-0.3753663782,0.6193548422,-2.9363044252,-0.7740483416,-3.1816204371,2.0967709663,-0.0345430436,0.3122769191,-0.2302332191,-0.3586928444,0.2009365954,-1.0523593193,0.0931023221,-1.0445486773,-0.8038599252,2.913984246,-0.0686577713,1.678653323,-6.8247532778,0.4677297746,-3.347504919,3.1633246115,-0.8652656119,1.4763380137,1.826353317,1.4779057806,0.7619815884,2.85048909,-0.7034180055,1.0361015316,0.1491542749,-2.2341788305,3.1127064166,3.2988113602,2.4064635511,-6.10621529,-0.1629745991,-5.9237840265,3.3571371679,1.8443814326,-3.6399170073,-3.1079219491,-2.3704897126,0.0935872287,2.4339231547,2.5429177926,1.2622242413,1.0063282604,0.0737697466,3.0489105716,0.3404879664,-2.2868882418,0.0791525721,0.8253492932,0.7696815288,3.4274831666,-5.8610117782,-2.3905209284,-4.5747104252,-4.0667042712,-0.4736035643,2.0887099789,0.0675595484,-0.2423744309,4.8187353347,1.6298035397,1.9529392659,0.9800978085,0.9513601396,-2.756814316,-0.3205602763,-2.1886753816,2.9862858707,5.6493252939,11.305278293,10.2799605399,-3.2739773974,-7.1800212306,-4.3207428632,-4.4676536487,0.1418653877,0.1333204026,0.3359433634,0.2327700143,-2.1848037133,-0.74769866,-1.0913368835,-6.0611861377,-2.4154638179,-0.6227830383,6.9031736119,4.8804667126,-0.4374482621,-6.2493863053,-1.6555977811,1.2469399585,-1.2189518074,0.2121025695,-5.9805014272,-0.0160901544,-0.46077169,4.9790953229,-0.2625790537,2.2799463949,-7.0933742475,3.1121460442,2.6159841159,2.4718481023,-3.3328293079,-3.6822332291,3.2223165602,5.229521,0.9644100196,-0.6439626829,1.5304343764,-2.3944697099,1.255084643,-3.6494091873,0.0130984391,-1.8394793741,-0.3180062947,1.9908522205,1.4233953771,7.0201585553,1.6019691444,-17.9258550264,1.990133928,3.2321061077,1.9024720291,1.8331636967,2.6843298373,2.7630894904,1.3181039496,-11.8064477447,1.4382081959,0.9977376316,-1.0802251221,1.467510331,0.5066978591,0.3993486313,1.2306607151,0.6965873078,1.0687237382,0.09276694,-4.4259069621,-0.6036326374,-2.5151148048,-0.1871677759,-2.7684079917,6.4862487158,1.436312143,-0.0267369215,4.1186427866,-3.858501512,-3.8242613261,-1.5431507827,2.819586383,-0.9863927994,-0.0617145876,0.9603797921,-2.4832269017,-6.5641031623,-5.1677685983,1.7366306391,0.3293904763,4.5573818689,1.0568487706,1.1048196516,-0.583148302,0.6088918645,1.1511648231,1.0491944287,1.158715894,1.6051839322,0.6067547845,0.4270718475,-7.3415459736,-2.2778529157,-0.0984190254,0.8762889554,-2.3774711326,-0.2339387848,0.4865966696,0.1429309293,-2.8218540341,6.4952332147,-0.965631265,-0.6478812605,-1.0992923534,3.8820015874,-0.1788194952,0.5609098561,-1.4125448571,-3.0158321892,-2.7498309674,1.0922717757,1.9818391778,1.9740678178,1.0310546121,0.3896873257,14.0256951087,-12.1103988015,10.9461626608,1.9267343193,-6.2400483269,-6.7962010013,1.1685761778,0.935010183,0.4071875662,0.6559226705,0.8978712707,0.832160695,-18.5091058143,1.6547885062,0.2431185454,-20.2578163489,1.1511350647,0.1546200373,-15.1093383529,2.2169150055,0.3497770798,-0.4059239733,-8.2352301751,5.8114308754,2.4802134758,-5.614332857,7.0811615919,0.9993652608
biasActivation=1,1,1,1,1,1,1
[BASIC:ACTIVATION]
"org.encog.engine.network.activation.ActivationSigmoid"
"org.encog.engine.network.activation.ActivationSigmoid"
"org.encog.engine.network.activation.ActivationSigmoid"
"org.encog.engine.network.activation.ActivationSigmoid"
"org.encog.engine.network.activation.ActivationSigmoid"
"org.encog.engine.network.activation.ActivationSigmoid"
"org.encog.engine.network.activation.ActivationLinear"
