encog,BasicNetwork,java,3.4.0,1,1573304382965
[BASIC]
[BASIC:PARAMS]
[BASIC:NETWORK]
beginTraining=0
connectionLimit=0
contextTargetOffset=0,0,0,0,0,0,0
contextTargetSize=0,0,0,0,0,0,0
endTraining=6
hasContext=f
inputCount=2
layerCounts=3,8,8,8,8,8,3
layerFeedCounts=2,7,7,7,7,7,2
layerContextCount=0,0,0,0,0,0,0
layerIndex=0,3,11,19,27,35,43
output=0.9407541636,0.824136694,1,0.00000134,0.5026944942,0.8560510196,0.9992459934,0.0200094207,0.9999995622,0.9999895813,1,0.2307042698,0.9999988421,0.3411366447,0.9610838109,0.0000001383,0.9998529515,0.9475443749,1,0.9999842916,0.8684234726,0.8992951792,0.0039105795,0.929258909,0.9205315356,0.0758440278,1,0.7735250864,0.4677611145,0.138449595,0.056952306,0.5822793036,0.289968591,0.991110124,1,0,0,0.6368461115,0.9999959103,0.91557775,1,0.7523048569,1,9,20,1
outputCount=2
weightIndex=0,16,72,128,184,240,261
weights=-4.9884430004,-10.0952261746,-6.1968780664,6.2471056394,-9.3039419796,4.71804566,-1.9164506254,4.2868097102,-4.974935193,11.0023484143,-11.8956358215,9.439526035,-1.3317602384,-5.859800963,5.3266210212,-2.6754406942,2.795084454,-5.3295307502,1.8805719271,-3.5262236024,2.8170325541,-4.7954491177,0.8302295701,-2.0826468824,-5.202788006,1.3690137855,-1.6363938555,5.5889225826,8.308259092,-5.3496552972,3.3753215715,-2.8205172956,0.9894537031,0.0587524723,-10.7040907032,-0.6130099238,9.8846416538,-0.4971911218,4.7370444703,1.7451157473,-4.3370851164,-4.1692442319,-3.7430790404,3.8785263605,3.3888986369,1.8510240593,3.9943543142,4.2729108521,-5.3021166041,1.0032116313,9.2228015854,-3.6308036997,-8.0016621022,-1.3277303394,-1.5439049764,-0.5376035405,-8.5084237245,4.8549858496,-0.9943481643,6.3792760989,-11.6108117888,3.452641225,1.5805123554,1.0079544421,-1.860293046,7.0205446823,-1.7480556021,2.0043645739,-1.6151449197,6.2996283642,-2.4936785898,-0.3853303082,-3.1152282556,-0.8211130512,3.2276068781,1.6032433248,-1.9340196596,-0.40730005,-2.4077322834,2.0698231178,7.7440425085,1.780597752,-2.6263891697,-5.2031285682,4.0816496204,3.33381615,2.9950718809,-0.328056633,-7.9803497774,-2.5079489109,12.9186100752,2.5476971129,-1.3311904552,-2.2506525142,0.1741660581,1.1679540891,-0.946449621,4.9933200191,-4.9846073181,-3.5016942995,3.4003760049,2.9675251961,2.3143549871,-1.7539635155,-2.0725417055,-4.7534279394,2.1075081243,10.6699315047,-4.2635793317,-7.608861766,-5.0877755474,-0.1784146499,8.1862318078,-2.0696399712,-2.23872711,-0.1623640393,0.2422373362,3.7371894612,3.9217826371,0.4869871753,1.7772895609,1.9995974805,4.16196895,-0.4853328166,-0.6584205719,-2.6699378107,-3.8754446982,-0.9972590473,6.4428824422,-2.1826670436,-3.3079631758,-8.9680349098,2.5003154515,-5.0418199974,5.7065071466,2.4175811709,-0.6643901947,-0.8619248069,-0.5046966033,-2.2597215461,0.6389612404,8.328877301,-0.7953036729,1.0038264114,-0.746026181,4.5541812951,5.9970888965,5.3800013351,3.1395087267,-8.1273302776,-2.0387598472,2.0487557672,-3.9546770584,2.4618545756,5.9586602246,5.0478804042,-0.5526194291,-6.5386716139,-2.4999024602,-0.049665018,1.2206012268,-0.3924206234,-1.4990850595,-2.3829102876,1.4937991133,5.3105694884,-2.2548094389,1.9830719872,3.9786803497,-2.239090579,-3.6915189283,-5.6815937192,0.4814908351,4.5806269962,-0.4893645091,0.130424614,1.6535650969,0.1697930126,-0.3621918962,-5.3727770189,2.0441451362,0.716991871,-6.2460273297,1.2897712079,0.6776919781,1.9743100926,2.5960055265,-3.2069685523,-1.4808414435,0.60744648,6.6463407347,-1.4696720869,0.6045165852,-0.0892689344,-3.5818219816,1.4556208954,1.0267175307,-0.1522484086,-3.2400836565,2.3460591169,0.7225523074,-1.7727690253,-4.8489491907,2.771881644,1.3953911977,0.79646977,-7.0082307824,1.6862040437,0.6530785123,-1.026093007,-5.8030054936,3.1352901377,3.228806208,1.8478709973,-11.684167509,1.7394033351,0.4584537436,0.1424611255,-1.4733087513,0.3284863725,0.4012375433,-1.0736154811,1.7449129868,0.3354679363,0.4538530886,-6.1564938681,11.3969152731,-2.0407492588,-1.3629847116,-1.8223123199,-0.9206580566,-2.350030536,0.8935426568,2.6822449769,10.097252879,-0.3842647719,1.0117874814,-0.4884445332,-1.4886016893,-0.6502637775,-0.6573089442,-1.0955434739,0.9379144906,1.9651253095,-2.6463150798,0.9586950091,1.0048842395,-0.6049342498,3.6164282039,0.5581943643,0.3653759219,0.0757674138,0.1611742757,0.0595437395,-0.2577189756,-1.0865853721,2.0433096757,-1.0661620869,-0.9619029778,0.1757597787,6.2528741342
biasActivation=1,1,1,1,1,1,1
[BASIC:ACTIVATION]
"org.encog.engine.network.activation.ActivationSigmoid"
"org.encog.engine.network.activation.ActivationSigmoid"
"org.encog.engine.network.activation.ActivationSigmoid"
"org.encog.engine.network.activation.ActivationSigmoid"
"org.encog.engine.network.activation.ActivationSigmoid"
"org.encog.engine.network.activation.ActivationSigmoid"
"org.encog.engine.network.activation.ActivationLinear"
