encog,BasicNetwork,java,3.4.0,1,1573304429742
[BASIC]
[BASIC:PARAMS]
[BASIC:NETWORK]
beginTraining=0
connectionLimit=0
contextTargetOffset=0,0,0,0,0,0,0
contextTargetSize=0,0,0,0,0,0,0
endTraining=6
hasContext=f
inputCount=2
layerCounts=3,8,8,8,8,8,3
layerFeedCounts=2,7,7,7,7,7,2
layerContextCount=0,0,0,0,0,0,0
layerIndex=0,3,11,19,27,35,43
output=0.3333357321,0.4999886645,1,0.0240846383,0.8890403103,0.0013071507,0.9943474974,0.6245787164,0.6121349886,0.999694744,1,0.9991826058,0.6000249657,0.6067326865,0.5288778255,0.2442205868,0.4194036843,0.0000203835,1,0.7691752164,0.0001344646,0.998300664,0.000100165,0.0035485248,0.9998586208,0.1023342292,1,0.9932135161,0.0022343747,0.4451122054,0.9809386971,0.9987438464,0.725983863,0.4505202481,1,0,0,0,1,0.4368796735,1,0.8153908932,1,9,20,1
outputCount=2
weightIndex=0,16,72,128,184,240,261
weights=-6.4953837057,-13.1169064939,-6.5133958703,5.971592019,4.3635966723,1.50475266,2.6792695628,-1.1295354505,4.7044665019,-5.6799602827,-4.3576166006,-1.5283923159,-12.1521608081,13.1845355253,5.6240006869,0.3587936405,-2.6280364825,-3.4556097035,2.1018844313,-7.3838668662,6.1646346495,2.4827548772,-0.8935521651,1.0806312376,3.2501765401,-10.5727717525,-3.1803848449,10.507171631,3.912705831,-4.807707576,7.0058220201,2.6106802512,0.5914582401,-4.3687028121,-4.3013953136,1.4026702569,-0.9935423455,-3.7302226767,3.9382255612,-0.9332532957,-0.2946737922,2.0928539038,4.3000191049,-2.113444418,1.0429762828,5.1267817397,-3.2188234413,0.3126066252,6.6518321056,3.014185084,-9.0736083919,-1.8696737722,-0.433089999,-2.9716901686,4.8088287119,-0.0998596148,5.3177623896,-0.0641551963,-4.3339916307,0.4164681924,-4.5685468117,-9.555981093,-1.0371515733,2.71425609,0.9589248484,5.1649831647,3.9744078952,-1.4296084123,0.7254730802,2.1103898007,-4.5818707666,1.319292381,3.1752224322,-0.6540803966,-2.2916978274,-5.372306829,-2.9357523948,3.6271270135,0.6812599562,3.2687856723,2.5955873206,-5.2287591413,3.0000795377,-2.7059726601,5.2860389301,-3.2333241611,6.6147885535,-2.0477094657,0.7818530735,-5.6442312292,5.4382740188,4.3513954851,-5.9866299417,-2.7085829252,5.639019264,-3.4441137348,2.1135509655,2.4330826461,-8.2431676343,-9.949621165,-2.7733361025,4.3742211922,2.8364030855,2.065755499,-0.7087122307,0.9417208554,1.5170375451,3.3004690736,1.9067957956,1.3388675476,-7.6806415957,-2.65892265,-8.2431558089,3.3369259367,5.8225880615,6.42775642,0.6810542093,2.7485947581,1.6692876171,-2.7200248757,0.9664182273,0.1778837082,-12.6085323032,-1.8453476253,0.554757473,0.520906858,2.7648268588,0.2374173799,-3.4722970376,-2.6474116239,8.3940737661,-2.4662973668,-0.1363637966,-0.2734890148,2.5757844898,2.5155874278,2.0515704387,-0.0614519377,2.2217034066,-8.653055493,-0.5950288919,0.4437183213,-5.3332705038,-0.7774803069,3.6489963792,2.8393917124,3.5038463173,-4.6815368678,4.6576384167,4.8490232358,-5.7052699406,0.1761753182,-0.3807218488,4.2586047702,11.0172434246,-10.7808688482,0.0610710522,-0.0848066569,-2.7501222315,-1.9289472818,-0.2694402904,0.8554171788,6.8659287006,-5.692394736,-0.4995083935,-2.0740060345,0.0448367391,-0.8598104707,6.541377692,1.1495035595,1.3477225923,-0.3265105433,-1.1765378058,1.4418072208,1.5720246752,1.5048716681,-8.7966381375,2.4026847607,1.1488723944,7.9776000155,1.9923343948,-3.13138619,-0.9840310223,-1.0500658601,-0.5191714647,0.0606171505,-0.1297007192,-1.8097661505,-9.5449322773,3.4535399864,1.1616832319,6.5649998231,0.3195629597,-0.297174274,3.3962083521,-1.0729818337,-4.9361346493,-4.4193119847,0.9049808411,0.8093205722,-0.2334674441,0.6833740916,-0.1332504006,-1.5576432481,-13.7240550883,-0.6316830714,9.3328214984,0.3547498442,-0.6054058781,-0.3979977618,1.0241982981,-0.8266685015,13.5626557553,-1.6054792175,3.0680927002,-2.0539460343,0.0485607311,0.4988454788,-2.9220293522,5.2963664264,1.0661183878,-1.2289333112,0.1404010959,2.0307636137,-0.5758697486,-0.4267772515,-1.7547561805,0.9431082647,-3.6695476127,-2.6192289004,0.9077213607,3.5134644562,0.086654571,0.4911546258,0.3194904425,-0.2990337288,4.649684103,2.6253433186,-4.6158024745,-0.7925476631,-0.6106552462,-0.9754114704,0.3258989784,-0.8219235157,-0.8861252743,0.5822770583,1.5433771244,-3.0410218467,0.5453427842,-2.4599939373,4.4074325198,-0.0607792658,-0.437723371,-0.2971125746,9.6279263119,-2.0055534144,5.470135073,0.6842947759,1.2755792913,-0.3808406603,-2.3779734469
biasActivation=1,1,1,1,1,1,1
[BASIC:ACTIVATION]
"org.encog.engine.network.activation.ActivationSigmoid"
"org.encog.engine.network.activation.ActivationSigmoid"
"org.encog.engine.network.activation.ActivationSigmoid"
"org.encog.engine.network.activation.ActivationSigmoid"
"org.encog.engine.network.activation.ActivationSigmoid"
"org.encog.engine.network.activation.ActivationSigmoid"
"org.encog.engine.network.activation.ActivationLinear"
