encog,BasicNetwork,java,3.4.0,1,1573304475213
[BASIC]
[BASIC:PARAMS]
[BASIC:NETWORK]
beginTraining=0
connectionLimit=0
contextTargetOffset=0,0,0,0,0,0,0
contextTargetSize=0,0,0,0,0,0,0
endTraining=6
hasContext=f
inputCount=2
layerCounts=3,8,8,8,8,8,3
layerFeedCounts=2,7,7,7,7,7,2
layerContextCount=0,0,0,0,0,0,0
layerIndex=0,3,11,19,27,35,43
output=0.9538526495,0.9384588224,1,0.3554172532,1,0.9997891996,0.0000762354,0.000012397,0.0000693271,0.4214056041,1,0.0000119573,0.2204309764,0.0036494125,0.999999469,0.9999999991,0.7071559471,0.0000134638,1,0.0000219876,0.0021957787,0.9999999972,0.9999522077,0.0149329862,0.9933809728,0.0000811181,1,0.7298087019,0.9672398319,0.9905969563,0.0342730368,0.0031341267,0.7532471485,0.0008890043,1,0.7003379716,1,0.9999999842,0,0,0.9999999997,0.0000000004,1,9,20,1
outputCount=2
weightIndex=0,16,72,128,184,240,261
weights=-6.4682395037,14.768190935,-7.0610909771,-11.6472043109,4.2656902956,-0.2502865685,-6.2476280442,0.2526430042,5.186185323,6.3437533506,5.6964240103,-1.7429706146,2.3236044168,8.5157745103,-3.8208214594,-9.5480745485,-8.7508831938,5.3224956082,-6.5217172669,2.2564899984,0.5333718219,-8.8608107404,1.4149776171,1.7314467653,-2.7214178234,2.190111346,-0.8372558673,10.733710669,16.9543315525,-5.4997735056,-2.1041892336,2.0111603399,-3.9960847502,-9.8637565052,-0.6978113449,3.7188893209,2.6281871986,6.2086481499,-5.419226407,-0.0962240241,2.8407715504,3.785980173,5.9133202576,-1.0302233567,-5.2400737223,-3.0737390984,1.3762817507,-1.8938791203,2.4597113722,-1.9836087091,1.3040438272,-2.6395305724,-9.239737962,2.2645202142,1.6530380663,-0.5877071996,3.7890711467,0.4150931353,-0.7105041634,-4.4342792972,2.3785312508,-5.5037664029,6.2582307183,-3.7178743086,0.6673684971,-12.0131929582,1.2349337983,-1.2774338579,-1.0926965917,5.0624018192,5.6041582218,1.1167059479,3.6064446303,4.2678933051,-6.1086404343,-0.9116695736,0.5242933798,-1.6325059004,4.1760869497,-2.7098058935,0.920981129,0.5346661709,1.9706199463,-9.1411020322,-8.7143284507,3.998540891,-2.7725339492,2.0639757475,6.1933133289,6.4717072745,-3.5581108905,-0.7260447268,5.6187967153,-0.1910458351,1.989943498,-1.2340442412,-2.3594508407,-3.9031876903,8.4119634238,2.2837940224,-0.1110424419,1.2848867096,-0.1051812896,2.4867061778,-4.3720134642,-1.5344440241,16.2342127236,1.0999480028,-1.0535050256,0.947702037,-1.5089661407,2.5472032358,1.4737477013,-1.4216261208,-6.0356296291,8.7584890222,0.1084576301,-2.5256881201,7.8951514782,0.6689698291,8.6911324954,7.7805883212,-6.2066645688,0.4224199801,2.8209868731,-3.2448403937,3.8202335224,-2.267577557,-0.7472178197,-3.105982978,-4.15118942,4.3500395045,7.9826842807,-3.7256843671,0.762060758,-0.4317233017,0.1382197171,2.4190714468,-6.3586145853,3.2545134884,2.2806323593,-5.2776871521,-2.0554072489,1.5976479134,3.7778239883,4.765436459,8.2978927331,-4.7973611675,-6.1963504963,3.6812808456,0.20538943,1.5311567636,7.1547773734,2.2317197632,-2.1054516593,-14.1909770383,2.0714184045,8.5213564247,-3.0953544911,-1.2820351069,0.0107357655,-0.0747847901,-2.0162454215,5.3423548675,3.831672092,-3.6643415842,-3.1709861183,0.440515481,1.918210525,-0.5781013515,0.773226143,-1.0016015231,-3.0861826992,2.3513931628,0.2395980015,1.6770535159,-0.9711534695,1.0515725799,-4.1369147328,-0.0706736745,5.431405532,-6.1000657792,-2.2756805349,-1.0475946892,4.287466833,-4.1583741416,0.6615101496,-0.9726211062,-1.5041901863,0.2519715027,-2.4689498729,1.235868904,0.131479633,-1.9590940719,0.1639326703,-1.5196335514,-0.8495724952,3.9634186465,-2.3820824088,1.124895672,9.2511708223,2.4310596641,-0.4502375041,-0.6615735295,1.3765718242,-4.0733207599,-4.3595622996,0.2708266964,-15.9943733843,6.0686636007,2.4739245899,2.0567855635,0.1151582641,-2.8885356737,3.1973340686,2.2088923306,-10.2136635583,-0.1697275678,5.5809736197,1.5868670775,0.5673652554,-8.3863308893,-5.086620952,4.3658356809,10.5756617341,-1.0297754224,0.9983415161,-1.0516204439,0.4862943587,-6.8114111979,1.2401095657,0.5523137884,-2.2797542315,0.2996535406,-0.7806246433,-0.85047977,2.7382847589,-3.8851971218,-0.9211525362,-1.0617524179,-2.2276855522,-0.1474460424,23.8469985847,-2.8133331126,5.2983040048,1.237886604,0.823899496,0.5288706854,-0.0295903688,0.8081597772,-2.7975968494,-0.0507030342,1.8043615761,-5.1734974712,-0.4775560744,-4.5795993941,3.1748787732,-0.4115510299,1.4248139484,-1.7906073167,1.3419398093
biasActivation=1,1,1,1,1,1,1
[BASIC:ACTIVATION]
"org.encog.engine.network.activation.ActivationSigmoid"
"org.encog.engine.network.activation.ActivationSigmoid"
"org.encog.engine.network.activation.ActivationSigmoid"
"org.encog.engine.network.activation.ActivationSigmoid"
"org.encog.engine.network.activation.ActivationSigmoid"
"org.encog.engine.network.activation.ActivationSigmoid"
"org.encog.engine.network.activation.ActivationLinear"
