encog,BasicNetwork,java,3.4.0,1,1573974083545
[BASIC]
[BASIC:PARAMS]
[BASIC:NETWORK]
beginTraining=0
connectionLimit=0
contextTargetOffset=0,0,0,0,0,0,0
contextTargetSize=0,0,0,0,0,0,0
endTraining=6
hasContext=f
inputCount=2
layerCounts=2,8,8,8,8,8,3
layerFeedCounts=1,7,7,7,7,7,2
layerContextCount=0,0,0,0,0,0,0
layerIndex=0,2,10,18,26,34,42
output=0.0322564398,1,0.2548342198,0.4961679051,0.3293931005,0.9996795253,0.0000044088,0.9238266406,0.1773194644,1,0.5237521623,0.6604812254,0.8565077966,0.5813517112,0.9856925026,0.0985753652,0.9999998627,1,0.5379102419,0.6863939589,0.0122299821,0.9779838676,0.0269903648,0.9745955478,0.5380886402,1,0.4092685873,0.9872239295,0.4813098172,0.0979539333,0.6718306412,0.9985659235,0.999989415,1,0.9999995688,0.5758825218,0.3755640243,0.1744999888,0.9963273457,0.0003592456,0.0625623438,1,4,25,1
outputCount=1
weightIndex=0,8,64,120,176,232,253
weights=-5.2724842976,-3.6354836024,6.2300053102,-3.9826977651,9.1626964395,2.1700157362,-7.9378284158,1.0782436623,2.8287824857,-3.2689011126,0.4308289941,0.2458430672,1.8627894156,-1.1285345573,-2.8945298243,0.2621812593,-0.0752072384,-2.1621616464,2.0065376449,0.4725697462,1.0701508107,-1.0178175313,-1.2616211908,-0.2341027982,0.2962295008,2.4457904173,-3.4489385957,-0.7660235819,-1.1288758271,2.0097132017,1.692847205,0.1396604271,2.3629657516,-1.4914554627,1.918202206,-0.7843437622,1.4223191253,-0.8564545855,3.8373972552,1.4509404961,-0.8648261811,1.9630915138,-4.6370834712,1.4492089527,-0.1532675487,6.3179948629,-12.7821623745,2.2641011727,-0.9887463421,1.1120541336,0.6051442314,-0.5126634901,0.6686855367,-0.0975238109,1.6902807095,-0.2811785015,5.0134207815,-4.5961286615,0.6599345908,0.4069650519,2.6375521542,-0.9333756409,-4.4395831304,0.0051977804,1.3083961521,-1.4722964853,-2.0092301546,1.1173442597,-2.1219062069,1.7663649563,-3.1409588468,-0.6404220007,-3.8474495201,2.4670843161,2.8275662203,-1.0920017472,2.2828058983,-0.7806109123,4.913755239,0.1301394732,1.8373528772,-0.6310581627,0.8999751932,-0.3893377831,-5.9396246836,0.3072002577,1.9882402976,0.3922328046,-0.0082688059,0.6557895694,0.5846025015,0.0332003549,1.4015491986,-0.1893073327,-0.1160040993,0.0521138018,0.590605754,2.1606441654,-1.3617915345,1.0337580221,-0.5631998511,1.3749802011,0.7062454684,-0.2674004964,-1.9700963579,-0.0457505964,-0.8279781241,-1.1387998551,6.0830558352,1.0673729519,-2.482136606,0.1330056194,-0.7636792683,2.0291004902,1.1500151988,3.9270061721,-13.9421272541,5.6460464497,5.3218894406,2.9744982907,2.0642513343,-3.1271449907,3.5972340983,-0.3357364596,-2.2314382534,-0.4724594828,0.9491466668,1.7175882271,0.0109573124,1.0923699136,-0.6154424705,0.8676280205,1.6319561944,1.56785095,-2.5324879562,-0.2178926402,-1.7878117324,-1.2555108103,1.0791814026,2.1470403485,-1.0254512146,-0.3114182446,-2.5979418559,0.4476899893,-0.0907703928,2.9476267881,-0.6378573999,-1.4006212125,-0.2951121773,2.0074076333,0.6007618713,-1.0419161124,10.3430485773,-8.2560675487,-4.3436394834,-0.9098513678,0.3565591931,-5.917327602,9.9406447408,-1.7588968382,-0.9143074787,2.3616334739,0.1069964381,-1.8223725278,0.289360014,3.8948965,-1.626521204,-0.6403633635,-3.9388500225,3.8017934736,0.6543903812,1.6974086119,0.744930234,1.6095233331,-3.973411163,-0.6040689839,-4.8415347543,-3.5380493908,9.1251150179,-3.2376017483,7.5353576846,-3.69051612,0.9762809044,-3.9174953358,-2.019119573,-3.5863001667,0.3447764021,4.8832539424,10.245377342,-1.1088750978,-11.8297438974,-2.0171388685,1.0535373759,-0.0560168728,0.7336070597,2.4157440028,-2.3086507599,2.5448044991,1.0908708984,0.4378731476,-1.2395407678,-1.1142283994,3.4840055417,0.5991828512,-2.2678916466,-0.627953022,0.7760699102,0.4592473615,-0.150680085,-0.1567099161,-1.5969995499,-0.0418300437,0.873254212,-2.1387483813,3.173011339,0.4966881739,0.1299487371,-0.5530300709,-5.0620344774,-3.3852208485,8.0343045977,-2.3234628036,1.3683929113,1.1365972272,-2.2603662914,1.147966375,2.6069140681,-0.8746861087,14.7569612234,3.4092477197,2.7670468997,-2.6482005137,2.7044853918,0.1411363552,0.3104419695,0.3028538648,-0.0160178866,-0.5050750982,0.6711913659,-0.5372153647,10.237198812,-0.2655845463,-0.2882993187,6.7157565527,-8.6033467489,0.9277584327,16.8225873961,2.5302306596,-0.6457214337,-1.9090318665,-3.3104830753,0.1798617859,6.0384009591
biasActivation=1,1,1,1,1,1,1
[BASIC:ACTIVATION]
"org.encog.engine.network.activation.ActivationSigmoid"
"org.encog.engine.network.activation.ActivationSigmoid"
"org.encog.engine.network.activation.ActivationSigmoid"
"org.encog.engine.network.activation.ActivationSigmoid"
"org.encog.engine.network.activation.ActivationSigmoid"
"org.encog.engine.network.activation.ActivationSigmoid"
"org.encog.engine.network.activation.ActivationLinear"
