encog,BasicNetwork,java,3.4.0,1,1573304648009
[BASIC]
[BASIC:PARAMS]
[BASIC:NETWORK]
beginTraining=0
connectionLimit=0
contextTargetOffset=0,0,0,0,0,0,0
contextTargetSize=0,0,0,0,0,0,0
endTraining=6
hasContext=f
inputCount=2
layerCounts=3,8,8,8,8,8,3
layerFeedCounts=2,7,7,7,7,7,2
layerContextCount=0,0,0,0,0,0,0
layerIndex=0,3,11,19,27,35,43
output=0.9756021863,0.9995646351,1,0.0269872516,0.9916391146,0.1209798683,0.9999752896,0.3708685472,0.9624279388,0.002065013,1,0.4790711432,0.9736776309,0.8103875588,0.0383754996,0.3723431188,0.926002664,0.0001796758,1,0.4748745641,0.5021708084,0.8914438989,0.4665905992,0.492261029,0.9970484224,0.7461579277,1,0.00066746,0.8789371999,0.2091797849,0.1396770837,0.45672184,0.6231145282,0.5771749939,1,0.7302526568,0.9960230549,0.6201262026,0.9991502646,0.8189446286,0.000000001,0.9999999968,1,9,20,1
outputCount=2
weightIndex=0,16,72,128,184,240,261
weights=2.7226947845,-4.9298095613,-6.8236829884,7.1697399827,8.9965691042,0.1479553511,-11.900323921,-1.2947257802,-4.189019952,3.1963387303,-4.9535489725,6.6006908824,-8.1573379739,1.8732058056,2.0277762812,-0.1006347834,0.7273808525,-0.0881144336,-2.8703956539,3.7854066083,-0.6055181102,0.0150989323,0.9115218938,-1.455523589,-0.6423829992,-0.722346889,3.2498322619,-1.6647845356,2.9831847194,0.566324129,-3.4626663032,1.5825745927,-6.9428635126,2.0013336491,0.2435233834,4.4016901869,0.5807074695,-1.4245504679,1.0295466876,0.1307528411,-3.1983767508,6.9919380157,-1.8413395813,0.5057898016,5.7303500767,4.0280532401,-5.5092367943,0.9427505149,10.5830301396,-2.5963358612,1.7033002924,-0.4098957837,0.3167217318,-6.0873718342,5.2056754497,1.0829318945,1.6022471474,1.2134302312,0.0679461099,-1.6344054584,1.1098941021,-0.5646419946,0.5251396422,1.4112808763,1.1310882516,-2.3284559818,-1.64949056,5.667437723,0.313722498,-1.5033519504,9.9505298092,-2.062514365,4.3918723636,0.8971296897,-3.8482630943,-8.2282780691,6.548728144,-1.356695966,4.0483137016,-0.2417907788,-1.6509715528,-1.7337402242,-1.1514208798,3.9982240337,-2.1771044145,5.6083311431,-0.4036114686,0.2072764962,-0.3273407277,1.8614642864,1.9971868458,0.5685227967,-0.0331275322,-0.6777028059,1.3237867959,-1.6681883721,3.1688592664,0.1225915595,-6.5056904449,3.7201838237,-2.695379782,-2.5094957482,0.414955836,2.7953744869,-1.4174864792,-0.1326102377,-3.0938248226,-2.6733604961,-0.8872518012,4.1244988712,1.8555971467,-0.8372545857,-3.3274216124,-0.6057348953,-0.183052031,0.4169871925,-4.1880692414,3.9211480782,1.0830665333,1.7236666895,4.8296537664,-2.028921035,-6.8465852407,3.6808544472,4.9574406669,-6.327164486,-3.9105358649,1.2731146201,1.8944199837,1.2425969733,3.4825392458,0.358191808,-0.2704265248,-4.3988675514,4.3182211226,-1.6003848883,1.3116016844,1.4809106418,-2.4484887706,0.4858432256,1.7877132217,-0.8303051859,-0.9035951767,-0.6270863239,1.3001028626,-2.3877901367,-4.3102621684,1.7969340093,6.2069719664,5.1024932556,-6.3305583975,2.493597097,0.3304788681,-0.9135108633,-6.5128713874,9.457738603,-5.5602035632,3.4034414591,-0.7928084766,1.5865145753,-0.0403391973,-1.5081849689,6.2660840526,0.8170505654,4.0374350743,-3.9446561599,4.9303393368,-2.3618737031,-6.0694386145,3.2325621264,-2.6878089925,-2.0821142269,0.7057510744,4.2252179428,-4.14252095,3.2741833693,-2.2901096323,3.1860281802,-2.4238900416,-2.6583970602,2.1712596375,-1.7205715629,-2.2335164998,0.5273620943,-0.0309617545,-1.9123828643,-2.0616221591,2.3168306974,-6.0919013948,0.2829909308,-2.8440437549,1.4126014272,2.1938613512,-0.1597687788,4.0674645447,1.1377112017,-1.0093021471,-0.7537829852,-1.0691175122,-1.2239413717,3.9425116552,7.4669518399,-1.3602815711,-6.2208862922,-3.4595391641,0.6193089093,-3.0798646668,1.3260197527,4.6002160778,-4.8991265045,-7.3195277843,2.045357767,-2.2257806558,0.5390502538,2.0470494554,1.9735012237,-0.872729553,-0.7444367781,-3.7596022449,3.1011474724,6.5467757228,-0.6912777993,-6.4416426708,1.5183537383,-1.1471261635,-3.8256087853,0.4217841302,-1.6285434629,2.9238324769,0.0165316154,6.3070728676,-2.1850540479,1.4052951276,4.3581433056,-8.476847664,3.1543064992,-2.660989915,0.2591036839,-3.1496268171,2.3780747794,-0.1546856296,-0.1160161366,4.7083982225,0.1093094043,0.4904844119,-5.2702164302,-0.4575106387,-0.442094519,13.4495700524,2.431087349,-0.9605168268,4.4002858951,-0.73631024,0.2046197161,4.0436114078,-0.6632593549,-0.7149738733,-0.4273529957,-1.6686238787,1.7953565304,-1.3392660086
biasActivation=1,1,1,1,1,1,1
[BASIC:ACTIVATION]
"org.encog.engine.network.activation.ActivationSigmoid"
"org.encog.engine.network.activation.ActivationSigmoid"
"org.encog.engine.network.activation.ActivationSigmoid"
"org.encog.engine.network.activation.ActivationSigmoid"
"org.encog.engine.network.activation.ActivationSigmoid"
"org.encog.engine.network.activation.ActivationSigmoid"
"org.encog.engine.network.activation.ActivationLinear"
