encog,BasicNetwork,java,3.4.0,1,1573282033022
[BASIC]
[BASIC:PARAMS]
[BASIC:NETWORK]
beginTraining=0
connectionLimit=0
contextTargetOffset=0,0,0,0,0,0,0
contextTargetSize=0,0,0,0,0,0,0
endTraining=6
hasContext=f
inputCount=2
layerCounts=3,8,8,8,8,8,3
layerFeedCounts=2,7,7,7,7,7,2
layerContextCount=0,0,0,0,0,0,0
layerIndex=0,3,11,19,27,35,43
output=0.0752671865,0.1428553542,1,0.0000000109,0.9998329973,0.9999999994,0.0059958853,0.8578286447,0.6175758495,0.9999994496,1,0.8803822966,0.0000000118,0.0000000252,0.9999852475,0.9414972182,0.7578120761,0.9999996678,1,0.0702746285,0.9993205333,0.113827301,0.5251693512,0.9997374717,0.9999388168,0.9999999999,1,0.9720775812,0.9506650391,0.0212726678,0.8610688502,0.007055414,0.9170536954,0.3822550396,1,0.0891350422,1,0,0.6280744114,1,1,1,1,9,20,1
outputCount=2
weightIndex=0,16,72,128,184,240,261
weights=-10.5237775585,-3.7075105491,3.2072272333,13.8376037371,15.0549513016,-16.2366263146,-6.5116711368,1.5326823776,14.3361728246,11.5752097607,-12.5502553676,-8.7104108048,7.2957903208,7.4329586748,-10.3580795059,-1.2534488046,-5.5418941839,3.3332987106,-1.2714709917,1.7711913618,-12.5539074963,4.4031493381,-7.9281327574,1.1823026595,-0.91982476,-3.7346058177,-8.7011297097,3.472827509,6.6350626447,-6.5504933076,5.8221422864,-1.0706355137,3.4196595346,2.3434122398,-0.5335110369,-2.7649922597,6.3502232243,-4.416227395,20.567664566,-2.2855681022,2.7868151124,-7.6437960538,-1.3421348275,4.9285766917,-6.4423811607,8.1517491695,-15.9286105699,3.3239608131,3.5748870358,5.6520407134,5.0189801847,8.4060641401,-9.104213984,4.5043759805,-4.8805824815,0.282866213,-8.2342502171,-8.3145832788,3.7140887594,-0.38538255,-2.5268446857,-9.3413382264,9.6206582809,7.9512776183,-2.1663193955,-1.6176637947,-11.6111637344,14.4229084654,0.4040641128,1.9488995342,0.0346572442,0.0051438589,-4.2052406531,-2.9954934825,-0.0132362335,3.0466183455,11.3345984835,1.8645423653,-7.6967290481,-1.8127707469,6.363931875,-5.2567288151,2.6374474053,1.1803126201,-1.6584658484,-12.6292390675,-0.7010441284,0.6177747973,0.3576946952,-5.3090045188,1.3034422007,1.0524608121,0.6135579106,-2.9621207771,-10.6494639687,0.0790408347,-2.1340112998,4.9045560789,5.1115562676,-1.9925007506,-3.722186649,4.1063008105,7.5946432113,-1.1420918306,-5.9302374259,-7.7973720484,0.1075565164,7.3672151468,11.4839482128,-6.1256261421,-1.161738356,2.9119942084,8.0671531108,9.6657113999,-3.974609283,-4.1799741159,-4.6550522464,-1.000314932,0.6248340218,-1.4084753817,3.8390203057,1.8552629264,3.4932044448,8.2395083896,18.4460086178,-4.9755311125,-3.8310876206,-1.5657702791,-5.4098151033,2.9090273306,1.2384464922,5.5345271618,3.7232827112,-7.4250321307,0.2758253298,1.7962652176,4.7232666564,0.4190936419,3.7975914419,-1.4001053112,-14.4454248634,3.7986444262,1.3287166014,-0.4610256114,-0.5860522933,1.8587580682,-1.4243250336,-4.8262973504,4.3495354827,-1.5311023386,2.9244679422,1.1919987075,0.0547452125,3.4523758097,-5.5319114955,3.2275055478,1.0791947579,-5.732706077,-1.9679479635,0.1059101726,2.2785066453,5.7050338856,-14.4202237463,2.7705051156,6.5237437113,-7.6568022186,2.1835191782,4.6685984129,8.4042156316,0.6682916644,0.3839972356,-0.3292405908,-16.3079545061,1.4252936854,1.1200050227,-0.4481037739,11.0608095424,3.0290768175,3.7270835903,-0.1592823023,-12.8532638986,5.1160733812,6.9445273972,2.17886189,-5.999781359,-2.5360731234,0.4143537209,10.9678955387,-2.190567375,-0.4779644142,4.4758183591,-2.0750715067,0.0338116774,0.2609955375,0.9925190829,-2.8134558212,0.976317261,3.5453721614,0.1701821321,-0.230292483,-4.8380701336,-0.6890181903,0.1894507594,14.0688059248,-1.603742177,-3.1308153051,-5.8685869237,-0.9416828609,-5.197432869,1.7622250825,-0.1365725978,-3.7664840368,-0.224127533,3.5698768517,-0.7614697139,0.3065969366,10.8850301356,3.2247712153,0.8712484399,-16.5238138629,2.6830086619,2.0863790621,-6.3596197675,2.826528282,-2.6736190793,-0.1651534649,0.3135103712,7.0928307755,-0.8346167497,-4.213147908,4.5192282913,-1.1198499729,0.6601212735,-0.640983495,-0.3236330897,6.1588153679,-0.9936374148,-0.8098792347,-1.5453593765,-0.4171624114,-0.0043817968,-0.2492768547,2.700731161,1.077472651,0.8739677835,-0.7474371046,-0.9611605809,-0.9468163958,0.7607302524,1.3300320307,-0.3282982836,-4.8803577602,0.8034121689,2.3410922642,0.6072826496,-6.4776858701,8.151647159,0.7955986257,-4.5643504282,3.6204676635,-0.971995965
biasActivation=1,1,1,1,1,1,1
[BASIC:ACTIVATION]
"org.encog.engine.network.activation.ActivationSigmoid"
"org.encog.engine.network.activation.ActivationSigmoid"
"org.encog.engine.network.activation.ActivationSigmoid"
"org.encog.engine.network.activation.ActivationSigmoid"
"org.encog.engine.network.activation.ActivationSigmoid"
"org.encog.engine.network.activation.ActivationSigmoid"
"org.encog.engine.network.activation.ActivationLinear"
