encog,BasicNetwork,java,3.4.0,1,1573306958419
[BASIC]
[BASIC:PARAMS]
[BASIC:NETWORK]
beginTraining=0
connectionLimit=0
contextTargetOffset=0,0,0,0,0,0,0
contextTargetSize=0,0,0,0,0,0,0
endTraining=6
hasContext=f
inputCount=2
layerCounts=3,8,8,8,8,8,3
layerFeedCounts=2,7,7,7,7,7,2
layerContextCount=0,0,0,0,0,0,0
layerIndex=0,3,11,19,27,35,43
output=0.9995965738,0.9994748566,1,0.0835842329,0.9998569283,0.0062897839,0.2900727691,0.9508844638,0.0136813414,0.0278137107,1,0.0350022346,0.0002235995,0.0114547037,0.2151907898,0.6075992635,0.9836955524,0.8023091463,1,0.8899093258,0.6577719128,0.0000079396,0.7899366138,0.9999992032,0.0322850274,0.0842917748,1,0.9651397321,0.7806154009,0.0709717582,0.5992332846,0.0120476172,0.5634585592,0.999968023,1,0,0,0.1677468385,1,0.999999971,0.9999999751,0.9505898835,1,9,20,1
outputCount=2
weightIndex=0,16,72,128,184,240,261
weights=-3.7467664731,2.8294858807,6.9734226485,-9.7645580738,4.2045621541,2.9417768322,-14.0780035833,4.4410353503,-3.8064226797,-9.1038517071,-13.5817109234,3.9288810357,10.2604499493,-8.0657218941,3.6901212692,6.1689962011,4.4587200003,-2.6316972375,-4.1065411443,1.7277745627,-0.2710880267,-1.0233096086,-0.6602269672,-1.1738098023,4.1711475601,-16.7406678183,0.823199405,-0.3788642346,2.0395851107,1.8759077177,5.1556936192,1.5608309241,-0.8242626641,5.3159735855,7.1535484697,3.0039374942,2.8514126912,-4.7119586196,0.6317767938,-3.3674818039,0.6565597205,10.7374604865,3.026880138,2.7086295621,0.6462248533,1.8823735859,-7.7210746509,2.4124037904,-7.7840197484,-6.260101511,1.7432255744,0.0134995327,2.515212265,1.7273561782,-2.3801381134,1.8963747632,-0.4513740858,13.9446742897,1.0771419342,0.2744735809,1.7959809147,0.5221756069,-8.4751250173,0.8581038457,5.2270470015,-7.7466773308,0.345330919,8.5550498921,5.0573243571,0.8355427504,-13.9513813413,1.7184064815,-3.3788575478,-2.0805629729,-5.9030175274,-4.8111214907,4.8285439578,2.0187739651,-1.209242116,0.0674396148,-1.917837806,-12.5536212553,14.8846309034,3.2608008704,0.2815908428,3.9589624666,-2.3223328004,-1.2309054786,2.376242532,-0.7623201825,4.7640594948,1.4675037597,-7.9718803899,-2.2190382033,1.1580848316,0.7155843466,3.8986034331,-3.2439764464,0.0704985919,-0.1918563043,-1.320401841,-1.1414367365,-6.870244691,-0.5416115918,-2.0704165161,0.1395922592,-3.3636803986,1.0979748305,0.3222641626,7.5904213556,-4.2461993466,1.111190051,-0.3628498099,0.6446131462,1.1908887637,1.5422520778,1.1817433663,0.1137401808,1.4593788297,1.4720545276,4.8377334538,6.4886074151,-9.4811755549,-2.4091011895,-7.8626388054,5.9871034723,9.0984173262,1.6331512186,6.3091658493,0.4460067203,1.1896750139,-1.3059861508,1.2644545622,0.36987688,-5.4936558493,1.6204221503,-1.9989082977,-2.7449257136,-9.6820570515,-4.273251439,-5.3292480294,10.0312724776,3.0929687461,-0.7077064286,-4.2548319343,-0.3075876465,4.3927839887,3.8535616927,9.8854634126,-7.5732246548,-8.647780166,2.7776311701,0.6559961958,0.4992310751,3.8772205305,3.3140804925,1.391060703,-1.1799299732,-3.1382212334,1.8268309856,1.0216782546,4.3270956361,-2.0595999797,-5.1406163136,-7.4354276278,1.8432883041,12.3402317985,-0.3835280788,-1.9750194688,1.7061182311,6.2086791572,-0.9404104617,-0.2143457494,-2.2369811743,0.0682967182,-1.5083680401,5.1684479264,-5.965082977,-0.0781413558,-0.3563518207,2.246907741,-7.2094766183,4.0503101767,-2.513177835,0.213983512,-2.6719215303,-9.3373970063,-0.2385464692,-0.5877396367,-0.1240925883,5.4399749176,0.6664375448,-0.5492232956,6.2265011903,-0.6290077787,1.3529793524,1.1978298117,1.6100783053,-3.6142983265,0.6495983314,-0.4130503443,-3.5812876685,6.1849022567,1.2081544399,1.9371705089,2.218626351,-12.0476050049,2.4790253372,0.1855059555,-0.9233057737,3.4300846956,-1.5081294828,-0.6014371863,-0.7864022646,3.3526641605,-0.4641541227,-0.1805448065,-4.1205561559,10.2193658105,-2.1033838491,-1.1279059487,-1.7488158,0.5669218167,-1.6798385345,1.8785950271,4.5931511444,-13.3425994922,-1.2956857645,-0.3010632328,-0.4691094483,5.4313509126,-0.6037394443,-0.1181233252,-2.3649241729,-15.4943533143,1.0370514174,1.3067569894,2.5535533309,6.4350263564,1.9351579403,0.4422362908,-1.8542708403,-0.7020448365,4.4476281131,-3.2870586436,-1.6334671586,1.5075210452,0.1830021665,-18.8294134818,0.8372548958,0.852687314,-0.1392375663,0.6963298858,0.5719675537,-0.3512455016,1.5451956356,0.1558030479,0.4866304266,-0.0255448893,0.2286497694,-1.3861638516
biasActivation=1,1,1,1,1,1,1
[BASIC:ACTIVATION]
"org.encog.engine.network.activation.ActivationSigmoid"
"org.encog.engine.network.activation.ActivationSigmoid"
"org.encog.engine.network.activation.ActivationSigmoid"
"org.encog.engine.network.activation.ActivationSigmoid"
"org.encog.engine.network.activation.ActivationSigmoid"
"org.encog.engine.network.activation.ActivationSigmoid"
"org.encog.engine.network.activation.ActivationLinear"
