encog,BasicNetwork,java,3.4.0,1,1573307209292
[BASIC]
[BASIC:PARAMS]
[BASIC:NETWORK]
beginTraining=0
connectionLimit=0
contextTargetOffset=0,0,0,0,0,0,0
contextTargetSize=0,0,0,0,0,0,0
endTraining=6
hasContext=f
inputCount=2
layerCounts=3,8,8,8,8,8,3
layerFeedCounts=2,7,7,7,7,7,2
layerContextCount=0,0,0,0,0,0,0
layerIndex=0,3,11,19,27,35,43
output=0.7555565081,0.7692323667,1,0.9999999589,0.000020992,0.0000163243,0.1005603091,0.0060141245,0.4223920266,0.7709539475,1,0.9999999269,0.1028218358,0.45024542,0.9999993953,0.9999806803,0.018346821,0.9999999868,1,0.998417019,0.9984974917,0.9999999927,0.0538374465,0.2051862377,0.0056511731,0.9992937398,1,0.923415206,0.1438037647,0.9232590177,0.0427017122,0.7915109406,0.1242992278,0.9649310445,1,0,1,0.9999999214,0.1246571346,0,0,0.1114803998,1,9,20,1
outputCount=2
weightIndex=0,16,72,128,184,240,261
weights=8.350704025,-14.0912562763,8.1308691328,10.684567557,0.8147347252,-6.2040891258,-2.3088086109,-3.90087064,-7.803436034,-5.4709221343,-4.3859849668,7.6576405428,-1.1565356709,6.8563734557,5.7055878143,0.9496818831,2.9074614878,-4.8394088491,2.992487636,1.5304507018,10.2829134452,0.9499410795,2.1324400477,-0.7121329721,-1.8900242618,5.0267490406,0.8693507131,-9.0276117072,-1.3194247748,5.4531183569,-1.5909068799,2.0482611012,-6.0308752904,0.9696544994,0.6799095757,-5.8972537858,-1.5609451842,4.4518422448,2.4008074082,-0.4221125071,2.9435043614,0.9708258643,-1.9479900525,-9.9795637572,-1.1683179228,-1.2946985892,5.705322385,1.1090173569,-0.9487499487,-0.9937666102,-1.3234795258,0.7076080162,-2.0741359445,-0.5424471169,-0.9869026136,-1.0974477569,3.5022464453,4.6463226527,-1.8548838403,-0.4098287242,-6.8107537505,-5.4009671813,7.342379854,-3.4806367298,-1.064897548,1.852863891,1.9015546278,0.4342962797,2.0916516604,-2.3858926769,-1.8029306421,0.552718793,4.4885123004,2.4952625359,7.3776987813,-1.5713175079,1.1030822001,-2.7185203924,3.2680493662,-1.3114647357,2.8320310416,-6.263490712,-0.1468762247,3.6675789204,3.6454046901,0.0522537077,-0.5493921867,1.0104201955,-0.3298452353,2.6706987309,-0.3982331921,-0.5988860146,-1.6622088842,5.5754366006,-2.3503487085,0.5516770279,-1.0870239342,12.1091459137,0.9475350491,-4.1911996234,-2.2015623904,-11.1310142588,5.7579505135,-2.648328049,0.2839531066,3.529863298,1.2471508964,-4.0782266791,-2.0476697153,-0.9497471824,7.0785244293,-0.6292901103,-1.4656274025,-1.8508137614,1.0344584873,1.409342729,6.9631204971,0.1230197797,-2.9126213274,-0.29764285,1.076610502,3.6987621356,12.659375109,-3.548531334,-2.2965305425,-4.3552527975,3.1037174537,-1.7028200431,2.1339588459,-2.595581339,2.2876133278,-1.962941371,0.4430756098,-0.1417180597,2.3518215872,0.2189174951,-3.352951689,-5.2160114223,-0.7134095235,-2.8085371854,11.648397443,-0.2601275461,2.8983332723,-0.8602366341,4.7555138225,-5.4675003677,4.100954454,-9.0047480497,3.5175903432,0.0848581386,7.9134869707,1.3042394328,-0.9893530639,2.2309862362,1.2318671711,2.2264777931,-3.2633757881,0.6050980602,-1.3724180096,0.3259805855,2.3570941007,3.0670062972,2.8338678517,1.599404745,-7.4363973784,0.0044810111,-1.4451424194,0.6233909423,-5.7806908083,6.0615959339,-1.3110350611,4.4919330478,4.5039640257,-0.381322686,-4.8671121138,1.4935731482,3.2875471203,-6.383849299,1.7113869038,-4.1127977145,1.1804752653,0.2294387646,3.2431167884,-0.359621258,-0.7337487011,2.2907362146,1.4005305766,-4.7993838511,-0.9744730155,-0.6174326453,-6.6035223412,0.1328545001,1.4576577269,-2.3801469866,-0.6946569577,8.2792116681,1.1783398623,2.033461887,5.732413169,-0.3803605969,0.6091315274,1.6084666845,1.0662239854,-0.5705232717,-1.2736563029,1.2129043194,-4.2105258098,0.3532942469,-3.8505717826,-1.7506009511,-0.9249013154,6.5957681415,0.1478126967,-2.0589497754,5.8651123899,-1.9104284517,1.3104461184,3.8986277442,-1.4497421542,-10.7694775046,0.670308542,-3.9315955926,9.3985609034,-0.8200916903,-0.122131981,-0.2935917124,-1.0772912779,-0.0942254441,0.6561533848,-0.6776967022,-0.5246648074,-0.5112140406,-0.7261651834,2.2030147971,1.4847561224,-7.1128583725,-1.2018335667,-2.3349918045,-5.8469359343,1.1654568575,1.8464861794,-3.3482415114,0.8464244928,-3.974802482,5.7852883536,0.878480357,0.8361012483,0.4875487143,-0.9175563224,1.4362072588,0.1599463491,-18.0738409216,0.713141643,-2.4201627575,1.0324220822,3.6231157742,-4.1210944554,-1.0580601784,0.2834345088,-0.2807546638,0.9884747798
biasActivation=1,1,1,1,1,1,1
[BASIC:ACTIVATION]
"org.encog.engine.network.activation.ActivationSigmoid"
"org.encog.engine.network.activation.ActivationSigmoid"
"org.encog.engine.network.activation.ActivationSigmoid"
"org.encog.engine.network.activation.ActivationSigmoid"
"org.encog.engine.network.activation.ActivationSigmoid"
"org.encog.engine.network.activation.ActivationSigmoid"
"org.encog.engine.network.activation.ActivationLinear"
