encog,BasicNetwork,java,3.4.0,1,1573307476229
[BASIC]
[BASIC:PARAMS]
[BASIC:NETWORK]
beginTraining=0
connectionLimit=0
contextTargetOffset=0,0,0,0,0,0,0
contextTargetSize=0,0,0,0,0,0,0
endTraining=6
hasContext=f
inputCount=2
layerCounts=3,8,8,8,8,8,3
layerFeedCounts=2,7,7,7,7,7,2
layerContextCount=0,0,0,0,0,0,0
layerIndex=0,3,11,19,27,35,43
output=0.9997192557,0.9634468194,1,0.2680933014,0.9999850563,0.8313786445,0.9868462353,0.0217698043,0.1813944251,0.037728321,1,0.7936326803,0.0016894401,0.9999946211,0.0045299193,0.0017029592,0.4061772763,0.1815553592,1,0.5789432459,0.4367149671,0.9707109257,0.2712544119,0.0031692167,0.1416365791,0.0022496149,1,0.3653302348,0.9505585613,0.9946883458,0.2683843748,0.5397967116,0.6459078575,0.0591001354,1,1,0.9979093269,0,1,0.3784620668,0.6372948504,1,1,9,20,1
outputCount=2
weightIndex=0,16,72,128,184,240,261
weights=-0.7367235302,5.4254871442,7.0559703829,-4.3605141023,-9.7646440437,2.2695699079,-3.155414988,1.3067993209,-11.3804034635,-5.2675481652,4.9896429316,5.894048454,-4.5302710948,4.2611851139,7.3453425067,0.673966818,2.7626942623,2.7462482441,-6.99924413,3.5647171361,-2.5757398989,7.7755775855,0.6914660083,0.5021206365,2.2287177485,-2.0415299073,9.1566661998,-10.2737065211,1.6628681307,-0.2713736227,-0.2407270823,0.386895359,2.8137683411,4.7666773793,0.2451738716,-2.8928289166,2.8865995964,-3.9609096108,-5.1216672178,1.6559916888,0.6815407312,-0.0803827947,3.8687667254,-4.4538369098,-1.2471116863,-0.5659726979,0.4683437536,0.0754573494,-4.4553117381,2.6794543965,0.5529626214,1.9374671732,3.6961478975,-1.9792697594,-4.4693982289,0.7734800818,2.8119551074,1.5101195477,-2.0152452997,0.0389265549,2.1662016717,-1.574054358,-0.2261208933,-1.0493715502,2.6583958851,2.0873151084,-5.9355217816,-3.0114205472,3.1572512559,-1.1074125742,6.4295252513,-0.1259563002,3.1849853669,-1.8631473711,2.9507020517,-3.3170416114,2.7600063611,-2.5789719484,-1.8779092762,-1.2870606448,0.2997664327,1.469289787,-8.5489984418,0.2496718639,0.6187677771,2.1397752132,0.3528960686,0.7281804563,3.2352361041,2.1162846328,5.292541802,0.4396650382,-3.2374713259,1.0182290861,-9.5320316943,3.9664836412,1.2053792214,2.0485670695,-6.336347941,2.9036316142,2.4943511138,1.8785677189,9.959351662,-1.9182414648,-2.2528674933,1.0773120025,-4.361586843,0.9358681377,3.2839442858,2.3773631378,-1.6282573417,-1.9033638122,4.2087621171,-0.4164561771,-0.1749750381,-3.8006603651,-2.3102652086,1.9594898004,-5.9661399507,-1.6905489905,-0.5461682232,-4.4895660433,4.3021894911,-3.1096038343,-4.493486312,-4.3627992913,5.6088866632,-1.9421176724,-2.7062188793,-0.1491430698,1.2164808966,-4.344986557,-0.376029354,1.8883164107,2.7427630311,0.2261800848,2.0914276798,-1.284136263,0.655803476,-2.5859882749,2.9435619105,-1.2228048111,0.6336038859,-0.5927531965,-5.383926425,9.1482714496,1.2155289155,-1.3630513693,-4.2175169456,-4.3411095086,4.509112592,0.7425761164,1.2289690043,0.7488340023,-0.7645466135,-0.0659689188,2.7793858335,-4.0483869698,-1.8835386363,-0.144967978,1.7616210105,-4.9098211412,-2.5320393776,2.8766252752,1.3606037408,2.2426937973,2.668157349,-2.3217601015,2.1636524749,-2.4571594294,-0.9261331034,-2.4712187224,3.2668679562,0.9314039102,-0.1377239908,-1.0289927178,0.0309087274,-3.6378220281,-3.8641900417,10.0684974787,-2.5102195512,3.7632919591,4.0898631927,-2.8240787559,2.7500801616,-4.450077235,0.7953465705,0.1309785325,2.9473660092,-4.2343863649,1.2166208154,1.3738773511,0.4441729776,2.7748353779,-0.8536360869,-0.8569661295,-4.7181535417,8.7510603588,-1.1777451178,-2.0135985372,-0.6664872129,1.0452277634,-0.1796006987,0.6440113606,0.3814767207,2.9450627849,1.2283193509,0.9623923115,-8.2508061183,6.1985647739,1.4331967253,2.3562941872,1.2088229583,-7.4340765256,2.0936527322,0.8926235634,4.6605411072,-3.1157495979,0.4121690082,-0.432636937,3.6344069603,-3.6779187827,0.5633273365,-0.5540381064,-2.0631496418,-1.1638392244,1.642853729,2.6742828248,0.5422131587,-5.6283369989,2.9990507127,1.5340248839,0.5306115484,0.8486443388,0.9735323597,0.0916154709,-8.0009359889,-2.6221143896,-0.4157083853,0.8781185285,-3.314878316,3.9576227374,-0.1307348124,-0.2748826158,0.5122178944,-1.6022380074,0.6759101352,-2.6147905868,0.284196826,0.9755954198,0.9804074737,-0.4990524107,1.5929418747,-0.5900516832,-3.0315243046,-0.2260261058,-0.2200625598,6.9991283262,0.6789125592,0.9240862636,0.5157534319
biasActivation=1,1,1,1,1,1,1
[BASIC:ACTIVATION]
"org.encog.engine.network.activation.ActivationSigmoid"
"org.encog.engine.network.activation.ActivationSigmoid"
"org.encog.engine.network.activation.ActivationSigmoid"
"org.encog.engine.network.activation.ActivationSigmoid"
"org.encog.engine.network.activation.ActivationSigmoid"
"org.encog.engine.network.activation.ActivationSigmoid"
"org.encog.engine.network.activation.ActivationLinear"
