encog,BasicNetwork,java,3.4.0,1,1573307903529
[BASIC]
[BASIC:PARAMS]
[BASIC:NETWORK]
beginTraining=0
connectionLimit=0
contextTargetOffset=0,0,0,0,0,0,0
contextTargetSize=0,0,0,0,0,0,0
endTraining=6
hasContext=f
inputCount=2
layerCounts=3,8,8,8,8,8,3
layerFeedCounts=2,7,7,7,7,7,2
layerContextCount=0,0,0,0,0,0,0
layerIndex=0,3,11,19,27,35,43
output=0.8181812798,0.9268256474,1,0.0000212534,0.7305538745,0.0002211972,0.0000449227,0.0000000008,0.7827248122,0.0000002109,1,0.00391971,0.9646644649,0.9999966065,0.3745664963,0.0063078904,0.9996391429,0.0278807694,1,0.4899682275,0.0219062603,0.9999948079,0.9915838503,0.0000363307,0.0000137581,0.0043953364,1,0.963525498,0.8536343103,0.5780840005,0.2249223879,0.9963794204,0.0023587104,0.4219114178,1,0,0,0.983492641,0.0000000094,0.3779697878,0.9999999436,0.009815479,1,9,20,1
outputCount=2
weightIndex=0,16,72,128,184,240,261
weights=-4.6190200728,6.1501408429,-5.1708759259,-6.3339554162,-10.0037750809,-7.7879229678,9.6196536776,3.108389569,7.0369656648,-16.4927761078,-9.4139076778,-9.0274929247,-9.3660142429,10.8699202549,9.9126902126,6.0819619031,2.0190433248,-1.3319099409,-5.2658805715,-1.974195222,10.2117059242,-2.2011759506,0.8741972527,-1.3651161627,-8.029761393,5.4400103549,-4.1646889603,-7.1878671243,-4.759021689,-3.8269423366,3.8549661728,6.3862345247,-4.399020191,-0.7702897971,-4.5342573986,6.2360545301,11.415133709,-6.9053711022,-3.2596873252,1.4642604822,-0.6672920392,-2.575797839,-5.0433440514,8.3731450918,0.308554071,-5.0705175414,-1.2721330214,-0.5138887545,-2.8983105595,-9.2505288025,-6.9324846571,3.8829114455,2.3285915872,-5.7591700512,0.0881963312,-0.7951756556,4.4850731329,0.8268842937,4.1015034607,-4.5560255424,-16.1719380358,-2.421920067,1.3438425291,0.5570049348,1.672168695,-1.2652518387,-8.6688447518,5.0406878593,1.8678189615,-8.7869995459,1.3519572853,1.3571784969,-1.3512623089,6.0511649209,-2.1058842496,-1.5699127742,-4.1231774216,4.0239280872,-1.865348784,-1.3374262614,2.7755414186,4.6184894384,1.9103807972,-0.079272625,-7.0798208257,-1.3864821061,0.1352291427,0.0137067665,3.1869425416,-1.3018058605,10.8616599601,0.0242595242,-0.7940873455,-6.6816534536,-3.5293707782,0.1906414704,0.532417766,-8.0723624784,-5.4336343621,3.6577606537,0.4141988337,-8.2681218254,5.8410583302,1.1843468634,-13.1604253674,-0.5936911843,-5.1306088613,5.3568891833,0.5098982842,1.0842548435,11.1433355475,1.1713349995,-0.5334900477,0.8889871432,10.648299279,-0.8474042166,-1.9954972775,-5.2090086169,-5.4012368662,-1.6155009231,-0.8432075055,1.7580416002,-0.2877656826,-1.2141477415,0.6584755907,1.1452343035,5.4786648072,-1.7093352833,-5.4073326992,2.4075005099,6.8823869084,-7.4050869064,-1.3051685576,-6.1125534039,8.2247285765,-1.3534285692,-5.0245950183,0.893576918,-2.6895634081,0.3313420788,2.8300502646,8.3322641533,-4.8262617166,0.9567694457,-0.2262410779,4.9623283467,4.6496021842,-5.0277467609,5.4704428008,-10.5532965279,2.0411079925,0.306428818,4.1070110422,-1.1926281714,-2.5379998934,3.4355005966,2.8806815571,0.6916045418,-0.6492529232,-0.0734902266,-0.2844467232,-5.0863755862,-0.1536505165,1.8628166451,-5.6726280272,1.3782696711,2.4582180398,-1.3253119997,-1.3759052698,-4.6169600032,1.3897956396,0.9931199978,-5.9314758827,8.2772566618,2.6673306991,-2.1886478765,1.1339583923,-8.411898661,0.2438664057,8.3313043281,-0.1747993521,6.3395620477,6.0057847861,-3.7242867113,-0.4787726158,-5.3408608579,1.6741435812,-0.0462742263,-2.6148947901,0.7220906174,-6.508752993,1.9576247992,-0.3933907426,2.9067262979,5.7349539149,-0.7159344767,-5.6009724103,-0.5762620053,-0.1430583934,-1.1822257723,-0.1261956961,-1.0290660818,1.4704724581,0.4325221423,-8.4787506691,0.6234422719,2.8848656405,1.4216671178,-0.2477880485,-5.4779798494,-8.3554800495,0.0373776933,6.0413178389,2.6692815614,-0.1122106302,2.0287297396,-0.0507085251,-0.6626075486,7.0850988665,0.073812719,-2.1602886886,0.58835483,-3.7104855261,-1.0860593417,-0.6973271788,-4.2749870349,-13.9002081899,0.7511046815,7.6326262001,3.0705128043,1.516484863,1.6531739438,-0.0151843034,-4.5336823054,-1.3347306434,-0.2309403737,-10.2300075786,2.1628273294,6.461408123,2.6381508066,-0.8950667215,-0.9199094742,-0.9407128684,7.3280559552,-9.9106971371,-1.3067191888,-0.3977642353,0.4752242147,-1.8373023022,-0.8664460683,-0.5277944205,-0.1238787548,0.9162602229,0.2636697626,-14.0179116566,0.9435748283,0.3979917342,0.2385271499,-2.6410470208,0.9901273687,-0.6470548649
biasActivation=1,1,1,1,1,1,1
[BASIC:ACTIVATION]
"org.encog.engine.network.activation.ActivationSigmoid"
"org.encog.engine.network.activation.ActivationSigmoid"
"org.encog.engine.network.activation.ActivationSigmoid"
"org.encog.engine.network.activation.ActivationSigmoid"
"org.encog.engine.network.activation.ActivationSigmoid"
"org.encog.engine.network.activation.ActivationSigmoid"
"org.encog.engine.network.activation.ActivationLinear"
