encog,BasicNetwork,java,3.4.0,1,1573307948294
[BASIC]
[BASIC:PARAMS]
[BASIC:NETWORK]
beginTraining=0
connectionLimit=0
contextTargetOffset=0,0,0,0,0,0,0
contextTargetSize=0,0,0,0,0,0,0
endTraining=6
hasContext=f
inputCount=2
layerCounts=3,8,8,8,8,8,3
layerFeedCounts=2,7,7,7,7,7,2
layerContextCount=0,0,0,0,0,0,0
layerIndex=0,3,11,19,27,35,43
output=0.9230851861,0.9993001272,1,0.0082397023,0.0000221895,0.0045233189,0.1450906948,0.9949912654,0.0000100274,0.921869399,1,0.1434242547,0.0000002152,0.4217550712,0.000000002,0.9993259804,0.9999993047,0.0000035762,1,0.6442941,0.014256658,0.0001950571,0.9999092508,0.9975441094,0.0061658285,0.9961530661,1,0.5817643005,0.6701811623,0.3867949647,0.9939651432,0.1686645047,0.8667566313,0.0038711732,1,0.3876351822,1,1,0.0000000605,0.574722247,0,1,1,9,20,1
outputCount=2
weightIndex=0,16,72,128,184,240,261
weights=-5.8537070354,-18.7168947382,18.2891172297,15.2033155935,-8.8586953246,-17.3129758198,3.7889670727,5.5666492935,-8.6701278263,-12.9845161877,3.4064607217,3.2109455921,-0.9444270752,-0.8370549804,10.4139143416,-1.8062114548,-9.6357410214,9.055070798,-3.3370162261,2.78018772,-4.0051416381,2.8857296929,1.2049863288,-0.8844065992,14.8480885095,-0.9160183643,-1.5646658873,3.8246346147,-6.1016338235,-4.2173405329,-0.1511117865,-1.8706801374,3.8265884396,-4.0029447141,-2.8351500438,11.0138964586,1.0936685904,-5.8066010557,-5.4125792765,-0.0333766101,5.8686099576,-1.5381593337,-5.2243810329,2.5667718353,-1.7527204612,3.2202404782,6.6046889557,-1.8806506142,5.6746255482,5.0891042307,4.8047660084,-1.6922371413,4.3969058614,-1.1930090769,-5.7793447806,-0.7496771471,-2.9012538884,2.1561684037,-2.0219967519,7.9411869848,-5.7695762461,-3.682846829,7.8319484573,-0.7927780071,-1.6035711839,3.6404979751,3.8629340963,2.3606403233,8.0277929262,-11.2648740353,-7.0759300218,4.3113094063,-3.9274541259,7.6005309497,-7.2633333868,4.5764807497,-1.063882781,10.6263925317,-3.7630595407,0.8046257689,2.2395031573,-0.8769873755,8.3085956145,-9.6957410742,-2.89464366,-1.929850225,-2.6119563334,-1.5875643681,1.1492240695,2.6130400661,-0.10111302,2.5929199369,-0.1144330832,0.818592917,-1.88169557,-1.7023676444,1.7203263607,-5.3501800396,2.4462360432,-3.5311914184,-12.9904523857,6.5988238083,-5.2544580706,0.6444136574,-3.2369874098,0.513848673,-3.5189199789,3.6668249569,4.9760903782,0.4482671384,1.8878685913,-1.1332222261,0.8616692265,-0.4633130159,-3.4037139177,0.9220637872,1.2792100784,-8.7570702098,11.0863416315,0.443316486,2.5144825565,5.3460516272,3.6730129375,-6.2471698559,-8.9527498216,10.8863020364,0.8437002843,0.0315893044,1.1603353259,4.1406284351,1.2666564413,-3.7507363681,0.8610461108,-1.1345049759,0.9172882159,1.2167638786,-3.8396041533,-4.9582982503,1.9329204885,-1.8175135535,4.0260637039,2.3958202147,-0.8676282892,-0.3728564369,3.3122754904,4.5514870921,-0.1713634651,-6.6530398804,0.5094882354,-8.9087686564,1.2565307529,0.7908020911,0.3377624173,-5.0040198693,-0.2438586661,7.4518370417,0.5856443949,7.2504472201,-3.4037593008,-1.2180946322,6.6782949424,-7.6582521345,0.087616679,2.8386460787,0.58345122,6.6587085947,-5.6788357618,-1.449278892,-10.9174261479,-7.8497564489,1.5882789237,8.7246704046,5.2826917558,-3.7377520575,4.5097193684,-0.4255158271,10.0430908519,-4.7341981016,-1.0833554803,0.2768536351,-0.8791865416,7.5356726661,-4.8511013053,-3.3339905055,-8.7373290306,-6.1600439736,-0.0331256664,0.1084860649,15.4779853246,-0.7477571463,-0.3843201199,1.3988636149,-7.7818955537,-4.7946194346,2.2533382799,-0.5152164146,-5.3334103536,4.0471616306,6.9716881488,2.3603636608,0.8622638317,-2.2991081397,-0.3631515293,-0.6550031233,1.1616711463,-1.6707760749,0.5154161992,0.6841568475,0.1127809174,2.9638322792,-1.6452013126,-0.8802628081,11.0277839354,-7.1909259273,0.1425189708,-2.7386304797,4.1279670759,-3.9500501635,0.2805991687,-0.8747467381,3.1369747528,-1.0837848599,-1.5943712212,0.2656659449,1.6534659082,7.0030333806,-4.1413172914,-0.4551010051,8.1345508856,-4.192202807,-3.0872391224,-3.2179449216,-2.1032684569,-6.0360049585,1.1673575161,1.0194614332,1.0661571462,1.918982585,-1.5458741254,1.0667591363,1.3090284782,0.0673889244,-13.5862983583,-7.0284960028,4.8010789876,-0.0931601049,0.902796799,1.1353004558,0.5262935672,-1.1232386238,-0.2802176825,-0.9074819509,-0.0523204329,-0.3365494,7.5030162807,3.9450213546,-5.9204017966,-3.3246827811,-4.2362099713,7.7605840725,-0.029139141
biasActivation=1,1,1,1,1,1,1
[BASIC:ACTIVATION]
"org.encog.engine.network.activation.ActivationSigmoid"
"org.encog.engine.network.activation.ActivationSigmoid"
"org.encog.engine.network.activation.ActivationSigmoid"
"org.encog.engine.network.activation.ActivationSigmoid"
"org.encog.engine.network.activation.ActivationSigmoid"
"org.encog.engine.network.activation.ActivationSigmoid"
"org.encog.engine.network.activation.ActivationLinear"
