encog,BasicNetwork,java,3.4.0,1,1573308181029
[BASIC]
[BASIC:PARAMS]
[BASIC:NETWORK]
beginTraining=0
connectionLimit=0
contextTargetOffset=0,0,0,0,0,0,0
contextTargetSize=0,0,0,0,0,0,0
endTraining=6
hasContext=f
inputCount=2
layerCounts=3,8,8,8,8,8,3
layerFeedCounts=2,7,7,7,7,7,2
layerContextCount=0,0,0,0,0,0,0
layerIndex=0,3,11,19,27,35,43
output=0.2616543942,0.2135629602,1,0.9999104922,0.6856358821,0.9999578803,0.2578063422,0.0323992661,0.9999985877,0.9419368884,1,0.995477588,0.9992458798,0.9986243297,0.9009976809,0.4074947813,0.1132084474,0.0181735942,1,0.9941174365,0.1955618062,0.9841854791,0.4112310746,0.3617763806,0.340136388,0.7259718618,1,0.9783669648,0.2382943643,0.7645132923,0.0714693706,0.9978064047,0.4562592514,0.3884613298,1,0.9845720338,1,0.9999993798,0.9999994816,0.0564738525,0.6977346507,0.9999985706,1,9,20,1
outputCount=2
weightIndex=0,16,72,128,184,240,261
weights=3.5049404851,-5.6252533718,11.3570851642,3.1844816204,-9.0967818413,-9.4583051747,-1.914945917,-1.3059459923,4.218607922,9.1482403233,-5.8432287536,6.3387794073,-8.3724850437,-3.0510244544,4.0069970579,-8.037423849,-0.2189092691,1.8528212624,1.1782637854,7.2753681048,-3.6720605349,0.0840003007,-1.7372039569,1.474264693,-1.9134506629,-3.6419155384,1.9769590191,3.7489506324,-6.1324111623,7.8800363251,-1.3521706416,2.6031385916,-1.3903718456,1.7893689403,2.9879378312,7.4244581198,-3.1973865443,-0.9930255324,-5.3107086043,1.509623214,-3.2779262736,-2.0183739487,-1.4290178889,0.0987616094,12.8182066713,0.0295891753,-2.5186936612,0.3796921781,-6.5236044974,0.4110485152,5.0162463798,0.3356679517,-2.4059373876,-8.6307118066,-3.2786655587,-0.6080404066,-3.2285210998,3.1536617254,12.8757830301,2.9577462176,-2.870713758,-3.2341229259,-7.0978966119,-0.3251380265,-0.7506511216,1.5869397068,0.4122827411,1.5856897844,-1.1539037176,-4.8615644322,-0.5201021577,1.1375347647,-0.0221164948,0.6821733598,5.1332196073,-3.4754383386,4.1304537865,-1.9193165272,2.0932419348,-0.7011814728,1.8212746805,-0.7145803386,0.8011054646,3.2979975639,-2.5346283846,-2.1829147875,4.7311946278,1.5984559256,6.2725650283,-3.0024301797,-2.0958628031,9.1366661933,-3.4910313516,-1.8372938869,3.2984389888,-1.2623020846,4.1080683551,-1.8205798934,-3.9447732159,1.6556546703,-1.6422773078,-0.1679917862,4.7995726697,-1.1510526603,3.7731498065,1.9371150549,-0.202025346,0.3193637479,3.6899019204,0.7161997749,-9.8548422552,1.1392000415,-3.9385271711,3.7603733763,4.9775604993,-11.145714423,1.4360757369,-0.7405487369,-0.441730953,0.8592488471,-5.2308954825,3.0888837398,0.8150174852,-2.2712581331,2.9236754425,1.6829250591,-2.6759721402,1.0510351339,2.7381270253,0.1194370839,-1.9075318719,-4.1690916261,4.9651875353,0.7500591725,-7.7696579748,1.9004986409,-0.7963688009,2.0030365886,1.8974444356,1.0704387774,-1.547869131,-2.7230542248,2.0159400344,-0.6357864781,-1.5886066988,-2.7537530887,5.7700605018,1.377863713,0.7520995695,4.5371959979,3.0573946822,-2.1767000565,5.5085770339,-0.4363941626,-10.175511956,-2.1759030626,1.9803070865,-1.9381355403,-8.1727615562,4.3736575354,-1.6737078048,2.669511496,2.5883372524,2.3884971964,0.1966702052,-4.2441665825,-0.5829412523,0.250837431,-0.4570766611,0.0302657819,-1.9870265062,2.7600098446,-0.5926415985,-0.909784609,1.8348234979,1.3928233145,4.9328227032,1.8679401089,-0.2561241731,-4.858591175,-8.2979801815,7.0045889539,-0.2033825543,1.4089763888,1.8744359839,0.6350873937,0.11519319,4.8124261429,0.4952722906,-4.4977329912,-0.4723075648,-0.013997031,-1.7772850979,-0.7240510331,0.5187546444,1.1619041765,-0.2552621357,-2.7475845307,1.0888562554,0.4738507679,-3.8159049037,-3.8494255835,1.5478775617,-0.1155406713,-10.8056846487,9.4410596858,1.481601063,-0.1070069981,-0.3468665108,-0.8358867321,0.5600858098,-6.722518439,0.3287211059,7.122034951,-0.5472399528,0.3348813514,7.373893123,0.0151657368,0.1747504451,-2.8457530759,-0.983514177,3.7545892433,-0.6549916168,-0.3934495187,8.4977707373,-5.7018381704,-2.6906053179,2.0208902941,0.1084939328,1.8010356468,-1.9162342393,-1.5170667788,-6.6021630355,-0.8059937534,-1.0751101904,4.601692618,-1.7400504214,8.2037526442,-0.8996368457,-1.400206007,-1.0231527707,1.0853612125,-8.3428241016,-3.7575601932,5.1803077188,-0.0961057865,1.3158920056,0.1690794871,-0.9313899004,-0.4169386939,1.0279982129,-2.3349279698,-3.208981737,0.4542244577,16.9805001448,-1.4277130509,0.3302840507,7.0802700468,0.46531053,0.4535009055,0.2004677563
biasActivation=1,1,1,1,1,1,1
[BASIC:ACTIVATION]
"org.encog.engine.network.activation.ActivationSigmoid"
"org.encog.engine.network.activation.ActivationSigmoid"
"org.encog.engine.network.activation.ActivationSigmoid"
"org.encog.engine.network.activation.ActivationSigmoid"
"org.encog.engine.network.activation.ActivationSigmoid"
"org.encog.engine.network.activation.ActivationSigmoid"
"org.encog.engine.network.activation.ActivationLinear"
