encog,BasicNetwork,java,3.4.0,1,1573308207733
[BASIC]
[BASIC:PARAMS]
[BASIC:NETWORK]
beginTraining=0
connectionLimit=0
contextTargetOffset=0,0,0,0,0,0,0
contextTargetSize=0,0,0,0,0,0,0
endTraining=6
hasContext=f
inputCount=2
layerCounts=3,8,8,8,8,8,3
layerFeedCounts=2,7,7,7,7,7,2
layerContextCount=0,0,0,0,0,0,0
layerIndex=0,3,11,19,27,35,43
output=0.3809545785,0.517243348,1,0.0000000016,0.0000578026,0.190707832,0.4722448356,0.0043562193,0.0001453969,0.6194089441,1,0.3672055449,0,1,0.0000044644,0.6556631653,0.9999981654,0.997149092,1,0.9999999999,0.9999996222,0.9478628928,0.0001435468,0.9919330499,0.0000000745,0.9999995467,1,0.9281162148,0.000021603,0.1222206853,0.7058986175,0.0262900514,0.8461691877,0.9995681603,1,0.9999985149,0.0000000009,1,1,0.2006207315,0.3657574769,1,1,9,20,1
outputCount=2
weightIndex=0,16,72,128,184,240,261
weights=5.1385933614,-13.2006524183,15.5568482119,14.2773074562,1.7591256848,-9.9844774729,7.2338812918,-14.6808751794,-11.5627063131,-3.0979766991,23.3205804137,9.2077225738,-12.8408181831,-8.9601942257,-2.2760358864,-7.2594997301,0.2636654581,-0.7775559461,-16.1467174929,2.9290757978,3.3939212338,-8.212731414,0.7876593501,0.9675604506,-2.6274313406,-1.2682588827,-5.3484461611,0.1841873308,0.2288497885,-5.5717827217,1.1909425784,0.7890106548,10.4469443336,0.8058518871,5.5840900686,9.091475498,-5.7106781566,5.8446404055,-7.8600994915,-5.128381257,9.231143237,-4.6610322407,-6.961714287,0.0987679435,16.5122136779,-6.8348039227,0.4581050349,-0.9876059607,1.3789656736,-11.1271190694,6.4530751718,12.8257183039,-10.0679979363,6.4412628324,-11.2207051136,-1.0426009707,2.6337082998,11.2820643144,-2.2599711353,-2.0164290117,-11.3991072636,-0.317889313,1.0741262061,-0.8222308028,-0.6912872767,4.0213387564,0.6175163703,-8.5313666154,1.9040001207,-0.0416053078,-0.2948670144,-0.7893446475,9.0076742575,-7.1945222051,-12.7315389784,3.5330345115,4.0550498023,0.9901532978,3.7345818279,1.9529494197,5.4909771338,-16.9750738065,-9.8736870391,-2.9416651866,-9.1981675068,-2.8017190486,2.2303234433,4.0095088604,13.7450870554,1.4541126634,1.4023253405,-1.5819309334,-0.3977933887,-12.2911341892,3.5841616953,4.5215720216,-13.0871573042,0.5649728111,1.7436389218,4.0095710782,3.2167143149,7.2401681426,-4.2062704708,-0.4349818326,-6.3783832807,4.6745126118,0.3811363789,-7.2472767589,8.6742567207,5.1982708376,-6.6143245036,-0.0022862383,8.4577507367,1.2795287903,-0.0991487596,-1.8338580207,-0.1114576189,-8.2337003965,1.1163645927,2.5598161844,-0.9223037218,2.8332412385,5.3471536628,1.4966681446,-0.1229203557,1.8514920206,-0.4697482494,-0.5305804128,9.9040489578,4.6186873421,1.0051743537,-4.1482164822,-5.3771330648,0.3764817234,15.8954862632,0.8932916906,1.1512807265,-14.5857059992,4.5193074564,8.3064240867,7.6277047287,1.3381057509,1.169317395,4.8033619528,-4.004468096,-11.5452946409,3.3246768531,2.7492977911,-5.5117790626,2.0421910475,-1.2517485794,3.9381981695,-6.1191541232,-1.6801369983,1.2849858344,2.5311125616,4.2687499273,0.1929853938,-6.7520281186,1.3604443047,-2.2196718097,-9.1195988926,4.0661682058,7.9041088615,10.4840864304,0.1957112166,-1.3174701756,1.6713904237,-4.7013009931,-2.5604549181,1.1314850865,1.8857850282,6.1004233945,-5.8885825313,-10.318980369,1.6179892106,13.3475221602,-0.7431459597,-0.2059813114,-3.4072732851,-5.4464006681,1.3389841223,2.8031684343,0.8572872314,0.6773892829,-0.2543471475,-0.5854969862,-5.6494767174,-3.365667586,19.9689098533,0.73464266,0.7524936098,-3.85074005,0.7646929026,-3.8430726788,-2.9691628171,-4.2880430638,22.4234506367,-4.4132987991,-3.007662686,-0.2976076784,-0.9391195336,-0.0243123187,-1.255038854,-6.634337911,2.8145249483,0.2401689687,-0.3332252831,0.9116543804,-0.8638254169,0.8803272623,1.887503987,-0.3846162944,-11.3341698833,0.4422553363,0.9765268505,0.5207429918,-0.0422711398,2.2624516896,0.6018656008,-6.6208498512,-17.121372756,0.439014415,0.1545530444,-1.1593846653,-0.7797009399,-1.8895007841,4.9836666995,0.8528608297,2.2950453802,-0.8429927773,-0.3974558176,0.1352641934,0.1010696558,-0.942237434,3.0935269281,-3.271337674,21.4021165583,-0.9949283192,-0.7162870233,0.9781365093,0.2013465278,0.5898520438,-0.8824081431,-0.6279994261,-0.3530833457,3.3389492688,1.0242963653,-0.1296220067,-3.1228934912,5.0685229899,0.2989190824,-0.6751601526,-0.1732700828,8.1594237359,-1.4107639036,0.3403482378,5.3394494485,0.7938312218,1.6029506854,0.5301920429
biasActivation=1,1,1,1,1,1,1
[BASIC:ACTIVATION]
"org.encog.engine.network.activation.ActivationSigmoid"
"org.encog.engine.network.activation.ActivationSigmoid"
"org.encog.engine.network.activation.ActivationSigmoid"
"org.encog.engine.network.activation.ActivationSigmoid"
"org.encog.engine.network.activation.ActivationSigmoid"
"org.encog.engine.network.activation.ActivationSigmoid"
"org.encog.engine.network.activation.ActivationLinear"
