encog,BasicNetwork,java,3.4.0,1,1573308258087
[BASIC]
[BASIC:PARAMS]
[BASIC:NETWORK]
beginTraining=0
connectionLimit=0
contextTargetOffset=0,0,0,0,0,0,0
contextTargetSize=0,0,0,0,0,0,0
endTraining=6
hasContext=f
inputCount=2
layerCounts=3,8,8,8,8,8,3
layerFeedCounts=2,7,7,7,7,7,2
layerContextCount=0,0,0,0,0,0,0
layerIndex=0,3,11,19,27,35,43
output=0.6390568094,0.8282096887,1,0.9166204742,0.9999993632,0.000001054,0.000015036,0.0016820489,0.0000624207,0.2193005259,1,0.2216111131,0.0019216265,0.0002552285,0.9873421332,0.7040362221,0.0102264708,0.7922188479,1,0.887682383,0.1416432911,0.2532913472,0.0000588951,0.6769128201,0.3919131919,0.1076906982,1,0.0152871043,0.9947851962,0.3003663428,0.418137824,0.9072217422,0.8905449861,0.2145431385,1,0.0006227417,0.776402171,0.0000000425,0.0000000021,0.000096985,0.5905233391,0.9999999999,1,9,20,1
outputCount=2
weightIndex=0,16,72,128,184,240,261
weights=-3.1804763643,4.2723341255,0.4129376222,11.2620759395,-9.9007247157,2.2358681283,-4.7065606547,0.262726518,-5.1608563547,4.7375104217,-7.4105764914,-2.6898361494,-3.2122541199,2.9983078171,15.8287598148,-1.8999601341,0.6079541615,2.6984365118,-0.8477779003,1.1652977447,4.9766627582,-1.0289836859,-2.7237567014,-0.2283718247,0.5110519576,-3.7345919071,-2.9514954396,2.5847905937,4.8161466929,-0.3886360374,2.9062748347,5.9202410833,-3.7934418842,8.4660941307,9.5150273558,-3.0709473079,-3.912252297,0.1585414866,-2.8659387648,-4.8857194823,-9.0777229207,-0.6298181777,-0.5546511534,-4.5930287133,6.5052500079,-3.5337257867,-11.5056456208,0.0141108758,10.4434319997,-1.9474715146,1.429039346,-1.0144120944,-6.4604451832,-6.218126683,3.9860981621,-6.2413755415,-1.9736180985,-1.6259168369,-0.707216743,-3.8362354975,1.4153036928,-1.3215931689,-4.2373054141,-3.0792303505,6.4127830417,-0.0703956729,-1.0768063839,-7.4571517538,8.4519787927,-10.148568778,-1.6408367354,0.1254656243,1.3182848777,-2.5502258541,14.3223070761,0.9021181875,-6.6662915232,1.2224607337,0.9207920002,-1.7588286407,-1.5278202733,-0.8417139817,0.0327501999,9.4376041992,-4.1722602819,0.6966823877,4.5253299471,-2.7221872278,-2.0598151061,-1.8593448588,-1.8650279135,7.0933863733,-3.3131827465,-0.0896419737,2.6262090754,-3.7142435252,7.963312225,2.0177641675,2.157600745,0.7172438612,-2.5646401597,-2.405605046,4.4275603309,-1.3424817667,0.3461720343,-0.9771939138,-3.9928915274,-5.8409227045,4.9812136815,-1.7486092038,2.852443099,-1.2843022215,-9.2911468802,1.3554570278,2.4076972697,2.1268170363,-0.4987603711,-0.4284060847,7.3136278958,2.591030836,7.5566691414,-1.8969956821,6.5820791882,0.9454821249,-4.9505101611,-0.9178597359,2.8178899445,-3.3607878467,-3.9069602964,-4.0635428506,12.7101814605,-4.0183956957,1.6722052061,1.5521441748,-3.5596257918,1.8962723271,0.9057925316,1.3934067347,2.0866341631,-1.0680244652,-0.0069118438,-1.4204032168,0.4950912009,-2.2168833604,2.0337428949,-5.6133240477,0.2809815727,6.3959433423,-5.2273751701,7.7814556036,-4.195048354,0.4257146722,5.2517175304,-8.7569987252,3.1596777038,-3.3479041699,-0.485530326,0.8358986332,-1.4291384902,-0.655129405,0.7559791134,4.6660510246,-0.4738819527,-3.5938435493,2.7270289302,-6.2247937402,2.8530567255,0.1887403655,-0.6947565216,-1.7399936391,-1.2644693591,2.4559176183,-0.027738318,-0.0964289188,0.5166736612,0.6553457416,3.6616186354,-3.9533425125,2.6818907616,-5.9040323454,1.4466454866,2.0340442792,-1.7114259609,0.6686894919,-1.2098841619,-8.5566738976,0.7186544788,0.5286703202,-2.1959085641,-0.3899368205,1.627676102,1.0816367615,-1.5905878925,13.0967079805,0.4069552902,0.1734390016,-8.2410622869,1.5865358181,-2.3637021097,-3.4886816881,5.4711940429,-1.4701418139,-0.6081174631,0.0717346366,-12.2675136091,-4.6509555408,0.7184322923,2.3217154705,-1.4968951399,13.1836076179,-0.0539691434,0.3747174966,-5.6916906825,-7.8069063363,-2.9906156505,-2.9639438468,0.0556154233,4.1836569299,0.8640516404,0.3900811771,-1.0171739897,-2.8448784234,0.3592707158,0.3527346243,3.3342793192,-5.9623812084,-0.7441181364,-0.2451517981,-1.5431608108,6.2565436408,1.4532647424,1.5756992175,-3.896095037,3.0367674468,-0.8512842535,-0.4298678728,2.5502912967,-2.5112130768,-1.4575750546,-0.7128236026,-0.8575718132,-0.7173271698,14.6839338788,1.4767369775,-0.3144480685,-5.7568498115,-0.9096600238,-0.4802431144,0.8175920634,-0.6857334868,-0.7396932081,1.0003584727,0.834484886,-0.5340109938,-6.0710015514,0.6664687469,0.1773555688,-9.1792008463,0.7741723721,0.8401568935,-0.8717997275
biasActivation=1,1,1,1,1,1,1
[BASIC:ACTIVATION]
"org.encog.engine.network.activation.ActivationSigmoid"
"org.encog.engine.network.activation.ActivationSigmoid"
"org.encog.engine.network.activation.ActivationSigmoid"
"org.encog.engine.network.activation.ActivationSigmoid"
"org.encog.engine.network.activation.ActivationSigmoid"
"org.encog.engine.network.activation.ActivationSigmoid"
"org.encog.engine.network.activation.ActivationLinear"
