encog,BasicNetwork,java,3.4.0,1,1573308645320
[BASIC]
[BASIC:PARAMS]
[BASIC:NETWORK]
beginTraining=0
connectionLimit=0
contextTargetOffset=0,0,0,0,0,0,0
contextTargetSize=0,0,0,0,0,0,0
endTraining=6
hasContext=f
inputCount=2
layerCounts=3,8,8,8,8,8,3
layerFeedCounts=2,7,7,7,7,7,2
layerContextCount=0,0,0,0,0,0,0
layerIndex=0,3,11,19,27,35,43
output=0.5440127534,0.4609715127,1,0.8904520192,0.9996140515,0.9017240805,0.0000349511,0.9999999939,0.9241863762,0.9890722082,1,0.9994406728,0.9594520783,0.7614975227,0.0002210169,0.9144378388,0.0004610726,0.0071655283,1,0.9352462424,0.5570271632,0.8002098929,0.0162902282,0.6524919361,0.3113090974,0.0842923276,1,0.0042647531,0.5146856923,0.0170060822,0.3924662245,0.5112955137,0.9995626273,0.000504422,1,0.9999979459,0.9999850805,0.9995448562,0.0164740101,0.9999884707,0.746735943,0.9999084231,1,9,5,1
outputCount=2
weightIndex=0,16,72,128,184,240,261
weights=-16.7606561776,6.3609047431,1.6976382021,3.4647302361,-13.7406745065,10.1572915673,8.4001457547,3.2567891065,10.1448332597,-16.8525514608,2.9499395156,-7.0412084388,-10.1761167768,-4.6551114154,21.0891153402,-1.3840082052,-7.4403438796,16.8295873882,-0.464991669,-5.3851305902,-11.729574906,5.8395100228,-7.6610353954,4.5178165466,4.1663393939,5.2576260167,1.0216058629,-1.441422526,2.6263590583,-0.1917301071,-3.4614318895,-4.5034111758,-1.35976355,0.8089419706,-3.1573271397,-8.805219703,5.2338085207,1.9682890602,-0.6812709725,0.4236159788,-9.0887151809,-2.5201183249,-4.3648526527,3.4755175689,4.8439331314,2.8086615862,1.6771803054,0.1203064671,14.1018726848,-4.1105403317,10.822132291,-2.5955150021,-0.1659331581,-1.7926879218,-3.7488333826,0.6991760924,-5.8807190794,17.223524163,-5.6102407411,-5.0498576369,-0.9398773203,2.8711381248,9.285905828,-3.0821827813,-4.8810521038,17.6903964896,-6.3041029218,0.5149332747,-1.6588027946,4.9060702326,10.1951474997,-1.3473062701,-3.9255332295,16.2490474214,4.9576689673,-2.8115611452,5.16829819,-10.9118419339,4.2387856232,-2.1455932351,-0.2649084694,-6.5962142469,3.1899514567,-1.9363176306,-4.138391548,17.6222025462,2.2128623952,1.592603169,-6.2729855339,6.452995407,-0.4962483886,8.4183671376,4.905598025,-2.9411982399,10.6383910911,0.5111892615,-8.4003913954,0.2036106598,-2.1672617309,3.7535868784,4.8996840222,-1.1720581445,7.2455076364,-2.4437875917,5.1567317518,-7.7468104205,-4.3367371705,-4.0179959855,2.8799333311,1.9859889651,-4.5383870517,3.2823517472,-1.0740644119,-13.0632434972,-0.2906222207,1.423632734,-1.4469370596,8.6026414236,0.2177545916,-0.9433511287,-2.2192225323,-8.2015774819,-2.7956157056,8.4039618858,-0.2793080678,8.1775590721,-0.7025506585,1.5086330573,0.450116237,-2.7029107397,-4.9549938578,10.7482518465,0.2405373677,0.1152450477,1.2927873489,-0.3134452455,0.4815367412,-5.6968406102,28.0503907227,9.9317131845,-1.984274876,-0.3668913944,3.1576175392,0.1639340412,0.3492176533,1.1542103329,-7.5232468579,3.8584148247,0.6437750296,-0.2458685794,-1.3636839618,-0.677005076,-0.1189712555,1.3711428959,1.1108435837,-6.041105563,-4.6392712665,-0.1199753356,-6.5877219026,0.0413575103,0.9837458579,-2.0916359999,11.8824741636,-3.816092713,3.5832195033,0.23479422,1.5143887697,0.9304242918,-0.3212529493,14.6775914392,-12.1912611792,-11.1708951345,-8.7133752413,1.7311374181,-4.3487216942,-1.0285348755,-0.4100829134,3.7101302975,9.156143235,-11.2281465736,0.2323367583,-0.4158294908,-1.026423314,0.2551223875,-0.0824485787,-1.4076366128,-0.9109188978,-0.6917565557,0.3020442551,-1.4510440162,-0.8740703367,-1.3856365444,-1.8331938497,-1.8277545991,-1.3248133775,1.8651924646,-1.6584284084,11.0459558208,-0.5446580849,-1.0322344596,-0.1199660352,-1.3569314828,-0.7984211907,15.1829947829,-1.3445150437,1.2431998823,-0.4868820267,-1.1292269183,0.2175707579,-0.3091545648,-2.1716425424,-25.4242092446,-1.0479852205,5.7811566111,0.1945335847,-1.2194249011,-1.2512432596,-0.7785365967,0.0459919993,-5.8281153469,-1.651693798,8.2456286727,-1.850583484,-0.5302217549,1.4742829041,0.3462796167,0.9302229227,-3.3278234696,1.3703012023,1.2267234838,1.4145499982,1.3380118417,-0.5269221609,-0.8639765964,3.4861635984,16.0806936564,-1.770074607,-8.6254509717,-0.6772140717,-1.0620578091,1.43332994,-0.0135114681,0.2632650379,0.8110304231,0.7925591021,-0.149245473,-0.6228076604,2.7222801386,-0.3116898213,-0.2812580986,0.170874571,-2.4124100369,0.995409882,0.5946216463,-0.5611919795,-3.1979889292,4.8288674596,5.7188420493,0.4455418446,0.9449044504,0.5638405581
biasActivation=1,1,1,1,1,1,1
[BASIC:ACTIVATION]
"org.encog.engine.network.activation.ActivationSigmoid"
"org.encog.engine.network.activation.ActivationSigmoid"
"org.encog.engine.network.activation.ActivationSigmoid"
"org.encog.engine.network.activation.ActivationSigmoid"
"org.encog.engine.network.activation.ActivationSigmoid"
"org.encog.engine.network.activation.ActivationSigmoid"
"org.encog.engine.network.activation.ActivationLinear"
