encog,BasicNetwork,java,3.4.0,1,1573308729374
[BASIC]
[BASIC:PARAMS]
[BASIC:NETWORK]
beginTraining=0
connectionLimit=0
contextTargetOffset=0,0,0,0,0,0,0
contextTargetSize=0,0,0,0,0,0,0
endTraining=6
hasContext=f
inputCount=2
layerCounts=3,8,8,8,8,8,3
layerFeedCounts=2,7,7,7,7,7,2
layerContextCount=0,0,0,0,0,0,0
layerIndex=0,3,11,19,27,35,43
output=0.6170168108,0.6046556702,1,0.0532618658,0.0000523772,0.9994448965,0.0000320372,0.3382835624,0.7039712449,0.043094375,1,0.617630483,0.9999961374,0.6485898092,0.0138972357,0.9737438323,0.998446407,0.6322118065,1,0.9999987601,0.9997718049,0.0793145156,0.5831131126,0.0023745969,0.0000048065,0.7517494752,1,0.6307845598,0.8615663671,0.8699165972,0.6703759968,0.9827770883,0.3575169115,0.0121534562,1,0.0022126293,0.9999999984,0,1,0,0,0.4869556505,1,9,20,1
outputCount=2
weightIndex=0,16,72,128,184,240,261
weights=-4.6213168948,-4.9509031781,-2.9255926357,-12.1872556108,12.2358135117,-4.349100971,5.2660147773,2.3431953489,-5.8781632712,0.2606815437,6.9538240925,-3.5210081862,-5.0673359433,-9.1294223293,-3.3303916619,2.0726875466,1.2440069272,-2.2675595917,12.9854068659,-6.526664153,-4.7445131146,-1.7780505673,-0.9073524521,-2.7412201432,-0.7231963219,-3.6008953496,-7.4418622637,2.4380013392,0.2054639569,0.0032806825,-0.8088471839,-0.7085844506,0.4457214258,5.1344821459,-5.3778974034,-3.300423755,3.498764492,2.0879171361,0.1674998293,0.0224943933,1.385987037,1.5879187727,-0.7829281856,4.5851224839,-2.4107293117,-10.5748762104,0.764244657,0.0742722658,4.4282321781,-9.4809108866,-1.7992445677,-0.2118179925,5.2943332656,5.9839614416,-7.8392446831,1.0708997037,-1.4263052968,-0.5153644089,-4.3837812713,-0.332910183,-3.1064675249,6.8469232241,3.7185779648,-1.0518358407,1.7063632876,-1.2298087399,3.9373254562,0.5012902841,-1.7726015887,-5.454116994,0.1800153792,1.5728095319,-0.1448673813,-0.3884019952,-3.3117361218,3.0502948945,1.4477844787,1.1890977192,-1.0060766929,0.249559259,9.8119478638,1.2641224673,-0.4286898577,-4.4322200419,0.0972411007,-3.55520124,3.2392827599,1.5715299078,-6.2100506136,2.5269098585,0.7931206839,7.9243379869,4.8815168351,-9.7763041435,0.1616766369,-0.5202203542,-0.1876636995,-2.8025932197,1.3977098348,-5.0171813026,3.1459971553,6.7437062961,1.3430087041,0.5251630729,-2.5025333008,7.1727529706,-0.0369692725,2.4431788108,-5.1542277396,-0.8730748447,-1.8436300215,-1.0788647341,10.0132259175,1.4767740649,-5.2074844945,2.6424957978,-6.4906755134,-6.0038087837,-3.5238390534,-3.4873794745,3.9983903013,-4.3115806137,2.7898874627,-3.8612189692,-3.7460076045,-2.9553687989,4.415578095,-0.4263215616,0.3119471156,4.8973521699,11.6325542465,-0.3196270027,-1.6482117731,3.0376460177,-8.6200221641,-0.082173634,-1.2008940132,1.2596906697,0.4518871574,4.6156600365,3.8929103112,-0.3443618433,-7.1218353321,0.9537549681,1.870184921,-0.6024746539,-7.1849519297,0.8378475459,0.3942232295,0.4935003961,2.1348136012,1.9865131917,0.0175649575,1.9299984794,-5.5558950244,-3.8595983443,4.3942282541,4.9333316431,-6.6729340373,0.0810150231,1.5806752273,3.1297219876,-1.7296205955,0.6725640078,-8.3065235636,2.5155705034,-2.2095461203,-1.3893683216,1.8534133383,-2.6942123164,-8.937863669,-3.6359963003,-0.3767853874,-1.7640298428,7.7494389796,0.0260626242,2.5189453448,0.9759397067,2.3709191843,0.9800889127,-3.1462922035,0.6164834879,1.319011788,-1.185643916,2.3391655622,-1.5645953892,0.9559511884,3.2715320664,0.396114696,-1.0869147279,-1.05757189,-0.6615377231,-2.6037371691,1.105384569,-2.69134944,2.4403670572,0.5490487728,0.7639355119,-4.3726072114,0.4176363335,0.4861220899,5.0799646457,3.0803774413,-1.8058618666,-1.7250248258,1.416936793,-14.3010263054,5.5890087256,-4.6668493048,-0.6703321641,-5.20211557,1.1511224073,-0.3563966053,0.0393985283,1.949504302,-0.7099002489,0.8239045377,-0.5334276691,3.8947779262,-0.7962535945,-1.3444776216,0.9184786363,12.2650124584,-0.6005170991,0.9310205856,0.1370709342,2.7201939638,0.8214788828,-0.6585617699,-0.5612760372,-5.8642101299,1.308842609,7.0998115284,-3.4252791489,-7.3976846756,-0.3529798675,0.9345501416,-0.971427497,8.2925176876,-4.6734523594,0.279870328,-0.5093134267,1.556076924,0.3936989694,0.8767765662,-0.8562707097,4.4084721035,-5.6027790805,-0.105532097,-2.007219657,4.5565811477,-0.7775577394,-4.2191351411,-0.7554253511,0.435724539,-1.7869721298,-3.4541948166,-0.7795256687,2.7719990063,-0.2949514617,-19.1011510637
biasActivation=1,1,1,1,1,1,1
[BASIC:ACTIVATION]
"org.encog.engine.network.activation.ActivationSigmoid"
"org.encog.engine.network.activation.ActivationSigmoid"
"org.encog.engine.network.activation.ActivationSigmoid"
"org.encog.engine.network.activation.ActivationSigmoid"
"org.encog.engine.network.activation.ActivationSigmoid"
"org.encog.engine.network.activation.ActivationSigmoid"
"org.encog.engine.network.activation.ActivationLinear"
