encog,BasicNetwork,java,3.4.0,1,1573308989867
[BASIC]
[BASIC:PARAMS]
[BASIC:NETWORK]
beginTraining=0
connectionLimit=0
contextTargetOffset=0,0,0,0,0,0,0
contextTargetSize=0,0,0,0,0,0,0
endTraining=6
hasContext=f
inputCount=2
layerCounts=3,8,8,8,8,8,3
layerFeedCounts=2,7,7,7,7,7,2
layerContextCount=0,0,0,0,0,0,0
layerIndex=0,3,11,19,27,35,43
output=0.9999999997,0.9994955019,1,0.9616173126,0.0000005507,0.0004922542,0.9981917929,0.1424481395,0.9993276865,0.9465969912,1,0.0000000013,0.9999842027,0.002373925,0.0053234708,0.9681337833,0.9910242447,0.9999999881,1,0.9999987555,0.1492625762,0.933773613,0.839662746,0.0760230358,0.0015832035,0.9734517653,1,0.736858314,0.4989099401,0.9229169396,0.4613373627,0.3786074011,0.9907212608,0.999501694,1,0.0196567019,1,0.2304828197,0.0000000121,1,0,0,1,9,20,1
outputCount=2
weightIndex=0,16,72,128,184,240,261
weights=-2.8061497483,-9.7070753902,-7.8984696801,6.2587044796,4.9373812777,10.0126783089,11.2948017197,-2.9652789403,2.6836476626,7.001996802,-3.7789966718,-7.3619376259,-4.9407334972,-1.6007940158,10.0743606318,5.1284384359,0.9574555463,3.5951351343,-0.7256378532,-1.8428809603,1.4430627047,0.5770459638,-0.712718645,-1.6187608106,5.9143565523,-6.794119626,-1.2413591167,8.9131276226,-4.3479770434,0.023185493,-3.7623122263,0.2861865876,2.7658191239,-7.341716439,4.6190372801,-5.546328261,3.2062321212,1.7838061299,-8.7454706952,3.6177519228,6.0427220398,-5.9315005827,-3.8302086693,-3.0904435324,8.8595810809,2.8254626604,-0.3441943554,1.2373936236,9.6650015946,-1.6558888121,-0.7403639582,-0.968486439,1.1793018837,-0.8392052992,1.4199709899,-1.8623479065,1.3655378193,5.9107624161,-11.4867738488,1.2075578389,2.9090441832,-2.7062030372,2.2687268272,-0.9888733106,-5.8790568377,-3.4349618937,-8.1411952531,-1.4601232146,-3.7999511236,6.2590689514,-1.2901109308,5.1030963925,-8.1611532939,2.1026277151,-4.9029801119,-5.2020103984,2.1919985032,5.2680529767,-2.8773519433,-1.0623528502,3.5263876148,-4.7308990107,7.4076500461,3.8063706005,-7.0964649964,-7.3407480608,0.3367467152,-1.6544046697,6.9347237519,5.3078005611,-8.7608163174,-4.0112599655,-2.642952974,-4.2081682905,-1.2055035844,-0.8379929816,0.9153009647,-7.2538309991,-8.1405801573,-1.266607382,-1.7313989234,-0.8409849594,2.753629941,1.0545472884,-3.3360760969,0.2390250735,2.1780463896,0.0749948779,-2.6987912654,1.828135589,2.8639268248,2.0318270398,0.898429842,-0.6014192127,-0.0764661991,-0.589795308,-0.0820809695,-2.4520019806,4.4494481423,0.1409827474,6.4598111902,-2.5531645806,5.4037197421,5.2853641626,-3.876669517,-8.1824703997,1.7425413596,1.293298701,3.4389482317,0.3229376271,0.5707182568,0.9031295314,-4.0675544346,4.0880927441,10.1164933882,-2.6633088831,-8.18008664,4.352262123,1.3230818182,1.5505720291,8.593399141,0.9080469257,-6.8520908718,2.8748805859,2.3529175008,2.354375939,-0.6774256105,0.4017301911,-3.6463083811,5.9238189113,-0.7511976856,-3.5598695523,0.2309760455,2.2905657321,-3.1178348566,1.5907724375,-1.6053688426,1.3791494372,5.7111959077,-3.980540033,-2.9132602006,0.6760352671,1.2837842605,2.667141906,0.660012383,-1.85767637,-5.2839712702,3.768342226,-2.7348128136,1.6843248248,1.2667476926,-0.5875534496,4.2440710983,-3.5497918585,-8.1459668097,3.882005259,3.0624855422,-2.896153258,0.2216078079,-3.3566431219,-3.0204135006,0.6753182555,3.7363157414,0.8742508607,-2.9940163099,0.439547139,-10.7702900881,1.245719779,2.210241738,0.2306341921,-0.2870889752,0.9211334317,-5.8577249324,-0.1710093439,2.760932939,-0.511348667,-0.0980281272,-0.2255403333,0.6665013975,-0.2565268249,0.9599588386,1.4587162249,0.5540719107,0.1073539352,0.2799473058,-0.4717305214,0.0943269217,0.5974184813,-5.4369713603,-0.0575350049,1.7275279516,0.3050855524,-0.0681656729,-0.425097346,-0.3328563083,-0.3205518023,2.2852909483,-0.4765483199,9.2576952209,0.8159631832,-1.2148674009,0.4861520914,-0.6064151737,-0.9827085696,-8.3171986701,2.4078559744,-3.4190491505,-0.5533914716,1.5919851457,-0.9024578505,-0.0542471667,1.6223872226,-10.4488501838,3.5694734613,-12.6199746977,0.7622923528,3.493054554,-0.6398175465,-0.4097936182,3.6553470131,1.0569866225,-0.4243790863,-4.9347823449,0.9825304845,0.8588899921,0.1695810125,1.2974640426,0.2449966768,-17.7826968745,0.7531127674,-1.284122995,0.674943164,0.9593228824,1.5116712355,-0.6228930176,-0.8408611033,-0.8839999623,0.5263555788,-0.9591666102,-0.9777348466,-0.8651061255
biasActivation=1,1,1,1,1,1,1
[BASIC:ACTIVATION]
"org.encog.engine.network.activation.ActivationSigmoid"
"org.encog.engine.network.activation.ActivationSigmoid"
"org.encog.engine.network.activation.ActivationSigmoid"
"org.encog.engine.network.activation.ActivationSigmoid"
"org.encog.engine.network.activation.ActivationSigmoid"
"org.encog.engine.network.activation.ActivationSigmoid"
"org.encog.engine.network.activation.ActivationLinear"
