encog,BasicNetwork,java,3.4.0,1,1573309163912
[BASIC]
[BASIC:PARAMS]
[BASIC:NETWORK]
beginTraining=0
connectionLimit=0
contextTargetOffset=0,0,0,0,0,0,0
contextTargetSize=0,0,0,0,0,0,0
endTraining=6
hasContext=f
inputCount=2
layerCounts=3,8,8,8,8,8,3
layerFeedCounts=2,7,7,7,7,7,2
layerContextCount=0,0,0,0,0,0,0
layerIndex=0,3,11,19,27,35,43
output=0.9436624579,0.999615052,1,0.274384654,0.9359310131,0.9933373072,0.0006434035,0.459681392,0.0293577873,0.8345578627,1,0.9936129466,0.3727995674,0.0294979167,0.0632855709,0.0021982046,0.00126425,0.5174401003,1,0.9997565761,0.8499100133,0.0312920573,0.0943545037,0.8194042939,0.7605632743,0.0469646358,1,0.1503648299,0.8623772759,0.0396573846,0.1707693154,0.9970968751,0.5735497128,0.1232436654,1,0.0212270795,1,0.0581901489,0.0000000001,0.999999993,0.0000078701,0,1,9,20,1
outputCount=2
weightIndex=0,16,72,128,184,240,261
weights=-2.0358002386,5.9681194249,11.6024955593,2.307836038,-0.3677693278,3.6782939244,-12.6296899859,-3.1341476529,-9.4301885587,0.5321842921,6.9678776782,7.6326969587,-5.3402642559,3.6424870826,6.3768697314,0.0510828037,-2.1708108164,4.1092337792,0.7258053353,7.6868934383,2.837285765,-4.4230145746,-0.965796193,-0.3562465677,1.7089142184,1.8661348683,-1.8570155826,-6.3102371134,-0.7079367131,-0.7875023879,3.1285265043,-0.8742604472,2.2363592678,-0.5352996546,-7.2417902594,-1.167720556,2.758243201,3.4638944964,4.1664182527,1.1032338245,-1.0795676037,-8.1180862992,5.2793082318,0.6088364695,-1.4504828215,0.0748432332,-3.6959993487,-1.5277104811,-1.2561158682,4.3865678863,0.4239806102,3.7555103252,1.6035559238,-0.5126637019,1.1717705957,-1.4082170417,-3.1183198367,-1.2997093558,1.31675059,5.3970019309,2.6278998378,-1.8923623286,-0.2258462829,-0.1823821116,-4.5558279917,-4.1272131379,2.7545126259,1.141159191,-1.8914798946,-7.4586533869,10.8193781984,1.9453695432,0.0851577421,1.358134026,-1.4230246143,-1.3746443919,7.4717105226,-2.0775712684,1.0685465769,-0.6105319343,8.128263907,-2.0666869427,3.8474627452,0.5940506453,-6.3632305073,-2.4220528387,-2.3507228305,0.1001246993,-4.1270322737,-2.9626917481,-3.0788914898,1.2056412425,-1.1448635999,3.8936535323,-5.2018945806,1.3541836522,-0.8099448047,0.5200520513,-0.7234688858,6.5356198303,-8.759138644,4.5276235413,0.1275759948,0.8067428255,-0.9184373044,-0.6686886397,-0.6817734322,3.9688153766,-5.1076298108,-0.261090546,0.0876596551,-0.6048435639,-3.6035341352,4.2496043329,2.7612413654,1.6909892929,-3.7685191231,-7.0325673609,3.1414983986,1.362020994,4.4519166997,-5.9218428952,3.907759551,-3.1407072613,0.0940201417,3.8230208257,-1.6367246428,-2.0817742393,-1.413489476,4.962166006,-2.7085026999,-3.0272421684,-1.853458488,10.9850772011,1.4123995831,0.2516352656,5.2442047843,2.7923812062,-3.0253076252,3.8640358675,-1.8449854132,-1.1584989868,-1.4603392235,0.6814459315,-2.7284023264,0.0265051273,-1.5074412128,-1.3833099203,-1.9152044296,-1.0950053322,6.7979774161,-1.0493157729,0.2721055607,-4.9409414728,6.0247338177,2.6706106062,1.1495585211,-1.2918443965,-2.0104867363,1.1059635973,-2.5758077548,2.6999671154,-14.5826041124,-1.3153200076,0.382645496,0.95070299,2.5979604447,-0.8728306362,-1.5069367111,-5.6572085921,4.775285383,0.9747223141,8.2864339544,-4.2493215859,0.6806639967,-0.0038872058,3.4592023898,-2.722111916,-1.6831065992,2.7282457231,0.4044235174,-1.5104966782,-1.2940661261,-0.959484128,-3.026662926,1.5176046107,5.1115396188,0.4669690773,-2.3240672788,-0.5083515936,-0.3856073134,-1.15846989,4.89096975,1.0317008392,-10.8173633449,-3.2843056942,0.6931691717,0.4517256048,-0.7528533308,0.6359462113,0.8931843725,-3.7916795014,16.8451923187,2.949881704,-0.0567403653,-0.2604542038,-3.4569475414,-0.3377749653,-3.2624906199,-0.3657657868,4.8638805743,0.5554972871,-0.7668704966,0.0132372487,1.3506377707,-0.6613253851,-7.3226118693,2.2754553339,-1.8009699064,0.5499144659,1.8598144387,-0.2960752449,2.5313240156,1.9640291492,9.1534857465,1.9791404017,-2.1188693365,-2.5886575573,-0.4238927181,-0.8677950486,-1.1503287978,-1.3298964889,3.8968911483,-2.496338842,-4.5395210513,4.6537192952,0.7941338898,-0.9372776706,-1.0601541307,-0.0784175771,-3.3549255402,1.1879143831,2.605020237,-3.0207095801,3.5089005952,0.2897106632,1.7063970633,0.2395649747,-22.9329603832,0.5443948331,-1.4795479144,1.2972938814,0.1322369479,0.8868563163,-0.1456905284,-0.655634837,-0.3317753204,0.7837875044,5.0042434805,-3.5904071269,0.6250345302
biasActivation=1,1,1,1,1,1,1
[BASIC:ACTIVATION]
"org.encog.engine.network.activation.ActivationSigmoid"
"org.encog.engine.network.activation.ActivationSigmoid"
"org.encog.engine.network.activation.ActivationSigmoid"
"org.encog.engine.network.activation.ActivationSigmoid"
"org.encog.engine.network.activation.ActivationSigmoid"
"org.encog.engine.network.activation.ActivationSigmoid"
"org.encog.engine.network.activation.ActivationLinear"
