encog,BasicNetwork,java,3.4.0,1,1573309178583
[BASIC]
[BASIC:PARAMS]
[BASIC:NETWORK]
beginTraining=0
connectionLimit=0
contextTargetOffset=0,0,0,0,0,0,0
contextTargetSize=0,0,0,0,0,0,0
endTraining=6
hasContext=f
inputCount=2
layerCounts=3,8,8,8,8,8,3
layerFeedCounts=2,7,7,7,7,7,2
layerContextCount=0,0,0,0,0,0,0
layerIndex=0,3,11,19,27,35,43
output=0.9999981864,0.9991632365,1,0.003642338,0.0968457779,0.9999939277,0.0000000349,0.0006488245,0.9999340451,0.1090510762,1,0.9992201753,0.9999777377,0.9849623632,0.9999738503,0.000000272,0.001067464,0.9476543397,1,0.9999997359,0.9999999676,0.175993348,0.0030378384,0.0012406769,0.4225711724,0.0000003468,1,0.3431965972,0.9515374507,0.9886678693,0.9953321718,0.6575722974,0.6138111854,0.0004347908,1,0.0000000003,0.9992853102,0.9999999993,0,1,0,0.1295330755,1,9,20,1
outputCount=2
weightIndex=0,16,72,128,184,240,261
weights=1.9183342726,2.0125706616,6.8297673039,-8.8213766434,0.8098583635,7.3746341653,-14.1437204472,0.3562799807,-10.616497677,21.2932619479,3.6441426212,-14.377599676,-2.4113997154,-1.4997176893,-8.5413966321,3.8501502169,7.0132103185,-3.6855276122,-0.3763284205,-1.7559102325,-7.44548687,13.883297774,-6.0021366272,-1.1341096071,3.5217571097,2.9301256782,-7.4488236099,0.810352198,5.0381669958,-2.8940841181,-1.7737051684,-0.4714174769,6.9780692483,0.5299915956,0.5347300368,1.029190349,3.1709859812,-1.8918456757,3.6740315747,-0.5263866647,1.4551272145,0.6555202915,-5.7251107114,-0.1717108398,1.5913302736,-4.045541617,-16.3188699309,1.9984518231,-1.1541723703,-2.2613813335,-1.0187940919,-2.4330918278,9.8097775908,1.0581268644,-0.2612248217,-0.2421751878,-2.4219080259,6.2938458603,-0.9945141872,5.4690104664,-1.6765203601,-2.1058791663,1.4358970617,-0.0950065146,3.3214414627,3.094631869,1.2168974039,2.6561027802,2.1620068846,5.533202574,-17.4276687373,4.1409823258,8.171964347,0.5442122624,-7.1141037962,2.8298389163,-2.7174082205,1.1647350051,0.0634163712,-0.8058868878,1.5658861529,8.0853159695,-0.8069763489,-0.0970406984,0.1153641357,0.7327742044,-7.5415364935,0.8939215075,10.5414008426,-2.7680252952,-2.0182129998,-3.2709326486,1.2230206062,0.0131461037,-0.5462550887,-3.2332693199,2.4454949779,6.7573552434,-0.2691852502,0.4241307442,-0.6961028525,1.8806934588,-5.3328452675,0.6010214009,-10.188462983,-5.3338602129,-4.3104326064,3.7444900686,0.5338112476,1.830359719,1.6591153835,0.3779230877,-8.6112099903,1.6641875806,1.4119272935,6.941636496,-4.319557114,-3.0006187526,2.1277409723,1.1093747414,4.4682377794,1.6093887234,-6.540116893,-14.1551547045,-0.2090007375,-2.6000244884,-1.5832817488,-0.8885311028,-1.4964352567,2.0048500687,7.8937333436,5.3432846705,-2.6144449968,2.1424381772,-12.2025159102,1.0397166407,-2.1932173326,4.7999336497,3.2206112706,6.5654796765,2.4431585034,3.0373615694,-5.6734382617,0.2437288183,8.7701877599,-7.062650434,1.9705341169,0.7950541914,-4.9634531792,5.4037771043,0.4200552095,-0.6260535482,5.5176837176,-0.6027081538,-5.0891206576,-1.2942246936,3.8519433376,-7.0999708221,12.7588340653,1.0254788854,0.5615248125,-4.1542893817,-1.3677464094,-0.1768478014,-0.759001222,-1.4544782797,4.4176217713,-0.012386453,1.1851103485,1.2806993979,-1.5309435812,-1.1310213272,1.4881314242,-1.0243299946,1.6530989833,0.3512225154,2.474030187,-3.7313255514,-2.4674530221,-6.4757518085,-2.3427919501,-3.2807730363,3.5299165992,0.264581274,0.8373955509,-2.5300469726,-0.5738930384,0.6237497069,0.6568742952,0.1531736118,10.3121694649,0.4604092037,-0.6021356669,5.2448721419,-0.0320456845,-0.5594741027,-0.2098050535,-0.897714586,-2.9459602832,-1.6403859253,-0.0774556227,-0.140360734,2.3114664799,-0.8229320002,1.3074157917,-1.4415676651,-9.3281320526,2.1983961191,-0.2884267462,1.7663642972,0.5701662156,-0.5845701997,3.3515678698,-1.1897008551,-8.5631387088,0.7847563327,0.3653956914,5.1686929371,-2.2075247153,3.2689105988,-0.4901311991,0.0680762164,0.6821985661,-1.9032161227,-0.8313761834,-6.4703279955,1.4415191798,-0.123648995,5.0864723366,-1.4172348831,-6.1574136569,1.1986618891,0.8799619106,-10.3328650884,-1.5328198278,2.9642951381,4.3885001411,0.6381293644,16.2028355302,-2.3692137829,-0.8751434532,-0.6894007102,-0.1648759559,-0.8333526435,0.762693442,-0.5107480773,0.9974244681,0.5800223596,0.5207146015,0.6247164277,-2.6282277102,-0.370703458,-4.4580967605,6.0303674713,0.0122984851,0.2360728299,-1.8944859495,-0.1695069316,2.0061098296,0.1966989262,-23.8940604957
biasActivation=1,1,1,1,1,1,1
[BASIC:ACTIVATION]
"org.encog.engine.network.activation.ActivationSigmoid"
"org.encog.engine.network.activation.ActivationSigmoid"
"org.encog.engine.network.activation.ActivationSigmoid"
"org.encog.engine.network.activation.ActivationSigmoid"
"org.encog.engine.network.activation.ActivationSigmoid"
"org.encog.engine.network.activation.ActivationSigmoid"
"org.encog.engine.network.activation.ActivationLinear"
