encog,BasicNetwork,java,3.4.0,1,1573309199888
[BASIC]
[BASIC:PARAMS]
[BASIC:NETWORK]
beginTraining=0
connectionLimit=0
contextTargetOffset=0,0,0,0,0,0,0
contextTargetSize=0,0,0,0,0,0,0
endTraining=6
hasContext=f
inputCount=2
layerCounts=3,8,8,8,8,8,3
layerFeedCounts=2,7,7,7,7,7,2
layerContextCount=0,0,0,0,0,0,0
layerIndex=0,3,11,19,27,35,43
output=0.9999083991,0.999917422,1,0.1425276093,0.979912755,0.9991999597,0.9999999987,0.0000052402,0.4144834449,0.0522006763,1,0.000000495,0.9999999435,0.4842888079,0.2265427323,0.023581288,0.9999127668,0.9999675805,1,0.1505162693,0.7805230221,0.9963572713,0.0641831186,0.9793238838,0.9987775408,0.9977308358,1,0.9895196828,0.7946383386,0.0023277915,0.0020396806,0.000061649,0.0008329043,0.133087686,1,1,0,0.8827464398,0.9999999998,0,0.2014534025,0.000037754,1,9,20,1
outputCount=2
weightIndex=0,16,72,128,184,240,261
weights=-10.0716049443,-5.3707305853,2.7697367088,17.0060073757,-9.8601163784,-6.909887989,6.3409487188,-1.2441374956,-12.6490794345,-4.4325525803,9.0825251529,4.2479384156,7.5603766606,12.0084017142,5.1560771953,-3.0216285355,5.0388867238,-3.2295137461,7.2296958884,10.5515366456,2.8105668963,-2.8892883213,-2.4811333916,0.8472355201,2.3633803298,-0.7975457692,2.8641019743,2.4224538098,2.3945471323,-0.284126819,0.7816857876,2.1950563048,-4.3597582123,2.618172984,-4.5679319546,-4.0618122909,-1.3768985331,4.9518965177,1.5604999028,1.1648049977,-4.3229499513,5.4834593557,-1.0416795897,-0.8555723963,-1.205105005,3.376168937,12.3210815414,-0.0128880037,6.3931656057,-6.2215506964,-0.5783535539,1.0145475356,0.4224332371,-1.3388088167,-3.8909217006,-0.6678250821,-5.1485401053,6.3837380565,-2.8607040202,2.3933092225,1.8838518536,4.347984956,-10.5954012871,0.3170520268,8.8802236951,-3.7695505915,0.7871002574,1.803208074,-2.7839858527,-7.8670395946,7.6075248871,0.4055361526,2.714645247,0.388649536,-4.853221535,3.537443375,-1.2692030132,-3.194344342,-6.9549125454,0.7504264954,-2.4773428718,3.2535032394,5.5611447795,-3.2355600844,1.3704975107,2.9401989169,5.4014940181,-0.4780276919,6.4231904029,-0.2158494713,-1.347755275,2.4305435967,1.549073108,-1.5204450534,-1.6584960962,1.9819360365,11.3474226459,1.4299729593,-2.5002745947,2.9776065185,-0.7228859567,-0.54737243,-2.1582866527,1.6560512471,3.4352543695,-0.8149126287,-0.9744942119,0.6174776165,1.0551753695,-0.9409663968,-2.9236440269,0.1503386267,-5.6919932349,2.0864537499,8.2439940721,-2.0008359716,-3.078665199,-1.6269768127,6.948358395,-1.8030865228,-1.9597583428,7.874512066,10.1359409214,6.296060685,-4.3137511392,-7.5793226867,3.9561944077,1.8297345134,-1.7956261141,-0.3074451367,1.8747310481,-2.0051340095,4.6839414948,4.2677375222,10.0205223466,-1.0471681931,3.4275498315,-5.0045567023,-5.6742382312,0.6146348574,6.8972844059,-5.1373050677,-2.3473166572,2.1821088944,6.2943471306,-2.6533572789,-4.2917990005,2.7914675282,4.4181714899,-3.6268193064,-8.632391188,2.6473619831,-3.2019149522,-0.294210093,0.1705042724,2.6073381512,-3.5837485314,0.3751861951,1.3783548816,0.533220239,4.191555047,-0.9434285836,-1.8567680851,-3.7636576141,0.4406078942,-0.7946022073,1.5659689465,0.2641638023,5.741811515,-0.5243952143,-2.3488193559,-4.4124029183,0.9598751196,-0.2670083755,-0.2960992352,1.4947743387,6.5207139387,0.7641530025,-4.6972566531,-0.5699716046,3.8799837217,-4.1049912994,-4.6856884846,-0.3346439978,-0.1353428597,-0.7137979073,4.4732570407,1.2398808585,-5.7112675942,-6.9297240651,3.8478927935,0.8903022082,-2.4807508134,0.2927038556,7.982444776,-1.4418094775,1.3357961118,-0.8575191714,0.3094254924,-1.5980614789,-2.9095105009,0.6982442105,-4.6247203015,-0.1275362398,5.979679369,3.9387595096,-0.0382010897,0.2655222403,-5.5773433369,2.3427295843,0.5190776901,-0.8821155654,0.6952833552,1.2611358443,-3.2490152955,-0.4456128315,0.2350291625,0.0342664744,-13.2173591507,1.1585906003,-3.9674843706,4.7320623657,-0.3103274935,-0.373313078,-1.4059181936,-2.2173618793,-5.8991257333,-0.8282475869,4.7901973134,3.2547909226,3.8432604162,-0.3039943832,-1.8563698515,-4.7705406773,1.8981096657,-2.5989457201,-0.8467920094,10.9199261205,0.4676991395,-1.2940375382,-3.2153296335,3.3694628374,0.0371926533,2.4891757744,-4.7290988301,0.9227640573,0.8316334581,-0.5458432966,5.4508640395,0.7469772933,0.729462993,0.8739921155,4.8719894157,-3.4514965185,1.0143782819,1.1740731794,0.1375809088,-14.6955120112,0.3492138672,-0.6864993406,0.4026809887
biasActivation=1,1,1,1,1,1,1
[BASIC:ACTIVATION]
"org.encog.engine.network.activation.ActivationSigmoid"
"org.encog.engine.network.activation.ActivationSigmoid"
"org.encog.engine.network.activation.ActivationSigmoid"
"org.encog.engine.network.activation.ActivationSigmoid"
"org.encog.engine.network.activation.ActivationSigmoid"
"org.encog.engine.network.activation.ActivationSigmoid"
"org.encog.engine.network.activation.ActivationLinear"
