encog,BasicNetwork,java,3.4.0,1,1573309221349
[BASIC]
[BASIC:PARAMS]
[BASIC:NETWORK]
beginTraining=0
connectionLimit=0
contextTargetOffset=0,0,0,0,0,0,0
contextTargetSize=0,0,0,0,0,0,0
endTraining=6
hasContext=f
inputCount=2
layerCounts=3,8,8,8,8,8,3
layerFeedCounts=2,7,7,7,7,7,2
layerContextCount=0,0,0,0,0,0,0
layerIndex=0,3,11,19,27,35,43
output=0.9751094611,0.9997466834,1,0.9956219955,0.5732262031,0.9999996681,0.1496773561,0.9982514442,0.5184361287,0.0013411551,1,0.0007996722,0.07505913,0.0000027827,0.9999867573,0.1825938996,0.1178288671,0.0000001005,1,0.0054673028,0.9950918912,0.3820674829,0.0000001105,0.1961617727,0.7893482214,0.996678111,1,0.8898254924,0.3527900351,0.9575502245,0.7686456851,0.0020515818,0.7671229489,0.0980970522,1,0,0.0000000074,0.2027982014,1,1,0.1028989244,1,1,9,20,1
outputCount=2
weightIndex=0,16,72,128,184,240,261
weights=0.7388024483,3.0778437644,-10.8939155741,2.0007963759,13.4662244107,-8.6222216618,-10.3148539839,2.8038584212,8.9887881252,-3.5805000609,-1.3438967638,-11.8922520814,-0.2245719299,10.5231246025,-8.8305418287,-0.7120301082,2.4655667343,-7.3070285999,-2.5858084221,2.3224424794,3.7007725318,-3.4250260078,-9.8082039354,3.3786871056,4.0069384713,0.7856606459,-0.5969389344,-1.1383496995,-1.2426792046,0.9640976606,-1.338024116,1.4844945703,-10.8966536443,-2.7906460785,-9.4287657928,9.9265497182,4.1132169532,-0.327908938,1.9383780764,4.4977729257,2.3365061071,-2.5053510481,-1.9368744085,1.3237934034,10.8935932338,-2.9358761769,-3.7926087178,-4.5178956167,0.7983694933,2.689673037,-8.1843037781,3.531652357,-7.6591943056,8.356836241,-5.0164781185,3.0269553677,-12.0665156262,-6.3962268175,7.6694873909,-3.5649606607,1.6819765355,0.993903441,3.9331652301,3.7041849828,1.272640476,1.5762814016,7.3682432952,-1.3463174214,-7.4154165945,-0.3451263885,0.5948604451,-3.9912592339,5.2781117824,-5.7601257883,-0.7087715337,-9.6848369555,-1.7500303481,-0.0874012297,-1.4294235813,0.6802426731,-0.3464480611,1.7411430998,0.4776159182,12.2292867038,-0.6817607739,-0.8181980305,-2.0144516055,-1.6373013324,11.0165527949,-9.3013067314,-1.3196129633,3.2409249428,-1.2033204462,-2.0792325925,-2.8713098467,1.6465620597,-5.6031839652,5.1509961275,2.3090112461,4.8686571197,0.5524748569,5.0062334205,0.6156564451,0.5811281051,2.2885459096,5.7894858279,-7.789376243,-8.710832524,1.5294449833,-7.5662620489,1.1413873975,0.2384153031,5.5831329377,-1.2485564144,4.03754753,2.7852535813,-4.2436168876,0.2935330518,-4.492073513,2.7340219458,3.0046527124,-4.2116043214,0.3132997936,10.456998453,-3.8999116984,-1.8264589138,-9.0959983226,-0.7860631094,-6.1055791779,8.5640393741,2.7191281262,-4.1790646061,3.6492292667,-1.8963028386,-4.4512858241,-0.2995083346,4.5575843989,-9.9881580236,6.4996531853,-3.3098520861,-5.0663861119,0.945408039,1.1864542107,0.2693356198,3.4519545558,-8.4685177373,1.7582658255,-4.382639943,-1.0604071279,0.6466687622,-0.5664305516,0.6819251784,-8.3043475445,1.4974083627,-3.2436885515,-2.2018052901,11.2676461915,-1.0121110994,-3.6329426666,-3.2488894808,0.4449709713,-1.0286427539,-2.7012774567,1.3511742425,-0.8330224297,-0.1095024153,2.9099654913,-0.0952235729,3.9890562665,-2.4209063792,-5.0701714867,0.3323074348,-5.0059749319,1.4561398648,-0.3585299353,2.1534285864,4.9283156915,-2.548036111,-0.0685498161,0.7325476847,-4.1526380184,0.6891940744,4.5576702644,0.7527742259,-0.2375935428,0.1032178614,-6.5352929934,1.2098398105,2.7275146001,-8.1223182557,-1.859878107,2.1726069984,0.5660173795,-0.6064623732,9.4592287225,-1.7834109511,-2.5597668794,9.2399674941,1.6175314568,-0.7502485941,0.3096493911,0.1254502353,-7.0269228693,1.9920465177,1.2150269763,4.8144258,-0.4153315852,1.2539627218,-0.7684651924,0.1792935462,6.2984010002,-1.1113553398,-0.2248818223,-2.0131402786,2.1906770373,-0.7239145521,-0.4948067755,-0.9415678514,9.490319473,-1.3051848891,-1.7318812619,7.023919232,-3.3514128739,-2.4459848877,0.1711176062,-0.6210945388,-0.7228833665,0.7831164922,0.1176237646,-1.8969548159,0.2974859553,0.3357042998,0.7841968498,-0.3412701719,1.9667567179,-2.8432255869,-0.6880701108,-5.440036914,2.6093350441,-1.1356697223,-0.9141549229,-0.9822485906,-0.9882588186,-0.8469440497,-0.5905057352,0.7132462014,0.2600325047,0.4119807171,-11.9488033258,2.6457610697,3.5828312951,-0.7391820781,-1.509375558,4.6058192119,0.395041359,0.6068273851,-0.2213795437,-3.1992769401,-8.1336404143,9.7164185172,2.0106414804
biasActivation=1,1,1,1,1,1,1
[BASIC:ACTIVATION]
"org.encog.engine.network.activation.ActivationSigmoid"
"org.encog.engine.network.activation.ActivationSigmoid"
"org.encog.engine.network.activation.ActivationSigmoid"
"org.encog.engine.network.activation.ActivationSigmoid"
"org.encog.engine.network.activation.ActivationSigmoid"
"org.encog.engine.network.activation.ActivationSigmoid"
"org.encog.engine.network.activation.ActivationLinear"
