encog,BasicNetwork,java,3.4.0,1,1573309482808
[BASIC]
[BASIC:PARAMS]
[BASIC:NETWORK]
beginTraining=0
connectionLimit=0
contextTargetOffset=0,0,0,0,0,0,0
contextTargetSize=0,0,0,0,0,0,0
endTraining=6
hasContext=f
inputCount=2
layerCounts=3,8,8,8,8,8,3
layerFeedCounts=2,7,7,7,7,7,2
layerContextCount=0,0,0,0,0,0,0
layerIndex=0,3,11,19,27,35,43
output=0.9629678713,0.9305551962,1,0.0000751276,0.0000014571,0.0934493116,0.0633156311,0.0014221101,0.3798050303,0.0044097149,1,0.9999455401,0.9660911573,0.0010734631,0.0000074703,0.7842352558,0.0871496174,0.0000001713,1,0.0181113691,0.9949209314,0.0741308943,0.9999419892,0.8523511494,0.3104875108,0.9892600639,1,0.9973781895,0.1043246017,0.9999984697,0.0025839692,0.6876741444,0.4093024096,0.9140077209,1,0.457202378,1,0.0001161587,1,0.000001021,0.0085841617,0.0000000001,1,9,20,1
outputCount=2
weightIndex=0,16,72,128,184,240,261
weights=11.1548794228,-9.2305774178,-8.1251200115,10.8294641663,-20.1965342733,5.6032234884,-8.1436834824,1.2675226449,0.0142552236,-1.3562173119,16.6671621742,-7.5037330591,-10.3300904849,12.0911685315,3.8909408413,-3.0819352299,-7.5825531873,3.3465462109,0.5949684092,3.5393164567,-4.0368763571,2.124022423,1.2295733607,-2.1670876491,-6.7667102772,-1.1502493732,1.2145600914,-1.500188398,-2.8869229352,-1.2132960185,9.4135116617,-3.1930335479,-0.0392653483,-7.561924627,-7.1544329816,7.6488611783,11.3531727358,6.3787400553,-2.8788817753,-4.3792957609,1.0195965202,-1.933820535,0.9291257562,7.9353516442,-4.94026885,7.3509941872,0.7396708082,1.3871316736,4.3052399902,-5.3930786413,-1.8113380781,10.7779521144,-8.37801952,4.6119350655,-2.3501617148,0.5212838455,1.4150804573,-5.3627797689,-5.1984744481,8.3317432836,7.4391946888,3.1088320805,-3.1463171446,-2.8239387399,-8.571041406,1.8360536164,5.5412139887,-2.0501233514,0.6131182115,-0.827721208,4.2457145333,0.9626266649,2.6626803488,4.057785253,-7.9031141334,4.8744733461,-0.8940380942,-2.6212289126,3.5754469724,-0.5168880589,5.4977994661,-1.6799028069,-3.4406620264,-2.3365324215,4.7292751613,8.4270281016,-0.3980804775,1.2591514086,5.3990137677,-1.812818723,4.9000867039,-4.2424502941,-1.2658682214,4.9504572908,-2.2146257819,0.4817427448,10.7488315898,2.2777451677,7.8851826166,-2.5885597623,-7.3455716974,3.4090516109,-1.210627061,-5.8613801036,-13.8957020469,-0.8892649049,-0.3929165547,-4.5642092776,3.714228953,5.2941281403,0.2818273314,1.9316220867,3.932850274,0.6660295179,-5.2121444543,2.003372964,-9.2626639015,1.5285862556,2.0350090519,0.7075846571,-0.327158766,-6.0939568041,3.7033474932,-4.4323950243,1.6582771147,1.1948366094,-6.489685296,-0.71788071,-0.1597950584,-1.1033877182,-12.3581638255,-4.7203007574,0.5580822629,3.3888311929,8.408526516,-0.8044030801,3.2676697372,-0.209671167,-2.3561562441,-6.4329886117,3.6170810495,0.7767463003,1.3630556112,0.3619413863,-3.1143393549,-3.0969868603,1.0985509604,10.3797329713,-3.1479256292,1.7760935135,0.0182434906,1.2001083986,3.2212908933,0.3348571316,-1.7335714729,-4.1219902716,4.2502995518,1.3313984656,4.5817581441,0.5957366672,3.2788054023,-1.5894668495,3.29902678,4.6827884206,4.3201339812,-10.1079530621,-5.0828186444,1.1497519433,-1.0062078948,-2.24609678,1.3377257973,-0.4690135556,-0.4201236581,6.1949702136,-2.7819592781,-0.6004358055,3.4696023848,0.5448172136,-1.2112250676,-4.0673451356,2.3111449359,-0.2455227699,-0.1329683346,0.8600901727,5.7385371477,1.4082964625,-3.5653067543,1.259992782,1.029912769,0.1404400431,-0.1321533899,0.6485103613,-1.0646763626,-0.1358496931,-1.2208069148,-1.3808392252,-0.3072364016,7.7136842955,-0.1371753865,-0.2126827692,6.3153220781,1.4069569414,3.2435550827,7.9843815127,1.033929196,-13.2080857555,0.2541036831,1.2243168709,-17.3887587833,0.8663156385,0.202036267,0.9313361417,0.4221676285,-5.1735541703,-0.7400365079,0.2410755123,5.3090380295,-0.8618746597,-0.7908510966,-0.2410712445,-0.8362774704,0.7159673284,0.514499577,-0.5411441223,-2.9465496932,0.287746804,1.5171579007,0.0795826653,-0.1858384356,14.0935496254,0.2503347645,0.4918327821,-10.2137154332,5.258198605,-8.0393127864,-1.8794552891,-0.5417457494,1.0789912555,-0.904551359,3.6462453268,-0.866334832,-0.1358769297,10.3429416691,0.9453099871,0.878012442,-0.6796641753,-5.3450934116,2.229076465,-5.5361254939,-2.3845765323,3.724053423,11.2547557906,-1.8803244695,0.1371732777,0.3847519854,-0.2581455435,-0.6067830325,9.7097553268,-0.7114220893,-0.7765727585,-0.8430084664
biasActivation=1,1,1,1,1,1,1
[BASIC:ACTIVATION]
"org.encog.engine.network.activation.ActivationSigmoid"
"org.encog.engine.network.activation.ActivationSigmoid"
"org.encog.engine.network.activation.ActivationSigmoid"
"org.encog.engine.network.activation.ActivationSigmoid"
"org.encog.engine.network.activation.ActivationSigmoid"
"org.encog.engine.network.activation.ActivationSigmoid"
"org.encog.engine.network.activation.ActivationLinear"
