encog,BasicNetwork,java,3.4.0,1,1573309709608
[BASIC]
[BASIC:PARAMS]
[BASIC:NETWORK]
beginTraining=0
connectionLimit=0
contextTargetOffset=0,0,0,0,0,0,0
contextTargetSize=0,0,0,0,0,0,0
endTraining=6
hasContext=f
inputCount=2
layerCounts=3,8,8,8,8,8,3
layerFeedCounts=2,7,7,7,7,7,2
layerContextCount=0,0,0,0,0,0,0
layerIndex=0,3,11,19,27,35,43
output=0.0340791761,0.0243847219,1,0.0000000185,0.1473733696,0.0033674123,0.8849954517,0.000001341,0.875208158,0.9996872946,1,0.6090221439,0.9999896276,0.0263393167,0.9999999813,0.0000222843,0.0000763125,0.0197231209,1,0.9995040484,0.9999181799,0.006264942,0.0001006073,0.0099473864,0.0641644857,0.0070944883,1,0.9734384717,0.9927264412,0.9629048608,0.075286595,0.9549783471,0.9578648301,0.2512551338,1,0.9999999638,0,0,0.000001863,0.5609581389,0.0000531727,0.109476869,1,9,20,1
outputCount=2
weightIndex=0,16,72,128,184,240,261
weights=11.904698841,-4.5310974515,6.4397726503,-8.3314529686,-2.8097625031,0.2262097663,2.3634053713,2.1143369636,-2.3994390753,2.749643872,9.346015829,-12.831491624,7.0234334396,16.6728436181,-4.5904304584,-2.7732191083,1.6124078812,-7.8702710676,-3.8585941829,-9.1322312852,4.2813978436,8.7802122675,-1.1113002719,-1.6638755157,-1.4732445569,0.1372924327,3.96075879,-2.7843782226,-2.7198968244,2.527280485,-1.0511395984,1.7052490992,3.7712119824,3.2991297753,2.6789172585,-12.4751478409,-3.7229829473,1.1951194906,3.9630867948,1.0403293218,-1.8282903927,-3.2848700945,-2.631184644,4.1052352396,3.3632190862,7.9038242954,-8.6799735176,2.5735026867,1.1477314232,-8.1047330535,2.2486615343,-4.4754635997,6.5669421979,-3.8361440579,3.8427255257,-1.7758101179,-8.6179216769,-2.0263818206,1.4322919101,8.3380840189,2.2427553212,-2.2064186741,-8.5289559577,1.0152071812,1.3473511856,3.5883508848,1.0777736752,1.1385822008,-1.7263037124,0.262102429,-0.2580888828,2.4991946898,-4.5119665771,4.5755920524,0.2265508247,-2.1386755833,0.7929242734,-3.8338268231,1.0116974888,0.6074412512,9.461028327,0.1538549396,-2.4893810625,0.3946583885,-2.3877060035,-7.7409412321,3.7007730935,2.3759159954,-3.1844878963,0.2251398797,0.8241677186,1.20158841,0.5054483127,1.8270785792,8.7018015154,-0.8414935548,4.1338157894,12.0317567483,-7.0568679997,2.1408266754,-5.3873533645,-6.8532467158,-4.2259245557,2.197973795,-4.9726817198,-4.2823481541,-0.125279178,4.3487166471,0.338614879,7.0215141005,3.8788691433,-1.9404658861,-5.2081112035,-1.8190050525,0.9374741439,2.9997335015,2.4341918774,-2.0231126587,10.0775563898,-2.4282846919,-7.5986707215,4.472332028,-1.8726413668,-2.0442335175,-0.430079141,0.5090544986,4.8881232147,-0.834233553,-3.2600267769,-0.1269297475,6.8345853657,7.2917619933,6.0530406976,-3.3424569682,1.8410109678,0.7364863745,3.3865217722,0.587543817,6.0647092475,-6.4108498273,1.4360390722,1.8519390178,-0.9663155415,-2.7285241195,1.3805785118,-3.3660122559,-6.726396151,-0.2999113735,-0.0539086191,2.1299453641,0.8353866409,1.2319653146,-3.5272250088,-0.4028945817,-1.5807938603,3.9376447204,0.3744343237,-4.4897162682,0.0207962604,-0.2072431442,0.9904360351,-1.5634504747,-5.8380487359,0.4785406288,-0.8596188428,1.4909566712,0.6024663185,0.8143693195,2.1520041928,-1.1339005718,-11.5112401805,-8.2182546874,0.1651278079,4.2294293178,1.484827541,3.4717874711,-1.7914037285,5.2656268541,-10.3781596623,6.9781818437,-3.2902779546,-1.1849041744,2.2639567354,4.7512853022,-0.0517531557,0.7746457702,0.2302878828,0.4216163258,8.2447525777,-0.0109744415,4.4751926468,-1.4617674346,3.4337477698,1.1441600041,0.9846986555,-0.16269714,-1.9038782327,0.1292996078,-6.9823654952,3.3148587281,-2.9576237474,-0.455413231,1.8150659553,0.3235481957,17.8888995543,-0.2458169243,-9.097521904,-2.8248508075,0.9860746943,0.0388741583,1.3198615527,0.0137254992,-7.0528814895,-0.692725399,-13.3524193906,1.9239327328,3.26460079,-3.1670200276,1.3345313278,-0.8265783281,-3.4697571726,-0.9419480923,-6.6935453204,2.4691729813,-1.2757119914,-0.1883203275,1.0009009178,0.8642614913,7.976113439,-0.7196612791,5.3371964577,-0.6589928149,-0.5813964537,0.5976942834,-0.759682623,0.7019583122,-1.0574954768,-0.7909311218,0.4463803612,0.0338501503,0.7127800685,0.4882974379,0.954558011,1.9727129735,-4.3418726647,0.1640435269,-7.888388617,-5.7677315259,-0.3231170136,-0.9904695436,-0.2610351322,0.9416264077,-0.2703442729,-0.1639068687,5.9562873495,-0.9622742611,-0.0930804547,0.6801653109,1.8186082234,-0.2650564536,-13.1624407313
biasActivation=1,1,1,1,1,1,1
[BASIC:ACTIVATION]
"org.encog.engine.network.activation.ActivationSigmoid"
"org.encog.engine.network.activation.ActivationSigmoid"
"org.encog.engine.network.activation.ActivationSigmoid"
"org.encog.engine.network.activation.ActivationSigmoid"
"org.encog.engine.network.activation.ActivationSigmoid"
"org.encog.engine.network.activation.ActivationSigmoid"
"org.encog.engine.network.activation.ActivationLinear"
