encog,BasicNetwork,java,3.4.0,1,1573309734237
[BASIC]
[BASIC:PARAMS]
[BASIC:NETWORK]
beginTraining=0
connectionLimit=0
contextTargetOffset=0,0,0,0,0,0,0
contextTargetSize=0,0,0,0,0,0,0
endTraining=6
hasContext=f
inputCount=2
layerCounts=3,8,8,8,8,8,3
layerFeedCounts=2,7,7,7,7,7,2
layerContextCount=0,0,0,0,0,0,0
layerIndex=0,3,11,19,27,35,43
output=0.9993657415,0.9999981756,1,0.0005410757,0.0351105237,0.9853924944,0.9999999998,0.9336420041,0.008441203,0.557964986,1,0.0082778277,0.0000002718,0.9999648692,0.9987480681,0.202210308,0.6053300524,0.255500335,1,0.9754460417,0.077228496,0.013144508,0.364893026,0.987568159,0.5342733482,0.3460416494,1,0.7554153706,0.0012683618,0.0513745901,0.0224940218,0.9706192625,0.9009503301,0.5865300126,1,0,0.0000000002,0.2925974202,1,0,0.2826828419,0.9999997649,1,9,20,1
outputCount=2
weightIndex=0,16,72,128,184,240,261
weights=-6.9919901914,-0.863297301,12.6156963545,-13.4328210605,4.921444206,-5.3964624977,1.7487594883,2.8728611366,4.6966670715,1.7692286145,6.1627858349,6.119302327,-5.0911927143,-15.9652816347,5.075675062,3.0135832799,4.3152409248,4.20956317,-1.7349298415,-4.9385289643,1.7711535146,1.519403587,-2.1346309296,-1.6224041094,-0.2795916561,-0.866668335,-2.2692322039,-0.8802730373,1.109749121,0.6505155453,-0.2399803665,-0.7197387861,-0.7650234984,-3.8252978002,9.8289771172,-3.8911650645,-2.3445160428,2.1163932382,6.1427492724,-4.1010055138,-14.1462742044,-4.6195741859,6.4388527854,8.5542031903,4.7129961586,6.1385105523,7.2718479907,1.186527812,1.1230833143,6.6939424395,2.3562067071,2.0976976038,-2.3209309104,-2.5692602398,-4.1828630212,1.2768244304,11.6125834106,-1.6795442606,-1.9244438108,-1.7065247606,1.2978077529,2.891991348,6.3324369225,-4.8644945442,1.3672403811,-6.7361188189,-0.1748287113,-0.9372151722,0.603874855,-0.1202433411,-0.2346543239,1.3430870239,-5.5610590058,11.3283756349,-3.9595561506,8.3216388383,-6.1827070518,4.6491710809,-2.1629938535,1.1497179809,-11.9036805128,-0.7648357952,-1.1313715879,-1.7574295194,-9.7874344112,10.3279761145,0.3012030594,1.2520181196,8.0298822838,-6.2565200169,-5.1875272722,-6.0573631791,7.9547797228,0.6328682031,-1.8999627381,-2.3512059311,3.7144933265,-6.7320684283,0.2131007499,-3.6021870019,4.8672347198,-1.3467093662,0.2262316971,0.7245454791,2.7886379756,0.321685395,-1.5602020795,1.4608211533,-1.7571730404,-3.9172610094,-2.6478427836,0.1143989331,2.3838803951,-1.6644481305,-3.2709666529,2.8882832206,0.2168102411,-2.3793809749,-4.2493567707,-0.2524196408,-0.2819675599,3.9817396719,-3.2560819749,10.0828048543,5.7994529174,-10.073116895,-5.6570244364,-3.1262849693,-2.098014131,9.5281360737,-8.7116772302,1.1347769645,8.5858389059,-4.3443660588,0.7201961575,0.8349026618,7.6558645385,-1.5877384509,6.9431901973,-0.1430456265,-7.4203261666,1.1761102401,-1.5685163794,-1.5527664035,-0.5465930339,3.0403434261,-4.2365106119,-0.5808676491,-3.7014870791,-2.0178342533,1.913906078,0.6093837172,8.5555391684,0.2174535886,5.4212385153,0.8490648024,-4.8426802499,3.1380612496,-3.9861091928,-3.1039295172,0.97346932,6.4194290581,-8.8762499766,0.1095792088,9.9336317739,-4.5026990571,1.2651127395,-2.2420752456,-7.8922096922,-8.9587469789,3.3666505465,-0.8985066658,0.5986393612,-1.6663834009,4.6395241465,4.1568765204,-0.3919194995,1.7407171906,-3.4634409061,-0.5350871298,-3.0829606726,-0.6998300383,2.2456022829,2.1531187332,0.8037318378,-0.5641433631,10.3642582644,0.6172487702,-5.9340585417,-5.2350610848,-3.9488638813,2.906627274,4.6565471669,0.8569538437,10.6428443978,-1.9922815189,2.1772000168,5.4632187024,-5.679775068,-3.6551317465,-0.2878012075,-0.7666676236,6.075869329,0.1603752615,-0.0884631741,-15.3858766166,-2.6540385406,2.1493319851,-0.3726974912,-0.2847656174,-1.1504626062,-1.1405930719,-0.2404796433,-0.5290292479,-1.2259231819,-0.9190689836,-2.3578434337,0.3302540428,4.4892536018,0.8363789616,0.4886611455,-15.5397915053,4.6393215099,1.101184034,-4.2367958432,0.5222971742,2.6541907642,2.0515146901,-0.8226214413,-3.1715983597,-1.9562766087,2.232537214,1.2644623867,-0.6231886522,1.693777732,-0.8765746152,0.6863753382,3.7501825976,1.2978697508,-1.6273631904,3.6375675264,-3.6907464286,-0.5747141869,-0.7992359614,-0.8179734087,0.9651350746,-1.0481783555,0.1936473984,4.6778549798,-0.5437004175,2.5173074479,0.221241435,3.6352990087,-4.7049337032,-0.3152186008,-5.211356145,2.0996316212,3.978380366,-1.00704005,1.332758996,-2.3285751126
biasActivation=1,1,1,1,1,1,1
[BASIC:ACTIVATION]
"org.encog.engine.network.activation.ActivationSigmoid"
"org.encog.engine.network.activation.ActivationSigmoid"
"org.encog.engine.network.activation.ActivationSigmoid"
"org.encog.engine.network.activation.ActivationSigmoid"
"org.encog.engine.network.activation.ActivationSigmoid"
"org.encog.engine.network.activation.ActivationSigmoid"
"org.encog.engine.network.activation.ActivationLinear"
