encog,BasicNetwork,java,3.4.0,1,1573282396606
[BASIC]
[BASIC:PARAMS]
[BASIC:NETWORK]
beginTraining=0
connectionLimit=0
contextTargetOffset=0,0,0,0,0,0,0
contextTargetSize=0,0,0,0,0,0,0
endTraining=6
hasContext=f
inputCount=2
layerCounts=3,8,8,8,8,8,3
layerFeedCounts=2,7,7,7,7,7,2
layerContextCount=0,0,0,0,0,0,0
layerIndex=0,3,11,19,27,35,43
output=0.9999542391,0.9992965526,1,0.0078208176,0.0639999771,0.8702544957,0.9998331645,0.0250155616,0.9999534588,0.0000475125,1,0.9807140316,0.7085535828,0.976307985,0.0001580258,0.9999999835,0.0026138058,0.9092416999,1,0.4338045458,0.7337690647,0.3526382687,0.999998238,0.998140698,0.1318744009,0.9997235693,1,0.3356407321,0.8323168551,0.9905584833,0.9838956659,0.9949017053,0.4954576937,0.8618029735,1,0.9999999728,0.9999999996,1,0,0.9999827513,0.0880205787,0.3753789602,1,9,20,1
outputCount=2
weightIndex=0,16,72,128,184,240,261
weights=-11.8199984113,0.3526317579,-1.5462074381,3.8081910424,-0.0193531274,7.3147966565,-1.9027557705,0.2860660044,5.7335527641,-11.0377840688,5.0846363354,-4.5896919069,-10.6193865178,4.6422448565,-9.0637211614,3.708440916,-2.9530271457,0.4298693124,-7.5834868321,5.0473613618,10.3467277667,-6.7297884283,-8.6714075121,2.7066643003,-3.3652830771,7.3548317193,-10.0501653257,4.3729319028,4.4032863556,1.0915976921,0.217743483,0.6135998535,0.8844712469,2.4498335061,-0.526957506,2.3917025259,-2.4615626749,3.2885418465,2.5706075609,-0.070282544,1.2280970995,-0.2923581726,-0.0175726031,-9.6183354679,9.2357427855,-0.5057760444,0.7888212433,-2.2318987058,6.1747576882,-6.790602063,0.3667953682,-1.5981931557,1.8723183094,0.0948879199,-9.7621790956,1.7386718258,0.3003837356,2.6125506861,0.5561721365,-4.4039601829,1.5206956978,-1.0713876597,3.9727105721,2.1570538609,-4.7224130992,1.9693016606,-7.7135589015,6.5952951377,4.3893491563,1.2148176586,0.0146989434,-3.594611621,-2.3085103279,-0.4938394262,-2.8244617627,2.5316225756,3.526039113,-0.5773891252,2.4587347941,-2.1442907584,0.3589739476,0.736665653,5.1401314852,0.7141213057,6.0385268437,-2.9301445722,-7.0483219732,-0.929139338,-6.3546364213,-3.0224665036,-8.6105336254,6.0190863665,4.0524613868,3.5799400768,2.409260878,-1.2151934537,4.5974580239,2.6556921381,-0.7892318396,-5.1519548383,-8.7954270285,-2.2298755365,1.1808004003,0.6272650301,-4.9891084853,3.638107107,1.4372227819,12.0467328563,7.0730552054,-4.114883533,-2.3111205919,0.6534854688,1.1727695198,0.7159148508,-3.5401096423,1.2363991339,-10.1393402066,-1.4638091502,4.2972468026,-0.9489503138,-4.8518462552,-1.7879375858,-0.1897628142,1.8050519717,10.7266282805,4.7230450316,-7.1936597951,-0.1548956108,7.3196432341,-5.4398609228,1.8595016705,-2.1205588468,-1.959250407,3.3668361829,0.5193816149,1.8825678198,-1.2179815744,-1.2944552221,2.6150813358,2.3484753654,-1.6456474567,0.7690083427,-1.102952935,-0.1942398848,0.4553450163,-5.1087162337,-3.2925422203,6.7504642196,-0.4398078822,2.7653330961,-1.1452399643,0.1659102635,-1.6927419017,-1.1192835562,-1.5660844199,15.5451202836,2.0068105503,-3.2630002829,0.380728001,0.2972989898,-2.8015201159,2.3212808477,-2.5683193436,13.5057139073,0.9611772939,-4.9909208323,-0.8339120307,-3.2150055939,1.5146168088,-0.3238082954,-2.9739570809,-5.3130839223,2.3621159454,2.1066225706,1.6772785958,1.2107570005,-2.0047934029,7.7533594969,6.1848137995,-5.4858601537,-1.9983840516,7.784190046,0.5889521501,-0.6920950937,-0.933618051,-0.701226425,-2.8743638949,0.952981354,0.5681998065,4.263420423,7.1402509293,0.202667906,-0.654499307,0.4931187208,1.5673405035,-0.6381941209,0.734472834,-9.1728003836,-0.8250448442,0.5788166209,1.2103426728,0.9817001266,0.1734787161,-0.2688996904,1.1557745674,-6.4513532813,0.6842988601,1.442856614,1.800629061,1.1246479844,2.2428705086,-0.1981913852,2.4650440634,-11.8680746613,-11.1390913565,1.7052977077,0.8496744689,-0.6153172151,4.8425174163,-0.1064731978,0.5423522643,0.0048273541,0.0359919435,-0.3594152462,-1.2852394098,-1.0297270334,0.7834799843,-0.4108727698,-0.9867931222,-6.5250726502,11.1760239,-1.1208107605,0.2160059809,-0.9383915533,1.8514627294,0.9940233072,0.1720685472,-0.1858117814,0.6200263352,0.3128139691,0.9633992253,0.4641650516,-0.5337728007,0.9851642062,0.61698522,0.5102509963,-1.6592892696,4.8896073604,0.2080505032,-0.9702778113,-0.9915764334,-0.3352749506,1.0024606547,0.0868168706,0.2092741817,0.116117249,-0.2635701255,1.88830048,0.8954826355,0.1763712153,-12.0959770791
biasActivation=1,1,1,1,1,1,1
[BASIC:ACTIVATION]
"org.encog.engine.network.activation.ActivationSigmoid"
"org.encog.engine.network.activation.ActivationSigmoid"
"org.encog.engine.network.activation.ActivationSigmoid"
"org.encog.engine.network.activation.ActivationSigmoid"
"org.encog.engine.network.activation.ActivationSigmoid"
"org.encog.engine.network.activation.ActivationSigmoid"
"org.encog.engine.network.activation.ActivationLinear"
