encog,BasicNetwork,java,3.4.0,1,1573283032949
[BASIC]
[BASIC:PARAMS]
[BASIC:NETWORK]
beginTraining=0
connectionLimit=0
contextTargetOffset=0,0,0,0,0,0,0
contextTargetSize=0,0,0,0,0,0,0
endTraining=6
hasContext=f
inputCount=2
layerCounts=3,8,8,8,8,8,3
layerFeedCounts=2,7,7,7,7,7,2
layerContextCount=0,0,0,0,0,0,0
layerIndex=0,3,11,19,27,35,43
output=0.9833355663,0.999573864,1,0.0010622644,0.785438094,0.001715855,0.0004634777,0.1565275124,0.0000014381,0.9692933988,1,0.0018471839,0.9970435014,0.0084383916,0.9999956557,0.0192481075,0.9582462791,0.9997282125,1,0.5280530901,0.9959702855,0.9999039116,0.2558487815,0.0713782812,0.0095738536,0.9740834481,1,0.2750029339,0.8924417547,0.9508884359,0.286926603,0.6840800077,0.0003317759,0.7520410506,1,0.6475254108,0,1,0.9965045204,0.9457835709,0,0.0362141143,1,9,20,1
outputCount=2
weightIndex=0,16,72,128,184,240,261
weights=3.7022566907,9.8511291742,5.0159282884,-13.4838330185,9.2883424817,0.6117632318,-1.3605293856,-3.8011982169,2.7634046631,4.7705786717,-0.9412912981,-0.5721992849,-3.8877292066,6.3198021818,7.9629646951,-3.0976452085,2.4385421246,-1.7587759433,0.5309622521,-1.4069924974,-3.8277738615,-0.8149116981,-2.3284529714,-0.5123283474,-5.9532097344,5.6547315627,-5.3207690264,0.3670683384,0.1720999853,-5.6458421919,2.9125048169,-2.1564599152,1.2361509011,-1.3117087361,1.0569101727,1.2140927619,-0.1239815563,-0.1084828296,-7.9588448073,1.7794360816,2.9133460207,3.1190196774,7.6646606791,-7.9193271605,4.2405366574,0.0775244673,-1.5529599921,-1.5402250075,-2.5664290324,1.3131647672,5.4283410882,5.4062426011,7.0811192615,-5.802570012,-3.466319194,0.4485072648,-1.6527561692,0.7473499884,0.2212644868,-0.0983388664,6.3465553356,-5.207811697,-5.3026718679,-3.9283960898,1.6079179803,-4.9110846242,-0.6866504378,5.792615627,-4.9900415937,-1.9166954612,7.04367156,-2.5501536787,-3.8788314032,-2.8898775979,-1.6163731602,0.3893855211,4.5651890637,2.6051655743,-0.1653511238,-0.0389199871,-0.9496855487,0.2764647078,6.2388301674,0.218950538,-2.3230035645,-2.7547662824,1.2404116264,-1.2634051107,4.896100363,1.6271385694,0.7209954469,0.6254918499,-1.6617023356,4.8870771394,-11.1179657643,1.0482182771,4.014106048,5.0582503336,5.8319311344,-2.891972331,-2.5321416241,-2.4930189903,-0.0990553128,0.3987359918,7.7415114876,0.6518627831,1.6597334156,-4.3827541949,-1.5810371112,-1.3687905977,-8.8976508366,-0.413312691,-4.2561177037,0.2094017908,-1.3994937647,2.0308640665,-0.1081751191,-2.0531252352,5.937521691,0.2957156586,-0.0588034442,0.1657933945,1.4512777932,-0.024302818,-1.045632113,-4.2429750766,8.2957806049,-1.33430173,-5.2775140031,3.340945369,4.5881827273,2.2166483338,-3.3285540889,-0.2692810291,-7.595267174,1.572237094,-2.0378484298,1.7770706067,3.0941324613,-0.3878764504,0.2971582529,-2.9286461158,-0.6413563964,1.9336394487,-3.9629599245,6.1091016341,2.4308501418,-1.4100791006,1.6721986801,-5.3905512437,-0.0080106593,1.8449706948,2.798991591,-1.7213850025,-0.9468393989,-1.8794987834,0.851763555,1.7335688994,1.545269446,-0.6068915367,0.2941100009,-1.2114530554,-4.9873398227,1.6504842077,3.3154226348,-0.4417225271,2.5280668514,-1.4656795515,3.8254451626,-3.3462947467,-2.1202852432,6.3534069855,-2.2675729031,-0.0352167256,0.5864305748,-1.4013486496,4.7529436043,-1.7030951056,-2.7131301427,-11.3805057512,5.5667212184,4.9833178601,9.5850862222,-1.3334055258,-6.5768516276,-0.1944524545,0.9078737472,0.4804848234,1.8973551553,-0.6120397259,7.832206244,-0.1755100819,3.0374441964,-0.7403313421,-0.7931636245,1.5247698454,-0.826469698,0.5068553312,-5.4263894695,0.4010033635,5.2626595306,0.6327993299,-0.3402283101,-3.2116260037,3.9005289814,1.2805215165,-1.7103574718,-0.5308925663,8.1143380055,1.0305680387,1.8279885665,-4.679009701,-5.6416157959,1.3342062325,2.2387084294,1.9247424795,-6.4295250609,-0.386741205,0.2099824582,4.3113421856,0.8490005297,-0.9290479553,-0.2488406451,-0.3643468992,-4.8174002049,-0.1806155272,3.4314836331,-7.6321326353,-2.8778331367,-0.2096775795,-1.306279816,2.05175421,-11.0026412918,0.518540444,1.4892233942,5.6364580303,1.540588228,-1.4053037308,4.4161726138,-0.4889525886,-0.0491312278,0.1490073324,-1.9297860927,-1.467748767,-0.6755314676,0.7750322616,0.8931727584,1.8190443698,-0.357861066,0.0616747953,0.5353131948,-5.6085539589,-1.6284909547,0.5476564312,6.5623197446,-0.8720403694,-1.4245296547,-0.8087376925,-2.428218239,0.5581874452,7.4087950272
biasActivation=1,1,1,1,1,1,1
[BASIC:ACTIVATION]
"org.encog.engine.network.activation.ActivationSigmoid"
"org.encog.engine.network.activation.ActivationSigmoid"
"org.encog.engine.network.activation.ActivationSigmoid"
"org.encog.engine.network.activation.ActivationSigmoid"
"org.encog.engine.network.activation.ActivationSigmoid"
"org.encog.engine.network.activation.ActivationSigmoid"
"org.encog.engine.network.activation.ActivationLinear"
