encog,BasicNetwork,java,3.4.0,1,1573974819988
[BASIC]
[BASIC:PARAMS]
[BASIC:NETWORK]
beginTraining=0
connectionLimit=0
contextTargetOffset=0,0,0,0,0,0,0
contextTargetSize=0,0,0,0,0,0,0
endTraining=6
hasContext=f
inputCount=2
layerCounts=2,8,8,8,8,8,3
layerFeedCounts=1,7,7,7,7,7,2
layerContextCount=0,0,0,0,0,0,0
layerIndex=0,2,10,18,26,34,42
output=0.0008994934,1,0.761059709,0.1825130593,0.0149805308,0.8410590066,0.0103433488,0.3832444384,0.4284596544,1,0.9968210529,0.753715564,0.5369207473,0.1248677873,0.6707906977,0.5122608616,0.1497361605,1,0.5398523478,0.8323045817,0.1624065524,0.5947533139,0.0566989874,0.0350591691,0.9122093734,1,0.969673161,0.7860358016,0.9995370389,0.6491825848,0.5968871794,0.1040237644,0.3929064737,1,0.9999999371,0.8224080472,1,0.6655375349,0.387265903,0,0.0000028617,1,11,15,1
outputCount=1
weightIndex=0,8,64,120,176,232,253
weights=-2.6150030139,3.9528659412,10.1548451769,-0.650737289,5.6329402415,-0.5134319164,-9.8305745748,-0.9983606113,0.1878106202,1.1609468425,-0.8135591366,-0.7314878682,0.2322404681,-0.8562997738,-1.7614177559,1.1710289365,-0.6804689334,-2.3777586928,1.3911253039,1.3414072217,-1.1260335989,1.4238480536,1.7487200821,-0.1792716947,-3.7784434328,-2.9682272378,4.8052717084,2.5184341262,-2.2893013556,1.4785523204,3.208949293,-0.7790585172,0.3643689157,0.5708328522,-0.9289460319,0.0638083812,0.6301656674,0.0213315238,0.6390207349,0.8341542888,-2.8942319442,-1.6047414258,1.4034015697,2.8507121131,-1.2417017007,-0.6152293768,2.7603048007,-0.8411795511,-0.0620642862,0.6872505191,-0.9287217167,0.1955149197,0.0172872523,-0.4562767079,0.2027437964,-0.2659092558,2.3697977782,0.1116194713,-10.4283139322,2.473690344,-1.2961161171,2.7753936521,2.9085342026,1.5679460687,2.9857080643,5.2768997186,-2.2115122023,1.1103376521,-0.8714680412,-7.8294128368,0.1977760583,-0.4135301237,2.0744013116,1.7915806266,-1.971353495,-0.6580578959,-0.238289212,1.9060273806,-1.1957732009,0.2565421485,4.0880618647,-1.4267003325,-7.4531203314,-7.2103236609,0.0155444728,2.4786507565,4.1551200374,0.7491309469,-2.2857388202,-2.2877318465,1.5137672874,1.6316884477,0.3674331918,-1.8189149483,0.2428732681,-0.2039808857,1.5633831269,0.9261915821,-1.6165714735,-0.9771136947,0.2023898718,0.6597578281,-0.8695767211,0.6992074693,-1.2929223509,-1.5907599567,1.2675899613,1.3841204163,-0.2593562055,1.1129256976,0.8868916431,0.2086182413,-2.8073056194,-2.189703408,2.0715183415,1.5881694304,-0.1647550802,-2.6809321118,-0.0635304131,0.4816473765,-0.1974374115,1.4567816797,-0.0957908868,-2.5578436761,2.0372288103,-3.3299705964,0.0651533904,0.0671706929,0.0788095742,5.4941074595,-0.2247245064,0.8428670974,-2.3029060482,-2.9481037089,-1.3466765608,-0.9051238734,-0.0731057208,1.4533404606,-4.427071153,3.4937609809,-2.7315421633,7.0754593916,0.3868149461,0.1874382453,2.5614996658,2.7827469113,-3.4945160499,-1.6065449399,-4.3539529883,3.0621879485,3.0599331571,1.3263446368,-0.4001690461,-0.3961835833,-0.3253315722,-0.4187707875,-1.167342736,-0.6475631229,-0.3430574428,-0.6162184081,-4.3533032617,-7.7099793418,4.5059765373,3.3374111668,-0.2349970159,4.1192809397,0.0909799892,-0.0278911625,0.3285491129,-1.4185139075,1.7233009407,0.1540150416,2.2404989265,0.379680541,-0.2231870198,0.0257160021,0.3005089655,0.2761742789,0.6019512903,0.6788403538,4.458973533,-2.8018090415,0.2184002831,0.1567350117,-0.2903536397,7.9343648732,-0.1721580579,-7.0939543366,0.5399066635,1.5263548585,0.1346396788,-0.2493751502,1.8680058384,1.726939395,1.6051399086,5.9530842036,-7.7466702663,0.3133495972,-0.3733760351,1.8220312128,2.0633172446,-1.014092787,1.1550307567,-1.2289666755,-5.059486044,-1.2304492047,0.7255194792,1.0083861102,-0.9675898569,5.68110048,-2.2388331486,2.3631068658,-2.981483763,0.0338989402,-0.7838201504,-1.491355239,-0.201509536,-3.2629357542,-0.1334485825,4.9256568829,-7.8117977201,-0.1155820688,0.8267585279,0.6121592072,0.3650068042,-2.3076270926,0.6289860306,1.7896623803,0.7718548239,-0.9525100086,-0.2055001338,-1.0212929326,1.0703973778,0.3653691516,-0.672815457,0.2001717705,-0.5470103071,7.5360132914,0.5290145185,2.1555604357,-0.2597180567,-0.6232076725,-0.1899348028,10.3923768155,-0.0121462772,0.1657066107,-2.8108096348,5.3081371319,-6.039808387,-0.3507161009,-0.8622669422,-0.1870057861,-0.4740729605
biasActivation=1,1,1,1,1,1,1
[BASIC:ACTIVATION]
"org.encog.engine.network.activation.ActivationSigmoid"
"org.encog.engine.network.activation.ActivationSigmoid"
"org.encog.engine.network.activation.ActivationSigmoid"
"org.encog.engine.network.activation.ActivationSigmoid"
"org.encog.engine.network.activation.ActivationSigmoid"
"org.encog.engine.network.activation.ActivationSigmoid"
"org.encog.engine.network.activation.ActivationLinear"
