encog,BasicNetwork,java,3.4.0,1,1573283235906
[BASIC]
[BASIC:PARAMS]
[BASIC:NETWORK]
beginTraining=0
connectionLimit=0
contextTargetOffset=0,0,0,0,0,0,0
contextTargetSize=0,0,0,0,0,0,0
endTraining=6
hasContext=f
inputCount=2
layerCounts=3,8,8,8,8,8,3
layerFeedCounts=2,7,7,7,7,7,2
layerContextCount=0,0,0,0,0,0,0
layerIndex=0,3,11,19,27,35,43
output=0.999668355,0.9996599414,1,0.0073080597,0.91709927,0.0000000007,0.0130387281,0.9458564571,0.5345968923,0.424825272,1,0.6351157468,0.0077334895,0.9985896178,0.0030781592,0.9988758651,0.0361146528,0.0030834641,1,0.7825636795,0.0441851979,0.9870889217,0.1014012231,0.1469718968,0.4711884132,0.9761002041,1,0.9999960021,0.9870889894,0.4055705884,0.2528946281,0.1664392273,0.3418774498,0.999816236,1,0.0000000008,0.6453258757,0.9938590495,0.8191616878,0.9999998619,1,1,1,9,20,1
outputCount=2
weightIndex=0,16,72,128,184,240,261
weights=-0.2112915637,6.5001749336,-8.0214148031,5.2111660836,7.1178058576,-1.7627044385,-10.6761207101,0.7288046729,-3.2538856366,5.8254917579,0.6025330265,-10.2232439113,-3.4714764791,0.7114007413,9.1854427507,1.8015734648,0.6560667708,-1.5211063111,-1.9658043087,2.3503201905,-0.4868329971,2.9176194028,-0.6829558054,-2.9775375554,-0.1418363415,-5.5237258474,1.5794805575,-4.9777804976,2.0488200435,-1.0902918846,-1.3037684455,-1.0286797188,-0.950745936,5.4627891327,-4.2837694093,2.3466709556,-12.1601445345,-3.1767143713,5.0590372285,-3.9936752763,-0.0040263856,5.669365141,-1.3848152605,-2.8455567875,-2.9623365588,1.1915835431,-1.8361308774,-0.0547378124,-0.1897463602,-8.0651087072,3.7993894998,-2.2782649729,1.1095886195,-0.336732749,0.4350801384,-1.8412054724,-0.6959018353,-1.2451788261,1.4135574566,0.0240486612,-0.0729106267,1.1927864123,-0.1308066934,-0.7912660367,-2.6315215317,-4.6234617584,-8.3394999185,6.526939501,9.1025744744,-2.4325239219,-5.4796021835,0.7241313831,-0.9805891667,-0.8802332633,0.3069121085,1.1503179445,1.3658062761,1.0600551433,1.1783489352,-0.9095068457,-2.4591501461,7.8735779907,1.7965337833,1.7688974673,-1.7767596727,-3.0316443511,-5.536844336,1.8635317878,1.2327778785,-2.3523079997,0.2074138255,-1.9787768573,-3.9407048663,7.8427060329,3.0336544599,-0.3797624348,-4.867281658,5.353750962,-2.1012650171,10.1900846978,6.5748836846,-2.0859112356,1.313550523,-2.4327138052,3.9116716784,-10.6053037416,0.9287983384,-4.4701833387,-0.0093640379,3.8772326701,0.6846383856,1.2397510025,-5.6417743681,0.0046846429,-1.5117184926,2.7737687495,2.8521653875,-0.2697271415,2.8448192644,-0.7274204443,-7.3265231686,-0.213559322,-3.2063432701,0.2094108233,2.5834654933,1.9428062764,4.3475487687,-2.430762767,-1.0674741034,-2.1166187551,-2.5745154235,-0.5538042677,6.3243651758,-3.0124603192,4.7745429619,0.8252362592,-4.9250597951,2.7304662913,4.8810543278,3.8313151965,2.2798715054,-1.1852088027,-8.088471851,4.3198430479,0.4481166484,0.353998731,0.6749973142,0.8998239005,1.6862745807,0.8869992344,0.596325789,1.8576881286,-5.7358912856,4.5117885207,8.4567008261,-0.0898667606,-1.2797417599,0.7180851307,-3.2536995476,-1.0858784578,-5.2737838848,1.9236581243,4.2641084631,0.2553351923,-1.1029143948,3.4427645052,-1.0721884567,-0.0990238356,0.0516658701,2.0890202723,-9.0625689187,-0.4483578928,-0.0812754319,1.2147503195,1.6283366839,-0.4699957946,2.6721776546,3.0142058234,-2.7870699658,-0.0354780253,-2.2641322591,3.4676283496,-1.9952637366,0.3877983506,1.0131781697,-1.0599549975,10.0903695593,6.6849054544,-0.2829095769,0.3717046182,-1.3569440699,-1.1225276152,-0.9770089714,0.1363751484,6.3540330958,6.3202023031,-1.2429577303,-0.78483904,-3.3277238297,-1.8880871474,-2.2321299334,3.3260930421,-7.0778433379,16.2666756772,-2.2461499929,-2.2837914111,-3.0411757836,-1.2482629137,-1.1885309364,-1.5321450577,2.551927727,-0.4233769058,0.9343489637,-0.08665671,-4.5482906285,1.4166557083,-0.8935830872,5.1579052657,-0.0030411144,-1.4858137967,-1.7551010801,-1.1540627984,1.9025638503,-2.7128621401,-0.8596315407,-5.5244395644,4.0013538846,4.0106620553,-0.6955328865,-0.771570414,-2.8371225851,-0.0478116988,0.8370235201,12.5307232987,2.2680988734,-0.9589400456,-0.1300120978,-0.3502247393,0.3911113608,-0.8642439721,-6.6213851672,1.8912116494,0.7643552063,2.1349977558,-0.5389345637,-7.8377325132,-0.7436290195,0.6021885904,-0.2644947672,0.7673689837,0.2379602324,-10.1548473445,0.8985301065,0.3791551894,0.1254234766,0.7011662874,0.8528712932,0.7489190718,-1.737814401,4.8636971962,-0.1090896385
biasActivation=1,1,1,1,1,1,1
[BASIC:ACTIVATION]
"org.encog.engine.network.activation.ActivationSigmoid"
"org.encog.engine.network.activation.ActivationSigmoid"
"org.encog.engine.network.activation.ActivationSigmoid"
"org.encog.engine.network.activation.ActivationSigmoid"
"org.encog.engine.network.activation.ActivationSigmoid"
"org.encog.engine.network.activation.ActivationSigmoid"
"org.encog.engine.network.activation.ActivationLinear"
