encog,BasicNetwork,java,3.4.0,1,1573283283604
[BASIC]
[BASIC:PARAMS]
[BASIC:NETWORK]
beginTraining=0
connectionLimit=0
contextTargetOffset=0,0,0,0,0,0,0
contextTargetSize=0,0,0,0,0,0,0
endTraining=6
hasContext=f
inputCount=2
layerCounts=3,8,8,8,8,8,3
layerFeedCounts=2,7,7,7,7,7,2
layerContextCount=0,0,0,0,0,0,0
layerIndex=0,3,11,19,27,35,43
output=0.9693262477,0.9995750974,1,0.7828088337,0.001061576,0.5819494922,0.4886285443,0.3401765023,0.9996296035,0.788693794,1,0.0454427779,0.9993634372,0.9735155118,0.9381106329,0.9954644893,0.0297841732,0.0274678061,1,0.83349831,0.0222431027,0.0015782299,0.000034331,0.9746486505,0.9999904676,0.9414531342,1,0.728127567,0.6252031226,0.1698845347,0.9239604886,0.3584204449,0.0602237675,0.8508841342,1,0,0.7046579433,0.9999952113,0.5240102787,0,1,1,1,9,20,1
outputCount=2
weightIndex=0,16,72,128,184,240,261
weights=3.7510851801,-12.2463868585,3.6821862551,2.2778048173,6.0219617403,1.6248005288,-10.8872832225,2.18796903,3.937970395,-0.4894827258,-1.498414074,-2.4108530879,-8.3774056879,7.9323079627,2.8704398307,-0.6123912828,0.0329997378,-3.9381484922,0.4363481364,3.0434397467,3.0748662706,-0.8147875884,-0.8789601975,-1.0761315476,0.6048816275,3.0731691045,-4.561624327,4.9051213134,-11.5939526997,8.5061222997,2.1212047605,1.1233822701,1.3276525175,-0.9673818505,-0.8420302744,0.8214378469,1.1996542462,1.1040350861,1.3556370907,0.0220128406,1.5920515888,-1.3146247384,0.8769760487,0.6224196148,0.0443074449,-0.1700687867,0.7244706914,-0.3006420132,0.6243088787,8.4985430934,2.6189662774,-3.3979997368,-4.9149400273,3.4787448799,-0.5793845284,-3.7409647971,1.5845503267,-0.7965545002,3.9111736677,2.1966490044,1.9775604589,-3.3355622342,-6.5943408048,1.0682068742,-4.1692064312,5.9859447715,0.5937471557,-3.0593459148,-1.4391061855,6.109717219,-3.0091935872,-0.8503591228,-2.8529285723,1.21729504,0.0172746353,0.3851218264,-2.2974186187,2.6160941826,-1.3027072455,0.1555450857,4.8234054297,-3.4403857529,-3.0172462781,-2.0219741565,3.9001474958,-6.4689499178,4.251778139,2.0846115397,-0.4972186193,-4.4512736778,3.1563526598,-5.3902266137,0.7224426975,1.4112128265,0.8762736473,1.1727014186,1.3010331847,0.3032652982,-4.709677916,-0.1680107377,-3.1671184,4.8452186539,0.0162212424,-0.1388126331,7.5456295828,-5.8096147458,-7.2647726149,-5.1979149446,-0.54066452,0.1382561643,-0.8648507466,0.4457895851,4.7640588301,-3.5901287781,-2.75281006,-3.5324843649,-0.7495109177,-8.1354768397,1.5709813838,0.0168488102,-1.1596878478,6.7394073712,-1.2565642818,3.8988123399,-3.3736101692,-0.4925283555,0.6917186305,0.3810408684,-2.3484007314,2.7988324534,1.602075754,-2.8103234678,-7.0622231236,2.0982976261,6.319267072,0.9230963619,1.3094727694,-2.8867102964,3.2190743342,2.2391619838,4.623211911,-3.3608149262,-8.0781374384,-0.1287739285,-0.9709776636,-1.9862956551,0.9124705706,-2.8113920288,7.4568926332,-0.0233011486,-4.1213759908,-1.2229235971,-0.6633284927,-2.1701369863,0.5368837805,-4.0987863243,7.0566599507,-2.4561458668,-7.5923959248,-0.6648389564,1.9024100976,-1.1436700818,-0.9313607246,5.306678213,-3.0390263827,-2.3180995291,-1.9843946801,1.1514805683,3.4524920627,-0.0221602857,-7.8310399333,6.4244463996,5.9127058729,-6.3829609536,1.7341297549,1.2448683211,-0.9491567009,1.0894454408,1.8060363902,-1.7628257131,2.0485949311,0.7292679408,3.1063601426,0.688213005,-0.36367887,1.842445231,0.3423184272,-2.5722554603,-1.2448783773,-1.0120391968,2.0096504403,-0.3051900952,2.0890936225,1.4701850189,-0.1106463555,3.7271149308,0.6707567796,-0.9308768128,-0.947397926,-0.4884111466,2.9353193782,-3.4353943267,2.8368470563,-0.0743876729,0.6964698042,1.577572455,-6.0612169513,2.5201230233,-1.4954679411,6.275923764,-1.9575032744,-4.0289422613,-2.6610667147,-1.9589453409,4.9438445187,-0.841161434,-3.1464143999,-9.8724405985,0.7611716947,-3.5872109768,-0.1189258975,1.2522649549,4.7427702748,1.4979993657,3.1323609915,-3.378760371,0.5011898558,4.3002769229,1.5172822298,1.8264595438,-4.4447789685,-0.5029617187,-0.4557310513,5.6668642682,-2.9402128671,11.4146069065,-0.2891632357,-0.5339265044,-0.8810544802,-3.8778401548,3.7265665229,-5.5408810316,-0.7384956359,-0.1263353176,-0.4175499312,10.3575947823,1.0769579997,0.1050417137,0.4557835065,-0.6645400893,0.1563353625,2.9502685942,0.607711094,-3.4641399422,0.5480627801,-1.0230448585,3.2435834677,-0.3384235159,-9.7551316999,6.7354419996,-0.7217430902
biasActivation=1,1,1,1,1,1,1
[BASIC:ACTIVATION]
"org.encog.engine.network.activation.ActivationSigmoid"
"org.encog.engine.network.activation.ActivationSigmoid"
"org.encog.engine.network.activation.ActivationSigmoid"
"org.encog.engine.network.activation.ActivationSigmoid"
"org.encog.engine.network.activation.ActivationSigmoid"
"org.encog.engine.network.activation.ActivationSigmoid"
"org.encog.engine.network.activation.ActivationLinear"
